~o
<STREAMINFO> 1 39
<VECSIZE> 39<NULLD><MFCC_D_A_0><DIAGC>
~s "silst"
<MEAN> 39
 -8.991475e+000 -3.849416e+000 -3.588065e+000 -5.256255e+000 -2.431610e+000 -2.521583e+000 -4.518625e-002 -2.511462e+000 2.765868e+000 -3.342157e+000 -2.777659e+000 -2.942384e+000 4.375656e+001 -1.225544e-002 2.185394e-002 -8.505376e-003 -1.656785e-003 -2.701124e-002 -3.022293e-002 8.632656e-003 2.122142e-002 1.687906e-002 -9.399052e-003 -2.048760e-002 -4.624579e-003 -2.529094e-002 7.789853e-004 -4.150809e-003 7.294646e-003 1.521774e-003 1.452361e-002 6.555217e-003 -1.878264e-003 -1.539566e-003 -9.833578e-003 -2.867186e-003 4.264430e-003 5.704932e-003 9.129112e-003
<VARIANCE> 39
 1.058715e+000 2.663490e+000 4.899478e+000 5.948161e+000 7.667452e+000 9.356993e+000 1.101192e+001 1.244651e+001 1.272646e+001 1.219913e+001 1.260269e+001 1.192919e+001 1.670515e+000 9.320029e-002 2.155663e-001 3.831428e-001 5.889629e-001 7.883610e-001 9.441568e-001 1.114027e+000 1.284733e+000 1.263769e+000 1.279310e+000 1.273739e+000 1.204538e+000 3.398504e-002 1.887988e-002 4.342147e-002 7.772368e-002 1.196014e-001 1.603613e-001 1.933536e-001 2.277590e-001 2.619987e-001 2.600933e-001 2.655572e-001 2.616582e-001 2.486859e-001 5.838092e-003
<GCONST> 5.941903e+001
~h "a"
<BEGINHMM>
<NUMSTATES> 5
<STATE> 2
<MEAN> 39
 -6.337512e+000 -2.593111e+001 -6.886802e+000 -1.709517e+001 7.823470e+000 -1.059505e+001 -4.398350e+000 -7.131965e+000 -1.251700e+001 -6.542775e+000 -9.533177e+000 4.770232e+000 7.741709e+001 -3.217517e-001 -1.575281e+000 1.593230e-001 1.144293e+000 1.665215e+000 2.401785e-001 -1.154580e-002 -9.271444e-001 -5.280574e-001 8.107784e-001 2.243489e-001 3.134314e-001 8.551354e-001 4.156833e-002 7.935255e-001 2.453434e-001 2.188945e-001 -6.766742e-001 -1.626284e-001 -2.383286e-001 1.118040e-001 5.278966e-001 -1.611652e-002 1.627934e-001 -4.291719e-001 -5.442625e-001
<VARIANCE> 39
 5.245233e+000 1.581266e+001 1.305592e+001 2.301007e+001 4.029193e+001 3.036799e+001 4.066631e+001 3.368669e+001 5.038749e+001 2.571168e+001 2.964691e+001 2.516502e+001 8.030881e+000 6.136870e-001 1.958436e+000 1.149518e+000 2.078518e+000 3.457756e+000 2.430267e+000 2.843425e+000 4.713234e+000 4.028625e+000 2.194452e+000 2.312254e+000 2.630893e+000 1.612210e+000 1.596103e-001 3.458973e-001 2.385398e-001 6.798741e-001 5.248258e-001 4.741129e-001 6.655525e-001 6.282502e-001 6.987121e-001 4.962105e-001 4.905109e-001 4.609825e-001 2.868304e-001
<GCONST> 1.114653e+002
<STATE> 3
<MEAN> 39
 -6.861064e+000 -2.794616e+001 -5.729105e+000 -1.330696e+001 8.683480e+000 -1.091749e+001 -7.703376e+000 -8.694808e+000 -9.490277e+000 -5.587646e+000 -8.830927e+000 3.789147e+000 7.803725e+001 -3.642581e-002 2.720179e-001 -4.881524e-002 -2.600221e-001 -3.201662e-001 -1.247530e-001 3.713672e-001 -3.408638e-001 1.488722e-001 -4.079483e-001 2.178084e-001 8.182518e-003 -9.926720e-002 4.281728e-002 2.470209e-001 -4.329791e-002 -2.839542e-001 -1.991472e-001 -1.195937e-002 1.239492e-001 1.818853e-002 -1.822538e-002 -1.428300e-001 -2.972773e-002 -2.363107e-002 -9.739838e-002
<VARIANCE> 39
 6.214790e+000 8.644292e+000 1.188328e+001 1.400040e+001 1.831667e+001 3.419599e+001 4.148610e+001 2.859770e+001 2.454431e+001 2.118830e+001 1.581601e+001 2.200540e+001 3.208483e+000 1.847392e-001 6.673588e-001 5.257065e-001 1.135553e+000 1.014623e+000 1.049936e+000 1.813616e+000 1.190358e+000 1.451885e+000 9.396338e-001 7.460960e-001 8.090879e-001 1.174895e-001 3.938420e-002 1.158282e-001 9.784488e-002 1.745865e-001 1.687744e-001 1.864759e-001 2.022261e-001 2.178744e-001 2.170397e-001 1.662666e-001 1.270824e-001 1.438399e-001 2.381882e-002
<GCONST> 7.635237e+001
<STATE> 4
<MEAN> 39
 -6.480022e+000 -2.046578e+001 -5.970292e+000 -1.739276e+001 3.377621e+000 -1.048717e+001 -2.621509e+000 -1.080797e+001 -8.750465e+000 -1.151526e+001 -7.254274e+000 6.482478e-001 7.261620e+001 2.468074e-001 1.769934e+000 1.363176e-001 -9.455180e-001 -1.367891e+000 -3.669083e-001 4.680704e-002 5.457575e-001 7.043147e-001 6.363889e-002 -2.477302e-001 -5.747180e-001 -1.272917e+000 5.316367e-002 2.351146e-001 1.850583e-001 2.910428e-001 -4.453773e-002 -9.386882e-002 -5.048587e-001 2.834317e-002 8.009440e-002 2.842537e-001 -6.691644e-002 -1.104786e-001 -2.827123e-001
<VARIANCE> 39
 8.988459e+000 2.355202e+001 2.238787e+001 8.126866e+001 3.732559e+001 4.579565e+001 6.939761e+001 3.241388e+001 4.287169e+001 4.088987e+001 3.114058e+001 5.798923e+001 5.578081e+001 9.040002e-001 1.658725e+000 1.404647e+000 3.581801e+000 2.801835e+000 2.557731e+000 3.277340e+000 2.456141e+000 2.816853e+000 3.694236e+000 2.414148e+000 2.808342e+000 9.666672e-001 1.119604e-001 3.031941e-001 2.088851e-001 6.100266e-001 4.078481e-001 5.406731e-001 6.185991e-001 5.193777e-001 6.690977e-001 4.400181e-001 4.635080e-001 4.450914e-001 1.581936e-001
<GCONST> 1.162529e+002
<TRANSP> 5
 0.000000e+000 1.000000e+000 0.000000e+000 0.000000e+000 0.000000e+000
 0.000000e+000 6.944663e-001 3.055336e-001 0.000000e+000 0.000000e+000
 0.000000e+000 0.000000e+000 8.644261e-001 1.355738e-001 0.000000e+000
 0.000000e+000 0.000000e+000 0.000000e+000 7.611858e-001 2.388141e-001
 0.000000e+000 0.000000e+000 0.000000e+000 0.000000e+000 0.000000e+000
<ENDHMM>
~h "b"
<BEGINHMM>
<NUMSTATES> 5
<STATE> 2
<MEAN> 39
 -9.250885e-001 -5.912134e+000 6.113507e-001 -1.315079e+001 -1.952438e+000 -1.241670e+001 -1.260828e+001 -9.197273e+000 -9.384754e+000 -5.037251e+000 -1.243005e+001 -5.401751e+000 5.965348e+001 1.195568e+000 1.551680e+000 3.805379e-001 2.293300e+000 1.167836e+000 9.398655e-001 -8.353854e-001 -1.289589e+000 3.589277e-004 -1.144469e+000 1.168852e-001 -1.917867e+000 -2.326750e+000 -2.310048e-001 -8.320388e-003 -1.237641e-001 -3.495163e-001 -3.026277e-001 7.125864e-002 1.318891e-002 -1.866558e-002 -8.142570e-002 7.426069e-002 8.362534e-002 2.919595e-002 3.224232e-001
<VARIANCE> 39
 1.678494e+001 4.352383e+001 3.820590e+001 5.529475e+001 5.416250e+001 6.999756e+001 7.420605e+001 3.473146e+001 5.823786e+001 3.859650e+001 4.973188e+001 4.488103e+001 7.361332e+001 1.130198e+000 2.269551e+000 1.907961e+000 4.205854e+000 2.813260e+000 2.933559e+000 4.420993e+000 3.418051e+000 4.419301e+000 3.163919e+000 3.468119e+000 4.035862e+000 5.167020e+000 2.088467e-001 3.033863e-001 2.233797e-001 6.543993e-001 4.991943e-001 4.937721e-001 6.698748e-001 4.961405e-001 6.893262e-001 5.809433e-001 6.321520e-001 5.956303e-001 4.228824e-001
<GCONST> 1.265818e+002
<STATE> 3
<MEAN> 39
 1.266803e+000 -1.817715e+000 9.593918e-001 -9.046365e+000 -5.928997e-001 -1.078160e+001 -1.403283e+001 -1.263594e+001 -1.049449e+001 -7.581463e+000 -1.162896e+001 -8.844626e+000 5.423527e+001 5.152379e-001 5.843849e-001 -2.081255e-001 2.742711e-001 -1.098436e-001 4.227662e-002 -6.363364e-001 -1.123475e+000 -1.403176e-001 -2.496881e-001 -1.512785e-001 -7.425365e-001 -2.542703e-001 -2.028537e-001 -7.073789e-001 -3.912081e-001 -1.015595e+000 -2.516367e-001 -2.364509e-001 2.492492e-001 4.197980e-001 1.978532e-001 5.126151e-001 -1.437651e-002 5.825573e-001 1.211196e+000
<VARIANCE> 39
 6.748120e+000 2.563149e+001 2.715969e+001 3.731069e+001 2.791575e+001 4.524707e+001 5.364833e+001 2.698922e+001 4.005433e+001 3.379803e+001 3.506399e+001 4.383955e+001 1.004697e+001 8.588105e-001 1.016935e+000 1.046599e+000 2.076381e+000 1.786240e+000 2.317284e+000 3.377953e+000 2.880433e+000 2.436664e+000 2.534524e+000 2.298832e+000 2.959695e+000 2.079821e+000 1.238088e-001 3.787445e-001 3.089437e-001 4.535811e-001 4.319322e-001 4.039134e-001 7.826440e-001 6.209909e-001 6.613470e-001 5.612274e-001 6.440158e-001 8.049569e-001 3.260265e-001
<GCONST> 1.135715e+002
<STATE> 4
<MEAN> 39
 1.903501e+000 -6.249994e+000 -3.460045e+000 -1.385377e+001 -8.501096e-001 -1.119208e+001 -1.386308e+001 -1.235728e+001 -8.047190e+000 -5.191816e+000 -1.216017e+001 -7.936188e+000 6.190448e+001 -7.755392e-001 -3.968360e+000 -1.823852e+000 -3.599614e+000 4.809659e-001 2.728138e-001 1.912466e+000 2.054554e+000 4.286176e-001 1.120305e+000 -4.363270e-001 1.880236e+000 5.183031e+000 -5.784347e-001 -7.992405e-001 4.566772e-002 -3.527642e-001 3.949250e-001 4.159252e-001 5.767800e-001 6.855518e-001 -3.326890e-001 9.114827e-004 -4.327417e-003 7.179594e-001 5.152670e-001
<VARIANCE> 39
 7.824010e+000 7.925337e+001 4.074880e+001 7.386499e+001 2.967778e+001 3.737084e+001 5.314242e+001 5.868834e+001 5.154771e+001 4.434774e+001 3.685358e+001 5.763971e+001 8.690866e+001 1.769426e+000 7.342099e+000 3.185168e+000 5.587241e+000 6.235057e+000 4.006859e+000 8.094841e+000 6.068802e+000 6.458284e+000 4.978058e+000 5.959277e+000 7.059837e+000 3.274236e+000 2.141436e-001 1.308460e+000 7.836122e-001 1.944775e+000 6.922818e-001 5.150282e-001 1.520619e+000 1.417664e+000 1.169326e+000 1.035661e+000 9.047944e-001 1.211186e+000 1.786292e+000
<GCONST> 1.417346e+002
<TRANSP> 5
 0.000000e+000 1.000000e+000 0.000000e+000 0.000000e+000 0.000000e+000
 0.000000e+000 4.424844e-001 5.575156e-001 0.000000e+000 0.000000e+000
 0.000000e+000 0.000000e+000 6.572682e-001 3.427318e-001 0.000000e+000
 0.000000e+000 0.000000e+000 0.000000e+000 6.781297e-001 3.218704e-001
 0.000000e+000 0.000000e+000 0.000000e+000 0.000000e+000 0.000000e+000
<ENDHMM>
~h "c"
<BEGINHMM>
<NUMSTATES> 5
<STATE> 2
<MEAN> 39
 -5.408662e+000 -6.279665e+000 -3.812555e+000 -1.026394e+001 1.228165e+000 -5.157497e+000 -5.555901e+000 -3.888244e+000 -2.027430e+000 -2.801879e+000 -5.301047e+000 -3.387721e+000 5.099303e+001 -7.876637e-001 -2.971928e-001 -3.904336e-001 7.298412e-001 -4.258532e-002 4.232475e-001 9.074560e-001 3.618950e-001 8.610282e-001 2.534785e-001 6.428159e-001 -1.532193e-001 -1.083850e+000 3.544235e-002 7.965300e-002 -1.768636e-001 -3.043239e-001 -2.840254e-002 -3.511129e-001 -2.477905e-001 -2.125410e-002 -1.227346e-001 1.820108e-001 6.200454e-002 2.820920e-001 8.364592e-001
<VARIANCE> 39
 1.305558e+001 2.756835e+001 2.920578e+001 4.272240e+001 4.141412e+001 4.050780e+001 4.024929e+001 3.892451e+001 3.434899e+001 4.195315e+001 4.386110e+001 3.977007e+001 1.520368e+001 8.822256e-001 1.901877e+000 1.880796e+000 2.844547e+000 2.795033e+000 2.952892e+000 3.248168e+000 2.932855e+000 3.276124e+000 3.228336e+000 3.028013e+000 2.851138e+000 2.621024e+000 2.037768e-001 4.101727e-001 4.000567e-001 6.655980e-001 7.331830e-001 5.759022e-001 6.645523e-001 7.152431e-001 6.787704e-001 6.875752e-001 5.328199e-001 5.462933e-001 5.630549e-001
<GCONST> 1.209883e+002
<STATE> 3
<MEAN> 39
 -8.052221e+000 -6.642544e+000 -5.281240e+000 -7.374702e+000 1.502492e+000 -5.173571e+000 -2.788941e+000 -2.379299e+000 4.077661e-001 -1.943485e+000 -2.742463e+000 -2.949526e+000 5.042994e+001 -1.662491e-001 9.397758e-002 -1.379629e+000 -2.653744e-001 8.822793e-001 -1.436307e+000 2.212845e-001 5.831072e-001 2.282352e-001 1.030436e+000 7.397258e-001 8.615486e-001 3.308137e+000 5.442909e-001 1.695616e-001 1.459488e-002 -1.173599e+000 -3.068724e-001 -4.846557e-001 -6.017637e-001 -2.820236e-001 -6.070238e-001 -1.647680e-001 -6.658134e-001 2.203842e-001 1.238572e+000
<VARIANCE> 39
 1.272569e+001 2.551715e+001 2.638599e+001 3.040802e+001 4.546421e+001 3.670827e+001 3.564284e+001 2.908020e+001 2.698291e+001 3.422256e+001 2.650656e+001 2.245909e+001 2.703170e+001 2.075171e+000 3.533568e+000 4.430707e+000 6.418995e+000 8.363052e+000 5.097921e+000 5.538932e+000 4.926863e+000 3.968752e+000 5.198413e+000 3.559930e+000 3.554257e+000 7.614486e+000 3.277726e-001 3.948107e-001 4.816631e-001 1.189044e+000 7.294736e-001 6.981835e-001 8.786256e-001 6.361188e-001 6.069559e-001 7.426445e-001 7.292259e-001 6.209953e-001 7.123417e-001
<GCONST> 1.292327e+002
<STATE> 4
<MEAN> 39
 -5.649967e+000 -6.171521e+000 -8.874739e+000 -1.441064e+001 2.159566e+000 -1.063919e+001 -5.264065e+000 -2.341522e+000 -1.386388e+000 4.857714e-001 -4.353974e+000 -1.394249e-001 6.476830e+001 1.162063e+000 -2.208742e-001 -1.312447e-001 -4.422090e+000 -8.859518e-001 -7.073538e-001 -1.251834e+000 -7.492157e-001 -1.620529e+000 -2.946776e-001 -2.324570e+000 4.267828e-001 3.786644e+000 -2.749876e-002 -3.723766e-001 4.685512e-001 -3.504924e-001 -1.169258e-001 7.810475e-001 -1.369478e-001 -3.279664e-001 -4.956141e-001 -6.064793e-001 -5.703027e-001 -4.376282e-001 -6.126800e-001
<VARIANCE> 39
 2.533598e+001 4.184027e+001 3.411950e+001 1.270546e+002 7.721830e+001 6.332239e+001 7.660435e+001 3.921666e+001 3.470685e+001 4.305997e+001 5.665418e+001 3.579629e+001 7.679313e+001 2.356172e+000 5.003144e+000 3.505814e+000 1.133328e+001 5.389635e+000 6.941965e+000 9.001042e+000 4.605981e+000 4.345593e+000 5.245401e+000 5.668008e+000 4.732822e+000 6.332286e+000 4.517651e-001 4.873126e-001 6.474603e-001 2.427268e+000 1.528801e+000 1.085026e+000 1.551033e+000 8.873876e-001 8.727427e-001 9.098978e-001 1.424204e+000 6.817666e-001 7.822170e-001
<GCONST> 1.438020e+002
<TRANSP> 5
 0.000000e+000 1.000000e+000 0.000000e+000 0.000000e+000 0.000000e+000
 0.000000e+000 7.377222e-001 2.622778e-001 0.000000e+000 0.000000e+000
 0.000000e+000 0.000000e+000 4.188218e-001 5.811781e-001 0.000000e+000
 0.000000e+000 0.000000e+000 0.000000e+000 5.444372e-001 4.555628e-001
 0.000000e+000 0.000000e+000 0.000000e+000 0.000000e+000 0.000000e+000
<ENDHMM>
~h "d"
<BEGINHMM>
<NUMSTATES> 5
<STATE> 2
<MEAN> 39
 -9.429052e+000 2.373073e+000 -4.079690e+000 -5.527475e+000 -5.743282e+000 -1.659753e+001 -9.306396e+000 -1.164824e+001 -8.872357e+000 -1.092036e+001 -8.607399e+000 -7.662601e-001 6.327655e+001 -1.959789e+000 2.055491e+000 -1.029945e+000 2.590400e+000 -6.728818e-002 4.457218e-001 4.767710e-001 -9.576107e-001 5.170669e-002 -8.392615e-001 2.396823e-001 -1.273417e+000 -2.125451e-001 -2.496505e-001 -2.483847e-001 -1.002671e-001 -1.278723e-001 1.386274e-001 4.478534e-001 3.220752e-001 3.573758e-001 2.359435e-002 3.051029e-001 6.007408e-002 -1.241092e-001 1.169550e-001
<VARIANCE> 39
 2.855703e+001 4.054075e+001 3.164456e+001 6.216318e+001 3.677160e+001 5.186189e+001 5.515120e+001 3.234711e+001 4.409867e+001 4.233482e+001 3.975639e+001 5.300343e+001 3.582988e+001 2.184890e+000 1.923633e+000 2.493197e+000 3.972023e+000 3.658551e+000 6.214787e+000 6.329560e+000 3.748918e+000 3.646154e+000 4.186066e+000 3.933025e+000 3.852217e+000 2.664575e+000 3.310129e-001 3.975996e-001 5.025373e-001 8.075679e-001 6.251630e-001 8.634740e-001 8.889629e-001 7.276629e-001 6.392333e-001 8.649246e-001 7.121082e-001 8.250061e-001 1.906069e-001
<GCONST> 1.297986e+002
<STATE> 3
<MEAN> 39
 -1.971394e+001 6.129276e+000 -8.024711e+000 1.595284e+000 -4.035609e+000 -1.101635e+001 -4.151750e+000 -1.031615e+001 -7.848017e+000 -9.008487e+000 -5.928296e+000 -3.994544e+000 6.355954e+001 -7.820226e-002 -4.104747e-001 1.368649e-001 -7.689046e-001 -1.731276e-001 -4.246054e-001 -1.984861e-001 2.411342e-001 3.679886e-001 5.218833e-001 2.281827e-001 6.504074e-001 6.176183e-001 9.757873e-001 -6.885536e-001 3.317067e-001 -1.175761e+000 -1.307996e-001 -6.364470e-001 -6.340836e-001 2.421919e-001 8.290282e-003 -1.190482e-003 -4.024087e-001 5.137569e-001 4.041363e-001
<VARIANCE> 39
 1.956656e+001 2.150302e+001 2.204882e+001 2.284414e+001 2.670440e+001 4.584544e+001 3.411981e+001 3.312400e+001 3.378514e+001 3.992989e+001 3.120664e+001 2.952682e+001 6.821877e+000 5.823197e+000 1.861201e+000 2.123473e+000 4.974736e+000 2.741520e+000 5.968598e+000 5.204733e+000 2.660340e+000 3.010637e+000 2.464673e+000 2.992470e+000 3.071159e+000 9.305085e-001 4.164746e-001 4.175389e-001 3.592014e-001 4.887353e-001 5.016817e-001 8.458132e-001 8.956469e-001 7.575993e-001 6.350340e-001 6.076546e-001 8.728429e-001 5.060479e-001 1.205718e-001
<GCONST> 1.197295e+002
<STATE> 4
<MEAN> 39
 -8.874807e+000 -2.587234e+000 -4.473887e+000 -1.559841e+001 -6.424299e+000 -1.925964e+001 -1.307453e+001 -5.617917e+000 -6.220846e+000 -7.347122e+000 -1.133184e+001 1.832343e+000 7.077985e+001 2.357538e+000 -4.371246e+000 4.524688e-001 -5.045341e+000 9.164297e-001 -5.672737e-001 -8.174451e-001 3.017268e+000 -4.680329e-001 6.740351e-001 -2.531515e+000 1.086606e+000 2.570525e+000 -5.882712e-001 -2.945430e-001 -2.180183e-001 4.318047e-001 6.555790e-001 1.097818e+000 8.551413e-001 7.676204e-002 -4.661958e-001 1.072764e-001 1.962949e-002 -6.183255e-001 -8.545323e-002
<VARIANCE> 39
 1.859061e+001 6.547515e+001 2.906523e+001 8.962185e+001 5.532942e+001 4.429067e+001 6.248640e+001 7.732736e+001 4.387383e+001 3.629245e+001 4.739345e+001 4.710118e+001 1.766800e+001 3.736301e+000 3.059563e+000 2.749384e+000 5.565150e+000 6.888226e+000 8.700281e+000 1.387711e+001 7.100895e+000 6.870516e+000 5.347270e+000 5.200003e+000 4.678354e+000 7.638259e-001 5.649317e-001 1.040364e+000 3.398470e-001 1.483196e+000 8.477773e-001 1.033061e+000 1.297880e+000 2.106294e+000 1.106924e+000 8.943751e-001 1.355376e+000 6.067541e-001 2.388043e-001
<GCONST> 1.392820e+002
<TRANSP> 5
 0.000000e+000 1.000000e+000 0.000000e+000 0.000000e+000 0.000000e+000
 0.000000e+000 7.493609e-001 2.506391e-001 0.000000e+000 0.000000e+000
 0.000000e+000 0.000000e+000 8.046217e-001 1.953783e-001 0.000000e+000
 0.000000e+000 0.000000e+000 0.000000e+000 6.814908e-001 3.185092e-001
 0.000000e+000 0.000000e+000 0.000000e+000 0.000000e+000 0.000000e+000
<ENDHMM>
~h "e"
<BEGINHMM>
<NUMSTATES> 5
<STATE> 2
<MEAN> 39
 -6.816600e+000 -1.008611e+001 -3.807533e+000 -2.290548e+001 -9.582603e+000 -1.655491e+001 -1.511884e+000 -4.107062e+000 -9.757713e+000 -7.267871e+000 -8.293127e+000 4.615522e+000 7.175692e+001 1.837615e-001 -2.939898e+000 -1.100055e+000 -3.358916e+000 4.419672e-001 -1.500321e+000 2.888462e+000 6.648377e-001 -1.438084e+000 -4.275427e-002 -1.662009e+000 1.554100e-001 2.662878e+000 -5.955207e-001 -1.747959e-002 -8.219282e-002 1.296238e+000 8.376326e-001 1.240671e+000 4.803795e-001 -2.279285e-001 9.012440e-002 -7.706680e-002 3.539184e-001 -4.642152e-001 -2.461062e-001
<VARIANCE> 39
 6.392323e+000 3.461150e+001 2.202566e+001 2.760095e+001 1.098207e+001 4.840184e+001 2.950980e+001 4.558252e+001 3.390397e+001 3.972728e+001 7.020618e+001 5.280955e+001 1.187527e+001 4.313534e+000 2.953686e+000 2.105422e+000 5.336170e+000 6.776309e+000 8.702431e+000 5.128784e+000 6.760368e+000 4.755067e+000 8.578893e+000 4.984972e+000 3.417097e+000 1.600628e+000 7.656869e-001 6.363583e-001 2.577252e-001 9.866353e-001 1.010327e+000 8.366227e-001 1.318556e+000 1.324745e+000 6.580524e-001 1.555880e+000 4.978121e-001 6.628541e-001 3.209543e-001
<GCONST> 1.305454e+002
<STATE> 3
<MEAN> 39
 -7.903032e+000 -1.481127e+001 -4.378467e+000 -2.333877e+001 -6.504054e+000 -1.230886e+001 5.183540e+000 -5.605205e+000 -1.258567e+001 -8.638015e+000 -8.710390e+000 7.611256e-001 7.528013e+001 -4.667631e-001 -1.758729e+000 -8.771830e-001 -1.271085e-001 1.112015e+000 7.474161e-001 1.898912e+000 -5.672739e-001 -1.176721e+000 -6.272496e-002 -9.767580e-003 1.642458e-001 1.153123e+000 -7.152578e-002 2.846459e-001 2.413663e-001 7.672880e-001 2.569023e-001 2.237847e-001 -6.850550e-001 -2.534141e-001 9.674402e-002 1.336303e-001 1.907097e-001 2.363852e-001 -4.528233e-001
<VARIANCE> 39
 3.392347e+000 1.331672e+001 9.569766e+000 1.526148e+001 1.707855e+001 1.797319e+001 2.883618e+001 5.088575e+001 3.701571e+001 3.507585e+001 4.384512e+001 2.619554e+001 5.205334e+000 3.774778e-001 1.786907e+000 1.133262e+000 2.691726e+000 2.685082e+000 5.940203e+000 2.605632e+000 3.296673e+000 2.816906e+000 2.321339e+000 2.968349e+000 2.165190e+000 3.821617e-001 1.949810e-001 4.072768e-001 1.649200e-001 4.359829e-001 6.852664e-001 5.441201e-001 7.002898e-001 1.243289e+000 5.019496e-001 6.654590e-001 6.581613e-001 3.747779e-001 1.954732e-001
<GCONST> 1.073532e+002
<STATE> 4
<MEAN> 39
 -9.031974e+000 -1.796347e+001 -5.349081e+000 -2.368517e+001 -3.990118e+000 -1.183475e+001 5.131300e+000 -8.910796e+000 -1.393261e+001 -5.820004e+000 -1.007580e+001 2.503902e+000 7.726325e+001 1.570380e-001 2.270336e-001 1.191805e-001 -8.405733e-002 3.390981e-002 -4.988507e-001 -6.350181e-001 -5.651567e-002 4.218981e-001 1.241530e-001 -1.932926e-001 5.210140e-003 -1.990606e-001 1.374265e-001 3.139208e-001 7.830568e-002 5.117863e-002 -3.800565e-002 -1.512782e-001 -3.044745e-001 6.589988e-002 1.651689e-001 -9.438878e-002 -1.699387e-002 -7.144336e-002 -2.561738e-001
<VARIANCE> 39
 1.920930e+000 1.271853e+001 8.103822e+000 1.280949e+001 3.682631e+001 2.914538e+001 2.835669e+001 2.988670e+001 3.834000e+001 2.753754e+001 3.009252e+001 1.799377e+001 2.866998e+000 3.708570e-001 1.364088e+000 7.642782e-001 1.060171e+000 1.901808e+000 2.045902e+000 1.895315e+000 2.652501e+000 2.062115e+000 1.302498e+000 1.218045e+000 1.017191e+000 5.061652e-001 4.682199e-002 1.493658e-001 1.042906e-001 3.466794e-001 2.293504e-001 2.814656e-001 3.469883e-001 4.894247e-001 4.223785e-001 2.947304e-001 1.987637e-001 2.198818e-001 9.638976e-002
<GCONST> 8.979996e+001
<TRANSP> 5
 0.000000e+000 1.000000e+000 0.000000e+000 0.000000e+000 0.000000e+000
 0.000000e+000 3.616009e-001 6.383991e-001 0.000000e+000 0.000000e+000
 0.000000e+000 0.000000e+000 5.859838e-001 4.140162e-001 0.000000e+000
 0.000000e+000 0.000000e+000 0.000000e+000 9.043677e-001 9.563218e-002
 0.000000e+000 0.000000e+000 0.000000e+000 0.000000e+000 0.000000e+000
<ENDHMM>
~h "f"
<BEGINHMM>
<NUMSTATES> 5
<STATE> 2
<MEAN> 39
 -1.317460e+001 -1.424282e+000 1.132340e+001 -2.516598e+001 -1.199726e+001 -8.943724e+000 -1.879233e+001 -1.154872e+001 -1.694426e+001 4.184676e-002 -1.657946e+001 -1.802314e+000 7.293665e+001 1.113097e-002 2.144685e-002 8.467584e-001 -5.726374e-001 1.573355e-001 6.021323e-001 -6.490393e-001 8.440779e-002 -3.884179e-003 3.093887e-001 -7.989994e-001 -2.318305e-001 1.318373e-001 2.413182e-002 4.974569e-002 -2.044511e-001 3.522817e-001 7.220007e-002 -9.817261e-002 1.862397e-001 -1.093779e-002 1.606714e-001 -1.579967e-001 2.416841e-001 1.502317e-001 -1.655861e-001
<VARIANCE> 39
 3.496282e+000 1.192473e+001 1.931543e+001 1.988093e+001 6.646938e+001 1.396716e+001 3.758639e+001 2.885202e+001 1.703374e+001 1.796210e+001 8.396590e+001 6.237718e+001 2.475783e+000 4.571402e-001 6.398514e-001 1.537357e+000 2.270936e+000 1.860657e+000 1.459284e+000 2.090941e+000 1.765560e+000 1.593903e+000 2.192919e+000 3.994720e+000 1.233316e+000 3.366950e-001 1.005593e-001 1.429600e-001 1.384923e-001 2.427184e-001 3.007196e-001 1.744242e-001 3.149311e-001 2.694477e-001 2.790212e-001 3.730532e-001 2.991565e-001 2.126144e-001 4.541815e-002
<GCONST> 9.329852e+001
<STATE> 3
<MEAN> 39
 -8.380097e+000 -1.917012e+000 1.436187e+001 -2.003445e+001 -1.011532e+001 -9.507583e+000 -1.407436e+001 -1.218993e+001 -1.082869e+001 -1.237133e+000 -1.696809e+001 -2.220385e-001 6.649643e+001 5.551484e-001 1.716315e-001 -2.225784e-001 7.450702e-001 1.573419e+000 -1.320935e-001 1.790112e+000 8.375691e-001 2.531849e+000 -8.144435e-001 8.806963e-001 5.399421e-001 -2.223182e+000 -2.032795e-001 -1.101916e-001 -3.332853e-001 -5.297404e-001 1.280014e-001 1.827571e-001 -8.944681e-002 3.246039e-001 3.847240e-001 2.995748e-001 1.206987e-001 -2.699128e-002 -1.133013e-001
<VARIANCE> 39
 2.675331e+000 1.970105e+001 1.031685e+001 3.466706e+001 2.465187e+001 3.952966e+001 3.523222e+001 2.947219e+001 4.329554e+001 8.685433e+001 1.031442e+002 5.840129e+001 4.315219e+001 5.864644e-001 8.177192e-001 6.880322e-001 6.429659e+000 1.120346e+000 3.535131e+000 1.509896e+000 1.107666e+000 2.208948e+000 3.543910e+000 2.316190e+000 4.809083e+000 5.878296e+000 1.111590e-001 2.303116e-001 1.346899e-001 9.219971e-001 3.025916e-001 2.140525e-001 5.237636e-001 1.098844e-001 6.253375e-001 8.517053e-001 5.792189e-001 8.117294e-001 7.755080e-001
<GCONST> 1.119496e+002
<STATE> 4
<MEAN> 39
 -8.364854e+000 -1.897831e+000 1.169290e+001 -1.956808e+001 -6.074017e+000 -3.562552e+000 -9.352407e+000 -5.948343e+000 5.005276e-001 1.796557e+000 -1.251656e+001 -3.997290e+000 5.371180e+001 -6.440089e-001 -1.406078e+000 -2.291661e+000 -5.107474e-001 8.474390e-001 -2.857662e-001 4.073490e-001 6.760902e-001 7.444211e-001 7.619030e-001 1.675949e+000 9.654595e-001 -6.244504e-001 -3.618008e-001 -1.238930e-001 -7.444040e-001 8.198701e-001 4.397291e-001 -6.326021e-001 1.502615e-001 -5.079407e-001 -7.922874e-001 -5.298194e-001 3.744992e-001 -1.375877e-001 1.616235e+000
<VARIANCE> 39
 2.852659e+000 1.024651e+001 1.514074e+001 4.774758e+001 2.148475e+000 6.873078e+001 2.403031e+001 2.043757e+001 7.216295e+000 4.417045e+001 4.969053e+001 1.073172e+002 5.836579e+001 5.573103e-001 7.104300e-001 1.412103e+000 3.147494e+000 1.215216e+000 1.087901e+000 1.231692e+000 1.749660e+000 2.093175e+000 2.695787e+000 4.628094e+000 1.700650e+000 2.838169e+000 3.402231e-001 2.943143e-001 2.741527e-001 4.744879e-001 8.526111e-001 4.629574e-001 4.279270e-001 1.602326e-001 4.249068e-001 3.572749e-001 3.305153e-001 7.855081e-001 4.699408e-001
<GCONST> 1.057497e+002
<TRANSP> 5
 0.000000e+000 1.000000e+000 0.000000e+000 0.000000e+000 0.000000e+000
 0.000000e+000 9.354945e-001 6.450552e-002 0.000000e+000 0.000000e+000
 0.000000e+000 0.000000e+000 8.164367e-001 1.835633e-001 0.000000e+000
 0.000000e+000 0.000000e+000 0.000000e+000 5.806896e-001 4.193104e-001
 0.000000e+000 0.000000e+000 0.000000e+000 0.000000e+000 0.000000e+000
<ENDHMM>
~h "g"
<BEGINHMM>
<NUMSTATES> 5
<STATE> 2
<MEAN> 39
 -9.326871e-001 -5.747769e+000 -1.514627e+000 -2.218834e+001 -3.133354e+000 -1.382866e+001 -1.301836e+001 -7.970289e+000 -9.180589e+000 2.558771e+000 -1.580115e+001 -1.260394e+000 6.446899e+001 -2.834340e-001 5.726127e-001 -2.538818e-001 -3.547510e+000 7.907474e-001 -6.988524e-001 -9.629443e-001 9.344943e-001 -7.139507e-001 1.611544e+000 -4.786510e-001 1.472538e+000 1.266164e+000 -1.438728e-001 -5.013304e-001 -2.912466e-001 2.647946e-001 5.836360e-001 3.152420e-001 3.665611e-001 2.150020e-002 7.243081e-002 -4.577851e-001 4.827156e-001 2.289262e-002 2.879409e-001
<VARIANCE> 39
 1.660530e+001 3.163905e+001 5.405153e+001 7.717240e+001 2.488983e+001 4.189761e+001 7.161666e+001 4.612046e+001 3.172028e+001 4.897171e+001 2.933727e+001 4.603517e+001 6.168160e+001 9.225308e-001 4.088383e+000 3.128469e+000 9.899435e+000 5.254369e+000 4.475772e+000 5.352323e+000 5.407759e+000 7.450973e+000 3.701853e+000 4.125552e+000 2.856812e+000 4.880503e+000 2.110454e-001 2.404283e-001 6.128677e-001 1.503031e+000 5.087507e-001 1.203477e+000 6.012766e-001 1.544206e+000 1.025200e+000 5.864703e-001 4.396637e-001 4.864098e-001 3.693825e-001
<GCONST> 1.319860e+002
<STATE> 3
<MEAN> 39
 -4.053691e+000 -8.505117e+000 -3.098045e+000 -2.862791e+001 6.834825e-001 -1.503668e+001 -1.054181e+001 -4.360243e+000 -8.751572e+000 4.354433e+000 -1.591634e+001 5.075198e+000 7.270339e+001 -2.364369e-001 1.171981e-001 -2.567004e-001 -8.934912e-002 1.437385e+000 5.550118e-001 8.237863e-002 -4.856137e-001 -2.779725e-001 -1.469094e-001 2.932134e-001 6.799762e-001 3.712510e-001 2.081061e-001 -4.072112e-001 -1.005237e-001 7.777853e-001 1.766380e-001 5.439231e-001 2.721033e-001 -6.064678e-001 -2.243217e-002 -6.863990e-001 2.065606e-001 -8.148629e-001 -4.848188e-001
<VARIANCE> 39
 7.543520e+000 2.605530e+001 5.109002e+001 5.670168e+001 4.530973e+001 8.166605e+001 4.638466e+001 2.135489e+001 3.051526e+001 3.824386e+001 6.391365e+001 5.976493e+001 2.593035e+001 1.261249e+000 4.987407e+000 3.198434e+000 3.967314e+000 3.072109e+000 1.031418e+001 8.982714e+000 1.891585e+000 8.384719e-001 3.881732e+000 3.658380e+000 4.120564e+000 6.808316e+000 5.172828e-002 3.706892e-001 3.274721e-001 6.542025e-001 5.627210e-001 5.812898e-001 4.246978e-001 5.536802e-001 1.038298e+000 5.786926e-001 2.971586e-001 5.940357e-001 1.453305e-001
<GCONST> 1.228569e+002
<STATE> 4
<MEAN> 39
 -4.036963e+000 -8.275215e+000 -1.907016e+000 -1.933834e+001 1.720718e+000 -1.880376e+001 -9.715549e+000 -1.110492e+001 -8.537060e+000 -6.876910e-001 -1.908463e+001 2.646220e+000 6.546993e+001 9.521062e-003 -1.346734e-001 -5.478850e-001 -3.376552e-001 4.199755e-001 8.196142e-001 -5.790790e-002 -1.316353e-001 5.306523e-001 -4.077165e-001 2.789963e-002 -8.863735e-001 1.096036e-002 -1.185697e-001 -3.543639e-001 -1.500546e-001 -2.580768e-001 -1.125763e-001 2.971178e-001 3.721953e-001 3.300763e-001 5.375481e-002 -4.459319e-002 2.113680e-002 -3.611590e-002 4.839669e-001
<VARIANCE> 39
 1.347623e+001 1.328387e+001 3.444077e+001 1.025515e+002 4.796045e+001 5.650925e+001 4.513837e+001 2.641693e+001 3.598918e+001 3.723604e+001 4.491354e+001 4.716140e+001 2.996763e+001 1.904472e+000 1.699630e+000 1.740533e+000 7.047566e+000 2.846529e+000 4.478640e+000 8.939869e+000 4.918320e+000 3.156926e+000 4.481637e+000 3.716783e+000 4.263813e+000 6.061131e+000 3.903088e-001 3.316391e-001 4.250442e-001 1.158408e+000 6.582787e-001 9.614950e-001 1.423910e+000 8.427958e-001 7.859157e-001 1.133444e+000 7.885193e-001 1.175713e+000 4.687402e-001
<GCONST> 1.315295e+002
<TRANSP> 5
 0.000000e+000 1.000000e+000 0.000000e+000 0.000000e+000 0.000000e+000
 0.000000e+000 5.563719e-001 4.436281e-001 0.000000e+000 0.000000e+000
 0.000000e+000 0.000000e+000 2.394360e-001 7.605640e-001 0.000000e+000
 0.000000e+000 0.000000e+000 0.000000e+000 7.991310e-001 2.008690e-001
 0.000000e+000 0.000000e+000 0.000000e+000 0.000000e+000 0.000000e+000
<ENDHMM>
~h "h"
<BEGINHMM>
<NUMSTATES> 5
<STATE> 2
<MEAN> 39
 -6.894809e+000 -9.377470e+000 -1.289866e+000 -1.413601e+001 -9.769154e-001 -5.939066e+000 -4.953555e+000 -9.133492e+000 -7.070972e+000 -1.150548e+001 -5.345993e+000 -1.334057e+000 6.771813e+001 -6.638390e-001 -8.249591e-001 -8.970781e-002 1.370247e+000 1.128590e+000 4.628519e-001 -1.515864e-001 -1.242014e+000 1.509213e-001 -1.176167e+000 6.991980e-001 -7.344353e-001 5.778486e-002 5.530183e-002 3.687869e-002 3.011928e-002 -1.276522e-001 -2.976939e-001 -2.453199e-001 -4.897569e-001 2.341078e-003 7.399727e-002 3.296323e-001 -1.571123e-001 -1.796142e-001 4.834722e-002
<VARIANCE> 39
 2.106050e+001 4.948658e+001 6.967710e+001 1.093049e+002 8.077763e+001 6.934337e+001 5.929028e+001 5.479886e+001 4.637948e+001 4.696016e+001 4.610127e+001 4.414664e+001 4.498083e+001 1.324279e+000 2.409777e+000 2.223974e+000 4.393708e+000 4.146535e+000 3.184547e+000 4.169891e+000 4.254811e+000 4.336884e+000 3.506270e+000 3.606385e+000 1.980482e+000 1.014451e+000 1.805124e-001 2.806562e-001 3.699280e-001 6.792116e-001 6.627702e-001 7.885156e-001 7.451721e-001 7.250724e-001 7.305561e-001 7.500629e-001 5.533915e-001 4.395552e-001 1.171482e-001
<GCONST> 1.272025e+002
<STATE> 3
<MEAN> 39
 -1.066122e+001 -1.323936e+001 -1.050882e+000 -8.559475e+000 1.629277e+000 -4.677100e+000 -7.506474e+000 -1.131759e+001 -4.658168e+000 -1.360392e+001 -3.050777e+000 -5.129607e+000 6.618134e+001 2.460930e-002 -3.905797e-001 1.273599e-001 -1.631056e-001 -3.539138e-001 -5.340112e-001 -1.080988e+000 -7.449458e-001 -5.040017e-002 -4.193804e-001 -1.856578e-001 -4.961908e-001 4.368607e-001 4.120025e-001 2.034633e-002 -1.756711e-001 -6.334578e-001 -3.973072e-001 -2.673840e-001 -8.392974e-002 1.851562e-001 -1.145251e-001 2.632035e-001 -2.372158e-001 2.039358e-001 1.404603e-001
<VARIANCE> 39
 2.974979e+001 5.254737e+001 3.774603e+001 4.960130e+001 5.058480e+001 4.272642e+001 3.768676e+001 3.694336e+001 5.210629e+001 4.527391e+001 4.037659e+001 3.172763e+001 3.551656e+001 1.422976e+000 1.154402e+000 1.367501e+000 3.714607e+000 2.727824e+000 2.711910e+000 2.571052e+000 2.808646e+000 3.120303e+000 2.484874e+000 2.443336e+000 2.047869e+000 9.417059e-001 1.771046e-001 1.911352e-001 2.436577e-001 5.247462e-001 4.920244e-001 5.051364e-001 4.037983e-001 6.241213e-001 5.308974e-001 5.573786e-001 4.436814e-001 3.460985e-001 8.322320e-002
<GCONST> 1.158826e+002
<STATE> 4
<MEAN> 39
 -6.084711e+000 -1.508793e+001 -2.768057e+000 -1.491421e+001 -1.944008e+000 -9.821362e+000 -1.150393e+001 -1.435701e+001 -6.522648e+000 -1.408390e+001 -6.006727e+000 -4.750731e+000 7.034792e+001 9.115126e-001 -1.262154e+000 -9.793521e-001 -1.740061e+000 -2.222259e-001 -4.135877e-001 -3.352275e-001 5.850625e-001 -3.107827e-001 1.256954e+000 -8.361138e-001 6.871971e-001 1.184724e+000 -1.704846e-001 -2.836125e-001 -9.058124e-002 3.323594e-002 4.107012e-001 3.873058e-001 3.323055e-001 5.733851e-001 -2.285475e-001 5.562735e-001 -8.969203e-002 2.452382e-001 1.804617e-001
<VARIANCE> 39
 2.037354e+001 6.145594e+001 3.076653e+001 5.190351e+001 3.761543e+001 3.186615e+001 3.714314e+001 2.493129e+001 3.134138e+001 3.356533e+001 3.301498e+001 3.183172e+001 1.728724e+001 1.199742e+000 1.480944e+000 1.496256e+000 2.905880e+000 3.546197e+000 3.407214e+000 2.967149e+000 3.010184e+000 2.997980e+000 2.985401e+000 1.940573e+000 2.247373e+000 9.318650e-001 1.845591e-001 1.506160e-001 2.781157e-001 4.737400e-001 4.991518e-001 3.726986e-001 4.031616e-001 4.566484e-001 4.353160e-001 4.509323e-001 3.244637e-001 3.193051e-001 8.812033e-002
<GCONST> 1.118829e+002
<TRANSP> 5
 0.000000e+000 1.000000e+000 0.000000e+000 0.000000e+000 0.000000e+000
 0.000000e+000 5.195823e-001 4.804176e-001 0.000000e+000 0.000000e+000
 0.000000e+000 0.000000e+000 6.704841e-001 3.295159e-001 0.000000e+000
 0.000000e+000 0.000000e+000 0.000000e+000 6.750770e-001 3.249231e-001
 0.000000e+000 0.000000e+000 0.000000e+000 0.000000e+000 0.000000e+000
<ENDHMM>
~h "i"
<BEGINHMM>
<NUMSTATES> 5
<STATE> 2
<MEAN> 39
 -7.206844e+000 -1.169520e+001 5.929773e-001 -2.383995e+001 -1.110535e+001 -1.494963e+001 -5.631494e+000 -2.753634e-001 -9.527308e+000 8.265727e-001 -1.256112e+001 -8.001598e-001 7.589394e+001 -2.999075e-001 1.115810e+000 1.690242e+000 -3.482982e-001 -1.956553e+000 -5.663797e-001 -6.948521e-001 -7.186732e-001 -9.802617e-001 1.031003e+000 5.546774e-001 2.308273e-001 -6.201293e-001 6.603783e-002 -2.895258e-002 -5.907093e-002 1.705629e-001 5.962409e-001 3.323755e-001 -4.348173e-001 -6.123867e-001 -1.729405e-001 -1.575315e-001 7.545532e-002 -8.427089e-002 -2.158627e-001
<VARIANCE> 39
 6.788296e+000 2.078653e+001 3.335873e+001 3.365622e+001 5.029624e+001 2.618932e+001 1.136333e+002 6.953116e+001 4.219881e+001 4.427253e+001 4.246419e+001 3.504546e+001 1.151292e+001 5.705397e-001 1.382793e+000 1.537853e+000 1.962667e+000 3.268107e+000 2.996254e+000 4.769554e+000 3.471941e+000 5.414632e+000 3.827122e+000 4.288461e+000 3.238508e+000 4.497653e-001 8.980884e-002 1.675280e-001 1.739354e-001 5.197247e-001 4.421151e-001 5.893744e-001 6.343753e-001 5.865785e-001 6.746789e-001 7.973983e-001 6.957603e-001 6.896856e-001 7.242887e-002
<GCONST> 1.149962e+002
<STATE> 3
<MEAN> 39
 -9.415492e+000 -7.207272e+000 7.233054e+000 -2.444258e+001 -1.432248e+001 -1.292755e+001 -1.294942e+001 -7.876524e+000 -1.533543e+001 2.508478e+000 -1.255079e+001 1.106443e-001 7.282954e+001 2.128724e-001 4.914762e-001 7.563696e-001 6.350546e-001 4.056225e-001 3.851848e-003 -6.751614e-001 -1.025697e+000 -7.198788e-001 -5.622688e-001 -2.256760e-001 -1.395595e-002 -9.488567e-001 2.636792e-001 8.467288e-002 -2.874815e-001 6.131475e-001 4.963032e-001 -7.559749e-002 2.199914e-001 1.345060e-001 3.468067e-001 -4.356566e-001 8.845150e-002 -8.176044e-002 -3.583038e-001
<VARIANCE> 39
 1.133429e+001 2.079912e+001 2.505271e+001 3.748017e+001 3.683287e+001 3.370763e+001 5.166393e+001 4.794318e+001 4.154310e+001 3.568556e+001 4.394678e+001 6.005746e+001 1.030527e+001 7.598480e-001 1.356537e+000 1.414276e+000 2.129020e+000 2.075125e+000 2.556882e+000 3.354863e+000 2.673822e+000 2.581408e+000 2.809561e+000 2.547375e+000 2.303468e+000 8.648762e-001 1.369646e-001 2.163517e-001 2.486502e-001 3.892743e-001 6.312351e-001 4.985899e-001 5.923777e-001 4.347079e-001 7.254620e-001 5.600233e-001 5.605341e-001 4.460844e-001 1.546950e-001
<GCONST> 1.125171e+002
<STATE> 4
<MEAN> 39
 -5.603890e+000 -4.577201e+000 7.463375e+000 -1.576949e+001 -1.007602e+001 -1.318461e+001 -1.153404e+001 -9.758736e+000 -1.234009e+001 -1.121850e+000 -9.499596e+000 -1.126775e+000 6.463581e+001 7.271887e-001 7.676755e-001 -6.690429e-001 2.698187e+000 2.012783e+000 3.814895e-001 7.219703e-001 -1.908647e-001 1.266703e+000 -1.599697e+000 5.891598e-001 -6.387229e-001 -2.727780e+000 -1.831030e-001 -7.609030e-002 -4.688233e-001 2.776673e-002 1.588288e-001 1.809531e-001 2.839013e-001 3.745208e-001 4.207278e-001 2.636608e-002 1.580636e-001 -1.893940e-001 -8.514843e-002
<VARIANCE> 39
 1.310036e+001 3.937758e+001 4.627615e+001 6.680458e+001 4.482061e+001 4.970135e+001 5.189668e+001 4.052480e+001 6.822935e+001 4.882803e+001 6.133620e+001 5.045075e+001 4.788281e+001 1.507641e+000 2.378418e+000 1.996852e+000 3.342071e+000 3.944827e+000 3.454028e+000 5.600935e+000 4.078391e+000 4.816323e+000 4.330040e+000 3.366675e+000 3.478208e+000 2.194204e+000 2.486752e-001 5.111120e-001 3.805916e-001 5.962932e-001 6.980239e-001 5.939780e-001 7.999154e-001 7.353952e-001 9.006965e-001 6.912652e-001 7.192500e-001 5.758206e-001 2.980933e-001
<GCONST> 1.290137e+002
<TRANSP> 5
 0.000000e+000 1.000000e+000 0.000000e+000 0.000000e+000 0.000000e+000
 0.000000e+000 6.773577e-001 3.226423e-001 0.000000e+000 0.000000e+000
 0.000000e+000 0.000000e+000 7.262533e-001 2.737467e-001 0.000000e+000
 0.000000e+000 0.000000e+000 0.000000e+000 6.180679e-001 3.819321e-001
 0.000000e+000 0.000000e+000 0.000000e+000 0.000000e+000 0.000000e+000
<ENDHMM>
~h "k"
<BEGINHMM>
<NUMSTATES> 5
<STATE> 2
<MEAN> 39
 -1.199664e+000 2.829805e+000 5.482340e-001 -1.016377e+001 -4.915707e+000 -6.241032e+000 -5.309142e+000 -4.226367e+000 -4.018320e+000 -1.010297e+001 -6.739673e+000 -6.788266e+000 5.342640e+001 -7.042595e-001 -8.265333e-001 -3.122506e-001 6.355345e-001 3.880775e-001 5.172687e-001 1.573883e+000 7.021294e-001 9.887531e-001 1.176551e+000 1.558663e-001 3.965653e-002 -1.342216e+000 -2.542274e-001 -2.265521e-001 -8.088422e-003 -2.093559e-001 -1.501242e-001 -1.186874e-001 -2.004488e-001 -2.572288e-001 -1.204634e-004 3.110023e-001 2.289670e-001 3.218102e-001 5.268434e-001
<VARIANCE> 39
 2.891205e+001 3.422234e+001 2.135328e+001 5.848981e+001 3.573864e+001 3.718195e+001 3.939174e+001 2.034987e+001 2.999142e+001 4.265559e+001 2.886939e+001 3.219563e+001 3.830053e+001 8.954107e-001 1.074608e+000 2.393719e+000 2.680975e+000 2.815740e+000 2.428031e+000 2.872312e+000 2.907435e+000 2.923176e+000 2.410386e+000 3.581848e+000 2.064551e+000 1.560245e+000 1.261950e-001 1.848766e-001 5.170513e-001 5.726638e-001 5.401238e-001 4.083154e-001 4.212750e-001 5.055491e-001 6.125185e-001 4.512120e-001 4.905349e-001 4.917381e-001 6.928931e-001
<GCONST> 1.163723e+002
<STATE> 3
<MEAN> 39
 -9.451830e+000 -4.820313e+000 5.997401e-001 -8.782576e+000 -3.709704e+000 -6.754328e+000 -1.916199e+000 -5.002588e+000 -5.448772e-001 -2.282925e+000 -4.719889e+000 -8.165492e-001 5.518457e+001 -1.323306e+000 -1.131386e+000 5.359433e-001 -8.978010e-001 -1.164333e+000 -1.029205e+000 -7.539754e-002 -8.031632e-001 -6.200792e-001 8.900357e-001 -1.655922e-001 1.674520e+000 3.456314e+000 2.980931e-001 3.028851e-001 2.681354e-001 -2.769209e-001 -5.379875e-001 -3.958739e-001 -6.021640e-001 -1.128372e-001 -8.305513e-001 -1.969099e-001 -4.612293e-001 -2.232011e-001 7.190094e-001
<VARIANCE> 39
 2.569792e+001 2.154863e+001 2.248892e+001 4.862330e+001 3.163118e+001 3.692023e+001 3.999200e+001 4.828366e+001 3.580289e+001 3.720872e+001 3.048466e+001 6.041222e+001 1.126694e+002 2.120749e+000 2.599057e+000 2.217343e+000 5.036806e+000 5.955792e+000 5.005655e+000 6.949812e+000 3.215105e+000 7.882024e+000 5.344854e+000 4.484667e+000 5.174262e+000 9.662490e+000 4.742098e-001 5.771524e-001 5.107078e-001 8.401856e-001 1.168524e+000 8.072695e-001 1.089132e+000 8.993205e-001 9.431998e-001 6.935242e-001 8.954346e-001 1.625240e+000 2.162208e+000
<GCONST> 1.373330e+002
<STATE> 4
<MEAN> 39
 -9.603064e+000 -8.499397e+000 1.724296e+000 -1.629701e+001 -5.573443e+000 -1.026563e+001 -8.410682e+000 -7.492169e+000 -8.686033e+000 -4.395402e+000 -1.147507e+001 6.709213e-001 6.625553e+001 3.701241e-002 -2.249565e-001 4.602121e-001 -3.109742e-001 -5.530868e-001 -2.715488e-001 -5.416785e-001 -2.591637e-001 -9.827597e-001 -2.217225e-001 -5.096319e-001 -1.862115e-001 1.295175e+000 8.632284e-002 1.372717e-001 3.909340e-002 -1.228814e-001 -1.127593e-001 1.643132e-001 -9.929196e-002 1.450508e-001 1.505994e-002 9.439648e-003 4.200637e-003 -1.708894e-001 -1.503362e-001
<VARIANCE> 39
 1.968130e+001 3.287298e+001 4.266143e+001 8.997929e+001 5.170893e+001 3.636004e+001 6.236794e+001 8.931070e+001 6.316371e+001 7.773280e+001 7.153444e+001 2.640156e+001 1.231164e+002 1.703534e+000 2.184224e+000 2.865911e+000 3.814618e+000 5.176501e+000 3.005335e+000 6.189234e+000 7.135937e+000 5.168667e+000 3.899719e+000 3.467739e+000 4.764310e+000 6.391396e+000 1.553727e-001 2.938362e-001 3.250310e-001 6.239133e-001 7.415390e-001 6.116694e-001 8.793680e-001 1.615015e+000 6.062905e-001 7.293441e-001 5.497775e-001 6.505042e-001 9.651310e-001
<GCONST> 1.343219e+002
<TRANSP> 5
 0.000000e+000 1.000000e+000 0.000000e+000 0.000000e+000 0.000000e+000
 0.000000e+000 7.254149e-001 2.745851e-001 0.000000e+000 0.000000e+000
 0.000000e+000 0.000000e+000 6.912225e-001 3.087775e-001 0.000000e+000
 0.000000e+000 0.000000e+000 0.000000e+000 6.986080e-001 3.013920e-001
 0.000000e+000 0.000000e+000 0.000000e+000 0.000000e+000 0.000000e+000
<ENDHMM>
~h "l"
<BEGINHMM>
<NUMSTATES> 5
<STATE> 2
<MEAN> 39
 -4.875819e+000 -9.949045e+000 3.407994e+000 -2.057578e+001 -4.914218e+000 -2.115829e+001 -1.824553e+001 -3.641147e+000 -8.227043e+000 -1.066785e+001 -1.001057e+001 6.149330e+000 6.883841e+001 -2.110845e-001 -2.777857e-001 -9.556815e-002 -1.071297e+000 7.791739e-001 -1.066134e+000 -3.242964e-001 9.722766e-001 2.789989e-001 -3.328878e-001 -5.722591e-001 7.554101e-001 5.244185e-001 1.075689e-002 -1.962807e-001 -4.011716e-001 -5.757211e-002 -3.779913e-002 5.095834e-001 6.710325e-001 1.755793e-001 -6.606519e-002 2.882626e-001 -1.549211e-001 -2.825474e-001 1.445468e-001
<VARIANCE> 39
 1.294733e+001 1.904788e+001 4.470444e+001 6.382045e+001 5.198010e+001 5.428381e+001 6.001451e+001 4.140047e+001 8.599387e+001 4.254347e+001 5.828954e+001 5.857188e+001 1.458935e+001 6.036249e-001 1.607103e+000 1.902997e+000 3.245511e+000 4.343518e+000 4.825916e+000 5.010695e+000 4.625758e+000 4.344624e+000 4.700755e+000 3.670192e+000 3.558641e+000 1.335159e+000 1.047022e-001 2.679032e-001 2.391229e-001 6.595472e-001 7.473519e-001 7.928699e-001 9.230521e-001 8.585228e-001 8.293220e-001 8.588538e-001 7.399291e-001 6.543987e-001 1.545158e-001
<GCONST> 1.246678e+002
<STATE> 3
<MEAN> 39
 -5.504712e+000 -1.323086e+001 -7.328890e-001 -2.529628e+001 -1.123552e+000 -2.288230e+001 -1.210521e+001 2.494216e+000 -6.475026e+000 -1.010619e+001 -1.367662e+001 6.655095e+000 7.233385e+001 2.293202e-003 -2.267608e+000 -2.181030e+000 1.338236e-001 5.135048e-001 2.823064e+000 3.226010e+000 6.377887e-001 -1.130843e+000 4.672981e-001 -1.055157e+000 -4.888490e-001 1.614366e+000 -7.315274e-002 -4.166132e-001 -7.062975e-002 6.364018e-001 3.128078e-001 1.016125e+000 9.090324e-002 -7.772245e-001 -6.168730e-001 1.365974e-001 3.387338e-001 1.572811e-002 1.653381e-001
<VARIANCE> 39
 9.244454e+000 2.052859e+001 2.843039e+001 3.414498e+001 5.256401e+001 5.446063e+001 5.901124e+001 3.197367e+001 5.837764e+001 4.661416e+001 4.257745e+001 4.331194e+001 8.312140e+000 4.500727e-001 2.573236e+000 1.855871e+000 3.170615e+000 3.547845e+000 6.722484e+000 4.885227e+000 4.054707e+000 4.752059e+000 4.458402e+000 3.059477e+000 2.995233e+000 5.862836e-001 5.007659e-002 3.782668e-001 3.088385e-001 5.332234e-001 4.691780e-001 8.293561e-001 8.743569e-001 5.367987e-001 6.400652e-001 6.897481e-001 6.077361e-001 5.187383e-001 1.385577e-001
<GCONST> 1.182424e+002
<STATE> 4
<MEAN> 39
 -6.218005e+000 -2.147835e+001 -5.501601e+000 -2.031735e+001 1.407906e+000 -1.064093e+001 -5.902036e+000 3.575752e-002 -1.244107e+001 -7.931157e+000 -1.419773e+001 6.900760e+000 7.712471e+001 -3.648917e-001 -1.665821e+000 -7.968801e-001 1.319948e+000 1.533891e+000 2.576454e+000 8.721913e-001 -1.577620e+000 -8.282543e-001 1.291528e+000 3.095181e-001 -5.525377e-001 1.120155e+000 2.472111e-003 5.429031e-001 5.557256e-001 -2.256629e-002 8.489468e-002 -7.210084e-001 -9.185391e-001 -4.386774e-001 4.807149e-001 1.148389e-001 3.132942e-001 -1.649910e-001 -4.267789e-001
<VARIANCE> 39
 7.523880e+000 4.853435e+001 3.020740e+001 3.887187e+001 9.456566e+001 3.370508e+001 5.096289e+001 4.625907e+001 3.995407e+001 4.999000e+001 3.516876e+001 4.931348e+001 8.407286e+000 4.149750e-001 3.098712e+000 2.181238e+000 5.292694e+000 3.798847e+000 6.112137e+000 5.908519e+000 3.707590e+000 5.512359e+000 3.884031e+000 3.512956e+000 3.454659e+000 7.429624e-001 7.200983e-002 1.792581e-001 2.973035e-001 5.247318e-001 6.801920e-001 7.080265e-001 7.568628e-001 7.587726e-001 5.098259e-001 8.650175e-001 5.455189e-001 4.984329e-001 7.223862e-002
<GCONST> 1.196158e+002
<TRANSP> 5
 0.000000e+000 1.000000e+000 0.000000e+000 0.000000e+000 0.000000e+000
 0.000000e+000 8.122178e-001 1.877822e-001 0.000000e+000 0.000000e+000
 0.000000e+000 0.000000e+000 5.918562e-001 4.081438e-001 0.000000e+000
 0.000000e+000 0.000000e+000 0.000000e+000 4.317816e-001 5.682185e-001
 0.000000e+000 0.000000e+000 0.000000e+000 0.000000e+000 0.000000e+000
<ENDHMM>
~h "m"
<BEGINHMM>
<NUMSTATES> 5
<STATE> 2
<MEAN> 39
 7.879807e-001 -7.183912e+000 1.460691e+000 -1.281835e+001 1.697652e+000 -1.352254e+001 -1.717215e+001 -1.008259e+001 -1.272004e+001 -1.057680e+001 -1.119446e+001 -6.028472e+000 6.265366e+001 5.142174e-001 1.956867e+000 1.174503e+000 2.142013e+000 1.031301e+000 -1.010964e+000 -2.457342e+000 -1.180591e+000 -1.948037e+000 -1.832834e+000 4.798055e-001 -1.098743e+000 -1.843975e+000 -3.655640e-001 -3.588865e-001 -1.841677e-001 -3.200811e-001 -1.445369e-001 8.668251e-002 2.759810e-001 2.551728e-001 6.725858e-003 2.391984e-001 1.644402e-002 3.068750e-001 4.483881e-001
<VARIANCE> 39
 8.896079e+000 5.308507e+001 4.646968e+001 5.028241e+001 5.727571e+001 6.136904e+001 6.399926e+001 4.417679e+001 5.428389e+001 5.598507e+001 3.782005e+001 6.406261e+001 3.630469e+001 1.305179e+000 2.377733e+000 2.261325e+000 4.113631e+000 3.929854e+000 3.776611e+000 5.930923e+000 3.827105e+000 5.342157e+000 4.924245e+000 4.101365e+000 4.260855e+000 3.552246e+000 1.634354e-001 2.758743e-001 3.180066e-001 7.095103e-001 7.208912e-001 4.769307e-001 8.870990e-001 5.976287e-001 8.851444e-001 6.685031e-001 5.040625e-001 7.470191e-001 2.555383e-001
<GCONST> 1.285315e+002
<STATE> 3
<MEAN> 39
 3.793368e-001 -4.528062e+000 3.159500e+000 -1.028035e+001 1.759870e+000 -1.777035e+001 -2.235866e+001 -1.083729e+001 -1.575821e+001 -1.269768e+001 -1.025095e+001 -6.044550e+000 6.053330e+001 2.070254e-002 3.127882e-001 -2.467052e-001 7.070033e-002 -3.447095e-001 -3.669988e-002 -1.402144e-001 -5.321060e-002 -1.973142e-001 -3.019464e-001 1.333467e-001 4.435339e-001 -2.059041e-001 -3.696800e-002 -3.051901e-001 -3.636556e-001 -4.783063e-001 -2.089985e-001 3.878169e-001 5.877876e-001 2.313409e-001 4.260398e-001 2.506597e-001 -8.295201e-002 2.001647e-001 3.755450e-001
<VARIANCE> 39
 5.323463e+000 3.233822e+001 3.395814e+001 2.965510e+001 4.995259e+001 5.875583e+001 4.396747e+001 4.156054e+001 3.992831e+001 5.200466e+001 4.200459e+001 8.357804e+001 7.706333e+000 3.476504e-001 8.629469e-001 9.210514e-001 1.634321e+000 2.223308e+000 2.608978e+000 2.800310e+000 2.230860e+000 3.068164e+000 3.024913e+000 2.747215e+000 4.229415e+000 6.847799e-001 8.152076e-002 2.219673e-001 2.652648e-001 4.849063e-001 4.769225e-001 4.139407e-001 6.324625e-001 5.803622e-001 7.514294e-001 6.283333e-001 5.622866e-001 8.350285e-001 2.154570e-001
<GCONST> 1.124474e+002
<STATE> 4
<MEAN> 39
 2.947627e-001 -3.969398e+000 -2.765087e-001 -1.132944e+001 -7.731359e-001 -1.284078e+001 -1.760092e+001 -1.001978e+001 -1.433521e+001 -1.372925e+001 -9.392696e+000 -3.768744e+000 6.023042e+001 -4.370913e-001 -1.064372e+000 -1.723124e+000 -1.701098e+000 -1.228442e-001 1.443286e+000 1.606200e+000 8.013473e-001 1.420286e+000 1.297455e+000 2.915716e-001 4.072387e-001 1.347136e+000 -3.109348e-001 -3.847169e-001 -1.320444e-001 -3.596819e-001 3.302561e-001 6.874879e-002 1.611077e-001 3.547260e-001 4.076771e-001 4.810475e-001 -1.641407e-001 -5.163445e-003 3.869785e-001
<VARIANCE> 39
 9.801333e+000 3.455545e+001 4.275529e+001 8.184585e+001 5.562933e+001 6.253853e+001 6.185843e+001 3.935228e+001 5.807657e+001 5.808015e+001 5.364330e+001 7.289621e+001 3.208852e+001 1.149135e+000 4.081864e+000 3.272497e+000 6.440199e+000 5.482780e+000 4.464024e+000 5.986996e+000 3.555751e+000 5.341018e+000 7.034731e+000 4.983149e+000 4.425946e+000 4.397418e+000 1.869625e-001 4.334515e-001 5.611363e-001 8.226166e-001 9.062039e-001 6.620502e-001 9.582886e-001 8.053244e-001 1.048115e+000 9.538394e-001 1.059827e+000 7.650356e-001 3.753704e-001
<GCONST> 1.352826e+002
<TRANSP> 5
 0.000000e+000 1.000000e+000 0.000000e+000 0.000000e+000 0.000000e+000
 0.000000e+000 4.899379e-001 5.100620e-001 0.000000e+000 0.000000e+000
 0.000000e+000 0.000000e+000 7.401412e-001 2.598589e-001 0.000000e+000
 0.000000e+000 0.000000e+000 0.000000e+000 5.644693e-001 4.355307e-001
 0.000000e+000 0.000000e+000 0.000000e+000 0.000000e+000 0.000000e+000
<ENDHMM>
~h "n"
<BEGINHMM>
<NUMSTATES> 5
<STATE> 2
<MEAN> 39
 -1.435814e-001 -6.271005e+000 4.023005e+000 -1.238583e+001 -4.034277e+000 -1.759335e+001 -1.265638e+001 -6.226191e+000 -1.171889e+001 -1.156163e+001 -1.421990e+001 3.369981e+000 6.320905e+001 4.373659e-001 2.252175e+000 9.043213e-001 1.337029e+000 2.169112e-001 -2.112965e+000 -4.383562e-001 -1.696723e+000 -6.552483e-001 -2.057542e+000 -8.167456e-001 9.042520e-001 -1.863832e+000 -2.937869e-001 -4.821571e-001 -4.344940e-001 -4.117896e-001 -1.950797e-001 3.490100e-001 1.701128e-001 3.271374e-001 3.818922e-002 4.649462e-001 1.298102e-001 -1.550134e-001 4.967843e-001
<VARIANCE> 39
 8.174800e+000 5.459032e+001 3.942513e+001 4.215194e+001 6.116425e+001 4.589455e+001 5.689331e+001 5.483561e+001 5.570513e+001 3.705408e+001 6.350690e+001 6.553305e+001 3.602844e+001 1.130236e+000 3.027952e+000 2.170179e+000 3.758906e+000 4.281498e+000 4.702211e+000 4.090560e+000 5.563911e+000 3.859391e+000 4.137642e+000 4.890192e+000 3.884294e+000 3.392535e+000 1.267019e-001 4.440742e-001 2.817243e-001 6.425857e-001 9.877524e-001 7.136374e-001 6.925099e-001 9.551957e-001 6.481820e-001 6.702589e-001 7.991934e-001 6.929435e-001 2.911161e-001
<GCONST> 1.291142e+002
<STATE> 3
<MEAN> 39
 -9.185233e-002 -2.755339e+000 4.292705e+000 -1.148016e+001 -6.763283e+000 -2.252630e+001 -1.326146e+001 -6.644403e+000 -1.264234e+001 -1.454608e+001 -1.570162e+001 6.185918e+000 6.071893e+001 -2.509872e-002 1.689592e-001 -2.665916e-001 3.253705e-001 -3.406976e-001 2.191568e-002 -1.874742e-001 4.339543e-002 1.723629e-001 -1.385008e-001 2.833387e-001 -1.786510e-001 -3.170969e-001 -9.209792e-002 -3.467605e-001 -1.572373e-001 -8.518334e-002 1.322896e-001 5.280504e-001 -3.547427e-002 6.896520e-002 6.039379e-002 2.752212e-001 2.778006e-001 -3.645811e-001 2.239965e-001
<VARIANCE> 39
 5.471743e+000 2.043356e+001 2.986727e+001 2.493315e+001 4.433691e+001 3.745821e+001 5.365464e+001 3.794270e+001 5.670380e+001 3.966068e+001 5.667224e+001 5.841938e+001 1.077962e+001 2.596421e-001 1.354860e+000 1.132628e+000 1.421219e+000 1.763861e+000 2.839986e+000 2.416785e+000 2.235298e+000 2.600516e+000 2.725833e+000 2.700410e+000 2.886938e+000 8.503784e-001 8.031571e-002 2.784759e-001 2.247894e-001 3.167311e-001 3.542091e-001 5.386543e-001 5.144519e-001 5.158511e-001 5.446816e-001 6.209193e-001 5.612334e-001 4.663149e-001 1.824679e-001
<GCONST> 1.092694e+002
<STATE> 4
<MEAN> 39
 -1.018400e+000 -3.837148e+000 2.000682e+000 -7.732238e+000 -5.098620e+000 -1.498937e+001 -1.265634e+001 -6.715643e+000 -1.034322e+001 -1.320097e+001 -1.106300e+001 -5.378024e-001 5.858730e+001 -9.246832e-001 -1.018313e+000 -8.875917e-001 -8.866812e-002 8.666465e-001 2.020322e+000 5.800416e-001 4.081362e-001 4.048322e-001 8.520263e-001 1.167089e+000 -1.414355e+000 1.438789e-001 -2.589097e-001 -6.075991e-002 -6.573857e-002 -1.976873e-001 2.513672e-001 3.110413e-002 3.310688e-001 8.703735e-002 1.605599e-001 2.808159e-001 -3.081189e-002 1.005742e-001 9.728615e-002
<VARIANCE> 39
 1.045421e+001 4.619402e+001 3.653550e+001 5.034268e+001 5.415746e+001 5.569580e+001 6.518787e+001 5.187658e+001 5.159093e+001 4.552069e+001 4.611753e+001 5.972026e+001 4.438605e+001 1.030694e+000 5.303338e+000 2.677976e+000 4.276903e+000 3.653387e+000 4.281144e+000 5.129391e+000 4.562893e+000 4.624607e+000 4.593049e+000 3.639225e+000 3.664209e+000 4.704898e+000 2.020447e-001 5.192860e-001 4.210898e-001 4.681616e-001 6.342082e-001 7.286583e-001 6.746417e-001 8.489442e-001 6.577548e-001 6.904679e-001 6.240708e-001 6.366757e-001 3.000193e-001
<GCONST> 1.300982e+002
<TRANSP> 5
 0.000000e+000 1.000000e+000 0.000000e+000 0.000000e+000 0.000000e+000
 0.000000e+000 5.573503e-001 4.426498e-001 0.000000e+000 0.000000e+000
 0.000000e+000 0.000000e+000 7.896403e-001 2.103597e-001 0.000000e+000
 0.000000e+000 0.000000e+000 0.000000e+000 6.503044e-001 3.496955e-001
 0.000000e+000 0.000000e+000 0.000000e+000 0.000000e+000 0.000000e+000
<ENDHMM>
~h "o"
<BEGINHMM>
<NUMSTATES> 5
<STATE> 2
<MEAN> 39
 -3.727276e+000 -1.897187e+001 -9.255054e+000 -2.595845e+001 6.547604e+000 -9.014227e+000 -7.654615e+000 -4.998887e+000 -6.894397e+000 -5.009566e+000 -1.496508e+001 -1.594845e+000 7.641518e+001 4.234109e-001 -1.362167e+000 -1.473909e+000 -1.045242e+000 2.446857e+000 1.343671e+000 -2.519326e-001 -1.163826e+000 2.509893e-001 7.579344e-002 -5.782514e-001 -8.141074e-001 5.000305e-001 -2.500688e-001 6.404208e-001 2.600071e-001 6.615808e-001 -2.297966e-001 2.076013e-001 4.012994e-002 -3.284194e-001 1.163203e-001 1.070507e-001 8.498226e-001 4.270291e-002 -4.486474e-001
<VARIANCE> 39
 1.084799e+001 3.629282e+001 1.500477e+001 3.054989e+001 5.795570e+001 4.205589e+001 3.585378e+001 5.329811e+001 3.674936e+001 4.426353e+001 4.165134e+001 5.328666e+001 7.435624e+000 6.695737e-001 6.589734e+000 1.831807e+000 3.932663e+000 6.966955e+000 3.116710e+000 4.601950e+000 5.902536e+000 4.800995e+000 4.847732e+000 4.581295e+000 2.780601e+000 1.163782e+000 2.571689e-001 4.065447e-001 2.706442e-001 1.302859e+000 1.274908e+000 6.985043e-001 7.545527e-001 1.213793e+000 9.615168e-001 8.919673e-001 8.962060e-001 6.828477e-001 1.309084e-001
<GCONST> 1.257405e+002
<STATE> 3
<MEAN> 39
 -1.780027e+000 -1.923732e+001 -1.243440e+001 -2.830811e+001 1.151797e+001 -2.399653e+000 -8.415506e+000 -1.131371e+001 -4.375525e+000 -4.702720e+000 -1.104263e+001 -2.457546e+000 7.575457e+001 3.675335e-001 8.167799e-001 -2.436720e-001 -6.257294e-001 -4.917408e-001 8.784320e-002 -3.056424e-001 1.349706e-001 2.095229e-001 1.006567e-001 3.874105e-001 2.882751e-001 -4.557343e-001 -3.557990e-003 2.367729e-001 2.461537e-001 2.961844e-001 -4.250396e-001 -4.106742e-001 -1.065567e-001 3.782013e-001 -1.316855e-001 -1.496039e-001 3.129677e-002 2.397061e-001 -1.898056e-001
<VARIANCE> 39
 4.862920e+000 2.270593e+001 9.988648e+000 2.804484e+001 3.202105e+001 3.878720e+001 3.138656e+001 3.069234e+001 3.709237e+001 3.309468e+001 3.036342e+001 3.055188e+001 4.824273e+000 4.479611e-001 3.706186e+000 7.825059e-001 2.563174e+000 2.984556e+000 3.455974e+000 2.603921e+000 4.313754e+000 2.883174e+000 2.412851e+000 2.630891e+000 2.053031e+000 6.104911e-001 5.902700e-002 2.486519e-001 1.656429e-001 5.130376e-001 4.048832e-001 3.756911e-001 4.036321e-001 5.171039e-001 5.445409e-001 4.554828e-001 4.702022e-001 3.589394e-001 7.719097e-002
<GCONST> 1.047473e+002
<STATE> 4
<MEAN> 39
 1.328879e+000 -8.561826e+000 -9.671870e+000 -2.507149e+001 2.017328e+000 -6.862038e+000 -1.002012e+001 -5.895302e+000 -4.080759e+000 -2.967467e+000 -8.716330e+000 -1.276584e+000 6.729729e+001 8.939324e-002 1.026457e+000 1.078034e+000 2.485157e+000 -7.342638e-001 -5.038715e-001 -2.955557e-001 1.104894e-001 -2.277148e-001 -7.381723e-001 3.472947e-001 8.158616e-002 -1.719685e+000 -1.947824e-001 -2.010891e-001 1.262353e-001 5.534487e-001 2.828189e-001 2.100863e-001 1.469738e-001 -2.968215e-001 -2.229637e-002 -2.723841e-001 -1.608930e-002 -2.382287e-001 -1.252097e-001
<VARIANCE> 39
 1.556444e+001 6.786700e+001 2.286129e+001 9.097569e+001 5.599231e+001 5.252208e+001 5.383851e+001 4.399386e+001 5.134999e+001 4.876349e+001 4.397326e+001 3.693979e+001 5.591671e+001 1.124165e+000 3.794840e+000 1.617647e+000 5.702285e+000 5.248119e+000 4.797694e+000 4.383899e+000 3.477612e+000 4.262938e+000 4.672533e+000 3.353767e+000 4.134225e+000 2.457526e+000 1.517197e-001 4.932355e-001 2.998252e-001 9.703763e-001 7.511969e-001 7.969580e-001 8.408746e-001 8.187878e-001 7.095985e-001 7.917420e-001 7.429650e-001 6.923845e-001 2.839178e-001
<GCONST> 1.302079e+002
<TRANSP> 5
 0.000000e+000 1.000000e+000 0.000000e+000 0.000000e+000 0.000000e+000
 0.000000e+000 4.997628e-001 5.002372e-001 0.000000e+000 0.000000e+000
 0.000000e+000 0.000000e+000 8.092843e-001 1.907156e-001 0.000000e+000
 0.000000e+000 0.000000e+000 0.000000e+000 7.458301e-001 2.541699e-001
 0.000000e+000 0.000000e+000 0.000000e+000 0.000000e+000 0.000000e+000
<ENDHMM>
~h "p"
<BEGINHMM>
<NUMSTATES> 5
<STATE> 2
<MEAN> 39
 -5.226533e+000 -1.289476e+001 -4.676048e+000 -1.367035e+001 1.882802e+000 -6.140139e+000 -1.474780e+000 -6.500250e-001 -3.121360e+000 -3.767470e+000 -7.739723e+000 4.476436e-001 5.523520e+001 -6.126978e-001 6.899132e-001 -9.989083e-002 1.501647e+000 3.018215e-001 1.042765e+000 6.270096e-001 3.927159e-001 5.452949e-001 4.523987e-002 6.633663e-001 -4.333803e-001 -1.886408e+000 -1.415050e-001 7.470157e-002 5.205122e-002 4.840760e-003 1.089565e-002 2.570781e-002 4.257179e-003 -4.767314e-002 -9.314399e-002 -2.613353e-002 6.426051e-002 8.653790e-002 4.596934e-001
<VARIANCE> 39
 1.722064e+001 2.734163e+001 2.489265e+001 3.361068e+001 4.198170e+001 3.995804e+001 7.459132e+001 2.936438e+001 3.298771e+001 2.584105e+001 4.270186e+001 8.623923e+001 4.311628e+001 1.408020e+000 1.974263e+000 1.451613e+000 3.893399e+000 2.056254e+000 3.489441e+000 3.097404e+000 2.813968e+000 2.878345e+000 2.469601e+000 3.358567e+000 3.391721e+000 4.421495e+000 4.527638e-001 4.614734e-001 3.636623e-001 6.698955e-001 3.745524e-001 6.181247e-001 6.410733e-001 6.098847e-001 5.681008e-001 3.973871e-001 5.078169e-001 4.451083e-001 3.939243e-001
<GCONST> 1.218851e+002
<STATE> 3
<MEAN> 39
 -8.441992e+000 -8.895310e+000 -6.417295e+000 -7.840214e+000 3.545916e+000 -6.166757e-001 1.461903e-001 -3.861371e-001 3.969204e-001 -2.954993e+000 -2.646294e+000 -8.565592e-001 5.203119e+001 -5.899169e-001 1.059427e+000 1.089061e-001 9.800143e-001 -3.323970e-001 3.695618e-002 -1.319100e-001 -1.082173e-001 2.212207e-001 -1.627936e-001 3.799916e-001 -2.842298e-001 -8.197442e-002 2.212518e-001 9.760369e-002 1.290793e-001 -2.831171e-001 -2.600903e-001 -5.131553e-001 -3.413556e-001 -3.566194e-001 -2.490522e-001 -6.082412e-002 -1.489913e-001 2.318934e-002 3.995951e-001
<VARIANCE> 39
 2.749350e+001 4.350545e+001 3.829805e+001 2.735888e+001 4.996817e+001 4.210127e+001 4.785029e+001 3.549723e+001 2.880985e+001 2.131080e+001 2.302753e+001 3.540316e+001 1.299849e+001 1.592130e+000 2.771586e+000 2.499734e+000 2.865986e+000 2.132024e+000 3.647697e+000 3.229295e+000 3.547576e+000 2.762029e+000 1.827577e+000 2.005945e+000 1.846641e+000 2.694917e+000 3.376430e-001 5.200227e-001 4.755218e-001 8.127673e-001 4.643065e-001 7.505450e-001 6.635692e-001 7.380252e-001 5.419713e-001 3.765063e-001 4.676569e-001 3.837780e-001 4.167939e-001
<GCONST> 1.197182e+002
<STATE> 4
<MEAN> 39
 -6.375700e+000 -3.501023e+000 -3.030997e+000 -6.448790e+000 2.260735e+000 -3.778035e+000 -1.892361e+000 -1.237120e+000 -4.748754e-001 -2.956267e+000 -2.367126e+000 -2.963163e-001 5.647495e+001 6.341335e-001 1.075824e+000 3.839302e-001 -1.415612e-001 -1.062307e+000 -1.296639e+000 -1.338709e+000 -1.323985e+000 -1.188913e+000 -2.742887e-001 3.409077e-003 1.751913e-001 9.626601e-001 4.644760e-002 -4.530170e-001 -2.203281e-001 -5.735128e-001 -2.677199e-001 -1.991690e-001 -5.039218e-001 -3.546389e-001 -4.721042e-001 -2.299673e-001 -4.587433e-001 -1.748176e-001 -8.723634e-002
<VARIANCE> 39
 4.696494e+001 3.562786e+001 4.090621e+001 5.445107e+001 6.143102e+001 8.897475e+001 7.236262e+001 3.818583e+001 4.163162e+001 3.298703e+001 2.480529e+001 3.043458e+001 4.911632e+001 4.583597e+000 5.431374e+000 6.543955e+000 7.414259e+000 6.987754e+000 7.730615e+000 8.140346e+000 4.578297e+000 4.589346e+000 3.144102e+000 3.536236e+000 3.486419e+000 5.010116e+000 8.063284e-001 8.363311e-001 1.034197e+000 1.290642e+000 1.084123e+000 1.494560e+000 1.272879e+000 7.487546e-001 9.250293e-001 5.781182e-001 7.187512e-001 6.134006e-001 9.830593e-001
<GCONST> 1.414487e+002
<TRANSP> 5
 0.000000e+000 1.000000e+000 0.000000e+000 0.000000e+000 0.000000e+000
 0.000000e+000 7.467409e-001 2.532590e-001 0.000000e+000 0.000000e+000
 0.000000e+000 0.000000e+000 7.056544e-001 2.943456e-001 0.000000e+000
 0.000000e+000 0.000000e+000 0.000000e+000 5.798670e-001 4.201330e-001
 0.000000e+000 0.000000e+000 0.000000e+000 0.000000e+000 0.000000e+000
<ENDHMM>
~h "q"
<BEGINHMM>
<NUMSTATES> 5
<STATE> 2
<MEAN> 39
 -4.039573e+000 -5.408511e+000 -7.106953e+000 -1.175071e+001 3.704557e-001 -6.120866e+000 -2.587317e+000 -2.831976e+000 -1.476093e+000 -8.936260e-001 -5.643997e+000 -2.850193e+000 5.272636e+001 8.178955e-001 8.107832e-001 -1.254968e+000 -1.723531e+000 -4.040638e-001 2.682862e-001 6.357285e-001 7.283846e-001 -1.021994e-001 8.400271e-001 3.734658e-001 1.011292e+000 7.275026e-001 4.168334e-001 1.312814e-001 3.719263e-003 -8.933907e-001 -2.027814e-001 1.995952e-002 -5.259790e-001 -1.763672e-001 -5.623860e-001 -3.210795e-002 -2.761048e-001 2.340177e-001 8.805373e-001
<VARIANCE> 39
 1.144638e+001 4.317926e+001 3.390089e+001 5.211386e+001 4.315699e+001 3.186818e+001 4.292135e+001 3.851055e+001 3.099178e+001 3.705427e+001 4.745518e+001 3.195226e+001 3.642841e+001 3.508278e+000 3.763864e+000 3.348318e+000 1.158232e+001 3.685845e+000 3.692739e+000 4.179157e+000 3.700761e+000 5.619480e+000 4.361103e+000 4.052687e+000 4.029613e+000 8.805395e+000 4.376584e-001 8.649815e-001 6.042427e-001 7.961577e-001 6.891261e-001 7.697039e-001 1.013793e+000 9.744378e-001 8.703017e-001 7.834195e-001 8.084100e-001 7.735541e-001 4.220186e-001
<GCONST> 1.336503e+002
<STATE> 3
<MEAN> 39
 5.427918e+000 1.997846e+000 -1.047335e+001 -3.102742e+001 -4.950212e+000 -4.558358e+000 -5.527707e+000 -2.314487e+000 -9.876960e+000 2.943359e-001 -7.511036e+000 4.890131e+000 6.478412e+001 9.134054e-001 -2.275376e+000 1.179703e-001 -4.110988e+000 6.727639e-001 2.131106e+000 -2.580244e+000 -1.825176e+000 -2.815029e+000 5.886811e-001 -1.614880e+000 7.468700e-002 3.605232e+000 -1.199129e+000 -1.840034e+000 2.917119e-001 1.790353e+000 9.878058e-001 2.159084e-001 -1.938103e-001 -2.208336e-001 8.285247e-001 1.404041e-001 -4.290764e-001 -1.487720e+000 -3.693789e-001
<VARIANCE> 39
 6.343750e+000 2.318574e+001 1.997509e+001 1.076061e+002 3.885308e+001 3.535812e+001 3.262657e+001 2.678141e+001 3.508910e+001 2.693957e+001 3.510482e+001 2.838277e+001 1.601674e+001 2.060914e+000 6.213873e+000 2.365431e+000 6.965801e+000 5.194588e+000 2.715129e+000 6.632522e+000 3.147090e+000 3.815315e+000 5.548912e+000 3.772924e+000 7.413947e+000 1.368737e+000 1.846087e-001 4.992689e-001 5.547158e-001 1.431671e+000 1.062442e+000 1.075242e+000 8.647251e-001 7.575451e-001 1.017741e+000 1.145794e+000 1.068597e+000 7.544812e-001 1.255068e-001
<GCONST> 1.275615e+002
<STATE> 4
<MEAN> 39
 2.243887e+000 -1.077675e+001 -1.191144e+001 -3.208694e+001 2.644592e+000 2.146909e+000 -1.030663e+001 -6.023798e+000 -1.134970e+001 5.076655e+000 -1.248015e+001 -2.742150e+000 7.229413e+001 -1.585884e+000 -4.858117e+000 -1.845697e-001 2.378978e+000 2.667347e+000 6.893180e-002 -1.299451e+000 -5.383835e-001 7.905172e-001 6.617674e-001 -2.551046e+000 -2.843610e+000 2.364410e+000 -3.792638e-001 1.454499e-001 2.967646e-001 1.570039e+000 -3.252503e-001 -1.293808e+000 7.839240e-001 6.140656e-001 5.428562e-001 -8.428482e-001 2.450280e-001 2.870100e-001 -5.893969e-001
<VARIANCE> 39
 4.797375e+000 4.715422e+001 1.824106e+001 5.302671e+001 4.376485e+001 2.241735e+001 3.252151e+001 2.064321e+001 2.587190e+001 4.342616e+001 2.748908e+001 6.108643e+001 9.160875e+000 6.614299e-001 2.136130e+000 1.357472e+000 4.324449e+000 6.259469e+000 6.874262e+000 7.192781e+000 2.388378e+000 3.660580e+000 5.877595e+000 4.194419e+000 3.850469e+000 7.495762e-001 3.562793e-001 7.096810e-001 2.668063e-001 1.173180e+000 1.158131e+000 6.080567e-001 1.023601e+000 7.257017e-001 8.995900e-001 1.091140e+000 7.522535e-001 1.357115e+000 1.137674e-001
<GCONST> 1.229640e+002
<TRANSP> 5
 0.000000e+000 1.000000e+000 0.000000e+000 0.000000e+000 0.000000e+000
 0.000000e+000 8.354783e-001 1.645217e-001 0.000000e+000 0.000000e+000
 0.000000e+000 0.000000e+000 5.766054e-001 4.233945e-001 0.000000e+000
 0.000000e+000 0.000000e+000 0.000000e+000 5.306707e-001 4.693293e-001
 0.000000e+000 0.000000e+000 0.000000e+000 0.000000e+000 0.000000e+000
<ENDHMM>
~h "r"
<BEGINHMM>
<NUMSTATES> 5
<STATE> 2
<MEAN> 39
 -1.197062e+001 -2.663836e+000 7.480531e+000 -1.071569e+001 -5.518279e+000 -1.133922e+001 -1.372023e+001 -1.023854e+001 -6.416902e+000 -8.166964e+000 -6.906885e+000 -1.482344e+000 6.595071e+001 -2.748002e+000 1.383083e+000 1.384308e+000 1.080672e+000 5.319707e-001 3.093450e-001 1.184928e-001 -6.358328e-001 4.017422e-001 -7.806767e-001 1.045545e-001 -1.000761e+000 5.876462e-001 -9.359021e-002 1.527759e-001 -6.867030e-002 -2.891145e-001 6.168637e-002 1.147183e-001 1.098026e-001 1.875629e-001 -1.229868e-001 2.180447e-002 -1.199057e-001 -5.216223e-002 3.472092e-002
<VARIANCE> 39
 7.838454e+001 4.494975e+001 6.403942e+001 8.230904e+001 5.074236e+001 4.505294e+001 5.929311e+001 6.195493e+001 6.025823e+001 7.217594e+001 5.546780e+001 4.374867e+001 3.826003e+001 4.684133e+000 3.653640e+000 2.911102e+000 3.909046e+000 4.072871e+000 4.446092e+000 4.972403e+000 4.723432e+000 3.440579e+000 5.387256e+000 4.704718e+000 3.487064e+000 1.839340e+000 8.704907e-001 6.223149e-001 5.747159e-001 5.441481e-001 6.039728e-001 6.703697e-001 8.300449e-001 8.226267e-001 5.041058e-001 9.679293e-001 7.743281e-001 6.158286e-001 1.679814e-001
<GCONST> 1.355224e+002
<STATE> 3
<MEAN> 39
 -2.132429e+001 1.860846e+000 9.000539e+000 -1.025257e+001 -2.989712e+000 -1.250748e+001 -1.278114e+001 -9.918465e+000 -5.548695e+000 -1.336012e+001 -6.246953e+000 -4.768204e+000 6.920750e+001 1.776589e+000 -1.483061e+000 -1.452286e+000 -1.411607e+000 -7.274485e-001 -8.997986e-001 -3.655469e-001 9.855934e-001 6.115285e-001 2.099220e-002 -1.840020e-001 5.815777e-001 5.893903e-001 1.324144e+000 -1.145288e+000 -7.436973e-001 -5.574857e-001 -2.439183e-001 -7.950521e-002 -5.378611e-002 5.520775e-001 -1.641916e-002 3.471515e-001 -3.590080e-001 5.478584e-001 1.209768e-001
<VARIANCE> 39
 3.660008e+001 2.065389e+001 3.113094e+001 5.282816e+001 5.556033e+001 4.440062e+001 4.119095e+001 4.615327e+001 3.778643e+001 3.083912e+001 4.345900e+001 3.695969e+001 6.277422e+000 1.104859e+001 5.942051e+000 4.160132e+000 2.533639e+000 4.157646e+000 4.309575e+000 4.687997e+000 4.345384e+000 2.740229e+000 2.846567e+000 3.670540e+000 3.925212e+000 5.186037e-001 7.589367e-001 4.559646e-001 4.625234e-001 2.872759e-001 7.322695e-001 1.171828e+000 8.950786e-001 7.990389e-001 6.542857e-001 6.302307e-001 8.503897e-001 6.638920e-001 6.933866e-002
<GCONST> 1.261613e+002
<STATE> 4
<MEAN> 39
 -3.331786e+000 -1.616521e+001 -3.051011e+000 -2.032061e+001 -6.073102e+000 -1.443443e+001 -1.363294e+001 1.507972e+000 -4.276411e+000 -9.930614e+000 -1.347566e+001 2.143289e+000 7.344949e+001 2.409628e+000 -4.158332e+000 -2.429955e+000 -1.954403e+000 1.378988e+000 1.671592e+000 7.853010e-001 2.398677e+000 -2.125216e+000 2.143691e+000 -2.189068e+000 1.359212e+000 1.448062e+000 -1.334966e+000 9.872468e-001 6.283032e-001 5.531241e-001 8.794173e-001 5.110044e-001 3.928832e-001 -9.942350e-001 -6.416431e-001 2.206475e-001 5.102581e-001 -5.204378e-001 -6.283422e-002
<VARIANCE> 39
 1.414358e+001 3.971554e+001 2.178324e+001 3.528339e+001 3.293963e+001 3.899128e+001 6.638319e+001 8.380468e+001 6.364503e+001 3.152602e+001 6.049746e+001 3.804964e+001 1.411728e+001 5.499467e+000 5.572752e+000 2.361985e+000 5.172514e+000 6.086607e+000 4.047947e+000 5.941524e+000 9.211684e+000 4.489555e+000 4.059580e+000 5.080863e+000 6.266714e+000 4.983380e-001 3.342281e-001 7.794070e-001 2.739136e-001 6.214550e-001 7.070501e-001 8.854450e-001 9.009746e-001 1.563569e+000 1.230063e+000 6.106715e-001 1.037074e+000 7.872449e-001 1.000444e-001
<GCONST> 1.311945e+002
<TRANSP> 5
 0.000000e+000 1.000000e+000 0.000000e+000 0.000000e+000 0.000000e+000
 0.000000e+000 8.184959e-001 1.815041e-001 0.000000e+000 0.000000e+000
 0.000000e+000 0.000000e+000 8.019689e-001 1.980311e-001 0.000000e+000
 0.000000e+000 0.000000e+000 0.000000e+000 6.691657e-001 3.308343e-001
 0.000000e+000 0.000000e+000 0.000000e+000 0.000000e+000 0.000000e+000
<ENDHMM>
~h "s"
<BEGINHMM>
<NUMSTATES> 5
<STATE> 2
<MEAN> 39
 -1.252313e+001 -3.570546e+000 5.956291e+000 -1.348921e+001 -3.389711e+000 -1.186723e+001 -8.965055e+000 -6.823629e+000 -6.884952e+000 -9.517175e+000 -4.350724e+000 -1.590024e-001 6.713656e+001 -4.014150e+000 3.017560e+000 6.764114e-001 1.582122e+000 1.891647e+000 1.879403e+000 7.891179e-001 4.830369e-001 1.333092e+000 -5.745935e-001 1.631866e+000 -7.636168e-001 5.115542e-001 -5.732664e-001 9.647820e-002 -1.437882e-001 -1.051685e-001 4.853562e-001 5.385222e-001 3.550236e-001 5.553767e-001 2.286530e-001 5.767543e-001 -1.503448e-001 -1.390774e-002 5.813383e-002
<VARIANCE> 39
 7.643193e+001 7.974905e+001 4.964032e+001 6.092475e+001 6.014229e+001 1.011860e+002 6.273601e+001 6.962492e+001 8.397198e+001 5.137053e+001 6.192019e+001 4.394075e+001 5.322291e+001 5.039322e+000 6.186653e+000 4.129845e+000 6.307170e+000 6.890695e+000 7.388613e+000 6.960146e+000 6.709616e+000 5.706775e+000 5.693244e+000 4.833016e+000 3.817900e+000 2.782088e+000 1.090322e+000 1.265139e+000 5.741876e-001 8.500124e-001 1.146491e+000 1.312252e+000 9.149277e-001 1.168278e+000 1.031662e+000 9.792520e-001 7.825276e-001 7.367593e-001 2.649199e-001
<GCONST> 1.458587e+002
<STATE> 3
<MEAN> 39
 -3.139328e+001 6.253967e+000 6.721023e+000 -9.826577e+000 5.824978e+000 -1.839694e+000 -1.681949e+000 8.609794e-001 6.019420e-001 -3.930111e+000 1.741115e+000 -1.192734e+000 6.879375e+001 -1.356407e-001 -2.841809e-001 -4.283916e-002 1.558936e-002 2.062518e-001 3.100074e-001 4.262685e-001 6.349208e-001 5.037286e-001 2.539981e-001 3.877646e-001 2.081169e-001 8.376946e-004 1.131164e+000 -6.284313e-001 -2.064440e-001 -2.936575e-001 -5.158499e-001 -5.202133e-001 -3.640313e-001 -2.489094e-001 -2.934885e-001 -3.641666e-001 -2.196329e-001 1.884137e-001 -1.574979e-003
<VARIANCE> 39
 1.046429e+001 1.830806e+001 2.561962e+001 1.717180e+001 2.703576e+001 2.952656e+001 2.773755e+001 2.442568e+001 3.098403e+001 2.329532e+001 2.115286e+001 1.605592e+001 6.442305e+000 6.191759e+000 2.004178e+000 1.381926e+000 1.244159e+000 2.214434e+000 2.952609e+000 2.360439e+000 2.535633e+000 2.500018e+000 3.106636e+000 2.044808e+000 1.862521e+000 3.807188e-001 4.584113e-001 3.601545e-001 4.230374e-001 3.376442e-001 5.389835e-001 5.066543e-001 4.556076e-001 4.405510e-001 3.889142e-001 4.962660e-001 5.336961e-001 3.920438e-001 7.286093e-002
<GCONST> 1.071615e+002
<STATE> 4
<MEAN> 39
 -1.177450e+001 -6.703650e+000 8.794596e-001 -1.559290e+001 -1.765604e+000 -8.569482e+000 -6.617361e+000 5.092484e-001 -1.671046e+000 -1.015194e+001 -1.822374e+000 3.064732e+000 7.034940e+001 5.715141e+000 -5.004666e+000 -3.122963e+000 -3.027697e+000 -1.723337e+000 -2.150632e+000 -2.191286e+000 -8.885925e-001 -2.231127e+000 -1.082827e+000 -2.962973e+000 7.414345e-001 1.385691e+000 -9.364411e-001 -1.900891e-001 -5.480971e-002 -6.674654e-002 9.183710e-001 4.317994e-001 1.756261e-001 -1.427620e-001 -4.253632e-001 7.941517e-001 -3.655539e-001 -4.129201e-001 3.302518e-001
<VARIANCE> 39
 1.070645e+002 6.604716e+001 5.223277e+001 5.861977e+001 6.183172e+001 5.353225e+001 6.948359e+001 3.253834e+001 4.509818e+001 3.598008e+001 5.331603e+001 2.871378e+001 1.210004e+001 6.957489e+000 3.680962e+000 2.152392e+000 3.064313e+000 8.114902e+000 4.275876e+000 4.572424e+000 3.462582e+000 3.708986e+000 5.708252e+000 4.950515e+000 4.696432e+000 9.699203e-001 2.208232e+000 1.211101e+000 9.091939e-001 1.237257e+000 1.509121e+000 1.048759e+000 1.057041e+000 6.176178e-001 7.010110e-001 8.107653e-001 1.142641e+000 5.995585e-001 1.837441e-001
<GCONST> 1.377179e+002
<TRANSP> 5
 0.000000e+000 1.000000e+000 0.000000e+000 0.000000e+000 0.000000e+000
 0.000000e+000 7.779209e-001 2.220791e-001 0.000000e+000 0.000000e+000
 0.000000e+000 0.000000e+000 8.821755e-001 1.178245e-001 0.000000e+000
 0.000000e+000 0.000000e+000 0.000000e+000 7.390138e-001 2.609862e-001
 0.000000e+000 0.000000e+000 0.000000e+000 0.000000e+000 0.000000e+000
<ENDHMM>
~h "t"
<BEGINHMM>
<NUMSTATES> 5
<STATE> 2
<MEAN> 39
 -6.411794e+000 -7.915517e+000 -4.418591e+000 -1.011893e+001 3.672474e-001 -5.016173e+000 -4.406261e+000 -3.348414e+000 -2.930325e+000 -4.031520e+000 -3.676613e+000 -2.111646e+000 5.202013e+001 -7.455223e-001 -5.623591e-002 -4.434304e-001 6.157136e-001 7.809706e-002 5.541206e-001 6.222398e-001 1.159933e-001 6.189805e-001 2.366553e-001 3.731830e-001 -3.573610e-001 -1.280504e+000 7.673858e-003 1.806051e-002 8.240881e-002 -1.825175e-001 -1.570700e-001 -2.734447e-001 -1.738233e-001 -1.293315e-002 -7.999897e-002 4.710910e-002 1.242306e-002 2.485701e-001 7.072363e-001
<VARIANCE> 39
 1.349806e+001 3.312148e+001 3.604092e+001 3.759476e+001 4.233058e+001 3.981027e+001 3.820934e+001 3.469692e+001 3.738438e+001 3.573027e+001 3.944592e+001 4.378733e+001 2.553131e+001 1.148985e+000 1.722783e+000 1.686757e+000 2.485872e+000 2.304717e+000 2.733345e+000 2.618585e+000 2.263248e+000 2.631794e+000 2.573053e+000 2.763669e+000 2.749716e+000 2.832294e+000 2.850599e-001 4.193027e-001 3.868642e-001 5.929989e-001 5.205134e-001 5.698414e-001 5.924787e-001 5.140887e-001 5.582842e-001 5.585645e-001 6.050578e-001 5.211629e-001 5.433819e-001
<GCONST> 1.192904e+002
<STATE> 3
<MEAN> 39
 -9.400443e+000 -6.281102e+000 -3.811530e+000 -6.681787e+000 -2.521742e-002 -4.926849e+000 -2.554006e+000 -3.394982e+000 -6.476719e-001 -3.603865e+000 -1.948937e+000 -2.488404e+000 5.088784e+001 -1.583824e-001 4.497441e-001 3.458357e-001 -4.413632e-001 -4.838005e-001 -1.197954e+000 -5.449850e-002 2.216280e-001 1.366095e-001 3.041833e-001 6.467208e-001 9.687362e-001 3.250063e+000 4.002092e-001 -3.033153e-001 6.398420e-002 -9.989960e-001 -1.372240e-001 -5.486127e-001 -6.900760e-001 1.562869e-001 -6.257048e-001 -1.001536e-001 -6.090260e-001 3.318099e-001 1.406510e+000
<VARIANCE> 39
 1.723216e+001 3.157477e+001 2.850958e+001 3.276767e+001 3.474841e+001 2.790536e+001 2.972515e+001 3.020190e+001 2.694149e+001 2.926085e+001 2.670203e+001 2.486171e+001 3.256542e+001 2.302679e+000 3.478452e+000 3.746579e+000 5.725663e+000 5.029933e+000 4.138716e+000 4.896454e+000 5.224512e+000 4.289083e+000 4.107134e+000 4.021541e+000 4.019516e+000 1.033068e+001 3.738764e-001 7.381402e-001 6.346881e-001 1.031729e+000 1.153442e+000 7.663679e-001 9.125859e-001 8.225768e-001 7.202834e-001 7.691453e-001 7.316734e-001 6.562979e-001 1.387132e+000
<GCONST> 1.314371e+002
<STATE> 4
<MEAN> 39
 -7.479234e+000 -7.624282e+000 -3.253452e+000 -1.308913e+001 -2.326441e+000 -1.099738e+001 -5.547889e+000 -1.105925e+000 -2.979198e+000 -3.041076e+000 -2.384094e+000 2.261456e+000 6.634950e+001 4.211141e-001 -1.411602e+000 5.636859e-002 -3.055163e+000 -4.974226e-002 -1.120162e+000 -1.918435e+000 5.322639e-001 -1.907312e+000 8.404659e-002 -2.039694e+000 7.670829e-001 4.293415e+000 -6.714210e-002 -3.304689e-001 -6.030534e-002 -8.869570e-002 4.048080e-001 5.765015e-001 -2.606114e-001 -3.778303e-001 -4.421981e-001 -8.647231e-002 -6.012799e-001 -5.840287e-001 -8.196924e-001
<VARIANCE> 39
 1.901928e+001 4.811621e+001 5.258465e+001 8.433185e+001 7.336193e+001 5.912824e+001 6.162400e+001 5.144362e+001 4.765538e+001 4.487722e+001 6.110888e+001 3.980008e+001 9.852946e+001 2.519979e+000 7.465748e+000 5.184266e+000 1.005708e+001 1.053938e+001 6.725527e+000 7.723496e+000 6.859858e+000 6.705548e+000 6.175966e+000 6.051316e+000 5.857623e+000 1.331462e+001 3.074885e-001 8.112553e-001 6.756442e-001 1.464263e+000 1.083319e+000 1.136287e+000 1.168715e+000 1.137944e+000 1.070901e+000 8.979595e-001 1.328722e+000 8.811283e-001 1.455880e+000
<GCONST> 1.479727e+002
<TRANSP> 5
 0.000000e+000 1.000000e+000 0.000000e+000 0.000000e+000 0.000000e+000
 0.000000e+000 7.750298e-001 2.249702e-001 0.000000e+000 0.000000e+000
 0.000000e+000 0.000000e+000 4.793466e-001 5.206534e-001 0.000000e+000
 0.000000e+000 0.000000e+000 0.000000e+000 4.813753e-001 5.186247e-001
 0.000000e+000 0.000000e+000 0.000000e+000 0.000000e+000 0.000000e+000
<ENDHMM>
~h "u"
<BEGINHMM>
<NUMSTATES> 5
<STATE> 2
<MEAN> 39
 -2.312502e+000 -9.103455e+000 -8.836733e+000 -2.747313e+001 -9.431858e-001 -5.591057e+000 -1.628897e+001 -5.381905e+000 -6.500570e+000 2.873006e+000 -1.048703e+001 -2.446086e+000 7.425962e+001 3.845662e-001 8.649447e-001 -5.118687e-001 -1.589041e+000 -1.814524e-001 7.651138e-001 -1.130085e+000 -4.694980e-001 -7.791141e-001 -2.582551e-001 7.755048e-001 7.275304e-001 -4.412785e-001 -1.877582e-001 1.937965e-001 3.234619e-001 4.428086e-001 -1.761927e-001 -7.748283e-002 4.783622e-001 2.370978e-001 -3.705032e-001 -5.001588e-001 1.602017e-001 8.432526e-002 -2.592879e-001
<VARIANCE> 39
 1.660602e+001 4.008202e+001 4.259573e+001 5.798178e+001 6.656339e+001 6.972434e+001 8.026702e+001 4.425745e+001 5.056762e+001 6.231112e+001 6.270489e+001 6.221737e+001 1.916262e+001 1.518656e+000 6.061204e+000 1.870618e+000 5.197649e+000 5.236040e+000 5.761723e+000 4.800441e+000 5.141694e+000 4.547532e+000 5.528640e+000 6.786459e+000 5.307640e+000 1.558457e+000 2.783478e-001 4.582125e-001 2.632222e-001 7.277026e-001 7.810478e-001 6.975335e-001 1.052055e+000 8.484929e-001 1.121450e+000 1.021477e+000 1.167295e+000 8.518729e-001 1.409746e-001
<GCONST> 1.339830e+002
<STATE> 3
<MEAN> 39
 -1.246426e-001 -2.707521e+000 -1.027058e+001 -3.355906e+001 -2.125484e+000 -2.574100e+000 -1.751777e+001 -4.250913e+000 -1.227791e+001 -3.863530e+000 -7.156603e+000 2.646064e-001 7.051290e+001 1.930465e-001 4.386972e-001 3.469328e-001 5.761491e-001 -4.093172e-001 -4.864334e-001 -2.136427e-001 3.865586e-001 -5.044284e-001 -9.011819e-001 -3.984348e-001 -3.377849e-001 -7.458854e-001 -5.758005e-002 -1.588633e-001 2.117783e-001 7.166228e-001 1.073312e-001 -2.396974e-001 2.498550e-001 -2.723332e-002 3.568413e-001 1.206333e-001 -1.199836e-001 -3.026378e-001 -1.324493e-001
<VARIANCE> 39
 1.294093e+001 3.581995e+001 2.778670e+001 6.058582e+001 5.528345e+001 5.684835e+001 4.909741e+001 5.301199e+001 4.296095e+001 6.139725e+001 5.105068e+001 4.461908e+001 1.288833e+001 7.053382e-001 2.938550e+000 1.323693e+000 4.623984e+000 3.449120e+000 3.276121e+000 3.712800e+000 3.757040e+000 4.013740e+000 4.555197e+000 3.363836e+000 3.270887e+000 1.135566e+000 1.144188e-001 3.407988e-001 2.250510e-001 6.394039e-001 7.288406e-001 8.467367e-001 7.352855e-001 6.722489e-001 8.306465e-001 7.501295e-001 8.348700e-001 6.756781e-001 1.100865e-001
<GCONST> 1.227365e+002
<STATE> 4
<MEAN> 39
 1.350958e+000 -3.867623e-001 -5.443914e+000 -2.171083e+001 -3.483691e+000 -4.984491e+000 -1.307479e+001 -3.705425e+000 -8.342911e+000 -5.189643e+000 -7.024620e+000 -4.404748e+000 6.254744e+001 -3.722484e-001 -1.954540e-001 8.826426e-001 2.584721e+000 4.564148e-001 -3.732824e-001 1.151558e+000 -2.615764e-001 9.228806e-001 -7.079259e-002 6.549737e-002 -2.873307e-001 -1.366761e+000 -2.036054e-001 -4.337449e-002 -1.020974e-003 1.922538e-002 4.134523e-002 1.431725e-001 1.546528e-001 -7.399873e-002 6.363032e-002 3.944045e-002 2.053387e-001 1.724233e-001 -3.244739e-002
<VARIANCE> 39
 2.366301e+001 5.106688e+001 3.998896e+001 1.421545e+002 7.016186e+001 5.658387e+001 9.091842e+001 5.596449e+001 7.051271e+001 5.716267e+001 6.189394e+001 4.717694e+001 5.927615e+001 1.187939e+000 1.853771e+000 2.306639e+000 6.232310e+000 5.170261e+000 5.010471e+000 4.728253e+000 4.197687e+000 4.246399e+000 4.354175e+000 3.743949e+000 3.236717e+000 2.381933e+000 2.093219e-001 4.128182e-001 3.528384e-001 8.924795e-001 7.728294e-001 7.822296e-001 9.289146e-001 7.470273e-001 7.399066e-001 7.391076e-001 7.751473e-001 5.629618e-001 2.838179e-001
<GCONST> 1.334165e+002
<TRANSP> 5
 0.000000e+000 1.000000e+000 0.000000e+000 0.000000e+000 0.000000e+000
 0.000000e+000 5.270707e-001 4.729293e-001 0.000000e+000 0.000000e+000
 0.000000e+000 0.000000e+000 7.382916e-001 2.617084e-001 0.000000e+000
 0.000000e+000 0.000000e+000 0.000000e+000 6.969994e-001 3.030006e-001
 0.000000e+000 0.000000e+000 0.000000e+000 0.000000e+000 0.000000e+000
<ENDHMM>
~h "v"
<BEGINHMM>
<NUMSTATES> 5
<STATE> 2
<MEAN> 39
 -5.391301e+000 6.737902e-001 -1.360480e+000 -3.557564e+000 -1.543992e+000 -6.558779e+000 -8.257302e+000 -1.113464e+001 -8.426589e+000 -8.990893e+000 -7.845509e+000 -6.745375e+000 5.584096e+001 -9.111061e-001 8.100829e-001 1.312953e-001 1.145066e+000 -2.440712e-001 -3.922440e-001 -3.882867e-001 -8.867164e-001 -3.895678e-001 -5.778379e-001 -4.802521e-002 -5.170070e-001 6.094047e-001 1.057210e-001 -3.637418e-001 -6.693198e-002 -7.403272e-001 -1.489718e-001 -1.679875e-001 -2.195741e-001 1.712816e-001 1.776911e-002 3.004673e-001 4.927204e-003 2.290916e-001 5.397443e-001
<VARIANCE> 39
 3.252400e+001 2.412742e+001 3.821545e+001 4.220676e+001 2.381722e+001 3.759629e+001 2.821471e+001 2.975108e+001 2.898147e+001 3.331877e+001 3.573318e+001 4.125024e+001 2.306808e+001 3.023743e+000 1.563409e+000 1.973704e+000 3.940196e+000 2.234565e+000 2.651995e+000 3.891998e+000 3.060663e+000 4.039925e+000 3.551516e+000 3.536798e+000 3.052041e+000 2.690376e+000 5.581399e-001 2.631281e-001 3.754581e-001 7.399029e-001 4.845055e-001 4.408639e-001 6.223121e-001 5.031446e-001 6.398221e-001 6.625271e-001 6.327903e-001 5.255140e-001 2.733339e-001
<GCONST> 1.212988e+002
<STATE> 3
<MEAN> 39
 -8.911427e+000 1.341003e+000 -2.143627e+000 -3.621110e+000 -4.219408e+000 -1.029891e+001 -1.150187e+001 -1.414304e+001 -9.999647e+000 -9.682638e+000 -6.706896e+000 -6.474474e+000 6.048163e+001 1.291063e+000 -1.681406e+000 -8.755896e-001 -3.406141e+000 -3.773090e-001 -3.365561e-001 -9.540464e-001 2.146038e-001 -8.169639e-002 1.436395e+000 -2.729191e-001 2.383325e-001 2.655103e+000 6.544092e-001 -1.208473e+000 -2.521003e-001 -1.713153e+000 2.897722e-001 3.485927e-001 1.533722e-001 9.903446e-001 2.197978e-001 8.156040e-001 -6.438506e-001 8.910382e-002 5.646580e-001
<VARIANCE> 39
 2.132520e+001 1.682106e+001 2.583866e+001 3.233046e+001 2.271634e+001 2.638956e+001 2.236849e+001 1.887557e+001 2.412997e+001 2.638173e+001 2.515023e+001 4.037413e+001 1.518187e+001 3.596094e+000 3.126825e+000 2.978530e+000 7.737908e+000 4.428885e+000 4.205186e+000 3.362145e+000 4.111867e+000 4.502612e+000 4.093355e+000 4.168626e+000 2.677714e+000 1.720644e+000 5.578501e-001 3.990288e-001 4.608276e-001 5.807221e-001 8.309596e-001 6.220027e-001 1.125070e+000 6.390340e-001 8.095024e-001 7.776812e-001 8.099212e-001 5.906280e-001 2.136724e-001
<GCONST> 1.232521e+002
<STATE> 4
<MEAN> 39
 -1.994385e+000 -9.319414e+000 -6.913881e+000 -2.031233e+001 -1.888821e+000 -8.846153e+000 -1.262776e+001 -8.911342e+000 -7.043470e+000 -1.850456e+000 -1.037164e+001 -5.704850e+000 6.917196e+001 1.136245e+000 -4.349541e+000 -6.363993e-001 -5.382958e+000 1.307789e+000 2.367046e-001 3.320533e-001 2.659391e+000 -2.127982e-001 1.855929e+000 -2.765741e+000 4.398674e-001 3.719362e+000 -7.320080e-001 1.394264e-001 4.853571e-001 9.504473e-001 1.932261e-001 1.288187e-001 4.664910e-001 1.019843e-001 -3.847507e-001 -5.322353e-001 -6.263539e-002 2.267205e-001 -2.793625e-001
<VARIANCE> 39
 1.162142e+001 5.300953e+001 3.701658e+001 8.315251e+001 4.920581e+001 5.504782e+001 3.794162e+001 3.804907e+001 4.600709e+001 3.272387e+001 5.249798e+001 5.482732e+001 2.037155e+001 2.472343e+000 3.330607e+000 3.776417e+000 6.578112e+000 9.377275e+000 3.692547e+000 9.045040e+000 4.478089e+000 5.480544e+000 6.881402e+000 5.673282e+000 4.159986e+000 1.180896e+000 3.163392e-001 7.294751e-001 3.067135e-001 1.647949e+000 7.569349e-001 7.443925e-001 9.111848e-001 1.140593e+000 1.157435e+000 8.185055e-001 1.347095e+000 8.781189e-001 3.223913e-001
<GCONST> 1.354303e+002
<TRANSP> 5
 0.000000e+000 1.000000e+000 0.000000e+000 0.000000e+000 0.000000e+000
 0.000000e+000 7.405846e-001 2.594154e-001 0.000000e+000 0.000000e+000
 0.000000e+000 0.000000e+000 5.827194e-001 4.172806e-001 0.000000e+000
 0.000000e+000 0.000000e+000 0.000000e+000 5.053796e-001 4.946205e-001
 0.000000e+000 0.000000e+000 0.000000e+000 0.000000e+000 0.000000e+000
<ENDHMM>
~h "x"
<BEGINHMM>
<NUMSTATES> 5
<STATE> 2
<MEAN> 39
 -1.102860e+001 2.610073e+000 -3.625459e+000 -5.400323e+000 -4.843059e+000 -1.561641e+001 -8.038561e+000 -9.198112e+000 -8.000013e+000 -9.894087e+000 -7.535017e+000 -4.801085e-001 6.616836e+001 -3.427068e+000 1.775304e+000 -1.492394e+000 3.610735e+000 1.031755e+000 2.313149e+000 2.496106e+000 -3.116151e-001 1.210159e+000 1.652297e-001 1.729040e+000 -9.221203e-001 -3.399395e-001 -3.447894e-001 -5.963749e-001 -2.112215e-001 -1.819031e-001 2.240536e-001 8.175202e-001 4.130554e-001 5.008811e-001 1.157829e-001 7.341680e-001 1.015054e-001 1.132280e-001 5.996415e-002
<VARIANCE> 39
 3.591025e+001 4.315981e+001 3.152195e+001 8.026477e+001 6.270972e+001 5.640508e+001 5.502647e+001 4.829510e+001 4.921289e+001 3.732802e+001 4.547462e+001 4.661781e+001 2.540197e+001 2.224855e+000 4.542650e+000 2.842337e+000 5.651677e+000 4.617639e+000 6.317565e+000 6.314268e+000 4.403462e+000 5.296884e+000 5.402069e+000 3.046484e+000 4.643448e+000 1.877731e+000 5.444586e-001 4.804055e-001 4.709357e-001 1.184710e+000 8.169535e-001 1.148869e+000 9.143942e-001 9.682170e-001 7.365163e-001 8.822502e-001 6.185204e-001 8.479857e-001 1.465442e-001
<GCONST> 1.346402e+002
<STATE> 3
<MEAN> 39
 -2.379464e+001 3.011752e+000 -9.308731e+000 3.064420e+000 -1.290899e+000 -4.303017e+000 2.104999e+000 -4.599378e+000 -1.522037e+000 -3.404644e+000 -8.869443e-001 -1.063943e+000 6.397020e+001 -1.436983e+000 -4.699828e-001 -9.015749e-001 3.994021e-001 3.394311e-001 1.098891e+000 1.123526e+000 1.260924e+000 9.140028e-001 1.304444e+000 9.656640e-001 4.499751e-001 3.655751e-002 6.995430e-001 -1.061356e-001 3.760266e-001 -5.444553e-001 -1.614650e-001 -5.429397e-001 -5.229653e-001 -5.515135e-002 -2.370539e-001 -1.655236e-001 -1.761707e-001 1.785341e-001 9.865329e-002
<VARIANCE> 39
 1.063791e+001 1.421446e+001 1.413173e+001 1.410336e+001 2.134567e+001 1.835335e+001 3.069820e+001 2.517551e+001 2.727704e+001 1.976084e+001 2.263857e+001 1.414291e+001 1.581446e+001 1.934136e+000 8.872528e-001 1.572331e+000 1.615333e+000 2.412429e+000 2.659142e+000 2.629493e+000 2.673693e+000 2.725008e+000 2.200256e+000 1.882038e+000 1.797713e+000 6.273795e-001 2.313244e-001 2.493128e-001 2.652006e-001 4.157129e-001 4.872898e-001 5.101551e-001 4.801944e-001 4.844154e-001 5.216528e-001 4.098748e-001 3.925278e-001 3.801372e-001 7.169563e-002
<GCONST> 1.032671e+002
<STATE> 4
<MEAN> 39
 -2.155634e+001 1.174233e+000 -8.626192e+000 -9.392069e-002 -9.085570e-001 -5.726232e+000 1.705438e+000 -2.031300e+000 -1.212514e-001 -1.273250e+000 1.198150e+000 1.655638e+000 6.578297e+001 2.389113e+000 -9.241836e-001 7.774521e-001 -2.644112e+000 -5.271747e-001 -1.375986e+000 -1.500429e+000 -1.077260e-001 -6.932183e-001 -6.785549e-001 -8.380366e-001 6.990229e-001 8.676980e-001 4.887930e-001 -4.159594e-001 -1.634655e-002 -7.380676e-001 -7.312950e-002 -2.550626e-001 -3.491181e-001 -1.415320e-001 -3.190282e-001 -2.952263e-001 -4.752147e-001 1.630968e-002 2.421750e-001
<VARIANCE> 39
 5.621352e+001 1.659971e+001 2.464791e+001 5.792142e+001 3.049364e+001 4.335777e+001 4.426661e+001 2.229966e+001 2.216232e+001 2.605455e+001 2.362205e+001 2.298059e+001 9.488976e+000 7.185914e+000 2.661264e+000 2.335099e+000 9.541158e+000 3.925569e+000 5.023868e+000 5.736896e+000 3.107589e+000 3.235864e+000 3.378850e+000 4.110554e+000 3.061493e+000 9.650747e-001 1.079749e+000 4.121439e-001 5.375865e-001 1.032363e+000 8.860871e-001 1.034730e+000 8.978820e-001 5.809984e-001 5.227048e-001 5.593660e-001 6.665220e-001 5.426097e-001 1.278623e-001
<GCONST> 1.251331e+002
<TRANSP> 5
 0.000000e+000 1.000000e+000 0.000000e+000 0.000000e+000 0.000000e+000
 0.000000e+000 6.867804e-001 3.132196e-001 0.000000e+000 0.000000e+000
 0.000000e+000 0.000000e+000 7.819305e-001 2.180695e-001 0.000000e+000
 0.000000e+000 0.000000e+000 0.000000e+000 8.508343e-001 1.491657e-001
 0.000000e+000 0.000000e+000 0.000000e+000 0.000000e+000 0.000000e+000
<ENDHMM>
~h "y"
<BEGINHMM>
<NUMSTATES> 5
<STATE> 2
<MEAN> 39
 -9.141936e+000 -1.642395e+001 4.355646e-001 -2.569938e+001 -8.707390e+000 -1.137465e+001 5.086481e+000 -2.512866e+000 -1.395006e+001 -1.568994e+000 -1.490131e+001 -2.364783e+000 7.886198e+001 -3.090761e-001 2.322717e+000 1.594499e+000 -1.449336e+000 -2.434930e+000 -6.781732e-001 -9.209120e-001 -7.860401e-002 1.070586e+000 2.268640e+000 -3.522575e-002 -1.017545e+000 -4.558335e-001 1.001032e-001 2.284123e-002 1.652873e-001 2.917261e-001 3.443193e-001 -1.069336e-001 -1.010065e+000 -4.190725e-001 -3.286244e-002 7.728739e-002 2.805643e-001 4.451212e-001 -2.043597e-001
<VARIANCE> 39
 3.918875e+000 1.784108e+001 2.061752e+001 1.812561e+001 3.031130e+001 2.317077e+001 5.749287e+001 4.778100e+001 3.601365e+001 3.305936e+001 2.746742e+001 2.277779e+001 4.445575e+000 2.556273e-001 7.364326e-001 7.570661e-001 1.368623e+000 1.530592e+000 1.629398e+000 4.371882e+000 2.096120e+000 2.262387e+000 2.354088e+000 3.004745e+000 2.218129e+000 1.927210e-001 3.943043e-002 1.524590e-001 1.000884e-001 2.612610e-001 2.942689e-001 2.704054e-001 4.614257e-001 3.215297e-001 4.761935e-001 5.436097e-001 4.065423e-001 4.436609e-001 2.531586e-002
<GCONST> 9.481342e+001
<STATE> 3
<MEAN> 39
 -1.008420e+001 -7.308012e+000 8.486935e+000 -2.786294e+001 -1.366600e+001 -1.345776e+001 -9.562768e+000 -7.797383e+000 -1.419410e+001 5.720991e+000 -1.312096e+001 -1.327032e+000 7.481631e+001 -2.782094e-002 9.997798e-001 1.027599e+000 2.982488e-001 9.067623e-002 -6.383175e-002 -1.919164e+000 -9.627302e-001 -4.919541e-001 2.374516e-002 1.453309e-001 4.666346e-001 -7.320612e-001 9.593987e-002 -1.941416e-001 -2.210038e-001 3.425692e-001 2.821302e-001 9.042322e-002 2.724246e-001 6.363968e-002 -1.512283e-001 -4.686604e-001 -7.068998e-002 -3.025139e-002 -6.353533e-002
<VARIANCE> 39
 6.280134e+000 1.370510e+001 2.364822e+001 2.044428e+001 2.971433e+001 2.216516e+001 5.702399e+001 3.026876e+001 4.085352e+001 3.516743e+001 3.265789e+001 3.578516e+001 4.731249e+000 3.607582e-001 9.895468e-001 8.766495e-001 1.364200e+000 1.863768e+000 2.101553e+000 2.782468e+000 2.026718e+000 1.735959e+000 2.839095e+000 2.548974e+000 1.927521e+000 2.060384e-001 7.727242e-002 1.180711e-001 1.134905e-001 2.114996e-001 4.122904e-001 3.765509e-001 3.454453e-001 3.530586e-001 3.874266e-001 5.352717e-001 4.390426e-001 3.781201e-001 4.036495e-002
<GCONST> 9.702428e+001
<STATE> 4
<MEAN> 39
 -7.823563e+000 -1.589234e+000 1.077154e+001 -1.841904e+001 -1.056933e+001 -9.727109e+000 -1.359447e+001 -1.005690e+001 -1.406678e+001 1.091949e+000 -1.012449e+001 -1.686179e+000 6.561387e+001 4.782884e-001 1.323460e-001 -4.815320e-001 1.540893e+000 7.639689e-001 1.323569e-001 6.107225e-001 -1.254026e-002 4.137345e-001 -1.078308e+000 4.446778e-001 -2.186527e-001 -1.576231e+000 1.450917e-002 -5.476664e-002 -2.301079e-001 7.053942e-002 1.438617e-001 3.602720e-002 2.665807e-001 1.745810e-001 2.207177e-001 -1.361258e-001 1.076009e-001 -1.419627e-001 -1.386059e-001
<VARIANCE> 39
 1.257719e+001 3.458398e+001 2.781011e+001 6.498813e+001 4.534618e+001 4.410105e+001 4.980130e+001 2.505707e+001 5.172453e+001 4.091606e+001 6.929330e+001 4.859153e+001 5.529784e+001 1.013755e+000 1.818074e+000 1.790778e+000 3.012793e+000 2.469460e+000 2.084141e+000 4.239891e+000 2.257461e+000 2.950475e+000 3.367964e+000 2.445732e+000 2.438817e+000 1.340613e+000 1.602186e-001 3.081022e-001 2.379764e-001 4.226989e-001 5.526388e-001 4.162636e-001 6.474578e-001 4.101236e-001 4.686982e-001 5.649250e-001 4.676136e-001 4.403052e-001 1.848752e-001
<GCONST> 1.176454e+002
<TRANSP> 5
 0.000000e+000 1.000000e+000 0.000000e+000 0.000000e+000 0.000000e+000
 0.000000e+000 7.421713e-001 2.578286e-001 0.000000e+000 0.000000e+000
 0.000000e+000 0.000000e+000 8.315324e-001 1.684676e-001 0.000000e+000
 0.000000e+000 0.000000e+000 0.000000e+000 8.341213e-001 1.658786e-001
 0.000000e+000 0.000000e+000 0.000000e+000 0.000000e+000 0.000000e+000
<ENDHMM>
~h "aa"
<BEGINHMM>
<NUMSTATES> 5
<STATE> 2
<MEAN> 39
 -6.273669e+000 -1.577756e+001 -8.259380e+000 -2.469739e+001 -3.143617e-001 -1.516519e+001 -7.932168e+000 2.543249e+000 -8.325128e+000 -6.566778e+000 -1.607120e+001 5.397000e+000 7.538203e+001 2.096143e-001 -2.874670e+000 -7.937400e-001 -1.634879e+000 1.789144e+000 2.921966e-001 1.022015e+000 1.301034e+000 -1.840164e+000 -8.564097e-002 -1.884428e+000 5.449766e-001 1.970041e+000 -3.801425e-001 7.642519e-001 3.219548e-001 1.312093e+000 1.800492e-001 5.698525e-001 1.127098e-001 -7.391692e-001 1.786410e-001 3.853413e-002 1.040474e+000 -5.148590e-001 -8.742291e-001
<VARIANCE> 39
 7.410008e+000 2.285958e+001 2.941869e+001 3.491282e+001 5.621973e+001 5.806292e+001 4.131142e+001 4.028872e+001 3.224442e+001 5.698205e+001 3.873830e+001 5.163694e+001 1.508104e+001 1.731189e+000 3.457777e+000 1.607663e+000 6.290550e+000 5.749796e+000 4.708379e+000 6.772854e+000 7.085403e+000 2.738405e+000 4.829041e+000 5.587720e+000 3.785294e+000 2.645334e+000 6.369473e-001 5.735555e-001 5.616812e-001 8.606926e-001 7.123263e-001 1.091671e+000 1.112964e+000 1.055984e+000 5.287732e-001 8.496793e-001 8.237360e-001 7.428357e-001 4.757919e-001
<GCONST> 1.311038e+002
<STATE> 3
<MEAN> 39
 -5.789662e+000 -2.059586e+001 -8.252278e+000 -2.466565e+001 4.821499e+000 -1.527136e+001 -8.193984e+000 3.931890e+000 -1.068104e+001 -5.632500e+000 -1.354772e+001 5.908066e+000 7.736004e+001 5.988091e-001 3.526188e-001 4.006473e-001 3.953138e-001 -3.067475e-001 -2.867465e-001 -7.224298e-001 -4.598694e-001 1.783066e-001 6.559068e-002 7.366914e-001 -2.172309e-003 -6.895354e-001 1.389060e-001 9.062113e-001 3.358850e-001 3.694277e-001 -6.211168e-001 -2.340553e-001 -3.888328e-001 -5.224097e-001 1.748894e-001 -2.078322e-001 2.571673e-001 -7.103827e-003 -7.066473e-001
<VARIANCE> 39
 5.086003e+000 1.304624e+001 1.820612e+001 1.539324e+001 5.323887e+001 3.340843e+001 5.848949e+001 3.987413e+001 2.277221e+001 2.211223e+001 2.385323e+001 2.899910e+001 2.982131e+000 7.701938e-001 3.322896e+000 1.597722e+000 2.531621e+000 4.353750e+000 2.654264e+000 3.980517e+000 4.085672e+000 2.451349e+000 2.753650e+000 2.028552e+000 2.346995e+000 2.186793e+000 9.882960e-002 2.366151e-001 1.914092e-001 7.570940e-001 6.338226e-001 4.064965e-001 7.685924e-001 1.084509e+000 6.158466e-001 5.978776e-001 4.839350e-001 4.212787e-001 1.528114e-001
<GCONST> 1.107318e+002
<STATE> 4
<MEAN> 39
 -2.820882e+000 -1.288169e+001 -7.715214e+000 -2.352966e+001 1.570485e+000 -1.544062e+001 -1.473230e+001 -2.311680e+000 -8.905826e+000 -6.180196e+000 -1.069654e+001 3.979025e+000 7.000824e+001 3.770823e-001 1.830348e+000 6.423751e-001 8.849347e-001 -1.030960e+000 -3.995948e-001 -7.468835e-001 -1.240041e+000 -5.718108e-001 -4.106984e-001 5.486554e-001 7.261645e-002 -1.576839e+000 -1.177009e-001 6.388278e-002 -2.548265e-002 5.386025e-002 1.788336e-002 -9.777727e-002 1.119465e-001 -3.168983e-002 -1.500266e-001 1.723492e-002 -1.353215e-001 5.885723e-002 4.635533e-003
<VARIANCE> 39
 8.185645e+000 2.965464e+001 4.178349e+001 4.195936e+001 7.041972e+001 4.180913e+001 6.983962e+001 4.851874e+001 2.414186e+001 5.268347e+001 2.229928e+001 2.988505e+001 4.972955e+001 4.958620e-001 2.732626e+000 1.661327e+000 4.637742e+000 1.817967e+000 2.050616e+000 3.572513e+000 5.648348e+000 2.307640e+000 3.138073e+000 1.717456e+000 1.957041e+000 3.419752e+000 9.151401e-002 2.890576e-001 1.981411e-001 4.243557e-001 5.588723e-001 2.466438e-001 3.631197e-001 6.978325e-001 6.741307e-001 4.374894e-001 3.421023e-001 4.123954e-001 1.755806e-001
<GCONST> 1.150168e+002
<TRANSP> 5
 0.000000e+000 1.000000e+000 0.000000e+000 0.000000e+000 0.000000e+000
 0.000000e+000 5.306793e-001 4.693207e-001 0.000000e+000 0.000000e+000
 0.000000e+000 0.000000e+000 7.555750e-001 2.444250e-001 0.000000e+000
 0.000000e+000 0.000000e+000 0.000000e+000 5.287313e-001 4.712687e-001
 0.000000e+000 0.000000e+000 0.000000e+000 0.000000e+000 0.000000e+000
<ENDHMM>
~h "af"
<BEGINHMM>
<NUMSTATES> 5
<STATE> 2
<MEAN> 39
 -4.901836e+000 -2.340131e+001 -5.162558e+000 -2.079350e+001 4.433424e+000 -9.298168e+000 -3.488525e+000 -6.130954e+000 -1.443276e+001 -8.193551e+000 -1.495653e+001 1.692542e+000 7.763165e+001 -8.226954e-001 -2.669469e+000 -8.994329e-002 9.589214e-001 2.230638e+000 1.238894e+000 1.140056e+000 -1.290902e+000 -1.236428e+000 5.214577e-001 6.892383e-001 9.515670e-001 1.592704e+000 1.058048e-001 1.002344e+000 4.673968e-001 6.548232e-001 -4.695899e-001 -4.548517e-001 -5.904809e-001 -2.403340e-001 4.531211e-001 9.691482e-002 3.399768e-001 -3.615354e-001 -7.573870e-001
<VARIANCE> 39
 1.066024e+001 1.855462e+001 1.746006e+001 2.342115e+001 5.560823e+001 2.864790e+001 3.388932e+001 4.252093e+001 4.959935e+001 2.853465e+001 4.089307e+001 3.163168e+001 5.222416e+000 7.494918e-001 2.727309e+000 1.599190e+000 3.205080e+000 3.034839e+000 2.784103e+000 3.624524e+000 4.170624e+000 3.466393e+000 3.866328e+000 2.930753e+000 3.830959e+000 1.574677e+000 1.805444e-001 2.587313e-001 2.275389e-001 7.823154e-001 6.729543e-001 6.677085e-001 6.398872e-001 9.488097e-001 7.434318e-001 7.159604e-001 7.604712e-001 5.137943e-001 1.840548e-001
<GCONST> 1.170131e+002
<STATE> 3
<MEAN> 39
 -5.340655e+000 -2.765032e+001 -4.193901e+000 -1.589785e+001 8.271556e+000 -7.955427e+000 -3.269585e+000 -8.494009e+000 -1.283516e+001 -5.526258e+000 -1.313051e+001 2.143789e+000 7.951917e+001 4.948944e-002 1.313402e-002 1.753548e-001 -7.997773e-002 -2.401210e-001 9.189503e-003 3.504099e-001 3.646915e-002 1.280531e-001 1.955830e-002 -1.835423e-001 -1.829589e-001 2.904574e-002 6.165593e-002 3.066557e-001 -5.555814e-003 -3.073109e-001 -2.997796e-001 -1.185710e-001 1.403457e-002 2.064052e-001 1.091061e-001 -9.256806e-002 -2.029136e-001 -9.522058e-002 -1.234296e-001
<VARIANCE> 39
 6.749610e+000 7.709234e+000 1.341225e+001 1.299479e+001 2.531698e+001 2.189284e+001 2.897093e+001 2.448390e+001 2.416704e+001 1.771149e+001 2.152295e+001 2.355528e+001 2.696476e+000 2.377331e-001 7.994739e-001 4.826326e-001 1.431513e+000 1.480466e+000 1.032970e+000 1.630928e+000 1.590569e+000 1.534158e+000 1.355380e+000 1.434973e+000 1.444132e+000 1.100959e-001 3.984854e-002 1.093565e-001 8.681836e-002 1.441501e-001 2.199427e-001 2.058077e-001 2.758288e-001 2.675140e-001 2.667889e-001 2.261029e-001 2.136478e-001 2.458925e-001 2.566329e-002
<GCONST> 8.061811e+001
<STATE> 4
<MEAN> 39
 -3.961740e+000 -2.165533e+001 -2.777496e+000 -1.985759e+001 2.278289e+000 -1.014245e+001 -1.540461e+000 -5.501410e+000 -1.082214e+001 -7.900790e+000 -1.662176e+001 -2.064336e-001 7.594895e+001 5.402223e-001 2.510259e+000 7.349016e-001 -5.055233e-001 -1.595182e+000 -1.030148e+000 -9.775920e-001 3.629738e-001 6.522491e-001 1.542236e-001 -4.397851e-001 -9.928733e-001 -1.577513e+000 3.996030e-002 4.456616e-001 2.150569e-001 6.361962e-001 2.014965e-001 -2.271886e-002 -6.121647e-001 -3.775208e-001 -1.244177e-001 -5.835694e-005 4.729991e-001 -4.428313e-002 -4.602592e-001
<VARIANCE> 39
 1.240278e+001 3.269457e+001 1.861675e+001 5.862530e+001 4.609362e+001 4.232272e+001 6.364635e+001 4.570596e+001 4.133614e+001 3.599735e+001 3.944967e+001 3.605737e+001 2.674373e+001 8.083553e-001 1.766455e+000 1.534265e+000 4.681855e+000 2.777863e+000 3.584696e+000 4.385410e+000 3.580582e+000 2.881775e+000 3.759517e+000 3.486861e+000 2.827457e+000 1.450575e+000 1.479474e-001 3.729938e-001 2.407826e-001 7.154950e-001 5.638526e-001 7.677262e-001 6.692861e-001 7.448146e-001 6.615377e-001 7.813278e-001 5.016366e-001 4.272072e-001 1.529875e-001
<GCONST> 1.202371e+002
<TRANSP> 5
 0.000000e+000 1.000000e+000 0.000000e+000 0.000000e+000 0.000000e+000
 0.000000e+000 6.162829e-001 3.837171e-001 0.000000e+000 0.000000e+000
 0.000000e+000 0.000000e+000 8.865759e-001 1.134240e-001 0.000000e+000
 0.000000e+000 0.000000e+000 0.000000e+000 6.761708e-001 3.238292e-001
 0.000000e+000 0.000000e+000 0.000000e+000 0.000000e+000 0.000000e+000
<ENDHMM>
~h "aj"
<BEGINHMM>
<NUMSTATES> 5
<STATE> 2
<MEAN> 39
