~o
<STREAMINFO> 1 39
<VECSIZE> 39<NULLD><MFCC_D_A_0><DIAGC>
~s "silst"
<MEAN> 39
 -9.003057e+00 -3.811070e+00 -3.609323e+00 -5.264932e+00 -2.459288e+00 -2.562348e+00 -4.692811e-02 -2.502801e+00 2.779824e+00 -3.361757e+00 -2.810250e+00 -2.948529e+00 4.373322e+01 -9.661049e-03 1.976015e-02 -5.433320e-03 -3.824280e-05 -2.088565e-02 -2.701302e-02 7.185849e-03 1.886438e-02 1.349097e-02 -1.124161e-02 -2.140613e-02 -4.246641e-03 -1.966419e-02 2.159139e-03 -3.100932e-03 6.535300e-03 7.145709e-04 1.186513e-02 5.893411e-03 -2.914179e-03 -3.666592e-03 -1.086256e-02 -2.242309e-03 2.940867e-03 3.630905e-03 7.700563e-03
<VARIANCE> 39
 1.094835e+00 2.688868e+00 4.895622e+00 6.031307e+00 7.733319e+00 9.489449e+00 1.112914e+01 1.257088e+01 1.286257e+01 1.230927e+01 1.256943e+01 1.198877e+01 1.670515e+00 9.752527e-02 2.218296e-01 3.921928e-01 6.020710e-01 7.975380e-01 9.598887e-01 1.138001e+00 1.308724e+00 1.286468e+00 1.292505e+00 1.274924e+00 1.209984e+00 3.553252e-02 2.003162e-02 4.517725e-02 7.996124e-02 1.223057e-01 1.628217e-01 1.975519e-01 2.341094e-01 2.694058e-01 2.661062e-01 2.684027e-01 2.624037e-01 2.494297e-01 6.370693e-03
<GCONST> 6.017387e+01
~h "a"
<BEGINHMM>
<NUMSTATES> 5
<STATE> 2
<MEAN> 39
 -6.267375e+00 -2.639869e+01 -6.774369e+00 -1.616836e+01 8.126736e+00 -9.898105e+00 -5.407749e+00 -7.560297e+00 -1.224313e+01 -5.957141e+00 -9.556002e+00 4.268439e+00 7.741856e+01 -2.298759e-01 -1.197569e+00 1.848855e-01 1.093711e+00 1.209023e+00 8.223751e-02 -1.345727e-01 -6.904775e-01 -7.487171e-02 6.978094e-01 2.103276e-01 2.019764e-01 5.784849e-01 5.875213e-02 6.332372e-01 1.623817e-01 3.768583e-03 -5.966366e-01 -1.711301e-01 -1.199445e-01 1.595827e-01 4.180181e-01 -9.974083e-02 9.096877e-02 -2.942948e-01 -3.797544e-01
<VARIANCE> 39
 5.904543e+00 1.651600e+01 1.273962e+01 2.238198e+01 3.742691e+01 3.369807e+01 4.227628e+01 3.106194e+01 4.612128e+01 2.491063e+01 2.588671e+01 2.592267e+01 1.123153e+01 4.869297e-01 1.474853e+00 1.035119e+00 1.740270e+00 2.878886e+00 2.064961e+00 2.579457e+00 4.050172e+00 3.189826e+00 1.839984e+00 1.872510e+00 2.204655e+00 7.617985e-01 1.217167e-01 2.946278e-01 2.073656e-01 5.252597e-01 4.759151e-01 3.924634e-01 5.360026e-01 5.040197e-01 6.250765e-01 4.131540e-01 3.623663e-01 3.976390e-01 1.890705e-01
<GCONST> 1.060177e+02
<STATE> 3
<MEAN> 39
 -6.821091e+00 -2.774635e+01 -5.728199e+00 -1.330613e+01 8.731002e+00 -1.089225e+01 -7.670785e+00 -9.003282e+00 -8.896569e+00 -5.935447e+00 -8.596591e+00 3.516710e+00 7.778246e+01 -2.353513e-02 3.120969e-01 -7.387285e-02 -3.449251e-01 -3.423247e-01 -1.459823e-01 3.982103e-01 -3.050137e-01 1.169475e-01 -4.460324e-01 1.776195e-01 4.183312e-02 -8.775402e-02 4.250763e-02 2.443870e-01 -3.764129e-02 -2.615830e-01 -1.901869e-01 -6.586669e-03 1.072812e-01 2.856756e-02 -3.145280e-02 -1.194046e-01 -3.598073e-02 -2.200939e-02 -9.842559e-02
<VARIANCE> 39
 6.328390e+00 1.050416e+01 1.248652e+01 1.588652e+01 1.916819e+01 3.092713e+01 4.251369e+01 2.920724e+01 2.586688e+01 2.253677e+01 1.659997e+01 2.425710e+01 7.367002e+00 2.065003e-01 8.093662e-01 5.416349e-01 1.138915e+00 1.054165e+00 1.077882e+00 1.702503e+00 1.210433e+00 1.513553e+00 1.020001e+00 8.120473e-01 8.709238e-01 4.948855e-01 4.277067e-02 1.344654e-01 1.007691e-01 1.766140e-01 1.782149e-01 1.858036e-01 2.140954e-01 2.201220e-01 2.273261e-01 1.748728e-01 1.368080e-01 1.607432e-01 5.374740e-02
<GCONST> 8.138428e+01
<STATE> 4
<MEAN> 39
 -6.694207e+00 -2.016171e+01 -5.781287e+00 -1.700368e+01 3.611600e+00 -1.004161e+01 -2.823980e+00 -1.060208e+01 -8.548965e+00 -1.109512e+01 -6.921307e+00 7.307712e-01 7.219612e+01 1.850770e-01 1.649104e+00 7.097029e-02 -1.007147e+00 -1.266326e+00 -2.902118e-01 2.254875e-01 4.836481e-01 6.043668e-01 6.087485e-02 -2.314885e-01 -5.037023e-01 -1.146942e+00 5.674831e-02 2.067245e-01 1.648028e-01 2.057583e-01 -8.439192e-02 -1.138872e-01 -4.508374e-01 4.235464e-02 9.008261e-02 2.695300e-01 -1.028491e-01 -1.261599e-01 -2.415816e-01
<VARIANCE> 39
 8.957246e+00 2.686123e+01 2.196662e+01 8.965744e+01 3.714475e+01 4.259824e+01 6.588394e+01 2.982349e+01 4.067006e+01 4.155893e+01 2.920395e+01 5.658734e+01 6.716791e+01 7.932004e-01 1.514881e+00 1.350394e+00 3.247006e+00 2.606616e+00 2.348537e+00 3.141088e+00 2.426279e+00 2.729672e+00 3.350846e+00 2.367198e+00 2.656299e+00 9.129007e-01 9.863865e-02 2.807206e-01 1.993336e-01 5.087679e-01 3.704301e-01 4.368546e-01 5.772488e-01 4.594225e-01 6.138558e-01 4.065439e-01 4.170380e-01 4.222699e-01 1.652970e-01
<GCONST> 1.142626e+02
<TRANSP> 5
 0.000000e+00 1.000000e+00 0.000000e+00 0.000000e+00 0.000000e+00
 0.000000e+00 7.287296e-01 2.712704e-01 0.000000e+00 0.000000e+00
 0.000000e+00 0.000000e+00 8.540676e-01 1.459324e-01 0.000000e+00
 0.000000e+00 0.000000e+00 0.000000e+00 7.553115e-01 2.446885e-01
 0.000000e+00 0.000000e+00 0.000000e+00 0.000000e+00 0.000000e+00
<ENDHMM>
~h "b"
<BEGINHMM>
<NUMSTATES> 5
<STATE> 2
<MEAN> 39
 -9.203141e-01 -5.547515e+00 3.354684e-01 -1.309555e+01 -1.933506e+00 -1.186603e+01 -1.250569e+01 -9.343467e+00 -9.051098e+00 -5.622170e+00 -1.164368e+01 -5.556032e+00 5.911145e+01 9.652503e-01 1.411369e+00 3.144404e-01 1.948029e+00 8.141827e-01 7.728944e-01 -7.610015e-01 -1.128201e+00 -6.340215e-02 -1.018921e+00 5.835226e-02 -1.697282e+00 -2.036932e+00 -1.860871e-01 -4.010126e-02 -6.756152e-02 -2.919772e-01 -2.419668e-01 -2.990968e-02 -3.527039e-02 -5.318085e-02 -8.664024e-02 9.936950e-02 1.419228e-02 7.146045e-02 3.536804e-01
<VARIANCE> 39
 1.542712e+01 4.381681e+01 3.785789e+01 5.865463e+01 5.372015e+01 6.277733e+01 7.510289e+01 3.566340e+01 5.517996e+01 3.628928e+01 4.363208e+01 4.018704e+01 7.089451e+01 1.056675e+00 2.069558e+00 1.668054e+00 3.658524e+00 2.607486e+00 2.826291e+00 4.021193e+00 3.326343e+00 4.024037e+00 2.977879e+00 3.033292e+00 3.783057e+00 4.479964e+00 2.148694e-01 2.714344e-01 2.057396e-01 7.332604e-01 5.120964e-01 4.654569e-01 6.264209e-01 5.239605e-01 6.762455e-01 5.728697e-01 5.481856e-01 5.549585e-01 4.003055e-01
<GCONST> 1.245182e+02
<STATE> 3
<MEAN> 39
 8.739793e-01 -2.221127e+00 7.917545e-01 -9.080381e+00 -4.970275e-01 -1.068433e+01 -1.380969e+01 -1.219549e+01 -1.030491e+01 -7.516566e+00 -1.141416e+01 -8.615935e+00 5.418839e+01 5.788894e-01 7.224838e-01 -8.504592e-02 5.353497e-01 2.086593e-02 9.432159e-02 -6.676503e-01 -1.108417e+00 -1.591765e-01 -3.387699e-01 -1.379382e-01 -8.503661e-01 -4.665574e-01 -1.462182e-01 -6.339632e-01 -3.679271e-01 -9.322820e-01 -2.288416e-01 -2.410540e-01 1.871329e-01 3.278904e-01 1.724910e-01 4.464903e-01 -4.670056e-02 5.264876e-01 1.119842e+00
<VARIANCE> 39
 8.765204e+00 2.561414e+01 2.675265e+01 3.677689e+01 2.855934e+01 4.996817e+01 5.606420e+01 2.802351e+01 4.340474e+01 3.460406e+01 3.634192e+01 4.031453e+01 1.323630e+01 9.253491e-01 1.054163e+00 1.144292e+00 2.173053e+00 1.780238e+00 2.091297e+00 3.265309e+00 2.669327e+00 2.371878e+00 2.458807e+00 2.149268e+00 2.556246e+00 1.999106e+00 1.233761e-01 3.283695e-01 2.361011e-01 4.014664e-01 3.825885e-01 3.909205e-01 6.906261e-01 5.683137e-01 6.546005e-01 5.682852e-01 5.768149e-01 7.714877e-01 3.267885e-01
<GCONST> 1.130037e+02
<STATE> 4
<MEAN> 39
 1.808106e+00 -5.781410e+00 -2.746106e+00 -1.270452e+01 -3.983737e-01 -1.103169e+01 -1.390696e+01 -1.246674e+01 -8.457400e+00 -5.820392e+00 -1.225317e+01 -7.962548e+00 6.072102e+01 -5.589673e-01 -3.383301e+00 -1.583040e+00 -2.965805e+00 4.515703e-01 2.126808e-01 1.489554e+00 1.458654e+00 2.250443e-01 8.514627e-01 -4.682074e-01 1.557907e+00 4.493131e+00 -5.400403e-01 -8.323061e-01 -7.000131e-02 -4.867835e-01 2.918959e-01 3.381884e-01 5.863428e-01 6.992832e-01 -2.086814e-01 1.161604e-01 3.171270e-02 7.085124e-01 6.686360e-01
<VARIANCE> 39
 9.022525e+00 8.405337e+01 3.936343e+01 6.946706e+01 3.083912e+01 3.738816e+01 5.740005e+01 5.632132e+01 5.084614e+01 4.186425e+01 3.598950e+01 5.951604e+01 8.762800e+01 1.982157e+00 8.484082e+00 3.147951e+00 6.068542e+00 5.589822e+00 3.877234e+00 8.394878e+00 7.009543e+00 6.339826e+00 4.832737e+00 5.352369e+00 7.119903e+00 5.376857e+00 2.124337e-01 1.326575e+00 8.035610e-01 1.872585e+00 7.342812e-01 5.347293e-01 1.565785e+00 1.382884e+00 1.140929e+00 1.013876e+00 9.009976e-01 1.251256e+00 1.777735e+00
<GCONST> 1.426478e+02
<TRANSP> 5
 0.000000e+00 1.000000e+00 0.000000e+00 0.000000e+00 0.000000e+00
 0.000000e+00 4.741134e-01 5.258866e-01 0.000000e+00 0.000000e+00
 0.000000e+00 0.000000e+00 5.770751e-01 4.229249e-01 0.000000e+00
 0.000000e+00 0.000000e+00 0.000000e+00 7.071403e-01 2.928597e-01
 0.000000e+00 0.000000e+00 0.000000e+00 0.000000e+00 0.000000e+00
<ENDHMM>
~h "c"
<BEGINHMM>
<NUMSTATES> 5
<STATE> 2
<MEAN> 39
 -5.494520e+00 -5.977106e+00 -3.757897e+00 -1.022002e+01 1.115902e+00 -5.121358e+00 -5.161049e+00 -4.079593e+00 -2.151166e+00 -2.979995e+00 -5.228714e+00 -3.124602e+00 5.107494e+01 -7.441955e-01 -3.228549e-01 -4.319594e-01 7.874408e-01 1.450815e-01 4.367001e-01 9.253216e-01 4.230610e-01 8.660282e-01 3.247350e-01 6.655245e-01 -1.569287e-01 -9.668930e-01 4.061082e-02 2.644015e-02 -1.877278e-01 -3.435977e-01 -4.562898e-02 -3.631871e-01 -2.640203e-01 6.651627e-03 -1.089310e-01 1.786228e-01 3.360797e-02 2.690411e-01 8.592406e-01
<VARIANCE> 39
 1.381258e+01 2.794506e+01 2.905404e+01 4.494276e+01 4.038393e+01 4.105077e+01 4.169078e+01 4.005312e+01 3.286169e+01 4.053070e+01 4.453202e+01 4.001578e+01 2.228593e+01 9.521766e-01 1.959978e+00 2.097150e+00 3.254992e+00 3.453933e+00 3.279242e+00 3.502973e+00 3.224445e+00 3.219293e+00 3.371456e+00 3.227417e+00 3.090286e+00 3.969271e+00 2.239156e-01 4.192128e-01 3.999619e-01 7.272705e-01 7.589203e-01 6.404441e-01 6.958236e-01 7.275587e-01 6.507739e-01 6.626148e-01 5.711632e-01 5.819855e-01 6.448591e-01
<GCONST> 1.235002e+02
<STATE> 3
<MEAN> 39
 -7.831939e+00 -6.881795e+00 -5.626355e+00 -7.750356e+00 1.936794e+00 -5.484425e+00 -3.380046e+00 -2.489042e+00 4.485356e-01 -1.482836e+00 -2.700343e+00 -2.845032e+00 5.122576e+01 -1.783690e-01 8.337217e-02 -1.147952e+00 -2.924488e-01 6.145135e-01 -1.260296e+00 1.815554e-01 4.924211e-01 2.433199e-01 8.550174e-01 5.661108e-01 7.513024e-01 2.867039e+00 4.614694e-01 1.395464e-01 5.075811e-02 -1.046723e+00 -2.859977e-01 -3.714378e-01 -4.626068e-01 -2.340623e-01 -5.724866e-01 -1.888387e-01 -6.181965e-01 1.776261e-01 1.071734e+00
<VARIANCE> 39
 1.369479e+01 2.597621e+01 2.968211e+01 3.573556e+01 4.865849e+01 3.909564e+01 3.709863e+01 3.121117e+01 2.758603e+01 3.404996e+01 2.967406e+01 2.629025e+01 3.605742e+01 1.882682e+00 3.171065e+00 4.109510e+00 6.720639e+00 7.407998e+00 5.119474e+00 5.440366e+00 4.576207e+00 3.733344e+00 4.896883e+00 3.700384e+00 3.633477e+00 9.251291e+00 3.251619e-01 4.321491e-01 5.218055e-01 1.265661e+00 8.154646e-01 7.747291e-01 9.328146e-01 7.300562e-01 6.578282e-01 7.358451e-01 8.120442e-01 6.513717e-01 8.476393e-01
<GCONST> 1.311494e+02
<STATE> 4
<MEAN> 39
 -6.164484e+00 -6.536048e+00 -8.455186e+00 -1.354679e+01 2.145705e+00 -1.030179e+01 -4.909565e+00 -2.335358e+00 -1.103558e+00 1.140044e-01 -4.237821e+00 -1.959029e-01 6.374774e+01 1.053722e+00 -2.009231e-01 -2.223717e-01 -3.981733e+00 -7.545406e-01 -7.566764e-01 -1.086646e+00 -7.485465e-01 -1.553135e+00 -2.367560e-01 -2.111874e+00 4.253576e-01 3.626405e+00 4.364903e-02 -3.090139e-01 4.244973e-01 -3.884000e-01 -1.322342e-01 6.628357e-01 -1.719410e-01 -3.368327e-01 -5.121340e-01 -5.558906e-01 -5.636095e-01 -3.861256e-01 -4.883925e-01
<VARIANCE> 39
 2.378101e+01 3.932258e+01 3.464081e+01 1.162239e+02 7.169728e+01 6.368908e+01 8.198225e+01 3.837308e+01 3.409620e+01 4.367171e+01 5.369130e+01 3.488234e+01 8.890734e+01 2.455352e+00 5.076115e+00 3.546499e+00 1.243826e+01 5.670106e+00 6.819779e+00 8.657528e+00 5.005349e+00 4.552461e+00 5.075323e+00 6.208437e+00 4.599915e+00 6.833456e+00 4.433136e-01 5.087195e-01 6.221955e-01 2.360074e+00 1.416935e+00 1.159672e+00 1.563177e+00 8.413205e-01 8.555801e-01 9.008621e-01 1.366794e+00 6.909146e-01 9.576582e-01
<GCONST> 1.440794e+02
<TRANSP> 5
 0.000000e+00 1.000000e+00 0.000000e+00 0.000000e+00 0.000000e+00
 0.000000e+00 7.214275e-01 2.785725e-01 0.000000e+00 0.000000e+00
 0.000000e+00 0.000000e+00 4.097672e-01 5.902328e-01 0.000000e+00
 0.000000e+00 0.000000e+00 0.000000e+00 5.403115e-01 4.596885e-01
 0.000000e+00 0.000000e+00 0.000000e+00 0.000000e+00 0.000000e+00
<ENDHMM>
~h "d"
<BEGINHMM>
<NUMSTATES> 5
<STATE> 2
<MEAN> 39
 -1.018176e+01 2.074443e+00 -4.530424e+00 -5.575966e+00 -5.344488e+00 -1.572626e+01 -8.494551e+00 -1.075873e+01 -8.501173e+00 -1.029415e+01 -8.384328e+00 -8.690335e-01 6.343732e+01 -1.911012e+00 1.901627e+00 -8.767956e-01 2.466951e+00 -1.304551e-01 3.654973e-01 4.637246e-01 -9.622527e-01 1.019832e-02 -6.896126e-01 1.438247e-01 -1.152349e+00 -3.124445e-01 -1.592141e-01 -2.321954e-01 -8.180804e-02 -1.098893e-01 1.113415e-01 3.910970e-01 2.089103e-01 2.680370e-01 1.457245e-03 2.073644e-01 6.005633e-02 -7.458992e-02 1.279840e-01
<VARIANCE> 39
 3.726513e+01 4.392846e+01 3.097222e+01 7.451134e+01 3.437746e+01 6.009849e+01 6.214337e+01 3.732994e+01 4.257693e+01 4.372809e+01 4.132403e+01 5.153021e+01 4.201213e+01 2.165050e+00 2.083371e+00 2.547554e+00 4.061207e+00 3.371862e+00 6.090374e+00 6.417696e+00 3.740698e+00 3.632631e+00 4.564571e+00 4.115793e+00 4.032346e+00 2.317564e+00 3.837930e-01 3.695178e-01 4.954140e-01 8.837773e-01 5.959200e-01 9.767303e-01 9.322125e-01 7.290078e-01 5.854967e-01 8.994082e-01 7.031257e-01 8.542448e-01 1.596388e-01
<GCONST> 1.309444e+02
<STATE> 3
<MEAN> 39
 -1.882596e+01 5.813647e+00 -7.839831e+00 1.066595e+00 -4.673923e+00 -1.160748e+01 -4.738613e+00 -1.035638e+01 -7.636217e+00 -9.175546e+00 -6.024119e+00 -3.756733e+00 6.339584e+01 1.147748e-01 -3.665917e-01 1.663374e-01 -7.948631e-01 -2.141762e-01 -6.188252e-01 -4.203649e-01 3.184586e-01 2.482981e-01 3.498029e-01 1.408639e-01 6.072357e-01 7.122503e-01 8.483225e-01 -6.640548e-01 3.016783e-01 -1.106698e+00 -5.248384e-02 -4.972641e-01 -4.962674e-01 2.468865e-01 -1.591742e-02 4.183873e-02 -3.562391e-01 4.615959e-01 3.744768e-01
<VARIANCE> 39
 2.781132e+01 2.460500e+01 2.284107e+01 2.945741e+01 2.733228e+01 5.175382e+01 3.552908e+01 3.262708e+01 3.372802e+01 3.838457e+01 3.185202e+01 3.189025e+01 9.266026e+00 6.562622e+00 2.433934e+00 2.289358e+00 6.062880e+00 2.700649e+00 7.163252e+00 6.293772e+00 2.955575e+00 3.061231e+00 2.874888e+00 3.721888e+00 3.135677e+00 1.303649e+00 6.096154e-01 4.084919e-01 3.781767e-01 5.148298e-01 5.808728e-01 1.134141e+00 9.927611e-01 7.550433e-01 6.431417e-01 6.616261e-01 8.775412e-01 5.332221e-01 1.565367e-01
<GCONST> 1.243266e+02
<STATE> 4
<MEAN> 39
 -1.009370e+01 -1.459224e+00 -4.738450e+00 -1.336604e+01 -6.096447e+00 -1.798769e+01 -1.163211e+01 -6.614062e+00 -7.079170e+00 -8.346494e+00 -1.104543e+01 3.374254e-01 6.984544e+01 2.010694e+00 -3.864603e+00 3.715460e-01 -4.549269e+00 8.156245e-01 -3.381628e-01 -6.366109e-01 2.468783e+00 -2.646116e-01 7.631302e-01 -1.872648e+00 1.226510e+00 2.302639e+00 -3.073494e-01 -3.712472e-01 -1.255366e-01 1.142331e-01 5.233237e-01 7.540448e-01 5.328251e-01 1.366741e-01 -3.181538e-01 1.487319e-01 -9.188497e-02 -3.898734e-01 1.656841e-02
<VARIANCE> 39
 2.875137e+01 8.146967e+01 2.759307e+01 1.132062e+02 4.889019e+01 4.511890e+01 6.715034e+01 8.051455e+01 4.275257e+01 3.617553e+01 4.493213e+01 4.898887e+01 2.496972e+01 3.730114e+00 4.192041e+00 2.428798e+00 6.605361e+00 6.857656e+00 7.854781e+00 1.015856e+01 7.960184e+00 7.296093e+00 4.639887e+00 5.471333e+00 4.336957e+00 1.071915e+00 8.784704e-01 1.166741e+00 3.540642e-01 1.985002e+00 8.857751e-01 1.321050e+00 1.422021e+00 2.200025e+00 1.257596e+00 7.895972e-01 1.407841e+00 7.630152e-01 3.167575e-01
<GCONST> 1.425823e+02
<TRANSP> 5
 0.000000e+00 1.000000e+00 0.000000e+00 0.000000e+00 0.000000e+00
 0.000000e+00 7.614751e-01 2.385249e-01 0.000000e+00 0.000000e+00
 0.000000e+00 0.000000e+00 7.846466e-01 2.153534e-01 0.000000e+00
 0.000000e+00 0.000000e+00 0.000000e+00 6.720970e-01 3.279030e-01
 0.000000e+00 0.000000e+00 0.000000e+00 0.000000e+00 0.000000e+00
<ENDHMM>
~h "e"
<BEGINHMM>
<NUMSTATES> 5
<STATE> 2
<MEAN> 39
 -6.464708e+00 -9.730349e+00 -3.093734e+00 -2.214543e+01 -9.310374e+00 -1.576232e+01 -1.831035e+00 -4.324928e+00 -9.435824e+00 -7.988919e+00 -8.515574e+00 4.360273e+00 7.116370e+01 7.774607e-02 -2.768431e+00 -1.106843e+00 -3.145087e+00 4.093656e-01 -1.428093e+00 2.637170e+00 5.580090e-01 -1.542770e+00 -1.053190e-01 -1.539664e+00 5.829538e-02 2.610967e+00 -6.292189e-01 -8.850176e-02 -1.024634e-01 1.158515e+00 7.978936e-01 1.151734e+00 5.066137e-01 -1.976913e-01 6.658973e-02 7.505583e-02 3.413559e-01 -3.953451e-01 -1.894787e-01
<VARIANCE> 39
 9.825524e+00 2.907619e+01 2.431203e+01 3.101676e+01 1.732106e+01 5.570482e+01 4.547554e+01 4.709692e+01 3.414797e+01 4.535562e+01 6.356395e+01 5.038222e+01 2.299481e+01 3.919432e+00 3.297173e+00 1.755160e+00 5.424440e+00 6.915614e+00 9.637963e+00 5.494776e+00 7.268430e+00 4.091625e+00 8.156396e+00 4.758536e+00 3.275875e+00 1.671287e+00 7.508990e-01 5.506996e-01 2.808035e-01 1.088011e+00 1.107627e+00 8.863175e-01 1.569859e+00 1.266358e+00 7.400548e-01 1.643076e+00 4.750159e-01 6.682462e-01 3.195877e-01
<GCONST> 1.330255e+02
<STATE> 3
<MEAN> 39
 -7.967339e+00 -1.439412e+01 -3.962901e+00 -2.307627e+01 -6.611720e+00 -1.219893e+01 4.530001e+00 -5.337502e+00 -1.239908e+01 -8.844011e+00 -9.031426e+00 5.306378e-01 7.501736e+01 -4.582306e-01 -1.777011e+00 -9.170340e-01 -4.482084e-01 8.445991e-01 7.138939e-01 2.011002e+00 -7.207041e-01 -1.171538e+00 -1.167645e-01 1.611541e-01 -6.910381e-02 1.255340e+00 -1.057537e-01 2.722395e-01 2.130959e-01 7.951193e-01 2.734997e-01 3.097838e-01 -5.415856e-01 -2.587813e-01 1.119505e-01 2.694227e-01 3.103574e-01 2.709536e-01 -4.421880e-01
<VARIANCE> 39
 3.676353e+00 1.420253e+01 1.345282e+01 1.805351e+01 1.721116e+01 2.228797e+01 3.469458e+01 5.223888e+01 3.446095e+01 3.655125e+01 4.355710e+01 2.801880e+01 6.758866e+00 5.000449e-01 1.917445e+00 1.245398e+00 3.335824e+00 3.136419e+00 6.523350e+00 2.575501e+00 3.345978e+00 2.959275e+00 2.561831e+00 2.482879e+00 2.218278e+00 5.523590e-01 2.186921e-01 3.931682e-01 1.999011e-01 5.004790e-01 7.429413e-01 6.381679e-01 9.293682e-01 1.282765e+00 4.925342e-01 6.930169e-01 6.474929e-01 4.019590e-01 2.005453e-01
<GCONST> 1.110722e+02
<STATE> 4
<MEAN> 39
 -8.857927e+00 -1.752900e+01 -5.164084e+00 -2.368083e+01 -4.199312e+00 -1.217294e+01 4.697668e+00 -8.763630e+00 -1.367346e+01 -6.147840e+00 -1.012572e+01 2.528708e+00 7.684662e+01 1.801638e-01 1.778832e-01 7.057305e-02 3.168046e-02 1.638364e-01 -4.655082e-01 -6.162779e-01 -8.084803e-02 3.633322e-01 8.316752e-02 -2.308854e-01 2.163202e-02 -2.629621e-01 1.197149e-01 2.935160e-01 6.967174e-02 8.211748e-02 -9.269198e-03 -1.148735e-01 -3.022291e-01 5.014584e-02 1.534959e-01 -7.362106e-02 -6.609470e-04 -7.886698e-02 -2.586583e-01
<VARIANCE> 39
 2.355953e+00 1.529257e+01 9.965512e+00 1.277169e+01 3.727687e+01 2.927059e+01 3.102073e+01 3.089237e+01 3.898862e+01 2.985819e+01 3.422559e+01 1.764763e+01 5.511793e+00 4.043056e-01 1.713615e+00 9.325619e-01 1.354222e+00 2.018891e+00 2.179882e+00 2.087793e+00 2.966644e+00 2.273450e+00 1.459172e+00 1.459063e+00 1.147084e+00 8.915053e-01 5.220460e-02 1.698913e-01 1.142425e-01 3.654102e-01 2.594826e-01 2.892493e-01 3.656339e-01 5.548465e-01 4.577280e-01 3.215160e-01 2.406362e-01 2.393947e-01 1.046472e-01
<GCONST> 9.479580e+01
<TRANSP> 5
 0.000000e+00 1.000000e+00 0.000000e+00 0.000000e+00 0.000000e+00
 0.000000e+00 4.071209e-01 5.928791e-01 0.000000e+00 0.000000e+00
 0.000000e+00 0.000000e+00 4.501987e-01 5.498013e-01 0.000000e+00
 0.000000e+00 0.000000e+00 0.000000e+00 9.149825e-01 8.501746e-02
 0.000000e+00 0.000000e+00 0.000000e+00 0.000000e+00 0.000000e+00
<ENDHMM>
~h "f"
<BEGINHMM>
<NUMSTATES> 5
<STATE> 2
<MEAN> 39
 -1.317812e+01 -1.257681e+00 8.411334e+00 -2.336302e+01 -1.242317e+01 -1.012545e+01 -1.742667e+01 -1.181063e+01 -1.582857e+01 -5.067186e-01 -1.358760e+01 -5.885955e-01 7.205276e+01 9.577343e-02 -3.310091e-02 1.077876e+00 -6.365682e-01 5.632560e-02 5.472066e-01 -4.780460e-01 6.322169e-02 -1.040420e-01 4.804546e-01 -7.647572e-01 -2.705799e-01 1.858131e-01 3.602828e-02 5.327511e-02 -9.404538e-02 2.450417e-01 1.180824e-01 -2.802946e-02 7.232773e-02 -4.810214e-02 8.329423e-02 -1.611345e-01 1.029789e-01 1.070433e-01 -1.278654e-01
<VARIANCE> 39
 4.301995e+00 1.283865e+01 8.917236e+01 4.263954e+01 5.995889e+01 2.350948e+01 4.707870e+01 2.693564e+01 2.802483e+01 2.013037e+01 1.541225e+02 6.755859e+01 8.516794e+00 6.946908e-01 6.533995e-01 2.036370e+00 2.827355e+00 1.912785e+00 1.544879e+00 2.716405e+00 1.789134e+00 1.912660e+00 2.359216e+00 4.252317e+00 1.303651e+00 3.997795e-01 1.672365e-01 1.635752e-01 2.608129e-01 3.683069e-01 2.909923e-01 2.182368e-01 4.079117e-01 2.555723e-01 3.549866e-01 3.703258e-01 4.974784e-01 2.342474e-01 6.094784e-02
<GCONST> 1.040488e+02
<STATE> 3
<MEAN> 39
 -8.522408e+00 -2.187415e+00 1.372284e+01 -2.067238e+01 -9.699213e+00 -1.038523e+01 -1.341041e+01 -1.191226e+01 -9.367268e+00 -1.517980e+00 -1.703140e+01 9.858618e-01 6.630527e+01 4.479333e-01 1.091431e-01 -3.604957e-01 3.304486e-01 1.479292e+00 -1.793347e-01 1.673697e+00 1.005895e+00 2.510629e+00 -4.789593e-01 9.378112e-01 7.669578e-01 -1.968155e+00 -1.635555e-01 -1.666230e-01 -3.804900e-01 -4.087414e-01 1.474230e-01 2.322304e-01 -3.783206e-03 2.563689e-01 2.158222e-01 3.182872e-01 1.440438e-01 -9.058630e-02 -3.851657e-02
<VARIANCE> 39
 2.211965e+00 1.719402e+01 1.102955e+01 4.502475e+01 2.484121e+01 4.218851e+01 4.015631e+01 3.032831e+01 5.027736e+01 8.612109e+01 1.016488e+02 6.943597e+01 5.009021e+01 6.491635e-01 1.022148e+00 8.409858e-01 6.651769e+00 9.875962e-01 2.882302e+00 1.458716e+00 1.134212e+00 2.004042e+00 4.088602e+00 2.017241e+00 5.011059e+00 5.673435e+00 1.067203e-01 2.341316e-01 1.641538e-01 1.036684e+00 2.601602e-01 2.206658e-01 5.573105e-01 1.671381e-01 8.812157e-01 8.230192e-01 5.681499e-01 9.429179e-01 8.748773e-01
<GCONST> 1.139752e+02
<STATE> 4
<MEAN> 39
 -8.934803e+00 -2.966152e+00 7.574932e+00 -1.777086e+01 -2.652301e+00 -4.596807e+00 -8.562526e+00 -6.678750e+00 2.956274e-01 3.822392e+00 -8.589175e+00 -2.345949e+00 5.568476e+01 -5.469374e-02 -1.030339e+00 -3.405061e+00 2.545441e-01 2.242279e+00 -5.722859e-01 2.815082e-01 9.241319e-01 5.206776e-01 2.022578e-01 1.662122e+00 -3.439071e-01 9.656655e-01 1.120162e-02 -1.224788e-01 -2.814435e-01 2.377068e-01 -3.672441e-02 -3.402406e-01 2.043544e-02 -3.950596e-01 -8.172289e-01 -4.675779e-01 -5.243767e-01 -4.235686e-01 1.279277e+00
<VARIANCE> 39
 7.853051e+00 2.075819e+01 1.056869e+02 5.308157e+01 6.028550e+01 5.807468e+01 2.090241e+01 2.999408e+01 1.425635e+01 3.051819e+01 3.990662e+01 1.118036e+02 7.866528e+01 1.282424e+00 1.054366e+00 4.213206e+00 3.926691e+00 7.318104e+00 2.594914e+00 2.045269e+00 8.609623e-01 1.862073e+00 2.113194e+00 7.380032e+00 1.556497e+00 1.309839e+01 5.867968e-01 6.024172e-01 1.216667e+00 2.116400e+00 1.895176e+00 9.395226e-01 5.905680e-01 3.012648e-01 5.506202e-01 4.958597e-01 1.702272e+00 6.335038e-01 9.475709e-01
<GCONST> 1.293300e+02
<TRANSP> 5
 0.000000e+00 1.000000e+00 0.000000e+00 0.000000e+00 0.000000e+00
 0.000000e+00 9.440417e-01 5.595833e-02 0.000000e+00 0.000000e+00
 0.000000e+00 0.000000e+00 8.253945e-01 1.746055e-01 0.000000e+00
 0.000000e+00 0.000000e+00 0.000000e+00 6.569287e-01 3.430713e-01
 0.000000e+00 0.000000e+00 0.000000e+00 0.000000e+00 0.000000e+00
<ENDHMM>
~h "g"
<BEGINHMM>
<NUMSTATES> 5
<STATE> 2
<MEAN> 39
 -1.624150e+00 -6.629691e+00 -1.119160e+00 -2.233418e+01 -2.531040e+00 -1.495654e+01 -1.190868e+01 -8.364965e+00 -8.570288e+00 1.625664e+00 -1.574192e+01 -6.629783e-01 6.540990e+01 -4.398400e-01 2.427913e-01 -7.380442e-01 -3.598655e+00 5.479252e-01 -6.077661e-01 -3.339980e-01 1.548082e+00 -3.014157e-01 1.112049e+00 -6.540182e-01 1.034365e+00 1.685272e+00 -1.877062e-01 -5.758344e-01 -2.695508e-01 3.259966e-01 4.067789e-01 3.897471e-01 3.114365e-01 1.239425e-01 -7.872639e-02 -2.754991e-01 4.128384e-01 1.646319e-01 4.029284e-01
<VARIANCE> 39
 1.818309e+01 5.110617e+01 4.858942e+01 7.193513e+01 2.069506e+01 3.757607e+01 7.749746e+01 3.971687e+01 2.550428e+01 5.889728e+01 3.982557e+01 3.142970e+01 5.577127e+01 7.172028e-01 4.239120e+00 2.325584e+00 8.409098e+00 5.818752e+00 4.890997e+00 5.515805e+00 4.575673e+00 8.021913e+00 3.424599e+00 4.955631e+00 2.940830e+00 4.426603e+00 1.946732e-01 3.327874e-01 5.793374e-01 1.280812e+00 4.909528e-01 1.228983e+00 7.281716e-01 1.472692e+00 9.031947e-01 7.658890e-01 8.256441e-01 4.801693e-01 5.030248e-01
<GCONST> 1.325181e+02
<STATE> 3
<MEAN> 39
 -4.046590e+00 -1.085646e+01 -6.130279e+00 -3.045274e+01 2.732129e+00 -1.255150e+01 -8.291759e+00 -4.235941e+00 -8.490012e+00 -1.832824e-01 -1.338543e+01 4.870639e+00 7.290971e+01 -3.993610e-01 -8.587753e-01 -7.699842e-01 -2.300400e-01 1.223763e+00 5.655786e-01 5.557446e-02 8.843454e-02 -3.090482e-01 3.010557e-01 5.053058e-01 8.295310e-01 1.100470e+00 2.438352e-01 -1.043499e-01 1.464737e-01 8.466315e-01 5.677965e-02 7.502595e-02 -1.040205e-01 -5.368510e-01 -5.445780e-02 -1.512754e-01 4.717528e-01 -3.931141e-01 -5.573223e-01
<VARIANCE> 39
 7.956348e+00 3.857504e+01 5.272268e+01 6.159009e+01 5.387430e+01 6.917706e+01 7.186455e+01 2.441458e+01 2.937340e+01 4.457145e+01 1.019419e+02 3.616027e+01 2.969818e+01 1.024431e+00 7.338134e+00 2.293204e+00 2.645079e+00 3.471146e+00 8.785009e+00 8.012369e+00 1.368296e+00 1.787832e+00 4.849172e+00 2.819153e+00 3.753371e+00 4.913622e+00 4.626445e-02 4.219616e-01 2.970850e-01 6.770968e-01 5.242361e-01 6.421777e-01 4.446817e-01 6.792421e-01 9.243312e-01 5.023728e-01 3.829838e-01 7.355239e-01 1.680884e-01
<GCONST> 1.240631e+02
<STATE> 4
<MEAN> 39
 -3.919757e+00 -9.243439e+00 -2.618360e+00 -1.987688e+01 2.602416e+00 -1.837412e+01 -9.247048e+00 -1.041571e+01 -8.365149e+00 -4.113047e-01 -1.899169e+01 2.997304e+00 6.672684e+01 6.922914e-02 4.271999e-03 -3.609855e-01 -8.354859e-02 4.002185e-01 7.264283e-01 -2.939331e-01 -3.021355e-01 1.882022e-01 -1.834204e-01 1.455332e-01 -6.861570e-01 -1.922212e-01 -6.812254e-02 -3.050773e-01 -7.723746e-02 -1.857136e-01 -3.937742e-02 2.697034e-01 2.759971e-01 1.967349e-01 3.453706e-02 -8.851412e-02 2.199965e-02 -9.775731e-02 3.126202e-01
<VARIANCE> 39
 1.380954e+01 2.253756e+01 3.577084e+01 1.097726e+02 4.567807e+01 6.484940e+01 5.614065e+01 3.121114e+01 3.526211e+01 3.892112e+01 4.915499e+01 5.303452e+01 4.360574e+01 2.013647e+00 2.389239e+00 2.061236e+00 7.485129e+00 2.847873e+00 5.160183e+00 9.757754e+00 4.772780e+00 3.308801e+00 5.050580e+00 3.322438e+00 5.211284e+00 5.642285e+00 4.238066e-01 3.552336e-01 4.360153e-01 1.186173e+00 7.511876e-01 1.035053e+00 1.541548e+00 9.598088e-01 6.619651e-01 1.236625e+00 6.596130e-01 1.254632e+00 5.523545e-01
<GCONST> 1.348590e+02
<TRANSP> 5
 0.000000e+00 1.000000e+00 0.000000e+00 0.000000e+00 0.000000e+00
 0.000000e+00 5.604848e-01 4.395152e-01 0.000000e+00 0.000000e+00
 0.000000e+00 0.000000e+00 3.986593e-01 6.013408e-01 0.000000e+00
 0.000000e+00 0.000000e+00 0.000000e+00 7.952266e-01 2.047734e-01
 0.000000e+00 0.000000e+00 0.000000e+00 0.000000e+00 0.000000e+00
<ENDHMM>
~h "h"
<BEGINHMM>
<NUMSTATES> 5
<STATE> 2
<MEAN> 39
 -7.141109e+00 -9.813390e+00 -1.619203e+00 -1.483022e+01 -8.330589e-01 -6.021016e+00 -5.392021e+00 -8.846384e+00 -6.643127e+00 -1.116786e+01 -5.888064e+00 -1.870536e+00 6.763738e+01 -4.985939e-01 -6.335148e-01 -1.018170e-01 8.615329e-01 8.001322e-01 1.780815e-01 -3.367090e-02 -1.316804e+00 2.256386e-01 -1.205539e+00 7.072100e-01 -6.489117e-01 1.257646e-01 1.059897e-01 3.110715e-02 5.543673e-03 -9.373591e-02 -2.725388e-01 -1.649192e-01 -3.658232e-01 6.381693e-02 2.465852e-02 2.561790e-01 -1.144442e-01 -1.061526e-01 2.999915e-02
<VARIANCE> 39
 2.220060e+01 4.732272e+01 6.458308e+01 1.385177e+02 7.656283e+01 6.161735e+01 6.468745e+01 5.122361e+01 4.654639e+01 5.537468e+01 5.031451e+01 4.126254e+01 5.570927e+01 1.098053e+00 2.044303e+00 1.906164e+00 3.858402e+00 3.980604e+00 2.911189e+00 3.709198e+00 3.771128e+00 3.479630e+00 3.593070e+00 3.307168e+00 2.059199e+00 1.002236e+00 1.785182e-01 2.424503e-01 3.297882e-01 6.873614e-01 6.391687e-01 6.758206e-01 6.988896e-01 6.728820e-01 6.816310e-01 7.319905e-01 5.220017e-01 4.180544e-01 1.023670e-01
<GCONST> 1.254350e+02
<STATE> 3
<MEAN> 39
 -8.964586e+00 -1.237582e+01 -1.569603e+00 -1.104666e+01 6.259046e-01 -5.933909e+00 -7.533704e+00 -1.191986e+01 -5.468204e+00 -1.372886e+01 -4.268765e+00 -4.714699e+00 6.684521e+01 8.326996e-03 -5.402794e-01 -8.121965e-02 -6.145296e-02 -1.701008e-01 -2.833913e-01 -9.674307e-01 -7.141849e-01 -1.439606e-02 -3.382762e-01 -2.459136e-02 -5.761074e-01 4.040336e-01 2.700290e-01 -2.950075e-02 -1.390215e-01 -4.838639e-01 -3.071572e-01 -1.202508e-01 -7.764445e-02 3.229528e-01 -1.257506e-01 4.077877e-01 -2.213894e-01 2.079792e-01 1.514526e-01
<VARIANCE> 39
 2.674948e+01 5.159996e+01 4.225500e+01 7.628447e+01 5.942260e+01 4.662140e+01 4.788505e+01 3.922213e+01 5.089542e+01 5.224412e+01 4.381581e+01 3.317561e+01 4.167448e+01 1.261081e+00 1.343819e+00 1.635509e+00 5.050930e+00 2.940215e+00 2.856198e+00 2.640766e+00 2.763106e+00 2.897782e+00 2.730104e+00 2.311988e+00 1.955899e+00 1.064887e+00 1.928835e-01 1.989073e-01 2.474525e-01 5.727891e-01 5.380132e-01 5.335106e-01 4.946738e-01 6.236222e-01 5.400664e-01 5.807711e-01 4.464158e-01 3.500535e-01 8.459949e-02
<GCONST> 1.186181e+02
<STATE> 4
<MEAN> 39
 -7.839064e+00 -1.562797e+01 -2.752129e+00 -1.398683e+01 -1.166822e+00 -8.208346e+00 -1.046889e+01 -1.341169e+01 -6.158797e+00 -1.315293e+01 -4.920838e+00 -5.017582e+00 6.992138e+01 6.593424e-01 -9.382274e-01 -5.258377e-01 -1.125542e+00 -9.253825e-02 -3.615406e-01 -4.441599e-01 3.824002e-01 -2.244166e-01 8.506541e-01 -6.412119e-01 4.790413e-01 9.462971e-01 3.296508e-04 -1.631109e-01 -9.199291e-02 -1.052551e-01 1.992206e-01 1.520028e-01 2.159593e-01 3.789085e-01 -1.511460e-01 3.570408e-01 -1.402549e-01 2.249405e-01 1.360030e-01
<VARIANCE> 39
 3.025927e+01 5.532175e+01 2.857370e+01 6.183120e+01 4.467615e+01 3.432818e+01 3.898682e+01 3.274662e+01 3.799172e+01 4.031277e+01 3.245263e+01 3.105072e+01 2.468858e+01 1.172107e+00 1.489579e+00 1.567765e+00 3.112228e+00 2.937031e+00 2.904169e+00 2.637236e+00 2.911194e+00 2.723482e+00 3.104247e+00 2.082028e+00 2.194562e+00 9.181938e-01 2.335567e-01 1.620501e-01 2.428655e-01 5.088528e-01 5.295692e-01 4.632390e-01 4.019027e-01 4.623740e-01 4.388017e-01 5.074741e-01 3.184571e-01 3.038383e-01 9.836583e-02
<GCONST> 1.138033e+02
<TRANSP> 5
 0.000000e+00 1.000000e+00 0.000000e+00 0.000000e+00 0.000000e+00
 0.000000e+00 5.148985e-01 4.851015e-01 0.000000e+00 0.000000e+00
 0.000000e+00 0.000000e+00 5.576515e-01 4.423485e-01 0.000000e+00
 0.000000e+00 0.000000e+00 0.000000e+00 7.233180e-01 2.766820e-01
 0.000000e+00 0.000000e+00 0.000000e+00 0.000000e+00 0.000000e+00
<ENDHMM>
~h "i"
<BEGINHMM>
<NUMSTATES> 5
<STATE> 2
<MEAN> 39
 -7.478695e+00 -1.129146e+01 1.115401e+00 -2.388330e+01 -1.148679e+01 -1.455797e+01 -6.509210e+00 -1.013982e+00 -1.018941e+01 9.397268e-01 -1.275926e+01 -6.363671e-01 7.551090e+01 -3.234518e-01 9.754896e-01 1.614570e+00 -3.862448e-01 -1.777654e+00 -4.615745e-01 -6.910660e-01 -7.597623e-01 -1.069132e+00 9.319592e-01 3.453208e-01 2.267212e-01 -5.546769e-01 8.990874e-02 -9.774073e-03 -7.912717e-02 2.242596e-01 5.951665e-01 2.738162e-01 -3.674195e-01 -5.215874e-01 -1.015164e-01 -1.503204e-01 1.150861e-01 -8.393052e-02 -2.324559e-01
<VARIANCE> 39
 7.310819e+00 2.280797e+01 3.557219e+01 3.510432e+01 5.078456e+01 2.705058e+01 1.120357e+02 7.415475e+01 4.517532e+01 4.344265e+01 4.103309e+01 3.995617e+01 1.248804e+01 5.950614e-01 1.540913e+00 1.587893e+00 2.289854e+00 3.924053e+00 3.102240e+00 4.782263e+00 3.493519e+00 5.279873e+00 3.988014e+00 4.695113e+00 3.183331e+00 6.255615e-01 1.027394e-01 1.805763e-01 1.861283e-01 5.350310e-01 4.912906e-01 6.255805e-01 6.927184e-01 6.457781e-01 7.120189e-01 7.747909e-01 6.964058e-01 7.055914e-01 9.013905e-02
<GCONST> 1.174947e+02
<STATE> 3
<MEAN> 39
 -8.986769e+00 -7.856006e+00 6.696652e+00 -2.416828e+01 -1.422208e+01 -1.391408e+01 -1.178708e+01 -7.064600e+00 -1.469247e+01 3.087077e+00 -1.194027e+01 5.273123e-01 7.298595e+01 2.400308e-01 5.892037e-01 8.425325e-01 7.199408e-01 3.688433e-01 -1.198252e-02 -7.972972e-01 -1.171980e+00 -7.486812e-01 -5.552285e-01 -1.554437e-01 3.593729e-02 -1.058775e+00 2.579186e-01 6.415415e-02 -3.208784e-01 6.459998e-01 5.905088e-01 -1.058254e-02 2.203764e-01 1.226448e-01 3.402226e-01 -5.104858e-01 5.913532e-02 -1.165719e-01 -3.756818e-01
<VARIANCE> 39
 1.168765e+01 2.039691e+01 2.798845e+01 4.043890e+01 3.801178e+01 2.986126e+01 5.758712e+01 4.819365e+01 4.616699e+01 3.585024e+01 4.281118e+01 5.641459e+01 1.243912e+01 8.062479e-01 1.420853e+00 1.535703e+00 2.444179e+00 2.592179e+00 2.647085e+00 3.779760e+00 2.684391e+00 3.049304e+00 3.129544e+00 2.672595e+00 2.617100e+00 1.049621e+00 1.442654e-01 2.349481e-01 2.685309e-01 4.287310e-01 6.521387e-01 5.465317e-01 6.835545e-01 5.071099e-01 8.179431e-01 6.021232e-01 6.225302e-01 4.865325e-01 1.608840e-01
<GCONST> 1.154516e+02
<STATE> 4
<MEAN> 39
 -6.546428e+00 -4.543629e+00 7.396866e+00 -1.709514e+01 -1.037620e+01 -1.234894e+01 -1.214388e+01 -9.871678e+00 -1.265431e+01 -1.131192e+00 -1.044507e+01 -1.012229e+00 6.501074e+01 6.309180e-01 6.167343e-01 -5.277091e-01 2.172256e+00 1.524638e+00 2.344369e-01 4.998376e-01 -1.280269e-01 9.017526e-01 -1.310522e+00 4.948718e-01 -5.274785e-01 -2.203775e+00 -1.082816e-01 -1.529821e-02 -3.724895e-01 7.684284e-02 1.436609e-01 1.056770e-01 2.300254e-01 2.695476e-01 3.645953e-01 -1.526414e-02 1.311803e-01 -1.558142e-01 -8.381069e-02
<VARIANCE> 39
 1.596858e+01 3.432678e+01 4.131596e+01 7.326665e+01 4.233007e+01 5.270568e+01 5.310920e+01 3.932975e+01 7.064295e+01 4.487709e+01 6.423890e+01 5.261504e+01 5.916332e+01 1.325875e+00 2.150276e+00 1.858594e+00 3.808029e+00 3.863546e+00 3.051498e+00 4.738903e+00 3.572680e+00 4.387839e+00 4.011164e+00 3.014860e+00 2.990091e+00 2.512302e+00 2.357844e-01 4.328190e-01 3.676646e-01 5.523329e-01 6.124487e-01 5.292655e-01 6.772857e-01 6.673133e-01 8.139090e-01 6.405978e-01 6.081370e-01 5.050266e-01 3.082963e-01
<GCONST> 1.271044e+02
<TRANSP> 5
 0.000000e+00 1.000000e+00 0.000000e+00 0.000000e+00 0.000000e+00
 0.000000e+00 6.863315e-01 3.136685e-01 0.000000e+00 0.000000e+00
 0.000000e+00 0.000000e+00 6.506144e-01 3.493856e-01 0.000000e+00
 0.000000e+00 0.000000e+00 0.000000e+00 7.044939e-01 2.955061e-01
 0.000000e+00 0.000000e+00 0.000000e+00 0.000000e+00 0.000000e+00
<ENDHMM>
~h "k"
<BEGINHMM>
<NUMSTATES> 5
<STATE> 2
<MEAN> 39
 -7.412454e-01 3.319278e+00 1.750718e-01 -1.159117e+01 -5.526885e+00 -6.400318e+00 -6.293120e+00 -5.027746e+00 -4.020270e+00 -1.060708e+01 -6.682951e+00 -6.846988e+00 5.500064e+01 -5.034655e-01 -6.821805e-01 -1.344542e-01 6.954964e-01 5.232278e-01 6.129282e-01 1.793952e+00 9.170659e-01 7.082040e-01 1.074324e+00 -7.332860e-02 -3.778339e-02 -1.319579e+00 -2.829731e-01 -2.824768e-01 4.032699e-02 -1.346021e-01 -1.221583e-01 -1.419979e-01 -1.237139e-01 -1.665949e-01 4.300812e-02 3.363827e-01 1.897979e-01 2.804967e-01 4.766872e-01
<VARIANCE> 39
 3.328006e+01 3.939475e+01 2.313299e+01 7.076118e+01 4.100580e+01 4.020510e+01 3.908837e+01 2.285450e+01 3.159361e+01 4.454468e+01 3.197313e+01 3.288432e+01 4.306585e+01 9.642220e-01 1.168624e+00 2.542851e+00 2.556188e+00 2.816426e+00 2.562123e+00 2.437306e+00 2.354381e+00 3.254896e+00 2.664552e+00 3.018926e+00 2.134113e+00 2.197405e+00 1.031293e-01 2.220080e-01 5.519812e-01 5.800134e-01 5.379736e-01 4.215330e-01 4.872204e-01 5.142046e-01 7.824994e-01 3.911840e-01 6.518416e-01 6.075917e-01 8.407067e-01
<GCONST> 1.188869e+02
<STATE> 3
<MEAN> 39
 -8.102920e+00 -3.801817e+00 1.186261e+00 -1.052245e+01 -4.489792e+00 -6.428659e+00 -3.071227e+00 -5.028921e+00 -2.736366e+00 -2.646218e+00 -6.390959e+00 -2.742930e+00 5.553269e+01 -1.084523e+00 -9.813871e-01 3.087967e-01 -7.035263e-01 -1.171903e+00 -3.368080e-01 4.529385e-01 -5.803655e-01 -5.008957e-01 1.315103e+00 -1.281230e-01 1.343364e+00 2.081996e+00 1.020952e-01 1.122970e-01 8.928727e-02 -4.129073e-02 -3.501963e-01 -3.885378e-01 -3.818459e-01 -2.448831e-01 -5.474529e-01 -2.581614e-01 -2.665084e-01 4.891364e-02 6.966066e-01
<VARIANCE> 39
 2.522204e+01 2.458367e+01 2.611653e+01 6.078853e+01 5.408009e+01 3.090947e+01 5.347074e+01 3.522565e+01 4.789111e+01 4.094016e+01 3.531615e+01 7.225846e+01 1.192726e+02 1.887503e+00 2.375893e+00 2.309628e+00 6.116667e+00 6.295794e+00 3.963839e+00 7.242218e+00 3.829069e+00 8.095757e+00 4.954331e+00 4.803027e+00 5.639239e+00 1.017265e+01 3.829466e-01 4.251777e-01 5.139925e-01 8.682057e-01 1.420039e+00 6.960753e-01 1.111084e+00 9.279485e-01 1.208888e+00 5.976337e-01 9.188165e-01 1.402840e+00 2.019000e+00
<GCONST> 1.386734e+02
<STATE> 4
<MEAN> 39
 -8.581418e+00 -7.075373e+00 1.145869e+00 -1.385885e+01 -4.797117e+00 -8.591276e+00 -6.451849e+00 -5.840921e+00 -6.628722e+00 -4.452539e+00 -9.894060e+00 -1.690626e-01 6.137417e+01 -5.067783e-01 -7.820529e-01 1.117449e-01 -8.637292e-02 -1.653543e-01 -5.580885e-01 -1.755887e-01 -2.439085e-01 -4.076217e-01 -2.804656e-01 -3.114538e-01 3.633139e-01 1.393791e+00 5.914725e-02 1.114759e-01 9.404829e-02 -2.123519e-01 -1.445961e-01 -6.405329e-02 -1.620944e-01 6.008455e-02 -4.451940e-02 -3.557320e-02 -4.332704e-02 -1.035426e-02 3.161538e-01
<VARIANCE> 39
 1.904782e+01 3.976971e+01 3.721970e+01 9.819962e+01 4.488310e+01 3.471700e+01 6.288176e+01 8.747734e+01 7.157066e+01 7.275209e+01 7.767404e+01 2.664688e+01 1.670422e+02 1.734439e+00 1.716544e+00 2.656148e+00 2.872308e+00 2.971579e+00 3.873889e+00 4.909400e+00 6.591285e+00 3.681997e+00 3.901133e+00 2.676794e+00 3.467629e+00 7.999746e+00 1.400895e-01 2.501118e-01 3.833991e-01 5.099902e-01 6.179427e-01 4.665176e-01 7.215098e-01 1.406358e+00 5.208117e-01 6.567084e-01 5.025755e-01 5.553182e-01 9.518840e-01
<GCONST> 1.311906e+02
<TRANSP> 5
 0.000000e+00 1.000000e+00 0.000000e+00 0.000000e+00 0.000000e+00
 0.000000e+00 6.426795e-01 3.573205e-01 0.000000e+00 0.000000e+00
 0.000000e+00 0.000000e+00 6.271155e-01 3.728845e-01 0.000000e+00
 0.000000e+00 0.000000e+00 0.000000e+00 7.448977e-01 2.551023e-01
 0.000000e+00 0.000000e+00 0.000000e+00 0.000000e+00 0.000000e+00
<ENDHMM>
~h "l"
<BEGINHMM>
<NUMSTATES> 5
<STATE> 2
<MEAN> 39
 -4.912365e+00 -1.027433e+01 3.222224e+00 -2.112687e+01 -4.664211e+00 -2.074862e+01 -1.755197e+01 -3.127058e+00 -7.565925e+00 -1.041078e+01 -1.054222e+01 6.560642e+00 6.896337e+01 -1.765262e-01 -3.227569e-01 -1.578345e-01 -1.118685e+00 8.818483e-01 -1.102148e+00 -1.934172e-01 1.028829e+00 1.971558e-01 -4.583861e-01 -6.243820e-01 8.168768e-01 5.506331e-01 1.435667e-02 -2.056679e-01 -3.855886e-01 4.645135e-02 1.490665e-02 4.920431e-01 6.422749e-01 7.432997e-02 -1.632423e-01 2.542516e-01 -8.256502e-02 -2.762158e-01 1.320192e-01
<VARIANCE> 39
 1.297888e+01 2.335392e+01 4.460318e+01 6.347848e+01 5.236743e+01 5.640044e+01 6.455424e+01 4.580174e+01 8.326765e+01 4.583717e+01 5.852098e+01 5.461521e+01 1.900188e+01 6.298333e-01 2.149695e+00 2.274939e+00 3.421125e+00 4.523782e+00 5.790606e+00 6.179311e+00 4.708621e+00 4.749164e+00 4.543501e+00 3.861456e+00 3.699579e+00 1.454211e+00 1.088617e-01 3.008097e-01 2.546726e-01 6.921936e-01 7.992367e-01 9.005463e-01 1.018474e+00 9.478539e-01 8.822396e-01 9.110689e-01 7.499098e-01 6.828632e-01 1.546137e-01
<GCONST> 1.274071e+02
<STATE> 3
<MEAN> 39
 -5.451608e+00 -1.386126e+01 -1.264329e+00 -2.452935e+01 -4.568514e-01 -2.188189e+01 -1.141865e+01 1.635761e+00 -7.781891e+00 -1.091135e+01 -1.359773e+01 6.838465e+00 7.239965e+01 -4.902687e-02 -1.962838e+00 -1.774068e+00 3.899389e-01 5.832261e-01 2.480361e+00 2.581316e+00 1.916407e-01 -1.044752e+00 4.606282e-01 -7.243173e-01 -3.638670e-01 1.370284e+00 -4.597190e-02 -2.886808e-01 5.410650e-03 4.943821e-01 1.661768e-01 7.438976e-01 -3.574298e-02 -6.065306e-01 -3.287207e-01 2.636660e-01 2.888898e-01 -3.529350e-02 1.236865e-01
<VARIANCE> 39
 8.810475e+00 3.068765e+01 3.269813e+01 3.462475e+01 4.753177e+01 7.173369e+01 6.975361e+01 3.566328e+01 6.031994e+01 4.450154e+01 4.075170e+01 3.765112e+01 1.216033e+01 4.207520e-01 3.257099e+00 2.167946e+00 3.309142e+00 3.640758e+00 8.258657e+00 5.709911e+00 4.400388e+00 4.880486e+00 4.226992e+00 3.282206e+00 2.981894e+00 8.320273e-01 5.658947e-02 4.100379e-01 3.803961e-01 5.111579e-01 5.022460e-01 1.141413e+00 1.062423e+00 6.975026e-01 7.965718e-01 6.958346e-01 6.183239e-01 5.011767e-01 1.390181e-01
<GCONST> 1.220365e+02
<STATE> 4
<MEAN> 39
 -6.203235e+00 -2.186892e+01 -4.282623e+00 -1.861543e+01 3.005381e+00 -1.078922e+01 -7.787649e+00 -1.208573e+00 -1.225343e+01 -6.976510e+00 -1.354330e+01 5.806374e+00 7.674236e+01 -1.576228e-01 -1.194335e+00 -3.884180e-01 9.054738e-01 9.331649e-01 1.553295e+00 3.971274e-01 -1.063848e+00 -3.236073e-01 1.195506e+00 1.618689e-01 -6.677963e-01 6.947241e-01 3.195114e-02 3.743413e-01 3.211439e-01 -1.336983e-01 -7.259287e-02 -4.690485e-01 -5.458016e-01 -1.804212e-01 3.276686e-01 9.834083e-03 1.937369e-01 -1.362373e-01 -2.931084e-01
<VARIANCE> 39
 7.026763e+00 5.706832e+01 2.966409e+01 3.876893e+01 9.921819e+01 4.113523e+01 5.215875e+01 3.949746e+01 4.288409e+01 4.650037e+01 2.848598e+01 4.225826e+01 1.378210e+01 3.891850e-01 2.463032e+00 1.842161e+00 4.027311e+00 3.545590e+00 5.353508e+00 4.650248e+00 3.754465e+00 4.513873e+00 3.547486e+00 2.815820e+00 2.672816e+00 9.319284e-01 6.064213e-02 2.420118e-01 3.165754e-01 4.338042e-01 5.909964e-01 7.857847e-01 8.388298e-01 5.900976e-01 5.686108e-01 7.146087e-01 4.796144e-01 4.303173e-01 9.137470e-02
<GCONST> 1.179158e+02
<TRANSP> 5
 0.000000e+00 1.000000e+00 0.000000e+00 0.000000e+00 0.000000e+00
 0.000000e+00 7.902492e-01 2.097508e-01 0.000000e+00 0.000000e+00
 0.000000e+00 0.000000e+00 6.465647e-01 3.534353e-01 0.000000e+00
 0.000000e+00 0.000000e+00 0.000000e+00 5.324876e-01 4.675124e-01
 0.000000e+00 0.000000e+00 0.000000e+00 0.000000e+00 0.000000e+00
<ENDHMM>
~h "m"
<BEGINHMM>
<NUMSTATES> 5
<STATE> 2
<MEAN> 39
 6.249243e-01 -7.122874e+00 1.674435e+00 -1.265423e+01 1.651677e+00 -1.429594e+01 -1.761804e+01 -9.880377e+00 -1.265772e+01 -1.058908e+01 -1.117193e+01 -6.301505e+00 6.251636e+01 4.451760e-01 1.674424e+00 9.276185e-01 1.795531e+00 8.740174e-01 -9.831089e-01 -2.311257e+00 -9.708953e-01 -1.707579e+00 -1.575177e+00 3.687498e-01 -9.872898e-01 -1.583872e+00 -3.108008e-01 -3.433074e-01 -1.775963e-01 -3.051196e-01 -1.288215e-01 1.413605e-01 3.096543e-01 1.736617e-01 -6.326069e-04 2.198997e-01 8.340260e-03 3.402955e-01 4.223742e-01
<VARIANCE> 39
 9.023471e+00 5.590571e+01 4.923426e+01 5.165674e+01 5.646040e+01 6.367719e+01 6.444164e+01 4.333317e+01 5.586286e+01 4.920796e+01 3.699506e+01 6.457781e+01 3.747650e+01 1.195552e+00 2.785759e+00 2.327675e+00 4.112619e+00 3.799678e+00 3.658752e+00 5.815127e+00 3.776317e+00 5.354510e+00 4.523914e+00 3.731378e+00 4.412008e+00 3.392639e+00 1.890571e-01 3.072873e-01 3.282659e-01 7.725194e-01 7.188898e-01 4.960703e-01 9.239497e-01 6.029388e-01 9.675589e-01 6.397275e-01 5.046755e-01 8.020355e-01 2.792915e-01
<GCONST> 1.290851e+02
<STATE> 3
<MEAN> 39
 4.247532e-01 -4.939423e+00 2.788322e+00 -1.044194e+01 2.289165e+00 -1.763752e+01 -2.232397e+01 -1.095908e+01 -1.604678e+01 -1.324349e+01 -1.072769e+01 -6.547536e+00 6.063082e+01 -3.400861e-02 1.581148e-01 -3.084986e-01 -7.758077e-02 -3.075566e-01 2.901237e-02 -4.431817e-02 -9.266160e-02 -2.285321e-01 -2.957305e-01 1.695766e-01 6.060418e-01 -2.567116e-02 -7.053933e-02 -3.567092e-01 -3.726533e-01 -5.105853e-01 -2.105083e-01 4.108402e-01 6.430488e-01 2.329425e-01 4.624089e-01 3.331726e-01 -5.231570e-02 2.813385e-01 4.201453e-01
<VARIANCE> 39
 5.522480e+00 3.326102e+01 3.373415e+01 2.995284e+01 4.724490e+01 6.058192e+01 4.767721e+01 3.930304e+01 3.784765e+01 4.517803e+01 4.029063e+01 8.440778e+01 9.950382e+00 5.157410e-01 1.641586e+00 1.393768e+00 2.363540e+00 2.715471e+00 3.079243e+00 3.973486e+00 2.551582e+00 3.739595e+00 3.398923e+00 3.126254e+00 4.744634e+00 1.489469e+00 1.089364e-01 2.581008e-01 2.866337e-01 5.046752e-01 5.172607e-01 4.600438e-01 7.300442e-01 5.706791e-01 7.959665e-01 6.487886e-01 5.466537e-01 8.843591e-01 2.327705e-01
<GCONST> 1.176192e+02
<STATE> 4
<MEAN> 39
 -8.732990e-02 -4.536334e+00 2.440349e-01 -1.065013e+01 3.905198e-01 -1.331884e+01 -1.812281e+01 -1.021764e+01 -1.389184e+01 -1.293882e+01 -9.272023e+00 -3.375554e+00 6.003776e+01 -3.845608e-01 -5.488526e-01 -1.236432e+00 -1.029974e+00 -2.727670e-01 1.169523e+00 1.265811e+00 5.309209e-01 9.726583e-01 8.365287e-01 3.754032e-01 4.732407e-01 6.691113e-01 -1.981015e-01 -2.614390e-01 -1.520803e-01 -3.063283e-01 1.652069e-01 8.366387e-02 1.906580e-01 2.858218e-01 3.254566e-01 3.290831e-01 -1.165426e-01 -1.054530e-01 3.037541e-01
<VARIANCE> 39
 1.063338e+01 3.719041e+01 4.142214e+01 7.389635e+01 5.862371e+01 6.855042e+01 6.468590e+01 4.021344e+01 5.740966e+01 5.535965e+01 5.125913e+01 6.956092e+01 3.190456e+01 1.092151e+00 3.576045e+00 2.710993e+00 5.334900e+00 4.310746e+00 4.060273e+00 5.157280e+00 3.093632e+00 4.772498e+00 5.932683e+00 4.053194e+00 3.981666e+00 3.665018e+00 1.800028e-01 3.845069e-01 5.076694e-01 7.744133e-01 7.971044e-01 6.324302e-01 7.903074e-01 7.175343e-01 9.270626e-01 8.465875e-01 8.597032e-01 7.234286e-01 3.360921e-01
<GCONST> 1.319776e+02
<TRANSP> 5
 0.000000e+00 1.000000e+00 0.000000e+00 0.000000e+00 0.000000e+00
 0.000000e+00 5.652609e-01 4.347391e-01 0.000000e+00 0.000000e+00
 0.000000e+00 0.000000e+00 6.365706e-01 3.634295e-01 0.000000e+00
 0.000000e+00 0.000000e+00 0.000000e+00 6.266971e-01 3.733029e-01
 0.000000e+00 0.000000e+00 0.000000e+00 0.000000e+00 0.000000e+00
<ENDHMM>
~h "n"
<BEGINHMM>
<NUMSTATES> 5
<STATE> 2
<MEAN> 39
 -3.326217e-01 -6.028627e+00 3.903261e+00 -1.277284e+01 -4.427830e+00 -1.820211e+01 -1.265321e+01 -6.030327e+00 -1.192377e+01 -1.173697e+01 -1.477722e+01 3.640988e+00 6.306260e+01 4.022173e-01 1.826492e+00 7.083552e-01 1.143575e+00 -4.598567e-02 -1.856968e+00 -4.411296e-01 -1.257935e+00 -5.153505e-01 -1.736558e+00 -5.856473e-01 8.380282e-01 -1.526566e+00 -2.300157e-01 -4.201845e-01 -3.400466e-01 -3.012410e-01 -1.377364e-01 3.337775e-01 1.227905e-01 2.523486e-01 4.579737e-02 4.082712e-01 1.780692e-01 -1.604558e-01 4.130080e-01
<VARIANCE> 39
 8.593286e+00 5.395050e+01 3.930763e+01 4.274809e+01 5.780845e+01 4.882049e+01 5.679473e+01 5.342127e+01 5.745764e+01 3.807964e+01 6.673534e+01 6.415485e+01 3.714371e+01 9.822728e-01 3.411353e+00 2.146181e+00 3.354704e+00 3.715367e+00 4.498158e+00 3.799390e+00 5.545276e+00 3.697313e+00 4.041545e+00 4.555532e+00 3.556821e+00 3.166009e+00 1.307284e-01 4.619035e-01 3.015526e-01 6.264971e-01 8.220568e-01 7.302115e-01 6.611674e-01 9.654151e-01 6.380347e-01 7.000061e-01 7.641625e-01 6.643382e-01 3.169563e-01
<GCONST> 1.284969e+02
<STATE> 3
<MEAN> 39
 -6.002403e-02 -2.954602e+00 4.120838e+00 -1.146630e+01 -6.894596e+00 -2.262149e+01 -1.345800e+01 -6.845676e+00 -1.267192e+01 -1.495798e+01 -1.585294e+01 6.048985e+00 6.077136e+01 -7.297877e-02 -3.653368e-02 -3.312150e-01 2.374930e-01 -2.694528e-01 1.455963e-01 -1.491797e-01 9.998360e-02 1.094146e-01 -9.571426e-02 3.207092e-01 -1.990357e-01 -1.361250e-01 -1.206511e-01 -3.804636e-01 -1.929109e-01 -1.327074e-01 1.725808e-01 5.688413e-01 9.923037e-03 7.512328e-02 5.560716e-02 3.417487e-01 2.638409e-01 -3.858457e-01 2.602231e-01
<VARIANCE> 39
 5.749771e+00 2.276114e+01 2.873050e+01 2.487513e+01 4.319680e+01 4.112917e+01 5.055430e+01 3.867485e+01 5.617087e+01 4.064089e+01 5.718132e+01 5.934540e+01 1.173676e+01 3.430907e-01 2.502204e+00 1.441462e+00 1.909239e+00 2.037995e+00 3.657180e+00 2.718456e+00 2.644612e+00 2.991734e+00 3.086221e+00 2.874629e+00 2.936328e+00 1.652373e+00 9.447952e-02 3.351901e-01 2.603990e-01 3.557139e-01 4.268112e-01 6.184357e-01 5.537199e-01 5.764449e-01 5.906036e-01 6.782482e-01 5.891008e-01 4.904382e-01 2.178326e-01
<GCONST> 1.142225e+02
<STATE> 4
<MEAN> 39
 -1.093198e+00 -3.498369e+00 2.204906e+00 -7.928226e+00 -4.945258e+00 -1.565899e+01 -1.235032e+01 -6.762521e+00 -1.059538e+01 -1.314262e+01 -1.108200e+01 2.467839e-01 5.848405e+01 -7.636759e-01 -6.230224e-01 -7.586712e-01 1.139497e-01 7.284050e-01 1.676446e+00 4.142785e-01 1.950202e-01 4.834890e-01 7.551932e-01 1.024228e+00 -1.308337e+00 -1.073522e-01 -2.042795e-01 -3.962192e-02 -3.713056e-02 -1.353834e-01 1.881527e-01 3.990636e-02 2.309216e-01 5.253495e-02 1.430647e-01 1.958476e-01 -7.696702e-03 5.546446e-02 7.599681e-02
<VARIANCE> 39
 1.029825e+01 4.665125e+01 3.560314e+01 4.802830e+01 5.203271e+01 5.407508e+01 6.530868e+01 4.866966e+01 5.259586e+01 4.248850e+01 4.472417e+01 6.359962e+01 4.293375e+01 1.041907e+00 4.188730e+00 2.173428e+00 3.276294e+00 3.402698e+00 3.750334e+00 4.598809e+00 3.928956e+00 3.946235e+00 3.977803e+00 3.310110e+00 3.344875e+00 3.484924e+00 1.912655e-01 4.528413e-01 3.519453e-01 4.037338e-01 5.234430e-01 6.356321e-01 6.621672e-01 7.284377e-01 6.338328e-01 6.375636e-01 5.799487e-01 6.061999e-01 2.704774e-01
<GCONST> 1.265244e+02
<TRANSP> 5
 0.000000e+00 1.000000e+00 0.000000e+00 0.000000e+00 0.000000e+00
 0.000000e+00 6.146734e-01 3.853266e-01 0.000000e+00 0.000000e+00
 0.000000e+00 0.000000e+00 7.369737e-01 2.630263e-01 0.000000e+00
 0.000000e+00 0.000000e+00 0.000000e+00 7.004259e-01 2.995742e-01
 0.000000e+00 0.000000e+00 0.000000e+00 0.000000e+00 0.000000e+00
<ENDHMM>
~h "o"
<BEGINHMM>
<NUMSTATES> 5
<STATE> 2
<MEAN> 39
 -3.505169e+00 -1.822718e+01 -9.453006e+00 -2.622096e+01 6.653752e+00 -9.169472e+00 -7.696313e+00 -5.598567e+00 -6.097455e+00 -5.111701e+00 -1.465126e+01 -1.431239e+00 7.597292e+01 5.819849e-01 -1.202731e+00 -1.481311e+00 -1.411018e+00 2.090367e+00 1.216207e+00 -3.506666e-01 -1.078421e+00 2.885194e-01 2.015289e-01 -5.540086e-01 -6.198937e-01 5.766211e-01 -2.302044e-01 5.086070e-01 2.596934e-01 6.868917e-01 -2.232158e-01 2.165894e-01 4.500513e-02 -2.573042e-01 1.323961e-02 9.567977e-02 8.027128e-01 2.331230e-02 -4.485451e-01
<VARIANCE> 39
 1.187991e+01 4.158510e+01 1.457277e+01 3.289921e+01 5.631012e+01 4.602572e+01 3.551881e+01 5.252265e+01 3.793895e+01 4.760183e+01 4.310703e+01 5.327226e+01 1.085663e+01 8.026906e-01 7.213902e+00 2.040123e+00 5.028755e+00 8.019122e+00 3.653588e+00 4.563504e+00 6.261324e+00 4.802159e+00 5.185496e+00 4.898069e+00 2.815864e+00 1.718355e+00 2.479040e-01 5.094928e-01 2.537381e-01 1.301702e+00 1.168107e+00 7.583800e-01 7.953205e-01 1.234630e+00 9.946487e-01 9.156414e-01 8.570311e-01 6.874591e-01 2.060536e-01
<GCONST> 1.287429e+02
<STATE> 3
<MEAN> 39
 -1.674801e+00 -1.876418e+01 -1.240432e+01 -2.869136e+01 1.099693e+01 -2.589272e+00 -8.482223e+00 -1.106971e+01 -4.560061e+00 -4.309567e+00 -1.107195e+01 -2.400254e+00 7.550460e+01 3.823205e-01 6.686959e-01 -2.007020e-01 -4.333321e-01 -4.130369e-01 2.248724e-01 -3.034185e-01 -1.586775e-02 1.388639e-01 1.238227e-01 4.683666e-01 2.170149e-01 -4.748527e-01 -2.506112e-02 2.156135e-01 2.522399e-01 4.010498e-01 -3.812571e-01 -3.634532e-01 -7.913672e-02 3.416214e-01 -1.047277e-01 -1.940570e-01 5.119357e-02 1.844037e-01 -2.071421e-01
<VARIANCE> 39
 5.686620e+00 2.635507e+01 1.042915e+01 2.867691e+01 3.704868e+01 4.214675e+01 3.203533e+01 3.160160e+01 3.708488e+01 3.620598e+01 3.133498e+01 3.160325e+01 5.879704e+00 4.786214e-01 4.158750e+00 8.796508e-01 2.903661e+00 3.509854e+00 3.417340e+00 2.790822e+00 4.190627e+00 3.196294e+00 2.600573e+00 2.737957e+00 2.268350e+00 8.260400e-01 7.343302e-02 2.853035e-01 1.786847e-01 6.619969e-01 4.900364e-01 4.536982e-01 4.517359e-01 5.613032e-01 5.684366e-01 5.071232e-01 5.441831e-01 4.277117e-01 9.128176e-02
<GCONST> 1.088843e+02
<STATE> 4
<MEAN> 39
 1.047239e+00 -9.191072e+00 -9.721382e+00 -2.424663e+01 2.896035e+00 -6.244832e+00 -9.873124e+00 -5.974543e+00 -3.584408e+00 -3.239818e+00 -8.561728e+00 -1.638969e+00 6.694550e+01 1.571579e-02 8.951129e-01 9.113532e-01 2.185069e+00 -6.738350e-01 -6.052935e-01 -2.400532e-01 2.922158e-01 -1.476892e-01 -6.515598e-01 2.495822e-01 1.269054e-01 -1.574341e+00 -1.641762e-01 -1.227183e-01 1.312338e-01 4.378192e-01 1.771732e-01 1.146270e-01 1.177003e-01 -2.689103e-01 -5.231496e-02 -2.312908e-01 -2.214327e-02 -1.340401e-01 -1.032017e-01
<VARIANCE> 39
 1.581393e+01 7.398624e+01 2.437592e+01 9.935124e+01 6.023329e+01 5.100881e+01 5.175457e+01 4.489622e+01 5.006586e+01 4.409962e+01 4.285826e+01 3.509644e+01 6.774199e+01 1.022921e+00 3.821395e+00 1.606318e+00 5.552128e+00 4.926211e+00 4.768263e+00 4.013822e+00 3.710128e+00 3.837592e+00 4.411828e+00 3.256978e+00 3.669591e+00 2.735541e+00 1.374755e-01 4.996285e-01 2.861778e-01 9.337571e-01 7.388219e-01 7.806078e-01 7.544305e-01 8.275827e-01 6.493570e-01 7.436126e-01 6.810858e-01 6.427923e-01 3.354934e-01
<GCONST> 1.296064e+02
<TRANSP> 5
 0.000000e+00 1.000000e+00 0.000000e+00 0.000000e+00 0.000000e+00
 0.000000e+00 4.870434e-01 5.129566e-01 0.000000e+00 0.000000e+00
 0.000000e+00 0.000000e+00 8.026719e-01 1.973281e-01 0.000000e+00
 0.000000e+00 0.000000e+00 0.000000e+00 7.457858e-01 2.542142e-01
 0.000000e+00 0.000000e+00 0.000000e+00 0.000000e+00 0.000000e+00
<ENDHMM>
~h "p"
<BEGINHMM>
<NUMSTATES> 5
<STATE> 2
<MEAN> 39
 -5.320667e+00 -1.278431e+01 -5.140296e+00 -1.353794e+01 2.304303e+00 -5.623311e+00 -1.198089e+00 -8.234806e-01 -2.870336e+00 -3.485368e+00 -6.796649e+00 1.021978e+00 5.605296e+01 -3.705850e-01 9.161764e-01 8.846415e-02 1.622055e+00 3.360434e-01 1.035118e+00 6.331149e-01 4.010340e-01 5.188140e-01 -2.505836e-02 5.458416e-01 -5.119291e-01 -1.866038e+00 -1.121204e-01 7.577019e-02 4.029704e-02 -1.669762e-02 -8.992292e-03 -1.608249e-02 -1.773148e-02 -2.991210e-02 -7.585473e-02 -4.616121e-02 -4.951830e-02 9.287144e-03 3.302414e-01
<VARIANCE> 39
 1.842467e+01 3.131293e+01 2.693439e+01 4.577747e+01 4.241379e+01 4.527293e+01 7.293537e+01 3.262159e+01 3.388245e+01 2.381904e+01 4.013953e+01 8.320789e+01 6.246109e+01 1.755257e+00 2.201750e+00 1.686437e+00 4.028296e+00 2.154808e+00 3.447403e+00 3.417243e+00 2.904293e+00 2.766491e+00 2.241714e+00 3.276961e+00 3.306126e+00 4.714298e+00 4.462633e-01 4.496947e-01 3.655260e-01 7.756528e-01 4.304821e-01 6.624857e-01 6.643080e-01 6.155313e-01 5.337753e-01 3.886270e-01 5.949208e-01 4.811713e-01 5.431127e-01
<GCONST> 1.243052e+02
<STATE> 3
<MEAN> 39
 -7.685824e+00 -7.712957e+00 -5.683733e+00 -8.260754e+00 3.439231e+00 -5.847965e-01 -1.525416e-01 -5.072234e-01 1.726473e-01 -3.214561e+00 -2.883570e+00 -1.120455e+00 5.228979e+01 -4.964716e-01 9.381180e-01 1.661475e-01 9.968880e-01 -2.780647e-01 6.414400e-02 -6.405054e-02 -7.652415e-02 2.910879e-01 -1.053742e-01 2.901827e-01 -2.472547e-01 -2.859806e-01 1.079379e-01 -2.115164e-02 3.476419e-02 -3.153085e-01 -2.462735e-01 -4.561918e-01 -3.197362e-01 -3.176252e-01 -2.353601e-01 -4.079488e-02 -1.421767e-01 2.930854e-02 3.620901e-01
<VARIANCE> 39
 3.046677e+01 3.457002e+01 3.794671e+01 3.316029e+01 5.104881e+01 4.753912e+01 5.564759e+01 3.947176e+01 3.100891e+01 2.364216e+01 2.316577e+01 3.800392e+01 1.735663e+01 1.767987e+00 3.019556e+00 2.618984e+00 3.282990e+00 2.276035e+00 4.020537e+00 3.938596e+00 3.877697e+00 2.913108e+00 2.057338e+00 2.209481e+00 2.214677e+00 3.364124e+00 3.880104e-01 5.531166e-01 5.535430e-01 8.311266e-01 4.916060e-01 7.824280e-01 7.828040e-01 8.205623e-01 6.020985e-01 4.041682e-01 5.178323e-01 4.056325e-01 5.375739e-01
<GCONST> 1.235453e+02
<STATE> 4
<MEAN> 39
 -6.695452e+00 -3.950427e+00 -3.715088e+00 -7.167733e+00 1.939069e+00 -3.954388e+00 -2.216939e+00 -1.708812e+00 -7.670685e-01 -3.641782e+00 -2.470320e+00 -4.979588e-01 5.579251e+01 5.161365e-01 8.948676e-01 2.728288e-01 -2.365273e-01 -1.161167e+00 -1.500548e+00 -1.498170e+00 -1.332832e+00 -1.263802e+00 -3.869428e-01 -1.111783e-01 1.608141e-02 9.535264e-01 6.001536e-02 -3.578029e-01 -1.171189e-01 -4.727459e-01 -2.298734e-01 -1.913161e-01 -4.225004e-01 -2.646430e-01 -4.001907e-01 -1.316464e-01 -3.416844e-01 -1.026182e-01 8.417965e-02
<VARIANCE> 39
 5.008033e+01 3.337254e+01 4.240680e+01 6.025225e+01 6.152508e+01 8.285225e+01 6.717026e+01 3.890659e+01 4.024170e+01 3.415364e+01 2.520668e+01 3.343336e+01 5.008173e+01 4.647867e+00 5.101899e+00 6.017739e+00 7.473351e+00 6.626575e+00 6.885479e+00 7.752173e+00 4.148046e+00 4.330493e+00 3.059870e+00 3.460134e+00 3.384642e+00 4.552931e+00 8.153325e-01 8.320487e-01 1.025335e+00 1.287446e+00 1.175658e+00 1.460876e+00 1.212865e+00 8.448380e-01 8.674774e-01 5.962704e-01 7.697498e-01 6.367335e-01 8.940075e-01
<GCONST> 1.410195e+02
<TRANSP> 5
 0.000000e+00 1.000000e+00 0.000000e+00 0.000000e+00 0.000000e+00
 0.000000e+00 7.644911e-01 2.355089e-01 0.000000e+00 0.000000e+00
 0.000000e+00 0.000000e+00 7.022108e-01 2.977892e-01 0.000000e+00
 0.000000e+00 0.000000e+00 0.000000e+00 6.117206e-01 3.882794e-01
 0.000000e+00 0.000000e+00 0.000000e+00 0.000000e+00 0.000000e+00
<ENDHMM>
~h "q"
<BEGINHMM>
<NUMSTATES> 5
<STATE> 2
<MEAN> 39
 -3.798581e+00 -4.948052e+00 -7.729376e+00 -1.306854e+01 6.110308e-01 -6.669788e+00 -2.742943e+00 -2.442115e+00 -1.732458e+00 -3.465807e-01 -5.889883e+00 -2.662565e+00 5.369745e+01 1.126496e+00 1.047724e+00 -1.302737e+00 -2.046793e+00 -4.584446e-01 1.605622e-01 5.206511e-01 6.615186e-01 -4.309210e-01 7.790141e-01 2.116951e-01 1.131541e+00 1.006905e+00 4.089293e-01 3.203766e-02 9.067093e-02 -8.319685e-01 -1.749308e-01 1.355675e-01 -5.231361e-01 -2.142825e-01 -5.925666e-01 -1.136639e-01 -3.028359e-01 1.972639e-01 8.407427e-01
<VARIANCE> 39
 1.254928e+01 4.345578e+01 3.208237e+01 5.488504e+01 4.457677e+01 3.280971e+01 5.790350e+01 3.718038e+01 3.369028e+01 3.339808e+01 5.453893e+01 2.920893e+01 4.932464e+01 3.289297e+00 3.949410e+00 3.695235e+00 1.271414e+01 3.729820e+00 3.656462e+00 4.728148e+00 3.975601e+00 5.973504e+00 4.667421e+00 4.003892e+00 4.192788e+00 9.707757e+00 5.161854e-01 1.060208e+00 6.192929e-01 1.030710e+00 6.884633e-01 8.357558e-01 1.068993e+00 9.860868e-01 9.874203e-01 8.172351e-01 8.633309e-01 7.715923e-01 5.756008e-01
<GCONST> 1.363694e+02
<STATE> 3
<MEAN> 39
 5.187426e+00 1.094896e+00 -1.069217e+01 -3.129727e+01 -4.672459e+00 -4.081202e+00 -5.607664e+00 -2.392004e+00 -1.001292e+01 2.876855e-01 -7.798664e+00 4.594881e+00 6.504480e+01 8.058077e-01 -2.419880e+00 1.647331e-02 -3.748529e+00 8.907140e-01 2.131550e+00 -2.412453e+00 -1.851299e+00 -2.614022e+00 6.298969e-01 -1.646553e+00 -1.162351e-01 3.508271e+00 -1.147125e+00 -1.692079e+00 2.754792e-01 1.810975e+00 9.879451e-01 1.401647e-01 -1.699945e-01 -1.978223e-01 8.423900e-01 1.504158e-01 -3.778388e-01 -1.411538e+00 -3.613347e-01
<VARIANCE> 39
 7.469640e+00 2.925330e+01 1.961731e+01 1.050374e+02 4.330622e+01 3.482102e+01 3.652950e+01 2.691007e+01 3.702993e+01 2.904631e+01 3.270924e+01 3.202603e+01 1.683862e+01 2.435630e+00 7.620573e+00 2.135828e+00 8.759163e+00 5.620995e+00 2.870569e+00 6.081311e+00 2.971021e+00 4.354667e+00 5.277598e+00 4.089726e+00 8.103822e+00 2.106704e+00 2.056897e-01 7.601801e-01 6.225662e-01 1.612099e+00 1.117936e+00 1.084537e+00 1.096406e+00 7.828965e-01 1.035596e+00 1.149301e+00 1.027342e+00 8.998293e-01 1.595680e-01
<GCONST> 1.310165e+02
<STATE> 4
<MEAN> 39
 2.013267e+00 -1.046426e+01 -1.140195e+01 -3.002953e+01 2.534430e+00 1.352221e+00 -1.128677e+01 -6.491692e+00 -1.062282e+01 5.108728e+00 -1.305680e+01 -2.393638e+00 7.196128e+01 -1.566525e+00 -4.444341e+00 8.262093e-02 2.151422e+00 2.083288e+00 -4.262812e-01 -1.502790e+00 -4.151861e-01 8.326359e-01 2.182058e-01 -2.555032e+00 -2.587217e+00 2.183686e+00 -3.951791e-01 1.671040e-01 3.100505e-01 1.364877e+00 -4.588892e-01 -1.238586e+00 8.999555e-01 6.570058e-01 4.580019e-01 -8.351800e-01 2.893845e-01 2.514769e-01 -6.103019e-01
<VARIANCE> 39
 7.497873e+00 5.723280e+01 1.988727e+01 7.031136e+01 4.368551e+01 3.063893e+01 4.264283e+01 2.289400e+01 3.678957e+01 4.843981e+01 4.329897e+01 6.540108e+01 1.161887e+01 1.067634e+00 4.144076e+00 1.855219e+00 4.846604e+00 8.993142e+00 7.539877e+00 8.819693e+00 3.233448e+00 4.341791e+00 7.109108e+00 5.029986e+00 5.345749e+00 1.566370e+00 4.936058e-01 8.965320e-01 3.175642e-01 1.440297e+00 1.322714e+00 8.127136e-01 1.242568e+00 8.861994e-01 1.217596e+00 1.188549e+00 1.051056e+00 1.489661e+00 1.644278e-01
<GCONST> 1.329564e+02
<TRANSP> 5
 0.000000e+00 1.000000e+00 0.000000e+00 0.000000e+00 0.000000e+00
 0.000000e+00 8.126072e-01 1.873928e-01 0.000000e+00 0.000000e+00
 0.000000e+00 0.000000e+00 5.887606e-01 4.112394e-01 0.000000e+00
 0.000000e+00 0.000000e+00 0.000000e+00 4.860082e-01 5.139918e-01
 0.000000e+00 0.000000e+00 0.000000e+00 0.000000e+00 0.000000e+00
<ENDHMM>
~h "r"
<BEGINHMM>
<NUMSTATES> 5
<STATE> 2
<MEAN> 39
 -1.254493e+01 -2.378944e+00 7.484630e+00 -1.046545e+01 -5.136892e+00 -1.068451e+01 -1.315343e+01 -1.025205e+01 -6.278682e+00 -8.024788e+00 -6.813191e+00 -1.501225e+00 6.563607e+01 -2.559484e+00 1.238047e+00 1.264822e+00 9.733045e-01 4.656446e-01 2.469601e-01 9.742278e-02 -6.031571e-01 3.982747e-01 -6.811319e-01 8.185671e-02 -9.698067e-01 5.453773e-01 -2.159177e-02 1.132649e-01 -8.706474e-02 -2.755294e-01 1.719321e-02 3.462398e-02 6.318416e-02 1.748248e-01 -9.251645e-02 -1.190027e-02 -1.031270e-01 -4.529695e-02 4.028032e-02
<VARIANCE> 39
 8.468819e+01 4.600644e+01 6.504141e+01 8.149786e+01 5.029954e+01 4.952324e+01 6.169341e+01 6.229995e+01 6.229408e+01 6.990796e+01 5.594380e+01 4.343359e+01 4.496235e+01 4.828295e+00 3.948675e+00 3.049916e+00 3.919091e+00 3.853055e+00 4.344069e+00 4.966463e+00 4.625610e+00 3.317404e+00 5.515483e+00 4.597736e+00 3.359669e+00 1.799005e+00 9.497537e-01 6.651993e-01 6.114131e-01 5.261323e-01 6.233564e-01 7.607331e-01 8.367234e-01 8.495508e-01 5.054333e-01 9.356440e-01 7.724214e-01 6.425465e-01 1.634931e-01
<GCONST> 1.362466e+02
<STATE> 3
<MEAN> 39
 -2.074137e+01 1.569590e+00 8.711826e+00 -1.033054e+01 -3.264730e+00 -1.300226e+01 -1.307924e+01 -9.791523e+00 -5.415524e+00 -1.352314e+01 -6.230208e+00 -4.803707e+00 6.922996e+01 1.910442e+00 -1.550322e+00 -1.565088e+00 -1.489684e+00 -7.307341e-01 -9.235926e-01 -3.805690e-01 1.090486e+00 6.055907e-01 4.839662e-02 -2.099124e-01 5.966896e-01 6.235615e-01 1.271890e+00 -1.131934e+00 -7.107241e-01 -5.698500e-01 -2.028752e-01 -1.160976e-03 -1.152920e-02 5.723795e-01 -5.302896e-02 3.940389e-01 -4.073446e-01 5.394850e-01 1.199082e-01
<VARIANCE> 39
 4.053949e+01 2.269497e+01 3.186503e+01 5.170584e+01 5.568803e+01 4.214946e+01 3.912285e+01 4.659711e+01 3.826684e+01 3.144262e+01 4.210184e+01 3.623979e+01 7.787325e+00 1.154025e+01 6.401951e+00 4.271330e+00 2.710427e+00 4.414571e+00 4.504923e+00 4.702900e+00 4.370463e+00 2.890095e+00 3.020325e+00 3.951236e+00 3.953037e+00 5.641565e-01 8.809395e-01 5.133882e-01 5.231608e-01 3.105382e-01 7.581872e-01 1.161809e+00 8.971698e-01 7.971547e-01 6.898448e-01 6.365424e-01 8.552338e-01 6.765664e-01 7.752687e-02
<GCONST> 1.277607e+02
<STATE> 4
<MEAN> 39
 -3.433134e+00 -1.650296e+01 -3.256107e+00 -2.065687e+01 -5.760993e+00 -1.424962e+01 -1.338881e+01 1.478958e+00 -5.263212e+00 -9.704791e+00 -1.351422e+01 2.286518e+00 7.357789e+01 2.170000e+00 -3.900569e+00 -2.279330e+00 -1.794816e+00 1.438813e+00 1.644225e+00 7.984122e-01 2.064931e+00 -2.073198e+00 2.109710e+00 -2.007530e+00 1.297481e+00 1.413225e+00 -1.266303e+00 1.011951e+00 6.184897e-01 5.836611e-01 8.380985e-01 4.217283e-01 3.480236e-01 -1.009944e+00 -4.966866e-01 1.579921e-01 5.447462e-01 -5.333982e-01 -8.844116e-02
<VARIANCE> 39
 1.468354e+01 4.178710e+01 2.314298e+01 3.585014e+01 3.884177e+01 4.075632e+01 6.944441e+01 8.515429e+01 7.010274e+01 3.096546e+01 5.785711e+01 3.837230e+01 1.479503e+01 5.502543e+00 6.575618e+00 2.329522e+00 5.348233e+00 6.122702e+00 3.967896e+00 5.644507e+00 1.047032e+01 4.434688e+00 3.786858e+00 5.600512e+00 6.412471e+00 4.740276e-01 4.172938e-01 7.845803e-01 2.874278e-01 6.003576e-01 7.631788e-01 9.262378e-01 8.810449e-01 1.554728e+00 1.433892e+00 6.107195e-01 1.004434e+00 8.001743e-01 1.113855e-01
<GCONST> 1.325364e+02
<TRANSP> 5
 0.000000e+00 1.000000e+00 0.000000e+00 0.000000e+00 0.000000e+00
 0.000000e+00 8.309536e-01 1.690464e-01 0.000000e+00 0.000000e+00
 0.000000e+00 0.000000e+00 7.935375e-01 2.064625e-01 0.000000e+00
 0.000000e+00 0.000000e+00 0.000000e+00 6.872914e-01 3.127086e-01
 0.000000e+00 0.000000e+00 0.000000e+00 0.000000e+00 0.000000e+00
<ENDHMM>
~h "s"
<BEGINHMM>
<NUMSTATES> 5
<STATE> 2
<MEAN> 39
 -1.171947e+01 -3.652885e+00 5.401433e+00 -1.356932e+01 -4.070256e+00 -1.262378e+01 -9.009767e+00 -7.280183e+00 -6.805069e+00 -9.183885e+00 -4.216734e+00 1.932649e-01 6.680559e+01 -4.078420e+00 3.204512e+00 8.010625e-01 1.776189e+00 1.926526e+00 1.984936e+00 7.570511e-01 4.779017e-01 1.390273e+00 -6.713239e-01 1.789856e+00 -8.048594e-01 4.968789e-01 -7.324418e-01 1.360013e-01 -7.136477e-02 -1.143344e-01 6.025901e-01 6.250440e-01 3.463117e-01 6.194009e-01 2.346617e-01 5.665631e-01 -1.543448e-01 -3.523606e-02 1.111191e-01
<VARIANCE> 39
 6.653768e+01 7.362849e+01 4.793867e+01 6.184674e+01 5.531380e+01 9.769617e+01 6.672680e+01 6.582561e+01 8.389327e+01 5.120578e+01 6.231390e+01 4.489101e+01 6.045881e+01 4.835989e+00 6.319079e+00 4.484594e+00 6.301336e+00 7.132655e+00 7.552094e+00 7.247668e+00 6.660419e+00 5.923945e+00 5.530737e+00 4.791307e+00 3.827531e+00 2.725297e+00 9.967574e-01 1.228351e+00 5.828536e-01 8.217067e-01 1.054133e+00 1.309084e+00 9.482436e-01 1.126272e+00 1.062874e+00 1.008111e+00 8.217444e-01 7.327735e-01 2.262964e-01
<GCONST> 1.455102e+02
<STATE> 3
<MEAN> 39
 -3.103444e+01 6.083339e+00 6.925689e+00 -9.836099e+00 5.717748e+00 -1.865924e+00 -1.941929e+00 7.665549e-01 5.039988e-01 -4.142384e+00 1.650667e+00 -1.244864e+00 6.860178e+01 -4.335402e-01 -1.366661e-01 -1.960782e-03 3.592952e-02 3.196722e-01 4.202591e-01 4.795327e-01 6.540015e-01 5.366965e-01 3.065877e-01 3.745294e-01 1.676046e-01 5.959906e-02 1.097277e+00 -6.139532e-01 -2.141878e-01 -2.817978e-01 -5.067217e-01 -5.037174e-01 -3.232595e-01 -2.384170e-01 -2.751718e-01 -3.113301e-01 -2.091408e-01 1.922067e-01 -2.036518e-02
<VARIANCE> 39
 1.358854e+01 2.019044e+01 2.659499e+01 1.836729e+01 2.750209e+01 3.059382e+01 2.925550e+01 2.670413e+01 3.236841e+01 2.519382e+01 2.182665e+01 1.668604e+01 8.769886e+00 6.579041e+00 2.193158e+00 1.402549e+00 1.353191e+00 2.411421e+00 3.169862e+00 2.456243e+00 2.681630e+00 2.578894e+00 3.074658e+00 2.114196e+00 1.905462e+00 5.067570e-01 4.514575e-01 3.779293e-01 4.250327e-01 3.585091e-01 5.271068e-01 5.106457e-01 4.902612e-01 4.670581e-01 4.018506e-01 5.385535e-01 5.142346e-01 3.953594e-01 8.149797e-02
<GCONST> 1.095979e+02
<STATE> 4
<MEAN> 39
 -1.217002e+01 -6.725204e+00 7.933487e-01 -1.555514e+01 -1.296398e+00 -8.303873e+00 -6.613563e+00 5.442536e-01 -1.652394e+00 -1.001146e+01 -1.925020e+00 2.934404e+00 7.042169e+01 5.559972e+00 -4.860731e+00 -2.990791e+00 -2.876973e+00 -1.550125e+00 -2.045363e+00 -2.106559e+00 -8.474358e-01 -2.171515e+00 -1.031083e+00 -2.855384e+00 6.932713e-01 1.323321e+00 -8.543730e-01 -1.800443e-01 -6.065815e-02 -7.222125e-02 8.371302e-01 3.934866e-01 1.491791e-01 -1.530261e-01 -4.081726e-01 7.466002e-01 -3.497792e-01 -3.843394e-01 3.131385e-01
<VARIANCE> 39
 1.139842e+02 7.277534e+01 5.350611e+01 5.695590e+01 6.222731e+01 5.325962e+01 6.943676e+01 3.194916e+01 4.601992e+01 3.685809e+01 5.537950e+01 2.773012e+01 1.232052e+01 7.456271e+00 3.857485e+00 2.395212e+00 3.404132e+00 8.904423e+00 4.441111e+00 4.441875e+00 3.446002e+00 3.712671e+00 5.825134e+00 5.018290e+00 4.625960e+00 1.010516e+00 2.380789e+00 1.297107e+00 9.409210e-01 1.230493e+00 1.575712e+00 1.069870e+00 1.068955e+00 6.110010e-01 7.372736e-01 8.919421e-01 1.204045e+00 6.083660e-01 1.910380e-01
<GCONST> 1.388945e+02
<TRANSP> 5
 0.000000e+00 1.000000e+00 0.000000e+00 0.000000e+00 0.000000e+00
 0.000000e+00 7.509600e-01 2.490400e-01 0.000000e+00 0.000000e+00
 0.000000e+00 0.000000e+00 8.862877e-01 1.137123e-01 0.000000e+00
 0.000000e+00 0.000000e+00 0.000000e+00 7.525176e-01 2.474824e-01
 0.000000e+00 0.000000e+00 0.000000e+00 0.000000e+00 0.000000e+00
<ENDHMM>
~h "t"
<BEGINHMM>
<NUMSTATES> 5
<STATE> 2
<MEAN> 39
 -6.527097e+00 -7.679957e+00 -4.440846e+00 -1.008893e+01 4.486288e-01 -5.258010e+00 -4.263108e+00 -3.449102e+00 -2.730664e+00 -4.124575e+00 -3.568630e+00 -1.763672e+00 5.214867e+01 -7.128382e-01 1.335285e-02 -3.710554e-01 7.203441e-01 1.040350e-01 5.600911e-01 6.645577e-01 1.473653e-01 6.331694e-01 2.190444e-01 4.073291e-01 -4.010006e-01 -1.198178e+00 2.205889e-02 -1.025148e-02 6.946636e-02 -2.334192e-01 -1.755967e-01 -2.556271e-01 -1.852386e-01 -5.258450e-03 -1.205984e-01 3.034574e-02 -1.155651e-02 2.585890e-01 7.192424e-01
<VARIANCE> 39
 1.431599e+01 3.310991e+01 3.561999e+01 3.942412e+01 4.092044e+01 4.078798e+01 3.805194e+01 3.508408e+01 3.577420e+01 3.458902e+01 3.902930e+01 4.481131e+01 3.165151e+01 1.203465e+00 1.809271e+00 1.881451e+00 2.730827e+00 2.432797e+00 2.932729e+00 2.835890e+00 2.388660e+00 2.725925e+00 2.692587e+00 2.750459e+00 2.970052e+00 3.702181e+00 3.199556e-01 4.246067e-01 4.102808e-01 6.513877e-01 5.565384e-01 6.454957e-01 6.225139e-01 5.382698e-01 5.623120e-01 5.525569e-01 6.076386e-01 5.373409e-01 6.754251e-01
<GCONST> 1.213267e+02
<STATE> 3
<MEAN> 39
 -9.084445e+00 -6.711948e+00 -4.116947e+00 -7.094463e+00 -1.776677e-01 -4.938002e+00 -2.573901e+00 -3.275373e+00 -8.209084e-01 -3.416951e+00 -1.787741e+00 -2.156243e+00 5.102817e+01 -1.138190e-01 2.760282e-01 2.696679e-01 -4.342993e-01 -4.343214e-01 -1.083779e+00 -2.860929e-02 3.198453e-01 1.203497e-01 2.243441e-01 5.114763e-01 9.155980e-01 2.928862e+00 3.297652e-01 -2.358082e-01 7.956457e-02 -8.560117e-01 -7.921144e-02 -4.941623e-01 -6.195337e-01 1.206638e-01 -5.619313e-01 -1.164612e-01 -5.565777e-01 2.613410e-01 1.318094e+00
<VARIANCE> 39
 1.604365e+01 3.150672e+01 2.893028e+01 3.458463e+01 3.671154e+01 2.989107e+01 3.127973e+01 2.977495e+01 2.862001e+01 2.869896e+01 2.860269e+01 2.635902e+01 3.644741e+01 1.901368e+00 3.437725e+00 3.420797e+00 5.430927e+00 4.596433e+00 3.920903e+00 4.398459e+00 4.755323e+00 4.111903e+00 3.837700e+00 3.926196e+00 4.000835e+00 1.143762e+01 3.580298e-01 7.682025e-01 5.967811e-01 1.095342e+00 1.066465e+00 7.625712e-01 9.111681e-01 8.083014e-01 7.326001e-01 7.282647e-01 7.586588e-01 6.523200e-01 1.397465e+00
<GCONST> 1.310362e+02
<STATE> 4
<MEAN> 39
 -7.718760e+00 -7.979746e+00 -3.261504e+00 -1.243761e+01 -1.726804e+00 -1.034204e+01 -5.135316e+00 -9.285955e-01 -3.061373e+00 -3.219581e+00 -2.641063e+00 1.949206e+00 6.550182e+01 4.012837e-01 -1.248747e+00 5.627812e-02 -2.847026e+00 -6.296778e-02 -1.163469e+00 -1.874858e+00 3.887056e-01 -1.834537e+00 1.047661e-01 -1.851558e+00 7.302942e-01 4.224759e+00 -3.890064e-02 -2.604699e-01 -3.429832e-02 -1.718637e-01 3.147620e-01 4.721058e-01 -3.072399e-01 -4.018149e-01 -4.184399e-01 -5.625394e-02 -5.604243e-01 -5.324693e-01 -6.802891e-01
<VARIANCE> 39
 1.796384e+01 5.116587e+01 4.910542e+01 8.318360e+01 7.210043e+01 6.027258e+01 5.946629e+01 4.955133e+01 4.857650e+01 4.249324e+01 5.914903e+01 4.025564e+01 1.116931e+02 2.441850e+00 7.660429e+00 5.082819e+00 1.021976e+01 1.056806e+01 6.567427e+00 7.638674e+00 6.974831e+00 6.765069e+00 5.930463e+00 5.947362e+00 5.777580e+00 1.333647e+01 3.284409e-01 8.751199e-01 6.573852e-01 1.547067e+00 1.183161e+00 1.194408e+00 1.194972e+00 1.118687e+00 1.117109e+00 9.062691e-01 1.336735e+00 9.185943e-01 1.756436e+00
<GCONST> 1.484055e+02
<TRANSP> 5
 0.000000e+00 1.000000e+00 0.000000e+00 0.000000e+00 0.000000e+00
 0.000000e+00 7.654772e-01 2.345228e-01 0.000000e+00 0.000000e+00
 0.000000e+00 0.000000e+00 4.415660e-01 5.584340e-01 0.000000e+00
 0.000000e+00 0.000000e+00 0.000000e+00 5.108292e-01 4.891708e-01
 0.000000e+00 0.000000e+00 0.000000e+00 0.000000e+00 0.000000e+00
<ENDHMM>
~h "u"
<BEGINHMM>
<NUMSTATES> 5
<STATE> 2
<MEAN> 39
 -1.880933e+00 -7.662300e+00 -8.741094e+00 -2.816270e+01 -1.648118e+00 -4.927185e+00 -1.565713e+01 -5.225376e+00 -7.183426e+00 1.721398e+00 -9.635796e+00 -1.477131e+00 7.333127e+01 3.951233e-01 7.473197e-01 -4.594938e-01 -1.310243e+00 -1.053487e-01 4.602158e-01 -1.112559e+00 -2.005079e-01 -6.768457e-01 -2.627016e-01 5.822579e-01 5.715687e-01 -4.438378e-01 -1.837746e-01 7.415068e-02 2.801269e-01 4.719540e-01 -4.278313e-02 -8.457406e-02 4.014625e-01 1.999826e-01 -2.444961e-01 -3.690948e-01 4.958150e-02 -7.739303e-02 -2.256747e-01
<VARIANCE> 39
 1.825857e+01 4.450438e+01 4.116489e+01 7.686765e+01 6.621783e+01 6.635291e+01 6.971093e+01 5.022602e+01 4.977665e+01 6.076394e+01 6.217162e+01 6.243165e+01 2.505379e+01 1.519236e+00 5.844109e+00 1.907943e+00 6.220708e+00 5.898849e+00 5.704939e+00 5.343619e+00 5.478956e+00 4.871844e+00 5.558210e+00 6.709496e+00 5.214446e+00 1.619118e+00 2.600979e-01 4.605461e-01 2.771800e-01 8.127931e-01 8.154197e-01 7.593424e-01 1.023672e+00 9.472424e-01 1.117202e+00 1.020243e+00 1.103593e+00 9.221066e-01 1.616932e-01
<GCONST> 1.355752e+02
<STATE> 3
<MEAN> 39
 -4.800498e-01 -3.662690e+00 -9.564988e+00 -3.158887e+01 -2.086208e+00 -3.515458e+00 -1.732961e+01 -4.700232e+00 -1.121614e+01 -2.449265e+00 -8.246740e+00 -2.566995e-01 7.058391e+01 1.162973e-01 3.715658e-01 3.580348e-01 6.316440e-01 -2.390830e-01 -3.775302e-01 -7.233480e-02 5.088445e-01 -7.370392e-01 -1.149996e+00 -4.330636e-01 -2.710884e-01 -8.220129e-01 -9.119756e-02 -1.284504e-01 2.323260e-01 7.212253e-01 9.334535e-02 -2.125951e-01 3.441376e-01 9.987868e-03 2.991937e-01 3.623335e-02 -6.190078e-02 -2.211431e-01 -1.580653e-01
<VARIANCE> 39
 1.629457e+01 4.421899e+01 3.647115e+01 8.543711e+01 5.620286e+01 5.942624e+01 5.373774e+01 5.698050e+01 4.915701e+01 5.881196e+01 5.373193e+01 5.054788e+01 1.989195e+01 9.671474e-01 3.347918e+00 1.673335e+00 5.959346e+00 4.402888e+00 3.905413e+00 4.737780e+00 3.924541e+00 4.764283e+00 5.039274e+00 3.954367e+00 3.733428e+00 1.582809e+00 1.521819e-01 4.326163e-01 2.717451e-01 8.425862e-01 8.412857e-01 8.590420e-01 8.170679e-01 7.754200e-01 9.871940e-01 8.774134e-01 9.351642e-01 7.589995e-01 1.369532e-01
<GCONST> 1.294301e+02
<STATE> 4
<MEAN> 39
 7.109635e-01 -8.766717e-01 -6.789416e+00 -2.410201e+01 -2.144779e+00 -4.181567e+00 -1.384885e+01 -3.625211e+00 -9.628860e+00 -5.548449e+00 -7.105951e+00 -2.821857e+00 6.358076e+01 -2.914929e-01 -1.707466e-01 7.125781e-01 2.142425e+00 2.395789e-01 -4.222634e-01 7.658768e-01 -2.559582e-01 6.674138e-01 -1.592122e-01 -2.775008e-02 -2.841539e-01 -1.153153e+00 -1.445142e-01 -4.233584e-02 5.096567e-02 1.091688e-01 -3.277517e-02 3.979496e-02 1.403244e-01 -6.735120e-02 1.364356e-01 9.149170e-02 1.578642e-01 9.018086e-02 -2.965256e-02
<VARIANCE> 39
 1.974443e+01 4.076299e+01 4.327403e+01 1.636713e+02 6.251954e+01 5.762199e+01 9.323647e+01 5.254955e+01 7.298592e+01 5.889581e+01 6.007712e+01 4.316125e+01 6.197451e+01 1.008680e+00 1.783629e+00 2.192938e+00 6.126060e+00 4.417775e+00 4.242772e+00 4.560783e+00 3.923970e+00 4.354729e+00 4.237153e+00 3.538926e+00 3.072422e+00 2.094832e+00 1.881908e-01 3.612779e-01 3.167643e-01 9.160191e-01 7.150200e-01 7.775674e-01 8.828433e-01 6.775649e-01 7.617598e-01 7.560855e-01 6.989194e-01 5.278367e-01 2.555691e-01
<GCONST> 1.313746e+02
<TRANSP> 5
 0.000000e+00 1.000000e+00 0.000000e+00 0.000000e+00 0.000000e+00
 0.000000e+00 5.669644e-01 4.330356e-01 0.000000e+00 0.000000e+00
 0.000000e+00 0.000000e+00 5.720312e-01 4.279688e-01 0.000000e+00
 0.000000e+00 0.000000e+00 0.000000e+00 7.491489e-01 2.508511e-01
 0.000000e+00 0.000000e+00 0.000000e+00 0.000000e+00 0.000000e+00
<ENDHMM>
~h "v"
<BEGINHMM>
<NUMSTATES> 5
<STATE> 2
<MEAN> 39
 -5.750766e+00 3.684915e-01 -1.684856e+00 -3.888471e+00 -1.812206e+00 -6.803705e+00 -8.396928e+00 -1.138972e+01 -8.561015e+00 -8.812510e+00 -7.534930e+00 -6.538439e+00 5.608097e+01 -7.834970e-01 8.065860e-01 1.300103e-01 1.093543e+00 -1.997674e-01 -3.493087e-01 -4.014528e-01 -9.816882e-01 -4.516169e-01 -5.989780e-01 -9.701303e-02 -5.884237e-01 5.647314e-01 1.376426e-01 -3.960119e-01 -9.913044e-02 -7.814913e-01 -9.585017e-02 -1.531213e-01 -2.348620e-01 2.304270e-01 7.382298e-02 3.249452e-01 -5.288362e-02 2.041593e-01 5.534966e-01
<VARIANCE> 39
 3.283220e+01 2.351802e+01 3.659585e+01 4.524525e+01 2.582169e+01 3.661073e+01 3.062399e+01 3.032442e+01 3.120301e+01 3.436651e+01 3.561377e+01 4.089917e+01 2.526411e+01 3.145468e+00 1.623758e+00 2.007665e+00 4.602363e+00 2.335637e+00 2.614352e+00 3.975720e+00 2.999541e+00 4.378292e+00 3.735774e+00 3.553271e+00 3.179612e+00 2.865436e+00 5.837650e-01 3.095928e-01 3.610599e-01 8.230833e-01 5.271366e-01 4.777410e-01 6.519570e-01 5.334942e-01 6.714405e-01 7.036301e-01 6.820071e-01 5.223536e-01 2.697104e-01
<GCONST> 1.228771e+02
<STATE> 3
<MEAN> 39
 -8.419439e+00 1.593441e+00 -1.868559e+00 -3.436160e+00 -3.618671e+00 -9.521869e+00 -1.102476e+01 -1.372295e+01 -9.738046e+00 -9.575845e+00 -7.083673e+00 -6.971050e+00 5.995763e+01 9.394242e-01 -1.456143e+00 -8.155596e-01 -2.970851e+00 -2.965298e-01 -4.119358e-01 -9.096937e-01 1.676494e-01 -3.661199e-02 1.146669e+00 -2.337872e-01 1.971449e-01 2.607361e+00 6.162662e-01 -1.131868e+00 -2.409588e-01 -1.628843e+00 2.125845e-01 2.698616e-01 1.265022e-01 8.896399e-01 1.991862e-01 7.607418e-01 -5.249762e-01 1.478959e-01 5.645568e-01
<VARIANCE> 39
 2.382015e+01 1.879059e+01 2.743843e+01 3.676368e+01 2.306415e+01 2.786218e+01 2.349725e+01 2.105742e+01 2.599139e+01 2.755392e+01 2.773270e+01 4.050626e+01 1.869785e+01 4.435106e+00 3.075081e+00 2.979548e+00 8.322619e+00 3.766820e+00 3.933460e+00 3.532803e+00 3.701353e+00 4.213408e+00 3.901930e+00 4.062018e+00 2.568647e+00 1.747414e+00 6.261050e-01 4.502416e-01 4.976627e-01 7.047789e-01 8.196186e-01 6.208378e-01 1.065145e+00 7.121269e-01 7.947694e-01 8.211921e-01 8.789421e-01 5.774127e-01 2.370694e-01
<GCONST> 1.248765e+02
<STATE> 4
<MEAN> 39
 -2.715818e+00 -8.278093e+00 -6.630376e+00 -1.912249e+01 -1.704244e+00 -8.575822e+00 -1.255597e+01 -9.432052e+00 -7.411441e+00 -2.901327e+00 -1.046954e+01 -5.758395e+00 6.865022e+01 1.146153e+00 -4.108232e+00 -6.915380e-01 -5.194669e+00 1.079411e+00 2.183162e-01 1.778841e-01 2.424607e+00 -1.759219e-01 1.840982e+00 -2.425298e+00 4.869364e-01 3.577687e+00 -5.912277e-01 3.945877e-02 4.415729e-01 7.444705e-01 1.466171e-01 1.216518e-01 4.210525e-01 1.616942e-01 -3.410241e-01 -3.890078e-01 -5.376399e-02 2.091606e-01 -2.371103e-01
<VARIANCE> 39
 1.616649e+01 6.388478e+01 3.511842e+01 1.118706e+02 4.828263e+01 5.137554e+01 3.707133e+01 3.885997e+01 4.570163e+01 4.098387e+01 5.204243e+01 5.187253e+01 2.491886e+01 2.727322e+00 3.737818e+00 3.726068e+00 7.295780e+00 9.323716e+00 3.859242e+00 8.127550e+00 4.455076e+00 5.499044e+00 6.784584e+00 5.816808e+00 4.077917e+00 1.410725e+00 4.610071e-01 9.163665e-01 3.376111e-01 2.238629e+00 8.222879e-01 7.393368e-01 9.415162e-01 1.211902e+00 1.144801e+00 9.961140e-01 1.384949e+00 8.630657e-01 3.735395e-01
<GCONST> 1.383782e+02
<TRANSP> 5
 0.000000e+00 1.000000e+00 0.000000e+00 0.000000e+00 0.000000e+00
 0.000000e+00 7.280621e-01 2.719379e-01 0.000000e+00 0.000000e+00
 0.000000e+00 0.000000e+00 5.422449e-01 4.577551e-01 0.000000e+00
 0.000000e+00 0.000000e+00 0.000000e+00 5.442855e-01 4.557145e-01
 0.000000e+00 0.000000e+00 0.000000e+00 0.000000e+00 0.000000e+00
<ENDHMM>
~h "x"
<BEGINHMM>
<NUMSTATES> 5
<STATE> 2
<MEAN> 39
 -1.248674e+01 3.130365e+00 -4.301802e+00 -4.007626e+00 -3.859357e+00 -1.433239e+01 -6.875726e+00 -9.713428e+00 -7.528774e+00 -9.668568e+00 -6.987196e+00 -9.581051e-01 6.561341e+01 -3.452967e+00 1.557017e+00 -1.465348e+00 3.340995e+00 9.483554e-01 2.303441e+00 2.481770e+00 2.757224e-02 1.393426e+00 4.657929e-01 1.598223e+00 -8.159635e-01 -3.181750e-01 -2.017337e-01 -5.926085e-01 -1.485730e-01 -2.728969e-01 1.684484e-01 6.288947e-01 2.465309e-01 5.262302e-01 8.983098e-02 6.305763e-01 9.579368e-02 1.596407e-01 6.537391e-02
<VARIANCE> 39
 4.247277e+01 4.123106e+01 3.181605e+01 7.336388e+01 5.659567e+01 6.053493e+01 5.829042e+01 4.125367e+01 4.397340e+01 3.525182e+01 3.905392e+01 4.230705e+01 2.362291e+01 2.024477e+00 4.464473e+00 2.901289e+00 5.726389e+00 4.487744e+00 6.250963e+00 5.441121e+00 4.523142e+00 4.659585e+00 5.129448e+00 2.962709e+00 4.426221e+00 1.563075e+00 6.521556e-01 4.075504e-01 4.355362e-01 1.150547e+00 7.609048e-01 1.347585e+00 9.574364e-01 8.212670e-01 6.346814e-01 9.067697e-01 5.828445e-01 7.936215e-01 1.108504e-01
<GCONST> 1.327320e+02
<STATE> 3
<MEAN> 39
 -2.263492e+01 3.096414e+00 -8.529258e+00 2.387951e+00 -5.218703e-01 -5.142514e+00 1.759383e+00 -5.278227e+00 -1.882201e+00 -4.186772e+00 -1.452597e+00 -9.023323e-01 6.443596e+01 -1.934491e+00 -5.990248e-01 -1.221972e+00 6.393976e-01 3.538881e-01 1.465426e+00 1.532841e+00 1.539908e+00 1.044986e+00 1.497097e+00 1.135423e+00 3.185829e-01 -8.145854e-02 8.336118e-01 -2.117033e-01 3.429151e-01 -6.791491e-01 -3.098715e-01 -6.387793e-01 -6.157978e-01 -4.825862e-03 -3.576621e-01 -1.567576e-01 -2.626548e-01 1.805398e-01 5.820868e-02
<VARIANCE> 39
 1.826185e+01 2.421120e+01 1.589776e+01 2.212674e+01 2.971528e+01 2.450464e+01 3.470001e+01 2.973305e+01 3.085327e+01 1.902861e+01 2.601774e+01 1.463841e+01 2.172973e+01 2.855221e+00 1.592282e+00 1.828241e+00 2.425104e+00 2.869170e+00 2.999026e+00 3.807734e+00 3.483845e+00 3.540694e+00 2.790485e+00 2.270660e+00 2.157806e+00 8.224443e-01 2.696210e-01 3.234418e-01 3.632469e-01 5.763776e-01 6.232759e-01 6.389785e-01 6.518208e-01 5.978892e-01 6.776867e-01 4.996285e-01 4.157272e-01 4.761443e-01 1.056227e-01
<GCONST> 1.131662e+02
<STATE> 4
<MEAN> 39
 -2.221505e+01 1.323787e+00 -8.907028e+00 5.117939e-01 -1.112406e+00 -5.285011e+00 1.825411e+00 -2.525698e+00 -3.933257e-01 -1.719035e+00 7.988166e-01 1.028562e+00 6.531282e+01 1.595549e+00 -7.767635e-01 4.712446e-01 -1.947375e+00 -3.248683e-01 -8.472549e-01 -9.823012e-01 1.323906e-01 -3.999374e-01 -2.642103e-01 -4.485769e-01 6.039876e-01 7.179031e-01 4.732028e-01 -2.871684e-01 9.023394e-02 -6.026189e-01 -4.897332e-02 -2.639885e-01 -3.351063e-01 -1.535746e-01 -2.614870e-01 -2.578702e-01 -3.701200e-01 3.325892e-02 1.978768e-01
<VARIANCE> 39
 5.004325e+01 1.758422e+01 2.212358e+01 5.486612e+01 2.781726e+01 3.874768e+01 4.269063e+01 2.226228e+01 2.324677e+01 2.425413e+01 2.290235e+01 2.121463e+01 1.224337e+01 7.139897e+00 2.284142e+00 2.282499e+00 8.841677e+00 3.583372e+00 4.696714e+00 5.355145e+00 2.980605e+00 3.092162e+00 3.342774e+00 3.968404e+00 2.571515e+00 9.897385e-01 9.049505e-01 3.794692e-01 4.829239e-01 9.168164e-01 7.575310e-01 9.169439e-01 7.790390e-01 5.334691e-01 5.186201e-01 5.111791e-01 6.006054e-01 4.772381e-01 1.165674e-01
<GCONST> 1.226094e+02
<TRANSP> 5
 0.000000e+00 1.000000e+00 0.000000e+00 0.000000e+00 0.000000e+00
 0.000000e+00 7.145876e-01 2.854124e-01 0.000000e+00 0.000000e+00
 0.000000e+00 0.000000e+00 4.670012e-01 5.329988e-01 0.000000e+00
 0.000000e+00 0.000000e+00 0.000000e+00 8.889260e-01 1.110740e-01
 0.000000e+00 0.000000e+00 0.000000e+00 0.000000e+00 0.000000e+00
<ENDHMM>
~h "y"
<BEGINHMM>
<NUMSTATES> 5
<STATE> 2
<MEAN> 39
 -9.090714e+00 -1.626654e+01 5.516517e-01 -2.555517e+01 -8.848078e+00 -1.150797e+01 4.182611e+00 -2.683517e+00 -1.414881e+01 -1.278017e+00 -1.479467e+01 -2.097380e+00 7.866574e+01 -3.234912e-01 2.217278e+00 1.547152e+00 -1.365828e+00 -2.302305e+00 -6.411933e-01 -9.210271e-01 -1.533526e-01 9.606010e-01 2.151434e+00 1.476159e-02 -8.978534e-01 -4.305052e-01 9.298125e-02 3.987698e-02 1.480941e-01 2.540061e-01 3.213697e-01 -9.354945e-02 -9.122381e-01 -3.759194e-01 7.552498e-04 6.597847e-02 2.421243e-01 3.907695e-01 -1.907876e-01
<VARIANCE> 39
 3.898089e+00 2.212032e+01 2.262135e+01 1.896909e+01 3.521764e+01 2.204885e+01 6.378321e+01 4.577193e+01 3.604317e+01 3.580440e+01 2.734914e+01 2.422924e+01 4.924963e+00 2.690696e-01 8.402772e-01 7.932221e-01 1.419652e+00 1.770684e+00 1.615762e+00 4.650661e+00 2.207744e+00 2.252154e+00 2.433789e+00 2.968262e+00 2.357911e+00 2.197704e-01 4.121473e-02 1.688949e-01 1.072625e-01 2.645420e-01 2.973195e-01 2.684609e-01 5.183164e-01 3.304735e-01 4.918016e-01 5.625415e-01 4.050392e-01 4.521380e-01 2.620808e-02
<GCONST> 9.678096e+01
<STATE> 3
<MEAN> 39
 -1.000119e+01 -7.492129e+00 8.360532e+00 -2.806893e+01 -1.383257e+01 -1.383405e+01 -9.043117e+00 -7.694458e+00 -1.383225e+01 5.849155e+00 -1.305772e+01 -1.080015e+00 7.488873e+01 -3.605647e-02 1.064893e+00 1.071379e+00 3.168742e-01 7.556617e-02 -6.548599e-02 -2.024659e+00 -1.035855e+00 -5.068611e-01 2.961788e-02 1.687958e-01 4.784739e-01 -7.574443e-01 9.738500e-02 -1.976353e-01 -2.293930e-01 3.606569e-01 3.396874e-01 1.311191e-01 2.800542e-01 5.949240e-02 -1.684711e-01 -5.190521e-01 -8.758084e-02 -5.914146e-02 -7.250471e-02
<VARIANCE> 39
 5.778567e+00 1.345179e+01 2.240385e+01 2.094040e+01 3.060975e+01 2.141155e+01 5.634859e+01 3.100236e+01 4.168012e+01 3.779957e+01 3.136375e+01 3.426973e+01 5.159119e+00 4.014216e-01 9.353492e-01 8.719694e-01 1.496377e+00 1.891382e+00 2.168395e+00 2.764980e+00 2.019145e+00 1.770305e+00 2.767148e+00 2.685463e+00 2.064606e+00 2.314712e-01 8.340456e-02 1.190297e-01 1.166738e-01 2.158060e-01 4.298272e-01 3.792755e-01 3.713700e-01 3.495908e-01 4.003633e-01 5.243459e-01 4.564298e-01 3.846541e-01 4.777221e-02
<GCONST> 9.787956e+01
<STATE> 4
<MEAN> 39
 -8.194448e+00 -1.688680e+00 1.029567e+01 -1.860397e+01 -1.016410e+01 -9.428977e+00 -1.336119e+01 -9.803717e+00 -1.367941e+01 1.052496e+00 -9.981431e+00 -2.042734e+00 6.528184e+01 3.725919e-01 7.437257e-02 -4.381762e-01 1.286690e+00 6.708138e-01 1.445922e-01 5.089845e-01 -3.168774e-04 3.133935e-01 -9.743922e-01 3.121364e-01 -1.185859e-01 -1.366072e+00 3.650865e-02 -5.430998e-02 -1.985856e-01 9.575177e-02 9.632444e-02 7.060607e-03 2.622470e-01 1.663937e-01 1.814796e-01 -1.021282e-01 9.778031e-02 -9.737855e-02 -1.054663e-01
<VARIANCE> 39
 1.321598e+01 3.014865e+01 3.127108e+01 7.017091e+01 4.508679e+01 4.365189e+01 5.328678e+01 2.423685e+01 5.885389e+01 4.150432e+01 6.808988e+01 4.710116e+01 7.052187e+01 9.437888e-01 1.665888e+00 1.718266e+00 2.759676e+00 2.309777e+00 2.046722e+00 3.924773e+00 2.004676e+00 2.851312e+00 3.121739e+00 2.270446e+00 2.191616e+00 1.194274e+00 1.458187e-01 2.750574e-01 2.283167e-01 3.817970e-01 5.121390e-01 4.067172e-01 5.846657e-01 3.921529e-01 4.663726e-01 5.311730e-01 4.558683e-01 4.231525e-01 1.668714e-01
<GCONST> 1.163009e+02
<TRANSP> 5
 0.000000e+00 1.000000e+00 0.000000e+00 0.000000e+00 0.000000e+00
 0.000000e+00 7.719354e-01 2.280646e-01 0.000000e+00 0.000000e+00
 0.000000e+00 0.000000e+00 8.055190e-01 1.944810e-01 0.000000e+00
 0.000000e+00 0.000000e+00 0.000000e+00 8.531284e-01 1.468716e-01
 0.000000e+00 0.000000e+00 0.000000e+00 0.000000e+00 0.000000e+00
<ENDHMM>
~h "aa"
<BEGINHMM>
<NUMSTATES> 5
<STATE> 2
<MEAN> 39
 -6.290555e+00 -1.526873e+01 -7.809059e+00 -2.397278e+01 -1.602692e-01 -1.590895e+01 -8.249680e+00 2.093545e+00 -8.215990e+00 -6.565080e+00 -1.483194e+01 6.036383e+00 7.472675e+01 4.537025e-01 -2.711902e+00 -6.454999e-01 -1.863979e+00 1.753264e+00 -1.351819e-01 7.744308e-01 1.415442e+00 -1.399121e+00 4.001176e-03 -1.886103e+00 8.288645e-01 1.925322e+00 -3.497983e-01 6.373284e-01 2.718515e-01 1.126066e+00 7.151811e-02 5.516848e-01 1.594190e-01 -6.085064e-01 1.082009e-01 8.768144e-03 8.190750e-01 -5.331910e-01 -7.651788e-01
<VARIANCE> 39
 8.761733e+00 3.086143e+01 2.727080e+01 3.905239e+01 5.363169e+01 5.605088e+01 4.360077e+01 4.528201e+01 3.455114e+01 4.990664e+01 4.487031e+01 4.858779e+01 2.605931e+01 2.047773e+00 4.662186e+00 1.777868e+00 8.300997e+00 5.051417e+00 4.963912e+00 6.671773e+00 8.414470e+00 3.359432e+00 4.965442e+00 6.223134e+00 4.032946e+00 3.305914e+00 6.219099e-01 6.981659e-01 5.595489e-01 9.772424e-01 8.508483e-01 1.105538e+00 1.226243e+00 1.206601e+00 6.037475e-01 8.237931e-01 1.020155e+00 7.543766e-01 5.088331e-01
<GCONST> 1.349315e+02
<STATE> 3
<MEAN> 39
 -5.397327e+00 -2.016384e+01 -7.430333e+00 -2.423959e+01 3.937604e+00 -1.615503e+01 -8.151691e+00 4.087497e+00 -1.071522e+01 -6.432000e+00 -1.320059e+01 6.356983e+00 7.661741e+01 5.926644e-01 6.037592e-01 5.851798e-01 5.882729e-01 -3.981566e-01 -4.317633e-01 -8.174303e-01 -7.235313e-01 2.141537e-03 -1.824028e-01 6.473989e-01 1.061634e-01 -9.687341e-01 7.236269e-02 8.568343e-01 2.804461e-01 4.428751e-01 -5.219566e-01 -1.943422e-01 -3.770865e-01 -5.734854e-01 1.302728e-01 -1.926775e-01 2.291885e-01 2.580239e-04 -6.965253e-01
<VARIANCE> 39
 6.455799e+00 1.739528e+01 2.077645e+01 1.920233e+01 5.131105e+01 3.185166e+01 5.352966e+01 4.739088e+01 2.428028e+01 2.488821e+01 2.805893e+01 2.950026e+01 9.267119e+00 8.092870e-01 4.508443e+00 1.644201e+00 3.242511e+00 4.398576e+00 3.132016e+00 4.844849e+00 5.586040e+00 2.606060e+00 2.824947e+00 2.060670e+00 2.572349e+00 3.164776e+00 1.215684e-01 3.260796e-01 2.196961e-01 7.903563e-01 6.945433e-01 4.607832e-01 8.002667e-01 1.238997e+00 6.211390e-01 6.055043e-01 6.086441e-01 4.866791e-01 2.166341e-01
<GCONST> 1.168289e+02
<STATE> 4
<MEAN> 39
 -3.164227e+00 -1.201537e+01 -6.491698e+00 -2.120407e+01 1.235974e+00 -1.818357e+01 -1.496856e+01 -3.484706e+00 -9.783214e+00 -7.511800e+00 -1.157419e+01 7.582758e+00 6.846539e+01 2.144930e-01 1.298967e+00 3.596254e-01 5.059567e-01 -8.690331e-01 -2.889007e-01 -5.647828e-01 -9.177408e-01 -2.929479e-01 -1.743167e-01 2.684706e-01 7.868388e-02 -1.106872e+00 -3.887467e-02 -3.555848e-03 -3.212132e-02 -6.762174e-02 -9.732600e-02 5.230281e-03 1.205765e-01 2.186820e-01 2.521775e-03 3.253127e-02 -5.060719e-03 -1.135893e-01 9.287777e-02
<VARIANCE> 39
 6.278744e+00 3.483751e+01 4.358814e+01 4.490517e+01 6.629773e+01 6.807073e+01 6.138766e+01 3.889328e+01 2.159440e+01 5.212719e+01 2.367872e+01 5.410979e+01 5.949154e+01 4.127784e-01 2.161752e+00 1.116891e+00 3.339957e+00 1.731380e+00 1.979629e+00 2.632844e+00 4.521315e+00 2.186725e+00 2.441940e+00 1.683579e+00 2.013480e+00 2.284110e+00 7.992169e-02 3.877767e-01 2.023049e-01 5.064801e-01 4.039521e-01 3.026909e-01 3.959132e-01 6.410477e-01 5.228187e-01 4.080871e-01 3.489713e-01 3.557659e-01 2.470690e-01
<GCONST> 1.134838e+02
<TRANSP> 5
 0.000000e+00 1.000000e+00 0.000000e+00 0.000000e+00 0.000000e+00
 0.000000e+00 5.844320e-01 4.155680e-01 0.000000e+00 0.000000e+00
 0.000000e+00 0.000000e+00 7.268813e-01 2.731187e-01 0.000000e+00
 0.000000e+00 0.000000e+00 0.000000e+00 6.918750e-01 3.081249e-01
 0.000000e+00 0.000000e+00 0.000000e+00 0.000000e+00 0.000000e+00
<ENDHMM>
~h "af"
<BEGINHMM>
<NUMSTATES> 5
<STATE> 2
<MEAN> 39
 -4.918522e+00 -2.336003e+01 -5.226963e+00 -2.049504e+01 4.596543e+00 -9.208939e+00 -3.652893e+00 -6.383124e+00 -1.437685e+01 -8.192982e+00 -1.480618e+01 1.582752e+00 7.741737e+01 -7.722560e-01 -2.646595e+00 -7.694167e-02 9.766113e-01 2.211609e+00 1.232398e+00 1.131529e+00 -1.295618e+00 -1.213840e+00 5.849176e-01 7.356567e-01 9.241132e-01 1.555427e+00 1.049255e-01 9.672140e-01 4.681382e-01 6.169021e-01 -4.578751e-01 -4.496637e-01 -5.693551e-01 -2.107275e-01 4.577719e-01 9.108010e-02 3.199697e-01 -3.366572e-01 -7.237730e-01
<VARIANCE> 39
 1.092557e+01 2.128375e+01 1.783456e+01 2.578579e+01 5.610868e+01 2.903311e+01 3.215372e+01 4.057331e+01 4.867501e+01 2.872198e+01 4.034385e+01 3.262048e+01 7.299929e+00 7.803282e-01 2.575723e+00 1.562276e+00 3.155802e+00 3.054299e+00 2.811130e+00 3.439424e+00 4.066369e+00 3.220604e+00 3.816210e+00 2.834659e+00 3.845716e+00 1.517657e+00 1.746654e-01 2.815101e-01 2.277115e-01 7.420348e-01 6.379891e-01 6.536586e-01 6.389697e-01 9.038824e-01 7.281220e-01 6.977467e-01 7.203625e-01 5.062572e-01 1.852995e-01
<GCONST> 1.170505e+02
<STATE> 3
<MEAN> 39
 -5.295825e+00 -2.749741e+01 -4.203676e+00 -1.611995e+01 8.172746e+00 -8.020473e+00 -3.122675e+00 -8.573236e+00 -1.281201e+01 -5.726040e+00 -1.322621e+01 2.010045e+00 7.943371e+01 5.592743e-02 3.534542e-02 1.775620e-01 -1.249721e-01 -2.611393e-01 -2.960470e-03 3.571272e-01 4.825452e-02 1.412299e-01 2.829527e-02 -2.021843e-01 -1.894321e-01 1.969528e-02 7.081627e-02 3.376277e-01 1.298058e-02 -2.843463e-01 -3.108173e-01 -1.319274e-01 -2.688182e-02 2.022496e-01 1.145006e-01 -7.204860e-02 -1.869675e-01 -1.091160e-01 -1.457262e-01
<VARIANCE> 39
 6.973130e+00 8.624371e+00 1.350521e+01 1.402309e+01 2.608686e+01 2.161558e+01 2.847683e+01 2.475629e+01 2.478391e+01 1.793517e+01 2.231120e+01 2.377155e+01 3.438840e+00 2.583761e-01 9.444804e-01 5.057987e-01 1.554261e+00 1.594308e+00 1.086448e+00 1.630000e+00 1.687526e+00 1.592602e+00 1.370158e+00 1.504434e+00 1.475280e+00 1.396490e-01 4.268388e-02 1.255684e-01 9.372885e-02 1.576421e-01 2.273265e-01 2.128669e-01 3.000389e-01 2.754853e-01 2.788563e-01 2.382889e-01 2.269439e-01 2.551404e-01 3.703852e-02
<GCONST> 8.321412e+01
<STATE> 4
<MEAN> 39
 -3.798601e+00 -2.105428e+01 -2.860113e+00 -1.958179e+01 2.615256e+00 -9.456007e+00 -1.582431e+00 -5.621462e+00 -1.074888e+01 -8.176344e+00 -1.631578e+01 -9.113659e-01 7.520088e+01 5.025251e-01 2.394355e+00 6.345032e-01 -6.401591e-01 -1.599925e+00 -9.456727e-01 -8.812832e-01 4.352195e-01 6.474410e-01 2.651595e-01 -3.998771e-01 -9.501171e-01 -1.437680e+00 3.436648e-02 4.243319e-01 2.001791e-01 5.908530e-01 1.554924e-01 -7.076842e-02 -6.097322e-01 -3.177833e-01 -1.142359e-01 3.561334e-02 4.555532e-01 -1.565310e-02 -4.061208e-01
<VARIANCE> 39
 1.324483e+01 3.604973e+01 1.995711e+01 7.467923e+01 4.409373e+01 4.085072e+01 6.239825e+01 4.673830e+01 4.126572e+01 3.840189e+01 4.192585e+01 3.737089e+01 4.322687e+01 8.538006e-01 2.151225e+00 1.669173e+00 4.193077e+00 2.820409e+00 3.156757e+00 4.130126e+00 3.463858e+00 2.863979e+00 3.856121e+00 3.186369e+00 2.922803e+00 1.585101e+00 1.314557e-01 3.545639e-01 2.266877e-01 7.604078e-01 5.521325e-01 6.575994e-01 6.575568e-01 7.450103e-01 6.199599e-01 7.034412e-01 5.170178e-01 4.360268e-01 2.086405e-01
<GCONST> 1.211755e+02
<TRANSP> 5
 0.000000e+00 1.000000e+00 0.000000e+00 0.000000e+00 0.000000e+00
 0.000000e+00 5.837663e-01 4.162337e-01 0.000000e+00 0.000000e+00
 0.000000e+00 0.000000e+00 8.895740e-01 1.104260e-01 0.000000e+00
 0.000000e+00 0.000000e+00 0.000000e+00 6.462600e-01 3.537400e-01
 0.000000e+00 0.000000e+00 0.000000e+00 0.000000e+00 0.000000e+00
<ENDHMM>
~h "aj"
<BEGINHMM>
<NUMSTATES> 5
<STATE> 2
<MEAN> 39
 -6.432198e+00 -2.833537e+01 -5.140946e+00 -1.596811e+01 1.067702e+01 -8.130218e+00 -3.197828e+00 -6.198158e+00 -1.304293e+01 -4.768563e+00 -1.299001e+01 1.870223e+00 7.949191e+01 -3.925125e-01 -1.024203e+00 4.690815e-01 7.387626e-01 7.383180e-01 1.264936e-01 6.968771e-01 -3.895625e-01 -5.670011e-02 5.660989e-01 2.064827e-01 4.019443e-02 5.032306e-01 1.521113e-01 7.094254e-01 1.206739e-01 2.315349e-02 -5.280759e-01 -1.360839e-01 -6.175682e-02 7.223881e-03 3.569125e-01 -6.831283e-02 1.065748e-01 -1.719028e-01 -4.781989e-01
<VARIANCE> 39
 6.392742e+00 1.694283e+01 1.225988e+01 2.422022e+01 3.320059e+01 2.344422e+01 4.110130e+01 3.171420e+01 2.551396e+01 2.731198e+01 2.322180e+01 2.739752e+01 4.528325e+00 6.693589e-01 3.562346e+00 9.450449e-01 2.442430e+00 3.930236e+00 1.746285e+00 2.674507e+00 2.671062e+00 3.019524e+00 2.286682e+00 2.127087e+00 2.877075e+00 1.206714e+00 1.163988e-01 3.504691e-01 2.728136e-01 8.901366e-01 3.296042e-01 3.854358e-01 5.840790e-01 5.175614e-01 5.047835e-01 4.168818e-01 4.956965e-01 4.629015e-01 2.881022e-01
<GCONST> 1.077785e+02
<STATE> 3
<MEAN> 39
 -6.593993e+00 -2.611709e+01 -2.504492e+00 -1.457298e+01 7.238813e+00 -9.301256e+00 1.656745e+00 -7.699331e+00 -9.342422e+00 -4.402655e+00 -1.206415e+01 1.810675e+00 7.787888e+01 3.136320e-01 1.559640e+00 1.715849e-01 1.231579e-01 -1.348674e+00 1.697307e-01 7.374825e-01 4.078648e-02 7.315472e-01 -5.008843e-01 1.582991e-01 -3.118611e-01 -1.246537e+00 9.578414e-02 3.787735e-01 -8.833683e-02 9.141644e-02 -3.286811e-02 1.182266e-01 -2.315001e-01 1.086102e-03 1.389806e-01 -6.151358e-02 1.167081e-01 -1.296771e-01 -3.921760e-01
<VARIANCE> 39
 9.326386e+00 3.787190e+01 1.626316e+01 2.729230e+01 7.193728e+01 2.864654e+01 5.656966e+01 3.029422e+01 2.811144e+01 2.785997e+01 2.880852e+01 4.054182e+01 1.961415e+01 9.144259e-01 3.886148e+00 1.183865e+00 3.797516e+00 4.397222e+00 1.872580e+00 4.018221e+00 3.296109e+00 2.553027e+00 2.875657e+00 2.339939e+00 3.306233e+00 2.252321e+00 1.625675e-01 5.508325e-01 1.987019e-01 7.002615e-01 7.783998e-01 3.841057e-01 8.007419e-01 7.713893e-01 5.400788e-01 6.319385e-01 5.063146e-01 5.792643e-01 2.110485e-01
<GCONST> 1.178025e+02
<STATE> 4
<MEAN> 39
 -4.891180e+00 -1.713458e+01 -4.520863e+00 -8.488575e+00 3.969539e+00 -5.251570e+00 6.932047e-01 -6.617912e+00 -5.139376e+00 -6.483230e+00 -8.453664e+00 -3.923710e-01 6.259816e+01 2.899811e-02 1.168954e+00 -2.181454e-01 6.665385e-01 -2.909693e-01 2.258838e-01 -3.152542e-01 -8.105750e-02 7.468269e-01 1.550260e-02 7.154299e-01 -1.568239e-01 -1.766293e+00 -2.524398e-02 -3.633641e-02 1.028107e-01 -3.651593e-02 5.336177e-02 -1.120328e-01 -1.275912e-01 9.193387e-03 -4.896757e-02 1.864830e-01 -1.295216e-02 9.518925e-02 1.737259e-01
<VARIANCE> 39
 1.282503e+01 4.339272e+01 1.827500e+01 3.808639e+01 4.725561e+01 3.558199e+01 5.596436e+01 3.018665e+01 3.532237e+01 2.544918e+01 2.712149e+01 3.841022e+01 1.060541e+02 1.093381e+00 3.779405e+00 1.358308e+00 2.571414e+00 2.938213e+00 1.932923e+00 3.004212e+00 3.560488e+00 3.236193e+00 2.762665e+00 1.715913e+00 2.580322e+00 2.041298e+00 1.780479e-01 5.815375e-01 2.241555e-01 3.722121e-01 5.586882e-01 3.238946e-01 6.310920e-01 6.973706e-01 5.471242e-01 5.002270e-01 3.153064e-01 4.429406e-01 2.599488e-01
<GCONST> 1.170927e+02
<TRANSP> 5
 0.000000e+00 1.000000e+00 0.000000e+00 0.000000e+00 0.000000e+00
 0.000000e+00 8.398176e-01 1.601824e-01 0.000000e+00 0.000000e+00
 0.000000e+00 0.000000e+00 7.544511e-01 2.455489e-01 0.000000e+00
 0.000000e+00 0.000000e+00 0.000000e+00 7.706466e-01 2.293534e-01
 0.000000e+00 0.000000e+00 0.000000e+00 0.000000e+00 0.000000e+00
<ENDHMM>
~h "ar"
<BEGINHMM>
<NUMSTATES> 5
<STATE> 2
<MEAN> 39
 -5.143179e+00 -2.756297e+01 -7.434540e+00 -1.689451e+01 9.346802e+00 -9.483506e+00 -4.423831e+00 -7.128242e+00 -1.136326e+01 -6.821966e+00 -1.158835e+01 9.057349e-01 7.823032e+01 -6.267457e-01 -2.276317e+00 4.784591e-01 1.146338e+00 1.421575e+00 1.068790e+00 4.420052e-01 -4.334441e-01 -1.504882e+00 3.500942e-01 -3.926035e-01 2.186209e-01 1.136933e+00 -1.461710e-03 1.000634e+00 3.573849e-01 4.212123e-01 -6.259182e-01 -5.135242e-02 -2.659026e-01 2.314147e-02 1.965153e-01 9.922382e-02 3.811474e-01 -2.062803e-01 -6.857009e-01
<VARIANCE> 39
 8.421440e+00 1.329763e+01 1.175415e+01 2.696256e+01 3.512883e+01 2.517878e+01 4.592062e+01 3.676026e+01 3.766838e+01 2.418833e+01 3.271154e+01 2.461231e+01 4.093612e+00 1.145340e+00 4.110217e+00 1.243014e+00 2.630504e+00 3.232703e+00 1.743497e+00 4.474082e+00 4.641662e+00 4.250218e+00 2.906641e+00 2.749096e+00 4.850280e+00 2.074165e+00 2.569935e-01 5.708655e-01 3.266588e-01 8.793426e-01 5.941398e-01 3.734358e-01 8.536548e-01 7.879024e-01 7.711946e-01 5.631531e-01 5.239943e-01 6.272053e-01 4.031436e-01
<GCONST> 1.166918e+02
<STATE> 3
<MEAN> 39
 -4.907719e+00 -2.939777e+01 -4.088707e+00 -1.353260e+01 7.478368e+00 -7.462385e+00 -3.498533e+00 -6.953236e+00 -1.363433e+01 -5.084177e+00 -1.195482e+01 1.142202e+00 7.911205e+01 1.254787e-01 4.991266e-01 6.451125e-01 -2.997481e-01 -1.010150e+00 -1.825844e-01 9.364871e-01 3.113498e-01 -1.695850e-01 3.968554e-02 -2.304363e-01 1.076399e-01 -8.172526e-03 8.257554e-02 5.221628e-01 8.351430e-02 -2.819537e-01 -3.185860e-01 -2.235252e-01 1.074686e-01 1.046198e-01 2.908964e-01 2.973999e-02 -4.919652e-02 -1.149897e-01 -1.839287e-01
<VARIANCE> 39
 6.624515e+00 1.019253e+01 1.207664e+01 2.029378e+01 2.623674e+01 2.292250e+01 5.667759e+01 3.115966e+01 3.449703e+01 2.325777e+01 2.046878e+01 2.612633e+01 3.961173e+00 5.665410e-01 1.669654e+00 7.612115e-01 2.190525e+00 2.402734e+00 1.562470e+00 3.395823e+00 2.066349e+00 2.242106e+00 1.494900e+00 1.688199e+00 2.000664e+00 4.877762e-01 5.712144e-02 2.187190e-01 1.350395e-01 3.682470e-01 3.871321e-01 2.938628e-01 4.824057e-01 3.818737e-01 4.894938e-01 3.709766e-01 3.149450e-01 4.451610e-01 6.382981e-02
<GCONST> 9.737733e+01
<STATE> 4
<MEAN> 39
 -1.437660e+00 -1.983088e+01 -1.241117e+00 -8.707726e+00 5.398007e+00 -7.160705e+00 -2.381424e+00 -5.815712e+00 -9.420545e+00 -3.337121e+00 -1.012199e+01 9.827887e-01 7.052448e+01 -3.222360e-04 1.480932e+00 4.568905e-01 -2.912578e-01 -8.566073e-01 -2.575811e-01 3.999800e-01 3.587850e-01 6.853034e-01 3.270797e-01 5.449175e-02 -4.379036e-01 -8.835832e-01 -2.863529e-02 1.357497e-01 4.707305e-02 1.036422e-02 -6.631000e-03 -7.481319e-02 -3.072332e-01 -8.266067e-02 1.238591e-01 1.280709e-01 4.929157e-02 -4.483760e-02 -8.586520e-02
<VARIANCE> 39
 1.983407e+01 9.224451e+01 3.142754e+01 1.043685e+02 3.244823e+01 3.306727e+01 6.865751e+01 1.893138e+01 3.848444e+01 2.771226e+01 2.847554e+01 3.655986e+01 9.908733e+01 7.640558e-01 2.146599e+00 1.271482e+00 3.123487e+00 2.719432e+00 1.700567e+00 3.002773e+00 1.613765e+00 1.659077e+00 1.666398e+00 1.841234e+00 1.803913e+00 9.467072e-01 8.034277e-02 2.476932e-01 1.183491e-01 3.693025e-01 3.495107e-01 2.790709e-01 5.698314e-01 3.199091e-01 3.046065e-01 3.579748e-01 3.019706e-01 3.476993e-01 1.064312e-01
<GCONST> 1.093078e+02
<TRANSP> 5
 0.000000e+00 1.000000e+00 0.000000e+00 0.000000e+00 0.000000e+00
 0.000000e+00 6.920210e-01 3.079790e-01 0.000000e+00 0.000000e+00
