~o
<STREAMINFO> 1 39
<VECSIZE> 39<NULLD><MFCC_D_A_0><DIAGC>
~h "a"
<BEGINHMM>
<NUMSTATES> 5
<STATE> 2
<MEAN> 39
 -6.773270e+000 -2.537091e+001 -5.797040e+000 -1.464347e+001 7.477687e+000 -1.021995e+001 -6.490904e+000 -8.773388e+000 -1.001771e+001 -6.783893e+000 -8.332768e+000 2.507875e+000 7.593070e+001 -9.046706e-002 -6.049463e-001 6.384790e-002 5.090881e-001 4.618035e-001 -1.058139e-001 -1.227661e-001 -5.433679e-001 1.675071e-001 1.612581e-001 1.561763e-001 9.634434e-003 2.953411e-001 5.081331e-002 3.619816e-001 5.323349e-002 -7.081506e-002 -3.113792e-001 -5.478710e-002 -1.909994e-002 1.524381e-001 1.691337e-001 -4.952112e-002 8.641740e-003 -7.706603e-002 -1.855479e-001
<VARIANCE> 39
 1.181472e+001 3.421012e+001 1.589352e+001 3.289577e+001 3.857086e+001 3.872134e+001 4.577689e+001 3.292868e+001 4.073255e+001 3.067769e+001 2.712601e+001 3.357195e+001 3.315138e+001 6.002375e-001 1.994498e+000 9.269596e-001 2.231873e+000 2.679256e+000 1.838308e+000 2.301885e+000 2.804581e+000 2.511019e+000 1.903899e+000 1.547070e+000 1.915219e+000 1.017470e+000 1.076066e-001 2.963442e-001 1.778923e-001 4.412155e-001 4.466137e-001 3.410512e-001 4.334710e-001 4.312760e-001 5.030599e-001 3.289625e-001 3.032393e-001 3.421038e-001 1.612949e-001
<GCONST> 1.076073e+002
<STATE> 3
<MEAN> 39
 -6.637384e+000 -2.507875e+001 -5.687671e+000 -1.446183e+001 7.104460e+000 -1.084386e+001 -6.276632e+000 -9.798735e+000 -8.932032e+000 -7.156412e+000 -7.965401e+000 2.265039e+000 7.565900e+001 4.012597e-002 2.080046e-001 -2.152060e-003 -1.915714e-001 -2.160853e-001 -2.029100e-001 1.203880e-001 -1.824599e-001 1.918154e-001 -1.297206e-001 3.499289e-002 2.395239e-002 -5.596517e-002 3.337444e-002 2.427215e-001 2.314128e-003 -1.822371e-001 -1.828483e-001 -3.354140e-002 1.855721e-002 9.531302e-002 1.023802e-002 -4.718883e-002 -4.707717e-002 -1.497167e-002 -1.098724e-001
<VARIANCE> 39
 1.094990e+001 4.172084e+001 1.665381e+001 3.554194e+001 3.671907e+001 3.808202e+001 5.158967e+001 3.148237e+001 3.402922e+001 3.272233e+001 2.354352e+001 3.529300e+001 3.709937e+001 5.336655e-001 2.042980e+000 8.318522e-001 2.232603e+000 2.079257e+000 1.600736e+000 2.326651e+000 2.030470e+000 2.213560e+000 1.851542e+000 1.361051e+000 1.549961e+000 1.401956e+000 9.473577e-002 2.493875e-001 1.449423e-001 3.273829e-001 3.378998e-001 2.823883e-001 3.655582e-001 3.449722e-001 3.755351e-001 3.034644e-001 2.402081e-001 2.747510e-001 1.500804e-001
<GCONST> 1.041276e+002
<STATE> 4
<MEAN> 39
 -6.672072e+000 -2.220324e+001 -5.332691e+000 -1.535229e+001 4.962246e+000 -1.093304e+001 -5.790516e+000 -1.002233e+001 -8.366806e+000 -8.103309e+000 -7.903326e+000 1.748646e+000 7.351227e+001 1.039958e-001 9.151332e-001 2.424635e-002 -5.073065e-001 -6.554546e-001 -1.653657e-001 1.666317e-001 5.527937e-002 1.600697e-001 -1.127853e-001 -9.013764e-002 -1.312090e-001 -6.276286e-001 3.237849e-002 1.528215e-001 5.699663e-002 6.214014e-003 -9.885172e-002 -3.432462e-002 -1.156637e-001 3.247632e-002 4.506087e-003 5.320492e-002 -4.547679e-002 -5.153019e-002 -1.243011e-001
<VARIANCE> 39
 1.083366e+001 5.577750e+001 1.812127e+001 6.482263e+001 4.307726e+001 4.235759e+001 5.871078e+001 2.959921e+001 3.497584e+001 3.600274e+001 2.443692e+001 3.987553e+001 6.191590e+001 5.974107e-001 1.858102e+000 9.757836e-001 2.741416e+000 2.135126e+000 1.873677e+000 2.851082e+000 2.143039e+000 2.420072e+000 2.200028e+000 1.749690e+000 1.900605e+000 1.609477e+000 9.715653e-002 2.416186e-001 1.595828e-001 4.353908e-001 3.231940e-001 3.273609e-001 4.728116e-001 3.744869e-001 4.343787e-001 3.304786e-001 3.036361e-001 3.033305e-001 1.698440e-001
<GCONST> 1.094051e+002
<TRANSP> 5
 0.000000e+000 1.000000e+000 0.000000e+000 0.000000e+000 0.000000e+000
 0.000000e+000 7.683991e-001 2.316009e-001 0.000000e+000 0.000000e+000
 0.000000e+000 0.000000e+000 7.212088e-001 2.787912e-001 0.000000e+000
 0.000000e+000 0.000000e+000 0.000000e+000 8.693255e-001 1.306745e-001
 0.000000e+000 0.000000e+000 0.000000e+000 0.000000e+000 0.000000e+000
<ENDHMM>
~h "b"
<BEGINHMM>
<NUMSTATES> 5
<STATE> 2
<MEAN> 39
 -2.429583e+000 -8.221996e+000 -1.724937e+000 -1.486156e+001 -9.821736e-001 -1.074455e+001 -1.101782e+001 -8.275989e+000 -9.476663e+000 -5.057824e+000 -1.131019e+001 -4.012586e+000 6.164864e+001 5.021164e-001 7.994860e-001 1.655420e-001 1.116187e+000 2.653404e-001 4.172816e-001 -5.277571e-001 -7.957105e-001 -1.688668e-001 -5.117520e-001 1.429798e-001 -9.928770e-001 -1.136083e+000 3.639939e-005 -1.190078e-003 -3.515983e-002 -2.060455e-001 -1.554590e-001 -1.073246e-001 -1.897477e-002 -4.400748e-003 1.669874e-002 8.319750e-002 -2.829629e-002 9.624097e-002 2.725081e-001
<VARIANCE> 39
 1.894941e+001 9.398526e+001 4.070314e+001 8.589368e+001 5.013689e+001 5.637277e+001 9.261562e+001 4.251814e+001 5.264982e+001 3.932455e+001 4.009982e+001 4.775228e+001 1.245135e+002 1.011005e+000 2.099087e+000 1.431817e+000 2.962763e+000 2.397804e+000 2.230486e+000 3.332037e+000 2.802414e+000 3.101847e+000 2.501128e+000 2.471145e+000 3.624722e+000 3.464029e+000 2.062611e-001 4.513620e-001 2.278808e-001 6.396440e-001 4.792353e-001 3.614131e-001 6.007511e-001 5.328261e-001 5.507783e-001 5.106708e-001 4.502979e-001 6.444429e-001 6.042630e-001
<GCONST> 1.249543e+002
<STATE> 3
<MEAN> 39
 -1.371643e+000 -6.367587e+000 -1.371058e+000 -1.282782e+001 -6.600123e-001 -1.050273e+001 -1.231521e+001 -9.587173e+000 -9.399892e+000 -5.745886e+000 -1.099321e+001 -5.572162e+000 5.930438e+001 5.032526e-001 4.511105e-001 2.839246e-003 5.770453e-001 1.216751e-001 1.551184e-001 -4.273621e-001 -6.601417e-001 -3.400141e-002 -2.663898e-001 -3.217069e-003 -5.592707e-001 -3.117647e-001 -4.339327e-002 -3.360681e-001 -1.784551e-001 -4.817466e-001 -7.908837e-002 -9.875520e-002 1.768562e-001 1.794106e-001 9.897777e-002 1.550451e-001 -6.113928e-002 3.242232e-001 6.122500e-001
<VARIANCE> 39
 1.783405e+001 9.090056e+001 3.539054e+001 8.491178e+001 4.482919e+001 4.998560e+001 7.854474e+001 4.532221e+001 5.082404e+001 3.954543e+001 3.704427e+001 5.019752e+001 1.088969e+002 9.976127e-001 2.307217e+000 1.695302e+000 3.160638e+000 2.095239e+000 1.856248e+000 3.508075e+000 2.920952e+000 2.507030e+000 2.425195e+000 2.275562e+000 3.158403e+000 3.885212e+000 1.569037e-001 5.700621e-001 2.569780e-001 6.597932e-001 4.438053e-001 3.625107e-001 6.673880e-001 6.154621e-001 5.791732e-001 5.545402e-001 4.838691e-001 7.222070e-001 7.002038e-001
<GCONST> 1.246754e+002
<STATE> 4
<MEAN> 39
 -8.888897e-002 -6.846364e+000 -2.225445e+000 -1.277324e+001 -1.770431e-001 -1.021060e+001 -1.249375e+001 -1.056889e+001 -8.590802e+000 -6.008859e+000 -1.147288e+001 -5.877401e+000 6.038816e+001 8.208142e-002 -1.119741e+000 -5.773355e-001 -7.781136e-001 2.899657e-001 2.555615e-001 3.611147e-001 1.448959e-001 -1.573182e-002 4.235947e-002 -1.617561e-001 5.773202e-001 1.641204e+000 -2.179682e-001 -4.973620e-001 -1.371813e-001 -4.885018e-001 4.844317e-002 6.953004e-002 2.922389e-001 3.479314e-001 -5.746543e-002 1.470295e-001 -2.737218e-005 4.025505e-001 5.917495e-001
<VARIANCE> 39
 1.613824e+001 1.071079e+002 3.507602e+001 8.235629e+001 4.258738e+001 4.359502e+001 7.002688e+001 4.839450e+001 4.926155e+001 3.938122e+001 3.572383e+001 5.707395e+001 1.079935e+002 1.467530e+000 7.917737e+000 2.746718e+000 6.308530e+000 3.601838e+000 2.658572e+000 5.430024e+000 5.081101e+000 3.657255e+000 3.192823e+000 3.312499e+000 5.447311e+000 9.046441e+000 2.050039e-001 1.083688e+000 4.889325e-001 1.202924e+000 6.066746e-001 4.328459e-001 1.046195e+000 9.111238e-001 7.734662e-001 6.786565e-001 5.930982e-001 9.668866e-001 1.249788e+000
<GCONST> 1.366650e+002
<TRANSP> 5
 0.000000e+000 1.000000e+000 0.000000e+000 0.000000e+000 0.000000e+000
 0.000000e+000 4.478383e-001 5.521616e-001 0.000000e+000 0.000000e+000
 0.000000e+000 0.000000e+000 4.407133e-001 5.592867e-001 0.000000e+000
 0.000000e+000 0.000000e+000 0.000000e+000 5.925986e-001 4.074014e-001
 0.000000e+000 0.000000e+000 0.000000e+000 0.000000e+000 0.000000e+000
<ENDHMM>
~h "c"
<BEGINHMM>
<NUMSTATES> 5
<STATE> 2
<MEAN> 39
 -5.564872e+000 -6.614348e+000 -4.739327e+000 -1.163090e+001 9.192074e-001 -6.245811e+000 -6.377859e+000 -3.865193e+000 -2.698628e+000 -2.534549e+000 -5.401145e+000 -2.477409e+000 5.425322e+001 -3.714294e-001 -1.954014e-001 -4.164843e-001 3.557000e-001 3.078611e-001 1.090099e-001 5.416418e-001 2.424419e-001 5.661342e-001 3.664309e-001 3.848257e-001 -6.903528e-002 -2.326585e-001 6.988603e-002 -4.937346e-003 -7.780271e-002 -3.186370e-001 -8.008502e-002 -2.080276e-001 -1.727944e-001 -1.907858e-002 -1.140772e-001 8.777172e-002 -4.574083e-002 1.197740e-001 6.211099e-001
<VARIANCE> 39
 1.751055e+001 3.731630e+001 3.361509e+001 8.315199e+001 4.427753e+001 4.635804e+001 6.570744e+001 3.947366e+001 4.035537e+001 4.639099e+001 5.511074e+001 4.555607e+001 7.925792e+001 1.382306e+000 2.340728e+000 2.384686e+000 5.589005e+000 4.460285e+000 4.273679e+000 5.379891e+000 3.814605e+000 3.901995e+000 3.852268e+000 4.256105e+000 3.425012e+000 8.252905e+000 2.497087e-001 4.217966e-001 4.330358e-001 1.012050e+000 8.229539e-001 8.229721e-001 9.559727e-001 7.561790e-001 7.448109e-001 7.384891e-001 8.639844e-001 6.621048e-001 9.998233e-001
<GCONST> 1.336057e+002
<STATE> 3
<MEAN> 39
 -6.219539e+000 -7.036404e+000 -5.726580e+000 -1.145851e+001 1.324212e+000 -6.714710e+000 -5.732998e+000 -3.508226e+000 -1.819962e+000 -1.591896e+000 -4.659682e+000 -2.287541e+000 5.549219e+001 -1.244317e-001 -1.575733e-001 -4.595941e-001 -4.855674e-001 8.970791e-002 -3.623079e-001 1.521842e-001 1.368515e-001 1.124894e-001 3.373582e-001 1.212577e-003 1.936362e-001 1.218874e+000 1.375637e-001 -7.686271e-003 1.655976e-002 -4.479191e-001 -7.720098e-002 -8.938362e-002 -1.523880e-001 -8.458652e-002 -2.568587e-001 -9.550577e-002 -2.395924e-001 6.977202e-002 5.127572e-001
<VARIANCE> 39
 1.812518e+001 3.620299e+001 3.267277e+001 8.746937e+001 4.858257e+001 4.846407e+001 6.080603e+001 3.925262e+001 3.795647e+001 4.126618e+001 5.201433e+001 3.968212e+001 9.586581e+001 1.744060e+000 2.734356e+000 2.639664e+000 9.243600e+000 4.934471e+000 4.835647e+000 5.878278e+000 3.964654e+000 4.220369e+000 4.039739e+000 5.188042e+000 3.759189e+000 1.070224e+001 3.002414e-001 4.369589e-001 4.732998e-001 1.386070e+000 8.828650e-001 9.405452e-001 1.007738e+000 7.893913e-001 7.502089e-001 7.520410e-001 9.931034e-001 6.803155e-001 1.245327e+000
<GCONST> 1.368575e+002
<STATE> 4
<MEAN> 39
 -6.099892e+000 -7.257690e+000 -6.655109e+000 -1.396865e+001 1.034160e+000 -7.459911e+000 -5.719172e+000 -3.493379e+000 -2.142070e+000 -1.201337e+000 -5.356535e+000 -1.619127e+000 5.950651e+001 1.938629e-001 -2.412081e-001 -2.604231e-001 -1.462673e+000 -5.056700e-002 -2.101534e-001 -1.005676e-001 -1.571167e-001 -5.404077e-001 -1.380735e-001 -7.183817e-001 1.814396e-001 1.849357e+000 7.480432e-002 -7.954143e-002 1.025107e-001 -2.026746e-001 1.251245e-002 1.372930e-001 -9.693530e-002 -1.313026e-001 -2.517233e-001 -1.810036e-001 -1.650379e-001 -6.596015e-002 7.136700e-002
<VARIANCE> 39
 2.155603e+001 4.372971e+001 3.080503e+001 1.252129e+002 5.498966e+001 5.806293e+001 7.247300e+001 3.872221e+001 4.160787e+001 4.168761e+001 5.839745e+001 3.896328e+001 1.333590e+002 1.994585e+000 3.748376e+000 2.742013e+000 1.207475e+001 4.937686e+000 5.160405e+000 6.105632e+000 4.400300e+000 4.663473e+000 4.154869e+000 6.024442e+000 3.692574e+000 8.492849e+000 3.489368e-001 4.633485e-001 4.663140e-001 1.917241e+000 9.039022e-001 1.007304e+000 1.078822e+000 7.555516e-001 7.843025e-001 7.794849e-001 1.119557e+000 6.728217e-001 1.271070e+000
<GCONST> 1.403512e+002
<TRANSP> 5
 0.000000e+000 1.000000e+000 0.000000e+000 0.000000e+000 0.000000e+000
 0.000000e+000 5.508484e-001 4.491516e-001 0.000000e+000 0.000000e+000
 0.000000e+000 0.000000e+000 5.457470e-001 4.542530e-001 0.000000e+000
 0.000000e+000 0.000000e+000 0.000000e+000 6.481186e-001 3.518814e-001
 0.000000e+000 0.000000e+000 0.000000e+000 0.000000e+000 0.000000e+000
<ENDHMM>
~h "d"
<BEGINHMM>
<NUMSTATES> 5
<STATE> 2
<MEAN> 39
 -1.060778e+001 1.011354e+000 -4.819813e+000 -7.375971e+000 -5.426009e+000 -1.553197e+001 -8.521262e+000 -9.474744e+000 -9.129697e+000 -9.544909e+000 -9.370416e+000 -1.487818e+000 6.461198e+001 -1.067954e+000 1.080568e+000 -3.664436e-001 1.325030e+000 -1.947664e-001 -1.312276e-001 1.922576e-001 -4.043056e-001 4.901699e-002 -3.101403e-001 1.173799e-001 -4.880824e-001 -1.582834e-001 5.144606e-002 -1.875329e-001 1.122570e-003 -1.583885e-001 1.220710e-001 1.760844e-001 1.586244e-002 1.463793e-001 2.621909e-002 7.609512e-002 3.469846e-002 4.043510e-002 1.135764e-001
<VARIANCE> 39
 4.266657e+001 6.108492e+001 3.270750e+001 1.034978e+002 4.170132e+001 6.157505e+001 6.651259e+001 5.589167e+001 4.041746e+001 4.498755e+001 3.893343e+001 5.135179e+001 5.172605e+001 3.530291e+000 3.674104e+000 2.502626e+000 6.879971e+000 3.190126e+000 6.859953e+000 6.119811e+000 4.288163e+000 3.299339e+000 4.918729e+000 4.027428e+000 4.267520e+000 2.020750e+000 5.438018e-001 4.721106e-001 4.298019e-001 1.010816e+000 5.449520e-001 1.199941e+000 1.086667e+000 8.237350e-001 5.981550e-001 9.253334e-001 6.969050e-001 8.302570e-001 1.856582e-001
<GCONST> 1.353385e+002
<STATE> 3
<MEAN> 39
 -1.281541e+001 2.530664e+000 -5.585830e+000 -5.554129e+000 -5.510109e+000 -1.538393e+001 -8.333948e+000 -9.295549e+000 -8.596624e+000 -9.593876e+000 -9.041161e+000 -2.209097e+000 6.509032e+001 -3.059262e-001 -2.889747e-002 -1.813335e-001 -7.374509e-002 7.045814e-002 -2.668984e-002 2.616072e-002 3.176656e-001 1.713112e-001 8.955517e-002 1.030572e-002 -1.439270e-002 4.308030e-001 2.039458e-001 -3.791493e-001 6.576606e-002 -4.650172e-001 1.347324e-001 6.500664e-002 -5.484103e-002 2.142477e-001 7.647189e-003 1.134941e-001 -5.057004e-002 1.348112e-001 1.885684e-001
<VARIANCE> 39
 4.414945e+001 5.799352e+001 2.868350e+001 9.861678e+001 3.787014e+001 5.732003e+001 6.062600e+001 6.147672e+001 3.874000e+001 4.236925e+001 3.647485e+001 4.819951e+001 3.849277e+001 5.567389e+000 5.889540e+000 2.272597e+000 1.085916e+001 3.292043e+000 6.508677e+000 6.722247e+000 5.471751e+000 3.558987e+000 4.317407e+000 3.826494e+000 3.901863e+000 2.516284e+000 7.761375e-001 5.663155e-001 3.864940e-001 1.144009e+000 6.454325e-001 1.262791e+000 1.161676e+000 9.905379e-001 7.352594e-001 7.975892e-001 7.551536e-001 6.816686e-001 2.229114e-001
<GCONST> 1.372276e+002
<STATE> 4
<MEAN> 39
 -1.249392e+001 8.452495e-001 -5.125042e+000 -8.679464e+000 -5.351717e+000 -1.537249e+001 -9.392482e+000 -8.008697e+000 -8.804648e+000 -8.956341e+000 -9.808217e+000 -2.107232e+000 6.716220e+001 1.834930e-001 -1.203896e+000 -5.710403e-002 -1.204576e+000 5.088254e-001 3.771041e-001 -4.419238e-002 6.793237e-001 7.956342e-002 4.538502e-001 -3.143902e-002 3.588358e-001 8.717675e-001 1.948279e-001 -3.133536e-001 5.895045e-002 -3.265851e-001 9.240796e-002 4.301688e-002 -6.417137e-002 2.379247e-002 9.763358e-004 1.027841e-001 -5.730740e-002 1.069904e-001 1.295583e-001
<VARIANCE> 39
 4.100933e+001 9.457902e+001 2.887375e+001 1.345445e+002 4.438814e+001 4.896302e+001 7.935595e+001 7.577054e+001 3.971412e+001 4.633335e+001 3.781307e+001 4.627921e+001 4.382671e+001 4.445543e+000 6.336452e+000 1.883762e+000 9.567496e+000 4.289797e+000 5.110393e+000 6.385734e+000 6.361126e+000 4.580782e+000 3.699135e+000 3.883504e+000 3.442840e+000 2.097460e+000 7.078132e-001 7.783601e-001 3.169530e-001 1.440352e+000 7.709803e-001 1.115538e+000 1.168585e+000 1.347206e+000 9.123230e-001 6.669885e-001 7.631645e-001 6.745810e-001 2.810302e-001
<GCONST> 1.390343e+002
<TRANSP> 5
 0.000000e+000 1.000000e+000 0.000000e+000 0.000000e+000 0.000000e+000
 0.000000e+000 6.958599e-001 3.041401e-001 0.000000e+000 0.000000e+000
 0.000000e+000 0.000000e+000 6.901090e-001 3.098910e-001 0.000000e+000
 0.000000e+000 0.000000e+000 0.000000e+000 7.115709e-001 2.884292e-001
 0.000000e+000 0.000000e+000 0.000000e+000 0.000000e+000 0.000000e+000
<ENDHMM>
~h "e"
<BEGINHMM>
<NUMSTATES> 5
<STATE> 2
<MEAN> 39
 -8.061951e+000 -1.083169e+001 -2.008755e+000 -1.953943e+001 -6.069720e+000 -1.138232e+001 1.229416e-001 -4.910386e+000 -1.028811e+001 -7.289015e+000 -7.942502e+000 3.663305e+000 7.152864e+001 2.527920e-001 -1.479856e+000 -3.595809e-001 -1.491413e+000 1.185777e-001 -6.829277e-001 1.030731e+000 -3.182118e-001 -1.139164e+000 -6.819578e-001 -7.189474e-001 -1.528049e-002 1.368804e+000 -2.499121e-001 3.211891e-002 -1.269028e-001 3.986338e-001 2.539735e-001 2.058346e-001 -2.180636e-002 -1.330119e-001 4.979557e-002 1.967737e-001 1.303973e-001 -2.533981e-001 -1.709395e-001
<VARIANCE> 39
 1.589250e+001 3.854081e+001 2.790202e+001 7.287711e+001 4.544676e+001 8.709888e+001 7.972142e+001 4.982570e+001 4.614503e+001 5.126134e+001 6.952775e+001 4.604473e+001 4.041776e+001 2.311981e+000 3.269504e+000 1.478545e+000 5.949327e+000 4.402711e+000 7.564986e+000 6.076740e+000 5.003507e+000 4.314204e+000 4.802020e+000 3.685548e+000 2.667102e+000 1.848678e+000 6.713096e-001 4.399870e-001 3.089244e-001 1.326371e+000 1.118888e+000 1.308974e+000 1.477197e+000 1.049889e+000 6.334419e-001 1.012007e+000 5.901653e-001 6.423776e-001 2.510765e-001
<GCONST> 1.347826e+002
<STATE> 3
<MEAN> 39
 -8.512237e+000 -1.404812e+001 -3.350114e+000 -2.097751e+001 -4.845874e+000 -1.130244e+001 3.231556e+000 -5.858279e+000 -1.217459e+001 -7.839261e+000 -8.204805e+000 2.498836e+000 7.402361e+001 -7.959285e-002 -1.135145e+000 -4.810387e-001 -7.311539e-001 2.888980e-001 -2.011870e-001 7.141038e-001 -5.388930e-001 -9.773633e-001 -1.266566e-001 -2.463397e-001 -2.305663e-001 9.859634e-001 -6.501212e-002 1.950400e-001 -2.027483e-002 2.805291e-001 1.302316e-002 9.719304e-002 -2.148594e-001 -5.253065e-002 1.775709e-001 1.818604e-001 1.234740e-001 -2.217311e-002 -2.170164e-001
<VARIANCE> 39
 9.821521e+000 2.863154e+001 1.955927e+001 4.189868e+001 3.879255e+001 7.239000e+001 6.069263e+001 4.007708e+001 4.144656e+001 4.164597e+001 5.432509e+001 3.114543e+001 2.801473e+001 1.032170e+000 2.693422e+000 1.322493e+000 4.098912e+000 4.072364e+000 5.336593e+000 5.489062e+000 4.425302e+000 4.178954e+000 4.071118e+000 2.398475e+000 2.324265e+000 1.612697e+000 3.332250e-001 3.450825e-001 2.035209e-001 7.669663e-001 8.019013e-001 1.100330e+000 9.271337e-001 8.634381e-001 5.428007e-001 6.642690e-001 4.738999e-001 4.503140e-001 1.629670e-001
<GCONST> 1.232469e+002
<STATE> 4
<MEAN> 39
 -8.753401e+000 -1.660138e+001 -4.627949e+000 -2.245613e+001 -4.330589e+000 -1.202516e+001 5.178003e+000 -7.862350e+000 -1.341608e+001 -6.852654e+000 -8.898207e+000 2.090673e+000 7.555120e+001 1.876924e-001 6.843095e-002 -5.602352e-002 -4.289227e-003 1.881817e-001 -5.606886e-001 -5.232161e-001 -3.320738e-002 2.116031e-001 9.216564e-002 -2.170170e-001 -1.377417e-003 -1.793487e-001 6.996431e-002 2.202318e-001 4.757377e-002 1.276809e-001 6.877632e-002 -2.771683e-002 -2.332161e-001 2.256698e-002 1.399974e-001 -5.813334e-002 1.208954e-002 -1.948178e-002 -2.129523e-001
<VARIANCE> 39
 5.498284e+000 2.468434e+001 1.220128e+001 2.266877e+001 4.118859e+001 4.126973e+001 4.001626e+001 3.513420e+001 4.893078e+001 3.528401e+001 4.493375e+001 2.480291e+001 2.006991e+001 6.062693e-001 2.347274e+000 1.173003e+000 2.565193e+000 2.797329e+000 3.529380e+000 3.440167e+000 3.647691e+000 3.043242e+000 2.259386e+000 1.880634e+000 1.899274e+000 1.673278e+000 1.049961e-001 2.710195e-001 1.302138e-001 4.721804e-001 4.162063e-001 5.071886e-001 5.118757e-001 6.937697e-001 5.178546e-001 4.329842e-001 3.126252e-001 3.332172e-001 1.649423e-001
<GCONST> 1.098579e+002
<TRANSP> 5
 0.000000e+000 1.000000e+000 0.000000e+000 0.000000e+000 0.000000e+000
 0.000000e+000 4.897283e-001 5.102717e-001 0.000000e+000 0.000000e+000
 0.000000e+000 0.000000e+000 5.759264e-001 4.240736e-001 0.000000e+000
 0.000000e+000 0.000000e+000 0.000000e+000 9.006494e-001 9.935065e-002
 0.000000e+000 0.000000e+000 0.000000e+000 0.000000e+000 0.000000e+000
<ENDHMM>
~h "f"
<BEGINHMM>
<NUMSTATES> 5
<STATE> 2
<MEAN> 39
 -1.300828e+001 -1.383234e+000 6.851294e+000 -2.120179e+001 -1.189105e+001 -1.074382e+001 -1.595337e+001 -1.209054e+001 -1.474033e+001 -1.417203e+000 -1.260204e+001 2.323514e-001 7.092683e+001 2.440906e-001 -1.049518e-001 1.068971e+000 -7.191705e-001 -4.684164e-002 2.525125e-001 -2.446633e-001 1.112781e-001 -7.577853e-002 3.961336e-001 -6.087098e-001 -1.283417e-001 1.874442e-001 2.276845e-002 4.086175e-002 -2.304036e-002 4.044960e-002 9.915206e-002 -2.752392e-002 2.562030e-002 2.611537e-002 9.568682e-002 -7.432235e-002 2.302004e-003 1.757563e-002 -7.518534e-002
<VARIANCE> 39
 1.074557e+001 1.514417e+001 1.078283e+002 7.710504e+001 5.326783e+001 3.245241e+001 5.809614e+001 2.814313e+001 4.048170e+001 3.501670e+001 1.693539e+002 6.380296e+001 1.506940e+001 1.325461e+000 1.026153e+000 2.877335e+000 4.556018e+000 2.765220e+000 2.116170e+000 3.189502e+000 2.014435e+000 3.686318e+000 3.011711e+000 5.113889e+000 2.025850e+000 1.293636e+000 2.749431e-001 1.981743e-001 3.639420e-001 7.142964e-001 3.856968e-001 3.268390e-001 4.667788e-001 3.097062e-001 4.759581e-001 5.368242e-001 6.942175e-001 3.508928e-001 1.461038e-001
<GCONST> 1.184548e+002
<STATE> 3
<MEAN> 39
 -9.429859e+000 -1.344300e+000 1.323595e+001 -2.157901e+001 -1.053572e+001 -9.910558e+000 -1.377524e+001 -1.096765e+001 -7.678679e+000 -1.794794e-001 -1.563004e+001 -3.598801e-001 6.641893e+001 3.532328e-001 -1.822666e-001 -5.845588e-001 3.321148e-001 1.278578e+000 -4.644703e-002 1.301321e+000 9.275401e-001 1.618722e+000 -7.759012e-002 1.098549e+000 3.770221e-001 -1.367468e+000 -3.179854e-002 -2.401228e-001 -3.753249e-001 -2.489247e-002 2.010109e-001 2.280170e-001 2.073658e-001 9.326641e-002 -1.149739e-001 1.145182e-001 1.370705e-001 -1.419319e-001 6.759904e-002
<VARIANCE> 39
 5.061069e+000 1.707396e+001 1.991842e+001 5.121394e+001 4.055468e+001 4.182032e+001 4.955842e+001 3.317208e+001 5.194545e+001 6.509483e+001 9.158729e+001 9.596963e+001 6.870280e+001 6.501207e-001 1.240290e+000 2.340334e+000 5.187261e+000 1.845713e+000 2.012229e+000 2.545770e+000 1.179608e+000 3.471875e+000 3.527339e+000 2.797596e+000 4.280299e+000 6.221544e+000 1.225494e-001 3.501700e-001 2.704213e-001 1.015574e+000 3.722470e-001 3.423925e-001 5.331858e-001 2.438322e-001 1.004182e+000 7.766828e-001 4.711319e-001 8.969262e-001 9.885328e-001
<GCONST> 1.211885e+002
<STATE> 4
<MEAN> 39
 -7.865003e+000 -3.753693e+000 3.395775e+000 -1.946345e+001 -1.191006e+000 -8.858603e+000 -8.457728e+000 -7.869547e+000 -1.518414e+000 3.422513e+000 -1.075198e+001 -1.702410e+000 6.354402e+001 7.164068e-001 -1.140101e+000 -2.010256e+000 -9.528801e-001 1.554412e+000 8.451706e-001 6.906626e-001 7.100692e-001 1.723524e-001 4.052528e-001 2.415647e-001 -5.689107e-001 8.534341e-001 -3.442442e-002 -4.249851e-001 1.191927e-001 -1.972910e-001 -2.162709e-001 3.286321e-001 -2.676630e-002 -2.622874e-001 -4.937877e-001 -1.773363e-001 -4.024222e-001 -1.839124e-001 2.849218e-001
<VARIANCE> 39
 1.223087e+001 2.976941e+001 1.625502e+002 8.895325e+001 8.510876e+001 6.684037e+001 3.040930e+001 2.266798e+001 2.975857e+001 5.131982e+001 5.690442e+001 9.005819e+001 1.097830e+002 1.754576e+000 2.991830e+000 7.697248e+000 1.189640e+001 8.561810e+000 5.810350e+000 6.371932e+000 1.365909e+000 5.127990e+000 2.741765e+000 9.940450e+000 2.411459e+000 1.397061e+001 4.159293e-001 5.917961e-001 1.549011e+000 2.281724e+000 1.809239e+000 1.202176e+000 6.976439e-001 3.509409e-001 8.025127e-001 7.813668e-001 1.769682e+000 6.023885e-001 1.527531e+000
<GCONST> 1.428617e+002
<TRANSP> 5
 0.000000e+000 1.000000e+000 0.000000e+000 0.000000e+000 0.000000e+000
 0.000000e+000 9.542666e-001 4.573341e-002 0.000000e+000 0.000000e+000
 0.000000e+000 0.000000e+000 7.294239e-001 2.705761e-001 0.000000e+000
 0.000000e+000 0.000000e+000 0.000000e+000 7.764359e-001 2.235641e-001
 0.000000e+000 0.000000e+000 0.000000e+000 0.000000e+000 0.000000e+000
<ENDHMM>
~h "g"
<BEGINHMM>
<NUMSTATES> 5
<STATE> 2
<MEAN> 39
 -2.296634e+000 -1.325811e+001 -3.476286e+000 -2.036082e+001 1.740460e+000 -1.159883e+001 -7.871682e+000 -8.463261e+000 -8.726542e+000 -7.804249e-001 -1.454039e+001 -2.263658e+000 7.038679e+001 -2.263445e-001 -1.738419e+000 -5.866529e-001 -2.207511e+000 6.489629e-001 -1.147838e-001 1.064763e+000 1.165643e+000 1.216233e-001 1.035981e+000 -1.515796e+000 5.464655e-001 1.870775e+000 -2.841303e-001 -4.088018e-002 7.624847e-002 2.889119e-001 1.271511e-001 9.163894e-002 1.215509e-001 5.622619e-002 -2.118773e-001 -4.258772e-001 1.571032e-001 2.340739e-001 3.701191e-002
<VARIANCE> 39
 2.029653e+001 1.155858e+002 3.934502e+001 7.469125e+001 5.653441e+001 4.218727e+001 6.048270e+001 5.085514e+001 3.540511e+001 6.572977e+001 4.278143e+001 4.106868e+001 6.365542e+001 1.169554e+000 8.991657e+000 2.995284e+000 8.764082e+000 3.772261e+000 4.087968e+000 6.430837e+000 6.554830e+000 5.540830e+000 4.919534e+000 5.641795e+000 2.482814e+000 4.399556e+000 2.637895e-001 8.047084e-001 5.062314e-001 1.427736e+000 5.248463e-001 7.529832e-001 7.796597e-001 1.181985e+000 7.843209e-001 8.262077e-001 9.156823e-001 4.172916e-001 4.345743e-001
<GCONST> 1.370192e+002
<STATE> 3
<MEAN> 39
 -3.956800e+000 -1.742331e+001 -4.024822e+000 -2.335550e+001 3.749210e+000 -1.155412e+001 -5.118255e+000 -6.731175e+000 -9.681567e+000 -4.162042e-001 -1.649472e+001 2.698161e-002 7.476888e+001 -4.176213e-001 -8.010201e-001 -1.574979e-001 -6.660340e-001 6.055097e-001 8.866046e-002 5.955180e-001 3.202509e-001 -3.269774e-001 8.231856e-002 -4.039623e-001 7.662086e-001 1.090186e+000 2.423412e-002 2.334008e-001 9.362937e-002 4.093707e-001 -3.687724e-002 4.466253e-002 -1.568710e-001 -2.425159e-001 -4.499028e-003 -2.428804e-001 3.334510e-001 -6.156651e-002 -2.802106e-001
<VARIANCE> 39
 1.317486e+001 1.055332e+002 3.279079e+001 5.306398e+001 5.782251e+001 5.984995e+001 5.261076e+001 4.109064e+001 3.173450e+001 5.521032e+001 3.865160e+001 4.208249e+001 3.968176e+001 6.718423e-001 5.108583e+000 2.054094e+000 6.565507e+000 3.655931e+000 4.411819e+000 5.313296e+000 3.835699e+000 3.820322e+000 3.811664e+000 4.568113e+000 2.832148e+000 3.530862e+000 1.364379e-001 5.033301e-001 3.823390e-001 1.025053e+000 4.937432e-001 6.907979e-001 5.861978e-001 7.425139e-001 8.268611e-001 6.873541e-001 9.302874e-001 4.761726e-001 3.063671e-001
<GCONST> 1.287931e+002
<STATE> 4
<MEAN> 39
 -4.268310e+000 -1.773597e+001 -3.713688e+000 -2.155391e+001 3.730918e+000 -1.345758e+001 -3.400020e+000 -8.443491e+000 -9.378124e+000 -1.491708e+000 -1.776396e+001 1.793114e+000 7.397926e+001 5.392524e-002 2.704615e-001 -5.693350e-002 -2.467773e-002 -4.611554e-002 -6.893126e-003 -1.505965e-001 1.449187e-002 5.371970e-002 -1.065129e-001 -3.148239e-002 -2.673756e-002 -1.863187e-001 3.059083e-002 2.426074e-002 1.021532e-003 6.414630e-002 -4.155372e-002 8.290977e-003 -3.539879e-002 -2.736195e-003 6.653404e-003 -2.524502e-002 5.108003e-002 -6.196338e-002 -7.852129e-002
<VARIANCE> 39
 1.187508e+001 8.896532e+001 2.065953e+001 7.153851e+001 5.153749e+001 6.087547e+001 8.543390e+001 3.078972e+001 3.084906e+001 3.366607e+001 3.720400e+001 3.810958e+001 5.327929e+001 1.010275e+000 3.980683e+000 1.466354e+000 5.438734e+000 3.698141e+000 4.894790e+000 6.165642e+000 3.384755e+000 2.960785e+000 3.432153e+000 3.547778e+000 3.441092e+000 3.520328e+000 1.961796e-001 4.123664e-001 2.659753e-001 8.701419e-001 5.834119e-001 7.698743e-001 1.016677e+000 7.087535e-001 5.841751e-001 7.662188e-001 6.494583e-001 7.220720e-001 3.917258e-001
<GCONST> 1.279196e+002
<TRANSP> 5
 0.000000e+000 1.000000e+000 0.000000e+000 0.000000e+000 0.000000e+000
 0.000000e+000 5.388504e-001 4.611497e-001 0.000000e+000 0.000000e+000
 0.000000e+000 0.000000e+000 6.043248e-001 3.956752e-001 0.000000e+000
 0.000000e+000 0.000000e+000 0.000000e+000 9.356040e-001 6.439600e-002
 0.000000e+000 0.000000e+000 0.000000e+000 0.000000e+000 0.000000e+000
<ENDHMM>
~h "h"
<BEGINHMM>
<NUMSTATES> 5
<STATE> 2
<MEAN> 39
 -6.251452e+000 -1.105235e+001 -2.691223e+000 -1.715302e+001 -1.034274e+000 -6.394492e+000 -7.425881e+000 -8.639290e+000 -7.411228e+000 -9.586385e+000 -7.510461e+000 -1.930474e+000 6.900963e+001 -1.071589e-001 -3.698297e-001 -1.989620e-001 1.678094e-001 2.658188e-001 2.553605e-001 -4.422315e-002 -7.547391e-001 3.371238e-002 -5.711492e-001 4.085706e-001 -4.056306e-001 9.267414e-002 4.883388e-002 -3.410499e-002 -1.127414e-002 -5.422840e-002 -5.485802e-002 -8.947802e-002 -1.002502e-001 7.647682e-002 4.739122e-002 1.291040e-001 -2.445669e-002 -2.601195e-002 4.420558e-002
<VARIANCE> 39
 2.444873e+001 6.399801e+001 5.218801e+001 1.423111e+002 7.963303e+001 6.462418e+001 6.533326e+001 5.227495e+001 4.490375e+001 6.850110e+001 4.737477e+001 4.368996e+001 6.035525e+001 9.103862e-001 2.246253e+000 1.679268e+000 3.719041e+000 3.698364e+000 2.882523e+000 3.213282e+000 3.895131e+000 2.941543e+000 4.125413e+000 2.869940e+000 2.163165e+000 9.528946e-001 1.570955e-001 2.142151e-001 2.945968e-001 5.313137e-001 6.080428e-001 5.438796e-001 6.034641e-001 5.903430e-001 5.563841e-001 6.931043e-001 4.726112e-001 4.072927e-001 1.153841e-001
<GCONST> 1.239639e+002
<STATE> 3
<MEAN> 39
 -6.279130e+000 -1.238619e+001 -3.200596e+000 -1.666641e+001 -6.876168e-001 -6.216371e+000 -7.908842e+000 -1.030656e+001 -7.223216e+000 -1.059971e+001 -6.571454e+000 -3.035570e+000 6.937545e+001 4.805776e-002 -4.721959e-001 -2.231065e-001 -5.896368e-002 9.839851e-002 1.011612e-001 -3.001328e-001 -3.618436e-001 1.427034e-002 -1.527440e-001 1.655211e-001 -3.394215e-001 2.635593e-001 4.289057e-002 -1.593615e-002 -1.974387e-002 -1.097666e-001 -5.505025e-002 -2.503386e-002 -4.802728e-002 1.742240e-001 -1.653363e-002 1.742207e-001 -8.857832e-002 6.471137e-002 7.248603e-002
<VARIANCE> 39
 2.531565e+001 7.499622e+001 4.665812e+001 1.229246e+002 7.631201e+001 5.942092e+001 6.009314e+001 5.045656e+001 4.171336e+001 6.297718e+001 4.485194e+001 4.036283e+001 5.315821e+001 9.236764e-001 1.952525e+000 1.631474e+000 4.280108e+000 3.335524e+000 2.802844e+000 3.003685e+000 3.615486e+000 2.590062e+000 3.965817e+000 2.537961e+000 2.045486e+000 1.026180e+000 1.481006e-001 1.968652e-001 2.577498e-001 5.409979e-001 5.782299e-001 5.178343e-001 4.961675e-001 5.965810e-001 4.791293e-001 6.518028e-001 4.362787e-001 3.649433e-001 1.000677e-001
<GCONST> 1.215892e+002
<STATE> 4
<MEAN> 39
 -5.750627e+000 -1.514336e+001 -3.903112e+000 -1.732706e+001 -7.455778e-001 -5.315926e+000 -8.438283e+000 -1.079521e+001 -7.765246e+000 -1.026235e+001 -6.129540e+000 -3.858537e+000 7.104552e+001 1.508034e-001 -4.181958e-001 -1.961271e-001 -2.996553e-001 6.965471e-002 -4.295988e-003 -3.169753e-001 1.312958e-001 -8.309776e-002 2.604213e-001 -1.462082e-001 -2.365781e-002 3.520825e-001 2.048767e-002 1.159864e-002 -1.663122e-002 -9.587794e-002 2.926802e-003 -1.863315e-002 2.737365e-002 1.366765e-001 -4.272065e-002 1.306137e-001 -8.890446e-002 9.169751e-002 4.279997e-002
<VARIANCE> 39
 3.023384e+001 8.913505e+001 3.612502e+001 1.032731e+002 6.949409e+001 5.891215e+001 6.204041e+001 4.627950e+001 3.898364e+001 5.496693e+001 3.805381e+001 3.602343e+001 4.367552e+001 9.068525e-001 1.859815e+000 1.461963e+000 3.731377e+000 3.079762e+000 2.722609e+000 2.788037e+000 3.098300e+000 2.553205e+000 3.715314e+000 2.245445e+000 2.126663e+000 9.920014e-001 1.412542e-001 2.044688e-001 2.194250e-001 4.609115e-001 5.159274e-001 4.783764e-001 4.444408e-001 4.915598e-001 4.417409e-001 5.716172e-001 3.619772e-001 3.076069e-001 1.092744e-001
<GCONST> 1.185160e+002
<TRANSP> 5
 0.000000e+000 1.000000e+000 0.000000e+000 0.000000e+000 0.000000e+000
 0.000000e+000 5.818728e-001 4.181271e-001 0.000000e+000 0.000000e+000
 0.000000e+000 0.000000e+000 5.834822e-001 4.165179e-001 0.000000e+000
 0.000000e+000 0.000000e+000 0.000000e+000 7.364355e-001 2.635645e-001
 0.000000e+000 0.000000e+000 0.000000e+000 0.000000e+000 0.000000e+000
<ENDHMM>
~h "i"
<BEGINHMM>
<NUMSTATES> 5
<STATE> 2
<MEAN> 39
 -7.695174e+000 -1.018162e+001 2.250197e+000 -2.210556e+001 -9.803009e+000 -1.315945e+001 -8.123835e+000 -4.546269e+000 -1.091190e+001 4.209264e-002 -1.198309e+001 -8.025858e-001 7.313110e+001 -1.731659e-001 6.818240e-001 1.020942e+000 -7.656774e-002 -9.484153e-001 -3.522733e-001 -3.283123e-001 -4.955826e-001 -6.091341e-001 3.264332e-001 -4.198720e-002 2.125232e-001 -5.627959e-001 9.487166e-002 2.247326e-002 -1.044081e-001 2.256285e-001 3.599310e-001 1.453499e-001 -1.435896e-001 -2.169661e-001 2.621337e-002 -1.145755e-001 1.418753e-001 -4.989789e-002 -2.187232e-001
<VARIANCE> 39
 1.306835e+001 4.449434e+001 5.099636e+001 6.240048e+001 6.928136e+001 3.419695e+001 1.151618e+002 6.882488e+001 5.581882e+001 4.546743e+001 4.502747e+001 4.528192e+001 4.201473e+001 9.440307e-001 2.106979e+000 2.280140e+000 3.901056e+000 5.479713e+000 3.304036e+000 4.994101e+000 3.963120e+000 5.161755e+000 4.682589e+000 4.258969e+000 3.130007e+000 1.967956e+000 1.533037e-001 2.674326e-001 2.764856e-001 6.191579e-001 7.226136e-001 6.001016e-001 7.828202e-001 7.405739e-001 8.251247e-001 7.716457e-001 7.235705e-001 6.323016e-001 1.908546e-001
<GCONST> 1.280308e+002
<STATE> 3
<MEAN> 39
 -7.735187e+000 -8.597247e+000 4.207753e+000 -2.165256e+001 -1.083067e+001 -1.356619e+001 -9.513715e+000 -6.410902e+000 -1.199399e+001 5.234774e-001 -1.180671e+001 -3.542651e-001 7.126318e+001 1.323577e-001 5.924658e-001 6.152632e-001 6.301408e-001 -1.177180e-003 -8.148221e-002 -3.927453e-001 -7.272360e-001 -3.752390e-001 -2.278849e-001 1.064331e-001 7.275497e-002 -1.078279e+000 1.069607e-001 5.435974e-003 -2.265852e-001 3.136754e-001 3.940277e-001 1.078142e-001 3.711732e-002 -2.930181e-003 1.618338e-001 -2.508193e-001 6.560192e-002 -9.221580e-002 -2.251114e-001
<VARIANCE> 39
 1.445687e+001 3.985120e+001 4.552611e+001 7.131675e+001 5.832286e+001 3.665711e+001 8.348283e+001 6.367725e+001 5.625543e+001 4.695073e+001 4.640871e+001 5.172302e+001 4.917063e+001 1.099914e+000 2.082899e+000 2.508234e+000 4.181896e+000 5.033734e+000 3.012349e+000 4.940805e+000 3.724524e+000 5.016075e+000 4.508219e+000 3.213623e+000 3.078324e+000 2.316638e+000 1.820734e-001 3.125762e-001 3.076468e-001 6.274307e-001 7.243301e-001 5.717203e-001 8.082716e-001 7.499921e-001 8.723360e-001 8.016291e-001 6.411449e-001 5.835942e-001 2.563162e-001
<GCONST> 1.283884e+002
<STATE> 4
<MEAN> 39
 -7.417649e+000 -6.763995e+000 5.164025e+000 -1.932806e+001 -9.613179e+000 -1.272175e+001 -1.035512e+001 -8.432849e+000 -1.171927e+001 -8.841753e-001 -1.136049e+001 8.663433e-002 6.714841e+001 3.150170e-001 4.468631e-001 -1.275846e-001 1.302293e+000 7.721034e-001 1.237919e-001 5.189307e-002 -2.466858e-001 2.537358e-001 -7.275718e-001 3.518188e-001 -2.372507e-001 -1.509383e+000 -1.678783e-002 2.842614e-002 -2.285537e-001 1.444969e-001 1.822756e-001 6.970652e-002 1.002751e-001 1.117148e-001 1.967622e-001 -1.049518e-001 8.719768e-002 -1.107855e-001 -7.339022e-002
<VARIANCE> 39
 1.696767e+001 4.004483e+001 4.308399e+001 8.574108e+001 5.434967e+001 4.545182e+001 6.484782e+001 5.009742e+001 6.587646e+001 4.678963e+001 5.318713e+001 5.606020e+001 7.616360e+001 1.239132e+000 2.228503e+000 2.483344e+000 4.172783e+000 4.096044e+000 2.972205e+000 4.675154e+000 3.780024e+000 4.692320e+000 3.918761e+000 2.883988e+000 3.011729e+000 2.618297e+000 2.295562e-001 3.541513e-001 3.415541e-001 6.754788e-001 7.174579e-001 5.147941e-001 7.349055e-001 6.774390e-001 8.298408e-001 7.339613e-001 5.462686e-001 5.179266e-001 3.701544e-001
<GCONST> 1.290169e+002
<TRANSP> 5
 0.000000e+000 1.000000e+000 0.000000e+000 0.000000e+000 0.000000e+000
 0.000000e+000 5.427104e-001 4.572896e-001 0.000000e+000 0.000000e+000
 0.000000e+000 0.000000e+000 5.505912e-001 4.494088e-001 0.000000e+000
 0.000000e+000 0.000000e+000 0.000000e+000 6.879153e-001 3.120847e-001
 0.000000e+000 0.000000e+000 0.000000e+000 0.000000e+000 0.000000e+000
<ENDHMM>
~h "k"
<BEGINHMM>
<NUMSTATES> 5
<STATE> 2
<MEAN> 39
 -4.409693e+000 1.243515e-001 9.906045e-001 -1.242317e+001 -7.716672e+000 -7.862555e+000 -8.845518e+000 -5.206175e+000 -6.556904e+000 -7.699288e+000 -9.355219e+000 -5.101101e+000 5.889069e+001 -1.900920e-001 -5.238091e-001 2.089291e-002 2.399646e-001 8.292001e-002 1.716111e-001 1.307775e+000 8.141027e-001 1.354960e-001 9.972534e-001 -7.868736e-002 -1.453835e-001 -1.475573e-001 -1.437866e-001 -2.038709e-001 3.875491e-002 -1.133086e-001 -5.904765e-002 -1.832119e-001 5.599323e-002 -9.758708e-002 8.190018e-002 1.435656e-001 2.059542e-001 9.322626e-002 3.505332e-001
<VARIANCE> 39
 3.856186e+001 4.733898e+001 3.729490e+001 8.809491e+001 4.433515e+001 4.582793e+001 7.332113e+001 3.936256e+001 7.612257e+001 7.373175e+001 4.867287e+001 4.433323e+001 1.102962e+002 1.041935e+000 1.630113e+000 2.315328e+000 3.656414e+000 4.526240e+000 2.889289e+000 4.249690e+000 3.798473e+000 4.847528e+000 3.266094e+000 3.045252e+000 3.002852e+000 6.422975e+000 1.629412e-001 2.894582e-001 4.757766e-001 5.187443e-001 6.982878e-001 4.946636e-001 8.183917e-001 7.735752e-001 1.003562e+000 4.906604e-001 7.613972e-001 5.917906e-001 1.129329e+000
<GCONST> 1.313770e+002
<STATE> 3
<MEAN> 39
 -5.000860e+000 -1.272028e+000 1.598147e+000 -1.241933e+001 -8.065724e+000 -8.169999e+000 -6.331168e+000 -3.938357e+000 -6.483245e+000 -4.896619e+000 -8.968586e+000 -4.944780e+000 5.966555e+001 -4.048965e-001 -7.165309e-001 1.424078e-001 1.610982e-002 -2.823254e-001 -2.504776e-001 9.863887e-001 4.757807e-001 -9.067083e-002 8.692101e-001 2.020606e-002 1.172694e-002 3.656066e-001 -1.025205e-001 -4.684635e-002 -2.583649e-002 -3.199937e-002 -6.550113e-002 -1.521279e-001 -8.985709e-002 -1.586587e-001 7.880586e-002 -9.295701e-002 8.661517e-002 1.277910e-001 2.596744e-001
<VARIANCE> 39
 3.545886e+001 4.886065e+001 3.181523e+001 7.773360e+001 6.684694e+001 4.490775e+001 6.466090e+001 3.859961e+001 7.427884e+001 7.265086e+001 4.516041e+001 5.046577e+001 1.314086e+002 1.259340e+000 1.593234e+000 2.223098e+000 4.189106e+000 6.192547e+000 2.791220e+000 4.754707e+000 4.244487e+000 6.271914e+000 3.581393e+000 2.965676e+000 2.996288e+000 8.030274e+000 1.919067e-001 2.642322e-001 4.773249e-001 5.092018e-001 1.030500e+000 5.637385e-001 6.920745e-001 8.989655e-001 1.113858e+000 5.163785e-001 5.927048e-001 5.768949e-001 1.467109e+000
<GCONST> 1.334856e+002
<STATE> 4
<MEAN> 39
 -6.641438e+000 -4.720909e+000 1.994053e+000 -1.302887e+001 -8.326599e+000 -9.093548e+000 -7.291063e+000 -3.596246e+000 -8.257655e+000 -6.191898e+000 -9.165293e+000 -4.897334e+000 6.232646e+001 -3.914731e-001 -6.441254e-001 -1.276823e-001 1.662046e-001 1.775997e-001 -1.886447e-001 3.592629e-001 7.689262e-002 1.315804e-001 4.369814e-002 5.019297e-002 2.977561e-001 1.425323e-001 -3.101792e-002 6.760791e-003 8.322807e-003 -5.911577e-002 -2.859529e-002 -9.564951e-002 -3.784210e-002 -8.522801e-002 -3.746923e-002 -1.366535e-002 -1.359497e-002 1.329926e-001 2.683887e-001
<VARIANCE> 39
 2.541207e+001 5.028653e+001 3.347476e+001 8.056775e+001 8.807764e+001 3.668735e+001 5.493583e+001 7.005364e+001 7.036691e+001 7.176545e+001 6.187516e+001 5.123534e+001 1.513585e+002 1.342966e+000 1.555779e+000 2.654718e+000 2.704396e+000 2.292362e+000 2.391101e+000 4.269506e+000 6.117236e+000 3.323708e+000 3.721007e+000 3.306623e+000 2.395096e+000 5.597957e+000 1.311530e-001 2.010212e-001 4.082248e-001 4.245234e-001 4.791351e-001 3.795834e-001 5.897452e-001 1.085849e+000 5.948474e-001 5.475582e-001 5.639238e-001 3.646866e-001 7.902506e-001
<GCONST> 1.281760e+002
<TRANSP> 5
 0.000000e+000 1.000000e+000 0.000000e+000 0.000000e+000 0.000000e+000
 0.000000e+000 5.265717e-001 4.734283e-001 0.000000e+000 0.000000e+000
 0.000000e+000 0.000000e+000 5.339317e-001 4.660683e-001 0.000000e+000
 0.000000e+000 0.000000e+000 0.000000e+000 8.500142e-001 1.499858e-001
 0.000000e+000 0.000000e+000 0.000000e+000 0.000000e+000 0.000000e+000
<ENDHMM>
~h "l"
<BEGINHMM>
<NUMSTATES> 5
<STATE> 2
<MEAN> 39
 -5.211945e+000 -1.249487e+001 1.221256e+000 -2.109752e+001 -2.850080e+000 -1.773988e+001 -1.417161e+001 -2.821405e+000 -8.778649e+000 -9.667713e+000 -1.164804e+001 5.608465e+000 7.030363e+001 -4.849131e-002 -4.154049e-001 -2.044884e-001 -4.039111e-001 5.982916e-001 -4.534220e-001 2.058220e-002 5.673196e-001 -2.033417e-001 -3.719332e-001 -3.331381e-001 3.908870e-001 4.473466e-001 1.400332e-002 -8.109548e-002 -1.345421e-001 9.543754e-002 3.693185e-002 2.445596e-001 2.417019e-001 -1.165960e-001 -6.051609e-002 1.353836e-001 3.314162e-002 -1.506468e-001 5.479374e-002
<VARIANCE> 39
 1.180431e+001 5.734368e+001 4.972343e+001 6.370351e+001 6.838449e+001 8.444242e+001 8.888054e+001 6.028686e+001 7.343706e+001 5.204949e+001 5.091410e+001 5.628698e+001 3.924924e+001 6.095092e-001 3.138384e+000 2.524866e+000 4.084141e+000 4.183177e+000 8.168587e+000 7.596337e+000 4.781631e+000 4.959239e+000 4.423158e+000 3.847039e+000 4.022025e+000 1.460345e+000 9.906581e-002 3.656108e-001 3.247923e-001 6.649796e-001 6.578231e-001 1.158534e+000 1.229699e+000 8.351033e-001 8.863515e-001 8.376436e-001 6.561434e-001 6.570738e-001 1.654782e-001
<GCONST> 1.316600e+002
<STATE> 3
<MEAN> 39
 -5.188165e+000 -1.518817e+001 -8.795741e-001 -2.120862e+001 -4.008414e-002 -1.695321e+001 -1.200174e+001 -2.194813e+000 -9.421898e+000 -9.794023e+000 -1.266826e+001 5.420849e+000 7.246954e+001 -5.686641e-002 -7.959225e-001 -5.160315e-001 1.554479e-001 5.467606e-001 6.393855e-001 7.426798e-001 -9.437151e-002 -3.107841e-001 2.345856e-001 -1.933163e-001 -1.964778e-001 6.319366e-001 3.906286e-003 -3.880496e-002 -1.660184e-002 1.237030e-001 -4.021596e-002 2.054126e-001 7.748779e-002 -1.788265e-001 1.358412e-002 1.559780e-001 5.855928e-002 -1.199770e-001 8.593808e-003
<VARIANCE> 39
 1.041663e+001 6.582914e+001 4.520445e+001 5.437904e+001 7.518944e+001 9.827938e+001 8.723418e+001 5.128802e+001 6.456548e+001 4.746857e+001 4.170448e+001 4.850627e+001 3.348820e+001 4.978583e-001 3.261863e+000 2.302535e+000 3.590272e+000 3.582122e+000 7.784211e+000 6.780022e+000 4.462506e+000 4.745041e+000 3.924459e+000 3.445193e+000 3.117085e+000 1.299594e+000 7.827370e-002 3.943868e-001 3.362736e-001 5.543001e-001 5.500962e-001 1.193467e+000 1.136768e+000 7.373598e-001 8.625166e-001 7.035571e-001 6.057931e-001 5.339820e-001 1.561282e-001
<GCONST> 1.281348e+002
<STATE> 4
<MEAN> 39
 -5.260845e+000 -1.876946e+001 -2.598896e+000 -1.937341e+001 2.274022e+000 -1.287838e+001 -9.570239e+000 -3.786088e+000 -1.024285e+001 -7.824085e+000 -1.298605e+001 3.584183e+000 7.475642e+001 -9.810461e-003 -5.491657e-001 -2.659115e-001 2.805899e-001 1.980727e-001 7.412432e-001 4.842179e-001 -4.005206e-001 -7.334577e-002 5.184489e-001 -1.831927e-002 -4.247082e-001 3.963399e-001 1.202699e-002 1.127584e-001 5.126616e-002 -1.133414e-002 -6.897042e-002 -3.414637e-002 -5.674095e-002 -2.497094e-002 3.085002e-002 1.629259e-002 6.486606e-002 -3.503425e-002 -7.834847e-002
<VARIANCE> 39
 9.923960e+000 7.356059e+001 3.844396e+001 5.053709e+001 9.810443e+001 8.270419e+001 7.457264e+001 4.858372e+001 5.570113e+001 4.163637e+001 3.391693e+001 4.640750e+001 3.088657e+001 4.579006e-001 2.604621e+000 1.857493e+000 2.826130e+000 2.991597e+000 5.098099e+000 4.736127e+000 3.475296e+000 3.714749e+000 3.319477e+000 2.815610e+000 2.459671e+000 1.210575e+000 6.469803e-002 3.178832e-001 2.706077e-001 4.751201e-001 4.729007e-001 8.374636e-001 7.979776e-001 5.812342e-001 6.635008e-001 5.973439e-001 5.268344e-001 4.298345e-001 1.381269e-001
<GCONST> 1.215574e+002
<TRANSP> 5
 0.000000e+000 1.000000e+000 0.000000e+000 0.000000e+000 0.000000e+000
 0.000000e+000 7.497568e-001 2.502432e-001 0.000000e+000 0.000000e+000
 0.000000e+000 0.000000e+000 6.963605e-001 3.036395e-001 0.000000e+000
 0.000000e+000 0.000000e+000 0.000000e+000 7.439738e-001 2.560263e-001
 0.000000e+000 0.000000e+000 0.000000e+000 0.000000e+000 0.000000e+000
<ENDHMM>
~h "m"
<BEGINHMM>
<NUMSTATES> 5
<STATE> 2
<MEAN> 39
 -4.213178e-001 -8.088777e+000 6.997494e-001 -1.356965e+001 1.505684e+000 -1.418074e+001 -1.723538e+001 -8.948334e+000 -1.243508e+001 -1.068974e+001 -1.139832e+001 -4.986213e+000 6.337542e+001 2.390699e-001 6.822762e-001 1.848339e-001 6.712853e-001 3.780691e-001 -4.048317e-001 -1.207484e+000 -4.175762e-001 -6.849086e-001 -6.589610e-001 1.677469e-001 -4.544840e-001 -6.999196e-001 -1.479624e-001 -1.730041e-001 -1.068910e-001 -2.068228e-001 -7.066172e-002 1.199450e-001 2.266247e-001 9.252704e-002 6.992164e-002 1.671815e-001 3.679490e-002 1.927518e-001 2.430530e-001
<VARIANCE> 39
 1.314715e+001 7.102785e+001 4.892485e+001 6.695132e+001 6.877718e+001 7.615234e+001 7.191770e+001 4.509156e+001 5.913960e+001 5.534851e+001 4.122742e+001 7.762898e+001 5.408919e+001 1.239166e+000 3.873219e+000 2.592177e+000 4.804052e+000 4.155090e+000 4.450704e+000 6.950030e+000 3.438049e+000 5.353415e+000 4.608593e+000 3.078609e+000 5.425490e+000 3.935726e+000 2.028606e-001 4.353540e-001 3.767165e-001 8.236449e-001 7.268887e-001 6.338353e-001 1.066029e+000 5.933381e-001 1.008128e+000 7.402274e-001 5.459921e-001 9.239635e-001 3.943810e-001
<GCONST> 1.342492e+002
<STATE> 3
<MEAN> 39
 -4.488882e-001 -7.355174e+000 6.368995e-001 -1.292317e+001 1.756782e+000 -1.459001e+001 -1.854996e+001 -9.444213e+000 -1.362153e+001 -1.159804e+001 -1.108080e+001 -4.819518e+000 6.272803e+001 -8.670740e-002 1.371638e-001 -2.115065e-001 -3.299842e-002 -3.756730e-002 1.281508e-001 -1.615021e-001 -9.572216e-002 -2.102721e-001 -8.384513e-002 2.198949e-001 2.162919e-001 -2.203155e-002 -9.684882e-002 -1.911363e-001 -1.401535e-001 -2.399564e-001 -1.039623e-001 1.676744e-001 3.225212e-001 1.216179e-001 1.920176e-001 2.107915e-001 2.210740e-002 1.721792e-001 2.462572e-001
<VARIANCE> 39
 1.251327e+001 6.711082e+001 4.757373e+001 6.489728e+001 6.426614e+001 7.387908e+001 6.768244e+001 4.415989e+001 5.502026e+001 5.502046e+001 4.420531e+001 8.073145e+001 4.730605e+001 1.141120e+000 3.664940e+000 2.431218e+000 4.614748e+000 4.343731e+000 4.253540e+000 6.666119e+000 3.559773e+000 5.437483e+000 4.822936e+000 3.444643e+000 5.439871e+000 3.682662e+000 1.762065e-001 4.196226e-001 4.011955e-001 7.425137e-001 7.220750e-001 6.006023e-001 9.504396e-001 6.077534e-001 9.560423e-001 7.488707e-001 5.732202e-001 9.274452e-001 3.912262e-001
<GCONST> 1.332940e+002
<STATE> 4
<MEAN> 39
 -1.017496e+000 -6.889821e+000 1.377838e-001 -1.270070e+001 1.298884e+000 -1.340551e+001 -1.775902e+001 -9.273394e+000 -1.324612e+001 -1.122679e+001 -1.032960e+001 -3.850502e+000 6.231815e+001 -2.826974e-001 -1.652332e-001 -5.662176e-001 -3.121486e-001 -1.698586e-001 6.090058e-001 5.670341e-001 1.676335e-001 3.366603e-001 3.637189e-001 3.381955e-001 3.547682e-001 2.086627e-001 -8.936729e-002 -1.444157e-001 -9.942885e-002 -1.468358e-001 5.299629e-004 8.097599e-002 1.662595e-001 1.213965e-001 1.710142e-001 1.469780e-001 -3.116510e-002 1.314187e-002 1.693948e-001
<VARIANCE> 39
 1.629138e+001 6.891303e+001 4.878809e+001 8.951681e+001 7.192029e+001 7.459250e+001 7.218890e+001 4.472665e+001 5.744590e+001 6.020154e+001 4.765314e+001 7.748638e+001 5.810260e+001 1.192255e+000 3.245667e+000 2.402166e+000 4.465920e+000 4.144903e+000 3.825825e+000 5.363666e+000 3.284891e+000 4.764137e+000 5.185326e+000 3.624370e+000 4.389373e+000 3.085297e+000 1.929291e-001 4.314133e-001 4.247863e-001 7.551757e-001 7.400723e-001 6.112376e-001 8.385204e-001 6.376792e-001 8.590139e-001 7.608714e-001 6.624328e-001 8.236301e-001 3.878545e-001
<GCONST> 1.336133e+002
<TRANSP> 5
 0.000000e+000 1.000000e+000 0.000000e+000 0.000000e+000 0.000000e+000
 0.000000e+000 5.552933e-001 4.447067e-001 0.000000e+000 0.000000e+000
 0.000000e+000 0.000000e+000 5.368969e-001 4.631031e-001 0.000000e+000
 0.000000e+000 0.000000e+000 0.000000e+000 6.352903e-001 3.647098e-001
 0.000000e+000 0.000000e+000 0.000000e+000 0.000000e+000 0.000000e+000
<ENDHMM>
~h "n"
<BEGINHMM>
<NUMSTATES> 5
<STATE> 2
<MEAN> 39
 -1.031511e+000 -5.987591e+000 2.870278e+000 -1.276930e+001 -4.955226e+000 -1.803691e+001 -1.229379e+001 -5.727437e+000 -1.161936e+001 -1.183700e+001 -1.460807e+001 3.682648e+000 6.287032e+001 2.055030e-001 7.874261e-001 2.093484e-001 6.393927e-001 -1.127857e-001 -8.891184e-001 -3.213856e-001 -4.202698e-001 -1.550372e-001 -9.065931e-001 -1.268525e-001 3.498830e-001 -7.330815e-001 -1.222911e-001 -2.175388e-001 -1.633594e-001 -1.245334e-001 -9.181876e-004 2.440710e-001 6.437658e-002 8.567359e-002 4.362630e-002 2.350526e-001 1.568920e-001 -1.532935e-001 1.977718e-001
<VARIANCE> 39
 1.281357e+001 6.329087e+001 3.982812e+001 5.391952e+001 5.768517e+001 6.368878e+001 6.011713e+001 5.294020e+001 5.756929e+001 5.327075e+001 6.559339e+001 6.461671e+001 5.534336e+001 1.034847e+000 4.075652e+000 2.236428e+000 3.407169e+000 3.238656e+000 5.369695e+000 3.614550e+000 4.677844e+000 3.791397e+000 4.269940e+000 4.175502e+000 3.905482e+000 3.116632e+000 1.452308e-001 5.445198e-001 3.309935e-001 5.612254e-001 6.568360e-001 8.107477e-001 6.486236e-001 8.906668e-001 6.432077e-001 7.474295e-001 7.205269e-001 6.547163e-001 3.488854e-001
<GCONST> 1.306462e+002
<STATE> 3
<MEAN> 39
 -7.855759e-001 -4.773019e+000 2.849802e+000 -1.158778e+001 -5.378415e+000 -1.931345e+001 -1.285335e+001 -6.329534e+000 -1.174604e+001 -1.326507e+001 -1.427368e+001 4.047279e+000 6.163125e+001 -1.621401e-001 4.899542e-002 -2.708845e-001 2.781533e-001 3.003245e-002 1.476818e-001 -5.789934e-002 -6.600955e-002 5.483575e-002 -1.282849e-001 3.366828e-001 -2.659601e-001 -2.337223e-001 -1.425738e-001 -2.387401e-001 -1.434259e-001 -1.308333e-001 1.086045e-001 3.554363e-001 9.846945e-002 7.889323e-002 6.506407e-002 2.810684e-001 1.530671e-001 -2.244804e-001 1.709543e-001
<VARIANCE> 39
 1.081108e+001 4.899686e+001 3.537534e+001 4.760735e+001 5.366980e+001 6.143231e+001 5.750750e+001 4.956983e+001 5.632513e+001 5.094715e+001 6.165434e+001 6.617497e+001 3.982473e+001 9.202430e-001 4.293134e+000 2.105973e+000 3.192308e+000 3.290823e+000 5.400557e+000 3.654672e+000 4.047560e+000 3.584186e+000 4.171072e+000 3.599217e+000 3.832015e+000 3.212834e+000 1.432676e-001 4.998218e-001 3.175217e-001 4.824505e-001 5.631460e-001 7.659717e-001 6.382509e-001 7.613184e-001 6.342844e-001 7.300448e-001 6.516340e-001 6.229694e-001 3.103705e-001
<GCONST> 1.278254e+002
<STATE> 4
<MEAN> 39
 -1.403543e+000 -4.476993e+000 2.183766e+000 -1.005094e+001 -4.571625e+000 -1.737055e+001 -1.218107e+001 -6.227426e+000 -1.086805e+001 -1.298758e+001 -1.265180e+001 2.297241e+000 6.013460e+001 -5.143098e-001 -3.109649e-001 -5.433912e-001 1.319428e-001 4.099171e-001 1.037672e+000 2.385707e-001 8.481061e-002 3.426968e-001 4.969348e-001 6.888307e-001 -8.404811e-001 -1.560076e-001 -1.240559e-001 -1.008041e-001 -5.943452e-002 -9.518242e-002 1.188376e-001 1.677097e-001 1.106564e-001 2.908801e-002 8.752911e-002 1.768184e-001 7.290954e-002 -6.921881e-002 1.114081e-001
<VARIANCE> 39
 1.307243e+001 5.030626e+001 3.622864e+001 5.500131e+001 5.404473e+001 6.678667e+001 6.241255e+001 4.734185e+001 5.655537e+001 4.774015e+001 5.517654e+001 6.987745e+001 5.234191e+001 1.037405e+000 3.604241e+000 1.954271e+000 2.981281e+000 3.410135e+000 4.200830e+000 4.001529e+000 3.762056e+000 3.589378e+000 3.887501e+000 3.273672e+000 3.560726e+000 2.783311e+000 1.844394e-001 4.887719e-001 3.193681e-001 4.421962e-001 5.225590e-001 6.989731e-001 6.658838e-001 7.047778e-001 6.215100e-001 6.682749e-001 5.894954e-001 6.208660e-001 3.189390e-001
<GCONST> 1.274778e+002
<TRANSP> 5
 0.000000e+000 1.000000e+000 0.000000e+000 0.000000e+000 0.000000e+000
 0.000000e+000 6.032352e-001 3.967647e-001 0.000000e+000 0.000000e+000
 0.000000e+000 0.000000e+000 5.825965e-001 4.174035e-001 0.000000e+000
 0.000000e+000 0.000000e+000 0.000000e+000 6.866019e-001 3.133981e-001
 0.000000e+000 0.000000e+000 0.000000e+000 0.000000e+000 0.000000e+000
<ENDHMM>
~h "o"
<BEGINHMM>
<NUMSTATES> 5
<STATE> 2
<MEAN> 39
 -2.995375e+000 -1.563295e+001 -9.826585e+000 -2.432904e+001 7.294142e+000 -7.433408e+000 -7.647449e+000 -7.338086e+000 -5.338260e+000 -4.572839e+000 -1.126117e+001 -1.618895e+000 7.332029e+001 5.584323e-001 -4.769605e-001 -7.178577e-001 -1.073233e+000 8.543310e-001 5.917489e-001 -3.258336e-001 -5.573878e-001 1.787981e-001 2.381580e-001 -1.331506e-001 -1.123090e-001 3.834696e-001 -7.872999e-002 1.710026e-001 1.735766e-001 3.027159e-001 -2.293277e-001 2.896549e-002 1.569390e-002 -1.992859e-002 -4.930661e-002 -1.006886e-002 2.074090e-001 2.192645e-002 -2.428353e-001
<VARIANCE> 39
 2.078534e+001 8.686442e+001 2.192651e+001 6.871777e+001 6.385900e+001 5.638608e+001 4.632137e+001 5.073136e+001 4.318528e+001 4.733998e+001 4.903624e+001 4.043692e+001 4.133043e+001 1.343669e+000 7.042736e+000 2.544341e+000 8.711524e+000 7.432504e+000 4.213098e+000 4.027827e+000 6.335513e+000 4.604737e+000 4.236142e+000 4.821871e+000 3.451290e+000 3.867426e+000 2.657472e-001 7.160509e-001 3.629460e-001 1.412111e+000 1.049937e+000 7.934557e-001 7.127624e-001 1.078574e+000 8.819981e-001 8.333843e-001 9.757012e-001 6.478453e-001 3.679430e-001
<GCONST> 1.360064e+002
<STATE> 3
<MEAN> 39
 -1.627390e+000 -1.631803e+001 -1.093982e+001 -2.566398e+001 8.365250e+000 -5.451657e+000 -8.290672e+000 -8.911157e+000 -4.938852e+000 -3.958341e+000 -1.064096e+001 -1.924725e+000 7.318914e+001 3.190095e-001 1.364954e-001 -1.137592e-001 8.416920e-002 -2.497739e-002 2.779735e-001 -1.927664e-001 -2.085388e-001 3.687235e-002 7.457111e-003 1.982483e-001 1.374296e-002 -3.927122e-001 -8.210807e-002 1.351428e-001 2.007907e-001 3.890337e-001 -2.030844e-001 -1.294549e-001 1.691573e-002 1.411543e-001 -4.646628e-002 -1.411655e-001 6.184540e-002 5.504683e-002 -2.016338e-001
<VARIANCE> 39
 1.423496e+001 6.898215e+001 1.751919e+001 6.340026e+001 5.612640e+001 5.532832e+001 4.053737e+001 4.356257e+001 4.156330e+001 4.566530e+001 4.362583e+001 3.697499e+001 3.637917e+001 1.083441e+000 5.882007e+000 1.719350e+000 7.340769e+000 5.438437e+000 4.096714e+000 3.747584e+000 4.769322e+000 3.906099e+000 3.802074e+000 3.743039e+000 3.060688e+000 2.744532e+000 1.728648e-001 5.172813e-001 2.834803e-001 1.193721e+000 8.564295e-001 7.133459e-001 6.453912e-001 8.567917e-001 6.996357e-001 7.216982e-001 7.368968e-001 6.035376e-001 2.566978e-001
<GCONST> 1.287093e+002
<STATE> 4
<MEAN> 39
 -9.280707e-001 -1.400682e+001 -1.025885e+001 -2.318870e+001 6.947392e+000 -5.247707e+000 -9.001848e+000 -8.502469e+000 -4.184339e+000 -4.836254e+000 -9.305377e+000 -1.827042e+000 6.981919e+001 1.375643e-002 5.889124e-001 4.694384e-001 1.124842e+000 -5.044972e-001 -3.735096e-001 -2.560096e-001 2.633506e-001 -3.979555e-002 -3.677668e-001 1.372890e-001 1.306295e-001 -9.565723e-001 -8.592189e-002 7.330044e-002 1.060961e-001 1.833934e-001 -7.395616e-002 -8.413937e-002 -2.854053e-002 -6.263495e-003 -5.255629e-002 -1.088661e-001 1.445341e-002 2.185234e-002 -7.871597e-002
<VARIANCE> 39
 1.604196e+001 8.142441e+001 2.409873e+001 9.792691e+001 6.692953e+001 6.012700e+001 4.685057e+001 4.679578e+001 4.583566e+001 4.850768e+001 4.390352e+001 3.759405e+001 7.124775e+001 1.183697e+000 4.483162e+000 1.765766e+000 6.667380e+000 4.800480e+000 4.465675e+000 3.840014e+000 4.288769e+000 3.662102e+000 4.115259e+000 3.433885e+000 2.980832e+000 3.114177e+000 1.827152e-001 5.140362e-001 3.137319e-001 1.109098e+000 8.123417e-001 7.165400e-001 6.804870e-001 8.738396e-001 6.241734e-001 6.983805e-001 6.838843e-001 5.712226e-001 3.839504e-001
<GCONST> 1.309597e+002
<TRANSP> 5
 0.000000e+000 1.000000e+000 0.000000e+000 0.000000e+000 0.000000e+000
 0.000000e+000 7.030348e-001 2.969652e-001 0.000000e+000 0.000000e+000
 0.000000e+000 0.000000e+000 6.981366e-001 3.018634e-001 0.000000e+000
 0.000000e+000 0.000000e+000 0.000000e+000 8.226546e-001 1.773454e-001
 0.000000e+000 0.000000e+000 0.000000e+000 0.000000e+000 0.000000e+000
<ENDHMM>
~h "p"
<BEGINHMM>
<NUMSTATES> 5
<STATE> 2
<MEAN> 39
 -6.177387e+000 -1.063236e+001 -5.565955e+000 -1.279775e+001 2.325106e+000 -4.939187e+000 -1.896411e+000 -1.614583e+000 -2.309978e+000 -3.012500e+000 -5.748600e+000 2.827086e-001 5.726756e+001 -1.269715e-001 9.341978e-001 1.842749e-001 1.448871e+000 1.845837e-001 5.597410e-001 3.233640e-001 1.353837e-001 3.152700e-001 -5.620811e-004 4.155882e-001 -3.142707e-001 -1.071005e+000 -2.761603e-002 1.781217e-002 3.510350e-002 -6.009439e-002 -4.900651e-002 -1.198326e-001 -7.336533e-002 -6.398287e-002 -1.459931e-001 -9.075642e-002 -1.273736e-001 -6.505931e-002 2.169203e-001
<VARIANCE> 39
 3.001635e+001 4.454358e+001 3.424339e+001 8.596830e+001 5.192606e+001 5.636646e+001 8.161804e+001 3.914938e+001 3.884700e+001 2.563277e+001 4.773883e+001 8.057970e+001 8.346346e+001 2.370302e+000 2.963858e+000 2.333907e+000 5.327458e+000 2.788890e+000 4.226911e+000 5.000829e+000 3.544038e+000 3.191002e+000 2.185337e+000 3.299051e+000 3.611872e+000 6.114167e+000 4.373039e-001 6.243010e-001 4.762914e-001 1.129617e+000 6.169581e-001 8.462669e-001 1.001817e+000 6.931326e-001 6.027398e-001 4.299997e-001 6.123427e-001 5.744112e-001 7.314696e-001
<GCONST> 1.328989e+002
<STATE> 3
<MEAN> 39
 -6.702165e+000 -8.145797e+000 -5.162980e+000 -9.810926e+000 2.459337e+000 -3.777001e+000 -1.932141e+000 -1.578312e+000 -1.602866e+000 -3.211382e+000 -4.879151e+000 -6.845211e-001 5.523963e+001 -1.603343e-001 7.549340e-001 1.761792e-001 7.602925e-001 -2.018044e-001 -1.532372e-002 -4.669250e-002 -1.685802e-001 1.148290e-002 -1.640634e-001 2.246530e-001 -2.475235e-001 -2.174975e-001 1.364732e-002 -1.154391e-001 -2.104753e-002 -2.929037e-001 -1.467668e-001 -2.105346e-001 -1.593655e-001 -1.241316e-001 -1.553180e-001 -6.195480e-002 -1.107075e-001 1.422019e-002 2.963908e-001
<VARIANCE> 39
 3.733926e+001 4.441907e+001 3.705595e+001 6.541721e+001 5.095095e+001 5.893916e+001 8.097767e+001 4.515643e+001 3.959929e+001 2.679992e+001 3.823271e+001 5.525699e+001 5.405569e+001 2.458743e+000 3.770671e+000 2.764279e+000 6.300990e+000 3.422086e+000 5.099165e+000 5.445453e+000 4.010203e+000 3.705031e+000 2.428298e+000 3.020524e+000 3.592692e+000 6.447216e+000 4.857636e-001 6.863363e-001 5.809462e-001 1.083413e+000 6.873515e-001 9.076378e-001 1.037681e+000 8.287252e-001 6.869586e-001 4.578603e-001 6.423955e-001 6.360438e-001 7.118797e-001
<GCONST> 1.346053e+002
<STATE> 4
<MEAN> 39
 -6.722331e+000 -6.324348e+000 -4.906909e+000 -9.657589e+000 1.632516e+000 -4.196206e+000 -2.956678e+000 -2.048320e+000 -1.357189e+000 -3.699719e+000 -4.017407e+000 -6.162638e-001 5.616487e+001 1.123286e-001 3.986253e-001 1.720547e-001 -1.868720e-001 -6.251696e-001 -5.867202e-001 -6.351233e-001 -4.282257e-001 -5.734941e-001 -2.606083e-001 -1.161043e-001 -9.952568e-002 6.226127e-001 4.692426e-002 -1.229911e-001 -8.777742e-003 -3.056975e-001 -7.399964e-002 -9.276462e-002 -2.322539e-001 -6.884584e-002 -1.964039e-001 -4.189682e-002 -1.792632e-001 -1.328000e-003 1.970309e-001
<VARIANCE> 39
 4.197406e+001 4.567179e+001 4.037428e+001 7.959442e+001 5.468970e+001 6.729008e+001 7.561479e+001 4.762748e+001 4.311073e+001 3.213287e+001 3.586101e+001 5.039549e+001 7.217873e+001 3.659238e+000 4.553611e+000 4.060066e+000 8.571296e+000 4.742180e+000 5.797298e+000 6.726229e+000 4.661175e+000 4.747428e+000 3.015589e+000 4.010662e+000 4.025328e+000 6.069187e+000 6.123435e-001 7.128090e-001 7.998894e-001 1.249162e+000 9.192019e-001 1.089650e+000 1.050921e+000 9.619460e-001 7.910627e-001 6.147113e-001 7.461121e-001 7.895714e-001 9.147281e-001
<GCONST> 1.409346e+002
<TRANSP> 5
 0.000000e+000 1.000000e+000 0.000000e+000 0.000000e+000 0.000000e+000
 0.000000e+000 6.288135e-001 3.711865e-001 0.000000e+000 0.000000e+000
 0.000000e+000 0.000000e+000 6.200981e-001 3.799019e-001 0.000000e+000
 0.000000e+000 0.000000e+000 0.000000e+000 7.363881e-001 2.636119e-001
 0.000000e+000 0.000000e+000 0.000000e+000 0.000000e+000 0.000000e+000
<ENDHMM>
~h "q"
<BEGINHMM>
<NUMSTATES> 5
<STATE> 2
<MEAN> 39
 -1.723551e+000 -3.362317e+000 -8.397516e+000 -1.833858e+001 -1.292888e+000 -6.439143e+000 -6.224160e+000 -3.253096e+000 -4.857215e+000 -1.172547e+000 -7.698658e+000 -1.778751e+000 5.879305e+001 1.017642e+000 3.876681e-001 -7.511677e-001 -1.874539e+000 -1.248403e-002 3.629225e-001 1.983109e-002 3.848494e-002 -8.959399e-001 4.546803e-001 -3.274109e-001 6.085999e-001 1.163682e+000 7.208708e-002 -3.472368e-001 1.790551e-001 -2.502841e-001 5.024466e-002 1.839518e-001 -2.555574e-001 -9.824377e-002 -1.639911e-001 -1.018356e-001 -1.873539e-001 -1.169483e-001 3.725220e-001
<VARIANCE> 39
 2.116063e+001 5.854438e+001 4.256997e+001 1.202701e+002 6.518705e+001 4.503059e+001 8.023723e+001 3.183473e+001 5.490511e+001 4.177613e+001 6.221491e+001 3.431779e+001 9.290954e+001 2.868596e+000 6.447099e+000 4.324947e+000 1.483039e+001 4.647285e+000 3.959679e+000 6.069534e+000 4.118416e+000 7.227382e+000 4.227190e+000 4.238483e+000 5.299656e+000 1.023920e+001 6.493571e-001 1.111699e+000 6.383487e-001 2.038514e+000 8.987710e-001 8.565103e-001 1.002885e+000 7.860688e-001 1.355528e+000 7.901348e-001 7.744268e-001 1.059809e+000 8.061847e-001
<GCONST> 1.442669e+002
<STATE> 3
<MEAN> 39
 4.633870e-001 -5.322454e+000 -9.097886e+000 -2.280804e+001 -3.744532e-001 -4.398125e+000 -6.726847e+000 -3.576912e+000 -7.501626e+000 -2.476694e-001 -9.795582e+000 -1.305708e+000 6.325540e+001 5.069409e-001 -1.039809e+000 -2.742408e-001 -1.434868e+000 4.978696e-001 7.401518e-001 -4.785345e-001 -2.549140e-001 -8.772132e-001 3.760631e-001 -7.105512e-001 -1.280910e-001 1.641024e+000 -2.870315e-001 -5.279471e-001 1.445237e-001 3.776975e-001 1.867875e-001 -7.391640e-003 -9.583020e-002 -7.496278e-002 1.717526e-001 -2.016106e-004 -9.424635e-002 -2.397960e-001 6.194424e-002
<VARIANCE> 39
 2.214600e+001 8.922808e+001 3.194697e+001 1.329008e+002 7.376425e+001 5.152363e+001 5.124686e+001 3.594894e+001 5.232086e+001 4.479259e+001 5.441037e+001 4.286972e+001 8.577477e+001 3.569124e+000 9.401107e+000 3.170962e+000 1.776623e+001 6.358130e+000 4.608625e+000 6.279120e+000 4.209666e+000 7.240329e+000 4.717307e+000 5.082520e+000 6.980835e+000 8.450603e+000 6.481156e-001 1.473575e+000 5.771996e-001 2.572774e+000 1.231667e+000 1.074898e+000 1.106930e+000 9.159324e-001 1.298447e+000 9.502979e-001 8.321528e-001 1.417409e+000 6.410576e-001
<GCONST> 1.473526e+002
<STATE> 4
<MEAN> 39
 1.995609e-001 -1.140576e+001 -8.522865e+000 -2.218905e+001 1.331908e+000 -4.635146e+000 -9.422891e+000 -5.079720e+000 -9.670666e+000 -3.090026e-001 -1.373846e+001 -2.233526e+000 6.882396e+001 -4.300028e-001 -1.430115e+000 3.733965e-001 3.942441e-001 6.315525e-002 -4.446146e-001 -3.949946e-001 -1.753306e-001 -2.370100e-001 -4.011030e-002 -7.095122e-001 -2.437870e-001 1.167575e+000 -1.557239e-001 4.769821e-002 1.745171e-001 3.309468e-001 -1.325078e-001 -2.259711e-001 1.806701e-001 2.815523e-002 8.162776e-002 -1.319531e-001 1.404848e-001 4.922120e-002 -2.130279e-001
<VARIANCE> 39
 2.027905e+001 1.148687e+002 3.347275e+001 1.182529e+002 8.073016e+001 6.049134e+001 5.640172e+001 4.650425e+001 4.776317e+001 6.997193e+001 5.047697e+001 4.999692e+001 7.874304e+001 2.849277e+000 9.290667e+000 2.549508e+000 1.223895e+001 9.063256e+000 6.123187e+000 6.699073e+000 4.278441e+000 5.798042e+000 6.117656e+000 5.594925e+000 6.556222e+000 5.019326e+000 5.675746e-001 1.453315e+000 3.913187e-001 2.103348e+000 1.467821e+000 1.125827e+000 1.257228e+000 9.193724e-001 1.326417e+000 1.166825e+000 9.845338e-001 1.405381e+000 5.016310e-001
<GCONST> 1.475980e+002
<TRANSP> 5
 0.000000e+000 1.000000e+000 0.000000e+000 0.000000e+000 0.000000e+000
 0.000000e+000 5.984433e-001 4.015566e-001 0.000000e+000 0.000000e+000
 0.000000e+000 0.000000e+000 6.368510e-001 3.631490e-001 0.000000e+000
 0.000000e+000 0.000000e+000 0.000000e+000 8.062303e-001 1.937697e-001
 0.000000e+000 0.000000e+000 0.000000e+000 0.000000e+000 0.000000e+000
<ENDHMM>
~h "r"
<BEGINHMM>
<NUMSTATES> 5
<STATE> 2
<MEAN> 39
 -1.254199e+001 -2.014646e+000 7.355731e+000 -1.146549e+001 -5.336082e+000 -1.125787e+001 -1.300505e+001 -9.587989e+000 -6.832744e+000 -8.721440e+000 -7.381579e+000 -1.679548e+000 6.603851e+001 -1.526691e+000 5.236180e-001 7.441667e-001 5.615202e-001 2.168557e-001 -1.458674e-002 -2.350813e-001 -3.326970e-001 4.296194e-001 -4.976102e-001 1.345916e-001 -5.438420e-001 5.596688e-001 8.957423e-002 -5.358692e-002 -1.741884e-001 -2.183317e-001 6.696053e-003 -1.934551e-002 5.287407e-002 1.716816e-001 -2.550551e-002 1.821012e-002 -9.583015e-002 -2.597600e-002 8.854420e-002
<VARIANCE> 39
 9.003339e+001 5.324347e+001 7.163922e+001 8.210071e+001 4.629214e+001 5.668084e+001 6.874207e+001 6.609621e+001 6.840412e+001 7.390124e+001 5.566592e+001 4.318658e+001 4.903279e+001 7.682995e+000 5.366253e+000 4.153224e+000 4.482175e+000 3.737724e+000 4.748648e+000 5.332231e+000 4.858971e+000 3.513646e+000 5.370363e+000 4.539865e+000 3.818048e+000 1.586664e+000 1.284546e+000 8.994519e-001 7.172792e-001 5.802341e-001 6.388168e-001 8.657794e-001 8.962978e-001 9.166734e-001 5.965495e-001 9.153814e-001 7.706176e-001 8.096042e-001 1.538293e-001
<GCONST> 1.398876e+002
<STATE> 3
<MEAN> 39
 -1.591577e+001 -2.218493e+000 6.482623e+000 -1.137839e+001 -4.115854e+000 -1.287508e+001 -1.330902e+001 -8.599534e+000 -4.995564e+000 -1.206815e+001 -7.327277e+000 -2.984571e+000 6.877602e+001 6.526139e-001 -1.135442e+000 -1.017026e+000 -8.663839e-001 1.545158e-002 -1.621115e-001 -3.460398e-002 9.180648e-001 1.170325e-001 1.062418e-001 -5.302599e-001 2.371700e-001 7.255300e-001 5.510517e-001 -5.268894e-001 -3.688234e-001 -3.222421e-001 3.290743e-002 1.207939e-001 9.258739e-002 2.695311e-001 -1.773812e-001 2.860349e-001 -2.115005e-001 2.486037e-001 5.990524e-002
<VARIANCE> 39
 8.483323e+001 6.335460e+001 5.404895e+001 6.897147e+001 4.935418e+001 4.465751e+001 4.541608e+001 7.417481e+001 4.651027e+001 4.159139e+001 4.848683e+001 4.588079e+001 2.267965e+001 1.356594e+001 9.815948e+000 5.911687e+000 4.762007e+000 4.696803e+000 4.960248e+000 5.250635e+000 6.496450e+000 4.086277e+000 4.371087e+000 5.014383e+000 4.962274e+000 1.059227e+000 1.709570e+000 1.179219e+000 7.399167e-001 5.984982e-001 8.525360e-001 1.012607e+000 9.443244e-001 1.142549e+000 8.005359e-001 7.185240e-001 9.117276e-001 8.444195e-001 1.131103e-001
<GCONST> 1.405900e+002
<STATE> 4
<MEAN> 39
 -8.885811e+000 -1.204076e+001 -4.584459e-001 -1.783979e+001 -3.003762e+000 -1.326967e+001 -1.213702e+001 -1.775561e+000 -6.952540e+000 -9.925678e+000 -1.133007e+001 8.302593e-001 7.270069e+001 1.663618e+000 -2.494606e+000 -1.661480e+000 -1.223188e+000 8.113475e-001 6.496306e-001 5.126160e-001 1.033417e+000 -9.195766e-001 1.215093e+000 -9.047894e-001 8.526004e-001 9.314108e-001 -3.260404e-001 3.951478e-001 2.224970e-001 1.640116e-001 2.635316e-001 1.737119e-001 1.118445e-001 -4.316921e-001 -7.336231e-002 7.499319e-002 2.725481e-001 -2.068522e-001 -9.427278e-002
<VARIANCE> 39
 8.300491e+001 1.199262e+002 5.193393e+001 6.205469e+001 6.063449e+001 4.438605e+001 7.281351e+001 9.922224e+001 6.276133e+001 3.929398e+001 6.417162e+001 5.663251e+001 2.599057e+001 8.090713e+000 8.124148e+000 2.977252e+000 5.203206e+000 7.098931e+000 5.276340e+000 5.214604e+000 9.882974e+000 5.486110e+000 4.441395e+000 5.888661e+000 5.787279e+000 8.217596e-001 1.633652e+000 1.590241e+000 5.532260e-001 7.003238e-001 1.133174e+000 9.919692e-001 8.579149e-001 1.785160e+000 1.315835e+000 7.228523e-001 1.186209e+000 9.706183e-001 1.574170e-001
<GCONST> 1.448189e+002
<TRANSP> 5
 0.000000e+000 1.000000e+000 0.000000e+000 0.000000e+000 0.000000e+000
 0.000000e+000 8.283182e-001 1.716818e-001 0.000000e+000 0.000000e+000
 0.000000e+000 0.000000e+000 7.631822e-001 2.368179e-001 0.000000e+000
 0.000000e+000 0.000000e+000 0.000000e+000 7.891572e-001 2.108428e-001
 0.000000e+000 0.000000e+000 0.000000e+000 0.000000e+000 0.000000e+000
<ENDHMM>
~h "s"
<BEGINHMM>
<NUMSTATES> 5
<STATE> 2
<MEAN> 39
 -1.646654e+001 -1.173330e+000 4.995482e+000 -1.267642e+001 -1.457707e+000 -9.697568e+000 -6.750508e+000 -4.534400e+000 -4.872600e+000 -7.124621e+000 -2.776581e+000 2.665926e-001 6.722251e+001 -3.177475e+000 2.250171e+000 5.212462e-001 1.306096e+000 1.363022e+000 1.585093e+000 7.916717e-001 4.832844e-001 1.285141e+000 -2.394188e-001 1.387420e+000 -5.821603e-001 2.701378e-001 -2.936227e-001 -1.590318e-002 -2.024109e-002 -1.393403e-001 2.553125e-001 2.664535e-001 9.859697e-002 2.656020e-001 7.845648e-002 2.591842e-001 -1.254712e-001 -6.095679e-003 9.111457e-002
<VARIANCE> 39
 1.237919e+002 8.519312e+001 4.582336e+001 5.935392e+001 6.657519e+001 9.722706e+001 7.415038e+001 6.408297e+001 8.084984e+001 4.898309e+001 6.125708e+001 3.772610e+001 5.397808e+001 6.067692e+000 6.897135e+000 3.487739e+000 5.261451e+000 6.484471e+000 6.606320e+000 5.728623e+000 5.795160e+000 5.026409e+000 5.469627e+000 4.438300e+000 3.470338e+000 2.020891e+000 1.505967e+000 1.185873e+000 5.461466e-001 7.170098e-001 1.244001e+000 1.384510e+000 9.466671e-001 1.125273e+000 9.455289e-001 9.988518e-001 7.762014e-001 6.361388e-001 2.022883e-001
<GCONST> 1.446528e+002
<STATE> 3
<MEAN> 39
 -2.686685e+001 4.068616e+000 6.322730e+000 -1.037900e+001 3.568115e+000 -3.738195e+000 -3.458409e+000 -6.985050e-001 -4.687186e-001 -5.680872e+000 6.257210e-001 -7.367678e-001 6.832734e+001 -8.747718e-001 1.371964e-001 -8.944444e-002 7.516460e-003 5.269367e-001 6.550024e-001 3.530720e-001 6.515434e-001 5.604441e-001 1.754307e-001 3.149225e-001 3.993052e-002 2.790655e-001 7.062327e-001 -5.333208e-001 -1.989289e-001 -2.827461e-001 -2.632873e-001 -3.105716e-001 -1.840202e-001 -1.035331e-001 -2.542124e-001 -2.937907e-002 -2.566571e-001 1.179317e-001 2.084147e-002
<VARIANCE> 39
 7.242044e+001 4.429523e+001 3.391829e+001 2.762992e+001 4.633676e+001 5.473634e+001 4.445070e+001 4.261289e+001 4.687325e+001 3.604045e+001 3.178077e+001 2.302413e+001 2.006253e+001 1.340428e+001 6.746955e+000 3.034192e+000 3.495735e+000 5.061557e+000 5.580570e+000 4.330734e+000 3.651701e+000 4.016387e+000 4.031379e+000 3.844422e+000 2.613701e+000 1.055278e+000 1.067513e+000 5.925591e-001 4.779324e-001 4.820122e-001 8.631650e-001 8.280280e-001 6.800585e-001 7.100905e-001 5.745897e-001 8.375076e-001 6.239039e-001 4.944257e-001 1.275151e-001
<GCONST> 1.301616e+002
<STATE> 4
<MEAN> 39
 -2.036923e+001 -2.313108e+000 3.128142e+000 -1.383773e+001 2.356870e+000 -5.279780e+000 -5.001566e+000 7.580539e-001 -1.347545e+000 -7.020568e+000 -1.094810e+000 9.485186e-001 6.999483e+001 2.585381e+000 -2.563589e+000 -1.376683e+000 -1.265724e+000 -2.907875e-001 -7.723225e-001 -7.978527e-001 -2.414537e-001 -1.058680e+000 -2.134590e-001 -1.237336e+000 3.210140e-001 7.472391e-001 1.778743e-002 -1.917818e-001 -7.513931e-002 -5.789470e-002 2.057824e-001 2.605672e-002 -5.564048e-003 -1.502702e-001 -2.036633e-001 2.038952e-001 -1.391599e-001 -1.093178e-001 8.789899e-002
<VARIANCE> 39
 1.735205e+002 1.154913e+002 5.906800e+001 5.006743e+001 5.737233e+001 5.336539e+001 5.844613e+001 3.067148e+001 4.561634e+001 3.964835e+001 5.699213e+001 2.718182e+001 1.467066e+001 1.256209e+001 7.766912e+000 4.002923e+000 4.450069e+000 6.836300e+000 4.531847e+000 4.659465e+000 3.308317e+000 4.398346e+000 4.947364e+000 5.836804e+000 3.280597e+000 1.148959e+000 2.463047e+000 1.110764e+000 7.448335e-001 8.514977e-001 1.406131e+000 9.273556e-001 8.673255e-001 5.386279e-001 6.694325e-001 1.020321e+000 1.017399e+000 6.005963e-001 1.753980e-001
<GCONST> 1.398659e+002
<TRANSP> 5
 0.000000e+000 1.000000e+000 0.000000e+000 0.000000e+000 0.000000e+000
 0.000000e+000 7.864260e-001 2.135740e-001 0.000000e+000 0.000000e+000
 0.000000e+000 0.000000e+000 7.958356e-001 2.041645e-001 0.000000e+000
 0.000000e+000 0.000000e+000 0.000000e+000 8.755374e-001 1.244627e-001
 0.000000e+000 0.000000e+000 0.000000e+000 0.000000e+000 0.000000e+000
<ENDHMM>
~h "t"
<BEGINHMM>
<NUMSTATES> 5
<STATE> 2
<MEAN> 39
 -6.540578e+000 -7.604028e+000 -3.984614e+000 -1.038289e+001 2.617009e-001 -6.757935e+000 -4.938868e+000 -3.243970e+000 -3.131164e+000 -4.498680e+000 -3.725712e+000 -9.296472e-001 5.451726e+001 -3.753016e-001 2.756585e-003 -1.044429e-001 5.589426e-001 8.668432e-002 2.612997e-001 5.326867e-001 2.082612e-001 4.917997e-001 2.453516e-001 3.576345e-001 -1.920645e-001 -5.616545e-001 1.936086e-002 -9.453652e-002 1.194816e-002 -3.109231e-001 -1.358559e-001 -1.659180e-001 -1.700989e-001 1.102182e-002 -1.833831e-001 1.383420e-002 -1.162062e-001 1.559963e-001 6.273917e-001
<VARIANCE> 39
 1.916669e+001 4.197523e+001 3.483555e+001 5.855725e+001 4.574142e+001 4.841718e+001 5.244053e+001 4.211283e+001 4.419564e+001 4.103809e+001 4.508780e+001 5.474593e+001 7.360690e+001 1.674273e+000 2.705881e+000 2.433906e+000 4.599581e+000 3.440720e+000 4.248240e+000 4.132283e+000 3.411849e+000 3.639700e+000 3.438666e+000 3.516500e+000 4.015722e+000 9.466812e+000 3.432573e-001 5.331920e-001 4.665127e-001 8.422824e-001 7.048919e-001 8.538883e-001 8.169613e-001 6.857618e-001 7.013319e-001 6.150334e-001 7.558591e-001 7.215710e-001 1.184249e+000
<GCONST> 1.326838e+002
<STATE> 3
<MEAN> 39
 -7.427806e+000 -7.876774e+000 -4.118697e+000 -9.991660e+000 -1.228144e-001 -6.770829e+000 -4.125245e+000 -2.752264e+000 -2.677812e+000 -4.082964e+000 -3.171613e+000 -7.854016e-001 5.510402e+001 -2.220404e-001 -2.405391e-001 -1.503445e-002 -4.137441e-001 -1.575520e-001 -3.170490e-001 -1.336914e-003 3.034869e-001 -9.503342e-002 2.264799e-001 -2.410618e-002 2.899745e-001 1.312038e+000 6.884003e-002 -1.137544e-001 2.526013e-002 -3.969812e-001 -1.434775e-002 -1.484114e-001 -2.714903e-001 -9.810007e-003 -2.618221e-001 -2.242943e-002 -2.511682e-001 7.710594e-002 5.969329e-001
<VARIANCE> 39
 1.772599e+001 3.973903e+001 3.519691e+001 5.605420e+001 4.674208e+001 4.465788e+001 4.665727e+001 4.090609e+001 4.150060e+001 3.925896e+001 4.488385e+001 4.432931e+001 9.046796e+001 1.595473e+000 3.805418e+000 3.010940e+000 6.757443e+000 4.638480e+000 4.471012e+000 5.030878e+000 4.153437e+000 4.757464e+000 3.695076e+000 4.637829e+000 4.205716e+000 1.411436e+001 3.135700e-001 6.290672e-001 5.173323e-001 1.023373e+000 8.409802e-001 8.863721e-001 8.620711e-001 8.053470e-001 7.926543e-001 6.840159e-001 9.030777e-001 7.766555e-001 1.724038e+000
<GCONST> 1.365488e+002
<STATE> 4
<MEAN> 39
 -7.765542e+000 -8.883993e+000 -3.963606e+000 -1.217581e+001 -4.022587e-001 -8.093148e+000 -4.802995e+000 -1.727618e+000 -3.820652e+000 -3.706081e+000 -4.105567e+000 3.441029e-001 6.034556e+001 -8.611284e-002 -5.196724e-001 7.718786e-002 -1.218362e+000 1.851138e-002 -4.070714e-001 -7.534854e-001 1.101682e-001 -7.596164e-001 1.460472e-001 -6.984713e-001 2.104252e-001 2.270683e+000 1.669220e-002 -4.725184e-002 2.200298e-002 -1.390987e-001 9.582030e-002 9.545400e-002 -1.932624e-001 -1.883774e-001 -1.608030e-001 -6.219094e-002 -1.981784e-001 -1.460466e-001 -8.978771e-003
<VARIANCE> 39
 1.826330e+001 5.260903e+001 4.175535e+001 8.133913e+001 6.638469e+001 5.084292e+001 5.603010e+001 4.430562e+001 5.144467e+001 4.733739e+001 5.416166e+001 4.435024e+001 1.509703e+002 1.779035e+000 5.376625e+000 3.435666e+000 8.681251e+000 6.546525e+000 4.912669e+000 6.090685e+000 4.880547e+000 5.708424e+000 4.205371e+000 5.889725e+000 4.465366e+000 1.246230e+001 3.059284e-001 7.428855e-001 5.395569e-001 1.364872e+000 1.006416e+000 1.022222e+000 1.018256e+000 9.435658e-001 9.566700e-001 8.196198e-001 1.123969e+000 8.548512e-001 2.243076e+000
<GCONST> 1.434280e+002
<TRANSP> 5
 0.000000e+000 1.000000e+000 0.000000e+000 0.000000e+000 0.000000e+000
 0.000000e+000 5.586625e-001 4.413375e-001 0.000000e+000 0.000000e+000
 0.000000e+000 0.000000e+000 5.621668e-001 4.378332e-001 0.000000e+000
 0.000000e+000 0.000000e+000 0.000000e+000 6.598994e-001 3.401006e-001
 0.000000e+000 0.000000e+000 0.000000e+000 0.000000e+000 0.000000e+000
<ENDHMM>
~h "u"
<BEGINHMM>
<NUMSTATES> 5
<STATE> 2
<MEAN> 39
 -1.884140e+000 -5.283057e+000 -7.182158e+000 -2.588749e+001 -2.077632e+000 -5.002997e+000 -1.393000e+001 -4.580215e+000 -8.232921e+000 -1.095239e+000 -8.901475e+000 -1.712601e+000 6.996516e+001 2.942332e-001 3.953544e-001 -1.783327e-001 -4.083501e-001 1.616687e-003 7.429044e-002 -5.611348e-001 1.309463e-001 -3.664021e-001 -2.257901e-001 2.837511e-001 2.400260e-001 -4.470094e-001 -1.344915e-001 -2.768966e-002 1.340781e-001 2.905979e-001 -1.175494e-002 -5.723491e-002 1.739821e-001 4.968377e-002 -7.590666e-002 -1.292161e-001 -6.135521e-004 -8.714086e-002 -1.041403e-001
<VARIANCE> 39
 2.916825e+001 5.773581e+001 5.000946e+001 1.327869e+002 7.044762e+001 6.845000e+001 7.233875e+001 5.395621e+001 5.443490e+001 6.207710e+001 6.137978e+001 5.430055e+001 5.897350e+001 1.918173e+000 4.652738e+000 2.512457e+000 7.911016e+000 5.626396e+000 4.897905e+000 5.888622e+000 5.076972e+000 5.264541e+000 5.378416e+000 5.566737e+000 4.561337e+000 2.362954e+000 3.113137e-001 4.872720e-001 3.893034e-001 1.080380e+000 8.657821e-001 8.511260e-001 1.022722e+000 9.493961e-001 1.057174e+000 9.404917e-001 9.997174e-001 8.703172e-001 2.890912e-001
<GCONST> 1.398291e+002
<STATE> 3
<MEAN> 39
 -1.485882e+000 -4.397363e+000 -7.224714e+000 -2.611486e+001 -1.857510e+000 -5.156034e+000 -1.476821e+001 -4.389555e+000 -9.453033e+000 -2.220377e+000 -8.438523e+000 -1.565233e+000 6.842545e+001 4.185758e-002 2.650122e-001 2.220007e-001 4.411026e-001 1.118474e-002 -1.308478e-001 -8.894844e-002 1.303729e-001 -3.206321e-001 -5.137896e-001 7.665703e-002 -4.722911e-002 -6.816070e-001 -9.361127e-002 -5.514507e-002 1.331244e-001 3.193977e-001 -4.084205e-002 -8.669727e-002 1.608362e-001 1.395196e-002 8.278809e-002 -4.632084e-002 -3.734788e-002 -7.016800e-002 -6.580392e-002
<VARIANCE> 39
 2.509458e+001 5.390438e+001 5.419167e+001 1.364154e+002 6.801475e+001 6.402432e+001 7.439064e+001 5.509668e+001 6.094646e+001 6.717596e+001 5.911161e+001 5.057767e+001 6.430300e+001 1.549693e+000 3.575856e+000 2.406847e+000 7.997900e+000 4.838953e+000 4.251482e+000 5.437189e+000 4.603633e+000 5.636639e+000 5.461813e+000 4.644250e+000 4.116776e+000 2.608569e+000 2.540697e-001 4.684584e-001 4.019760e-001 1.105717e+000 8.923695e-001 8.108037e-001 9.176694e-001 8.954157e-001 1.012916e+000 9.310222e-001 8.738434e-001 7.755295e-001 3.096381e-001
<GCONST> 1.381476e+002
<STATE> 4
<MEAN> 39
 -9.553301e-001 -3.011448e+000 -6.603890e+000 -2.344897e+001 -1.328316e+000 -4.875265e+000 -1.382933e+001 -4.202863e+000 -9.149887e+000 -3.914109e+000 -7.506701e+000 -2.357329e+000 6.463675e+001 -1.901417e-001 -7.836390e-002 4.717089e-001 1.305033e+000 -3.164829e-002 -2.899617e-001 2.855330e-001 -4.443130e-002 2.424750e-001 -2.801967e-001 -7.305951e-003 -9.837577e-002 -8.459173e-001 -8.584712e-002 -4.791957e-002 5.284781e-002 1.210038e-001 -7.914635e-002 -5.774768e-002 1.101049e-001 -1.409226e-002 9.749786e-002 2.759546e-002 2.007773e-002 3.762386e-002 2.668901e-002
<VARIANCE> 39
 2.271642e+001 5.045242e+001 5.270349e+001 1.544758e+002 7.009271e+001 6.004317e+001 9.523046e+001 5.055688e+001 7.189662e+001 6.361047e+001 6.309159e+001 4.521857e+001 8.396072e+001 1.374955e+000 2.620637e+000 2.333885e+000 6.909020e+000 4.423412e+000 4.129823e+000 4.999551e+000 4.350316e+000 5.159946e+000 4.818598e+000 4.049012e+000 3.510812e+000 2.938169e+000 2.289488e-001 4.113306e-001 4.044463e-001 1.086522e+000 8.573216e-001 7.823752e-001 9.050580e-001 7.665299e-001 8.783514e-001 8.583429e-001 7.486932e-001 6.640034e-001 3.982655e-001
<GCONST> 1.365053e+002
<TRANSP> 5
 0.000000e+000 1.000000e+000 0.000000e+000 0.000000e+000 0.000000e+000
 0.000000e+000 5.404372e-001 4.595628e-001 0.000000e+000 0.000000e+000
 0.000000e+000 0.000000e+000 5.360842e-001 4.639158e-001 0.000000e+000
 0.000000e+000 0.000000e+000 0.000000e+000 6.831302e-001 3.168698e-001
 0.000000e+000 0.000000e+000 0.000000e+000 0.000000e+000 0.000000e+000
<ENDHMM>
~h "v"
<BEGINHMM>
<NUMSTATES> 5
<STATE> 2
<MEAN> 39
 -5.551708e+000 -1.769698e+000 -1.710221e+000 -8.091615e+000 -3.208769e+000 -7.644835e+000 -9.369895e+000 -1.010386e+001 -8.712934e+000 -6.640134e+000 -7.901134e+000 -5.721961e+000 5.836420e+001 -7.532634e-002 2.838278e-001 5.687981e-002 1.111400e-001 9.062750e-002 -1.662835e-001 -2.384146e-001 -6.374429e-001 -3.541034e-001 -1.536790e-001 -3.628119e-001 -4.370282e-001 6.918349e-001 8.265263e-002 -3.177195e-001 -8.177331e-002 -5.098405e-001 3.636458e-002 -6.767971e-002 -1.191120e-001 2.375567e-001 1.095215e-001 1.750693e-001 -1.214614e-001 1.142058e-001 3.693568e-001
<VARIANCE> 39
 2.894648e+001 3.142789e+001 3.995117e+001 1.112523e+002 4.702235e+001 3.999420e+001 4.744011e+001 4.264137e+001 4.895213e+001 4.976542e+001 4.269801e+001 4.702262e+001 6.177083e+001 2.969829e+000 3.545932e+000 2.397728e+000 9.793247e+000 3.327774e+000 2.839946e+000 4.287769e+000 4.115837e+000 4.659571e+000 5.156943e+000 4.308684e+000 3.137154e+000 4.163610e+000 5.620813e-001 5.674718e-001 3.723222e-001 1.297909e+000 6.003397e-001 5.204061e-001 8.085128e-001 7.710289e-001 7.682139e-001 8.761638e-001 8.582163e-001 5.484927e-001 3.818370e-001
<GCONST> 1.337866e+002
<STATE> 3
<MEAN> 39
 -5.536087e+000 -1.834861e+000 -2.036097e+000 -9.012964e+000 -2.871151e+000 -8.177538e+000 -1.028662e+001 -1.070801e+001 -8.927607e+000 -6.625776e+000 -8.683520e+000 -6.225920e+000 6.063776e+001 1.398732e-001 -7.235048e-001 -2.890515e-001 -1.338419e+000 1.267155e-001 -2.028574e-001 -3.678944e-001 8.971274e-002 -6.954121e-002 3.702860e-001 -5.953585e-001 -1.275261e-001 1.540538e+000 7.970522e-002 -4.514834e-001 -9.748947e-002 -5.541577e-001 6.956749e-002 3.478608e-002 3.028486e-002 3.181840e-001 4.998436e-002 1.955174e-001 -1.160497e-001 1.735349e-001 3.116295e-001
<VARIANCE> 39
 2.819807e+001 4.635762e+001 4.211348e+001 1.272302e+002 4.529332e+001 3.744878e+001 3.616451e+001 4.364084e+001 4.077414e+001 4.764828e+001 3.942900e+001 4.559841e+001 6.415674e+001 3.298689e+000 5.558269e+000 2.717924e+000 1.161961e+001 3.784947e+000 3.196176e+000 4.373271e+000 5.183233e+000 4.271487e+000 5.445697e+000 5.225804e+000 2.781540e+000 4.125738e+000 6.618074e-001 7.251230e-001 4.240300e-001 1.723140e+000 6.278416e-001 5.684181e-001 8.418585e-001 8.890812e-001 7.689171e-001 9.568269e-001 9.694337e-001 5.535264e-001 4.319688e-001
<GCONST> 1.365461e+002
<STATE> 4
<MEAN> 39
 -4.585282e+000 -5.041882e+000 -3.276809e+000 -1.442639e+001 -2.380339e+000 -7.956720e+000 -1.125533e+001 -9.279293e+000 -8.837348e+000 -5.092403e+000 -1.037850e+001 -6.308584e+000 6.538258e+001 2.710890e-001 -1.677177e+000 -3.886683e-001 -2.254585e+000 2.939167e-001 -2.860025e-002 -1.313008e-001 8.305894e-001 -5.646180e-002 6.597236e-001 -8.956555e-001 2.828700e-001 1.991188e+000 -4.634149e-002 -1.515877e-001 8.199076e-002 2.157377e-002 2.473273e-002 3.054996e-002 1.541791e-001 1.683573e-001 -7.088168e-002 -1.256732e-002 2.172714e-002 1.793710e-001 2.103544e-002
<VARIANCE> 39
 2.663592e+001 8.054257e+001 4.983015e+001 1.636787e+002 5.575393e+001 4.191278e+001 3.866468e+001 5.270342e+001 3.835554e+001 5.457081e+001 4.689960e+001 4.428321e+001 7.505952e+001 3.019964e+000 7.136552e+000 2.823449e+000 1.207077e+001 4.699838e+000 3.347346e+000 5.302722e+000 5.980535e+000 3.909886e+000 6.111989e+000 5.839448e+000 3.081886e+000 4.112323e+000 6.407675e-001 9.534443e-001 4.317054e-001 2.345876e+000 6.999089e-001 6.195365e-001 8.508219e-001 1.096037e+000 7.464885e-001 1.098725e+000 1.122702e+000 5.908281e-001 5.112683e-001
<GCONST> 1.409586e+002
<TRANSP> 5
 0.000000e+000 1.000000e+000 0.000000e+000 0.000000e+000 0.000000e+000
 0.000000e+000 5.256417e-001 4.743583e-001 0.000000e+000 0.000000e+000
 0.000000e+000 0.000000e+000 5.228906e-001 4.771095e-001 0.000000e+000
 0.000000e+000 0.000000e+000 0.000000e+000 6.338764e-001 3.661236e-001
 0.000000e+000 0.000000e+000 0.000000e+000 0.000000e+000 0.000000e+000
<ENDHMM>
~h "x"
<BEGINHMM>
<NUMSTATES> 5
<STATE> 2
<MEAN> 39
 -1.534087e+001 2.018733e+000 -5.945862e+000 -3.849545e+000 -2.605764e+000 -1.144387e+001 -3.906625e+000 -6.951797e+000 -5.249625e+000 -6.474453e+000 -4.808603e+000 2.327583e-001 6.570795e+001 -1.993348e+000 8.694589e-001 -9.052896e-001 1.783823e+000 4.918650e-001 1.127980e+000 1.413279e+000 2.365842e-001 9.984338e-001 3.627122e-001 1.022719e+000 -2.946517e-001 -1.408745e-001 3.328446e-002 -3.160201e-001 -1.396250e-002 -2.383214e-001 7.142203e-002 2.541916e-001 -8.585325e-003 1.919225e-001 -5.486252e-002 2.443481e-001 -4.723150e-002 1.268604e-002 9.049994e-002
<VARIANCE> 39
 8.061674e+001 4.183234e+001 3.679633e+001 9.151640e+001 4.811913e+001 6.738863e+001 7.976451e+001 4.363502e+001 4.601609e+001 4.761963e+001 4.716939e+001 3.638340e+001 2.359930e+001 6.623520e+000 4.621964e+000 3.191039e+000 9.524905e+000 4.245554e+000 7.393157e+000 7.150326e+000 4.443734e+000 3.842596e+000 4.529130e+000 3.682540e+000 4.163791e+000 1.350075e+000 9.094688e-001 4.919975e-001 4.934060e-001 1.130995e+000 7.925187e-001 1.406263e+000 1.065432e+000 8.234780e-001 6.674863e-001 8.905649e-001 6.057407e-001 6.689325e-001 1.126933e-001
<GCONST> 1.370741e+002
<STATE> 3
<MEAN> 39
 -1.855895e+001 1.068363e+000 -7.812311e+000 -2.625705e+000 -1.275370e+000 -7.757834e+000 -1.244279e+000 -4.279554e+000 -2.764457e+000 -4.070298e+000 -2.436523e+000 4.088603e-001 6.612626e+001 -2.457416e-001 -5.389419e-001 -3.410460e-001 -3.750650e-001 2.495229e-001 5.948088e-001 3.022714e-001 5.750717e-001 2.617923e-001 3.251996e-001 1.089517e-001 1.872941e-002 3.246857e-001 3.536605e-001 -3.301615e-001 8.126841e-002 -4.691922e-001 -4.869459e-002 -1.663060e-001 -2.046015e-001 1.854150e-002 -1.907531e-001 -1.475928e-002 -2.202395e-001 6.842914e-002 9.658733e-002
<VARIANCE> 39
 7.044142e+001 4.453360e+001 2.426391e+001 1.114128e+002 3.841750e+001 5.362091e+001 6.499239e+001 4.330854e+001 3.341556e+001 3.517446e+001 4.203778e+001 3.329092e+001 2.420338e+001 1.028871e+001 3.828498e+000 2.821883e+000 1.261465e+001 4.273855e+000 7.349515e+000 7.878021e+000 3.913650e+000 3.884162e+000 4.341177e+000 4.976088e+000 3.494450e+000 1.376583e+000 9.485835e-001 4.853148e-001 4.537595e-001 1.268275e+000 8.476061e-001 1.191595e+000 1.045328e+000 7.431513e-001 5.615069e-001 7.564619e-001 6.826593e-001 6.122509e-001 1.353055e-001
<GCONST> 1.355255e+002
<STATE> 4
<MEAN> 39
 -2.040053e+001 -2.213218e-002 -8.364607e+000 -1.579948e+000 -1.535288e+000 -5.937281e+000 7.126130e-001 -2.893836e+000 -1.338964e+000 -2.891430e+000 -5.048548e-001 9.511625e-001 6.588387e+001 1.184812e+000 -8.446383e-001 3.255455e-001 -1.711942e+000 -1.601925e-001 -5.454860e-001 -6.912925e-001 1.505174e-001 -3.862114e-001 -1.600105e-001 -4.296841e-001 4.998705e-001 6.936386e-001 3.106976e-001 -2.146696e-001 6.874564e-002 -4.140737e-001 1.514680e-004 -1.953873e-001 -2.143821e-001 -8.733893e-002 -1.900570e-001 -1.401469e-001 -2.181563e-001 3.712550e-002 1.301749e-001
<VARIANCE> 39
 7.078942e+001 3.653586e+001 2.441061e+001 1.076429e+002 3.498504e+001 4.469869e+001 5.635788e+001 2.744493e+001 3.152207e+001 2.826376e+001 3.733543e+001 2.639544e+001 2.209165e+001 6.904872e+000 2.434690e+000 2.438181e+000 8.990041e+000 3.647963e+000 5.035038e+000 5.397834e+000 2.980601e+000 3.302058e+000 3.352700e+000 4.235207e+000 2.667119e+000 1.161159e+000 9.835121e-001 3.508503e-001 4.407358e-001 1.120299e+000 7.588646e-001 9.112754e-001 7.820159e-001 5.301801e-001 5.252153e-001 5.594493e-001 6.597297e-001 5.009279e-001 1.404054e-001
<GCONST> 1.281505e+002
<TRANSP> 5
 0.000000e+000 1.000000e+000 0.000000e+000 0.000000e+000 0.000000e+000
 0.000000e+000 7.869371e-001 2.130630e-001 0.000000e+000 0.000000e+000
 0.000000e+000 0.000000e+000 7.241197e-001 2.758804e-001 0.000000e+000
 0.000000e+000 0.000000e+000 0.000000e+000 8.646366e-001 1.353634e-001
 0.000000e+000 0.000000e+000 0.000000e+000 0.000000e+000 0.000000e+000
<ENDHMM>
~h "y"
<BEGINHMM>
<NUMSTATES> 5
<STATE> 2
<MEAN> 39
 -8.875258e+000 -1.401620e+001 2.974598e+000 -2.501764e+001 -9.835237e+000 -1.155552e+001 -4.949163e-001 -4.223971e+000 -1.444483e+001 8.297997e-001 -1.391134e+001 -1.556255e+000 7.716278e+001 -2.528349e-001 1.748458e+000 1.293188e+000 -7.814556e-001 -1.528855e+000 -3.823755e-001 -1.093102e+000 -3.711651e-001 4.009871e-001 1.472533e+000 1.074177e-001 -4.159193e-001 -4.830138e-001 7.056993e-002 2.000734e-002 2.759904e-002 2.141135e-001 2.771387e-001 -2.233474e-002 -4.406701e-001 -1.870049e-001 2.328846e-002 -1.056136e-001 1.110509e-001 1.605726e-001 -1.454818e-001
<VARIANCE> 39
 5.555418e+000 5.044841e+001 3.659091e+001 3.089051e+001 5.089867e+001 2.351564e+001 9.206577e+001 4.011524e+001 4.244763e+001 4.567457e+001 3.283542e+001 2.670476e+001 1.540803e+001 4.035164e-001 1.509779e+000 1.165908e+000 2.102746e+000 2.873988e+000 1.837591e+000 5.180778e+000 2.320064e+000 2.706802e+000 3.553037e+000 2.782908e+000 2.545594e+000 4.885649e-001 6.999619e-002 2.251672e-001 1.564670e-001 2.835114e-001 3.918715e-001 3.246531e-001 7.759325e-001 3.633921e-001 5.206784e-001 6.332577e-001 4.214048e-001 5.108698e-001 5.414955e-002
<GCONST> 1.086283e+002
<STATE> 3
<MEAN> 39
 -9.217465e+000 -8.675693e+000 6.920506e+000 -2.555968e+001 -1.246289e+001 -1.248567e+001 -6.144400e+000 -6.485827e+000 -1.362969e+001 3.759649e+000 -1.289213e+001 -1.692945e+000 7.447744e+001 -3.207169e-002 1.263003e+000 9.821487e-001 1.060811e-001 -3.558014e-001 -1.635137e-001 -1.534691e+000 -7.164128e-001 6.142225e-002 4.190832e-001 1.987715e-001 4.958507e-002 -8.435509e-001 8.030019e-002 -1.589866e-001 -1.399262e-001 2.791896e-001 3.190248e-001 6.710314e-002 5.779461e-003 -4.181692e-002 -9.914368e-002 -3.403601e-001 1.142672e-002 7.599111e-002 -1.004261e-001
<VARIANCE> 39
 7.364118e+000 4.019971e+001 3.487929e+001 3.948555e+001 3.925757e+001 2.488082e+001 9.248943e+001 3.787615e+001 4.281981e+001 4.248416e+001 4.153745e+001 3.117931e+001 2.780728e+001 5.637692e-001 1.477399e+000 1.359427e+000 2.489968e+000 3.073712e+000 2.143200e+000 4.131880e+000 2.189002e+000 2.404452e+000 4.010478e+000 2.628796e+000 2.453998e+000 6.309829e-001 9.193768e-002 1.787073e-001 1.574082e-001 2.844276e-001 4.272384e-001 3.533304e-001 7.059433e-001 4.041765e-001 4.493348e-001 5.971251e-001 4.483689e-001 4.739603e-001 8.265730e-002
<GCONST> 1.107156e+002
<STATE> 4
<MEAN> 39
 -8.425871e+000 -3.355355e+000 9.081118e+000 -2.035793e+001 -1.045270e+001 -1.027449e+001 -1.167987e+001 -9.134949e+000 -1.333733e+001 1.548689e+000 -1.092457e+001 -2.022414e+000 6.681763e+001 1.875302e-001 2.700460e-001 -1.497117e-001 8.681601e-001 4.712858e-001 7.767961e-002 -1.982422e-002 -2.200087e-001 2.221401e-001 -6.279145e-001 2.316187e-001 -4.220049e-003 -1.165746e+000 3.206210e-002 -8.441939e-002 -1.683045e-001 1.206321e-001 9.559437e-002 2.963338e-003 1.854551e-001 1.106283e-001 5.458049e-002 -1.380144e-001 6.438217e-002 -3.037556e-002 -2.999280e-002
<VARIANCE> 39
 1.282292e+001 3.558729e+001 3.308831e+001 7.874597e+001 4.332095e+001 4.255256e+001 6.538779e+001 2.729450e+001 5.503508e+001 4.456541e+001 5.822861e+001 4.380597e+001 8.322575e+001 8.136537e-001 1.769915e+000 1.952685e+000 2.425052e+000 2.475284e+000 2.123025e+000 4.454200e+000 2.204042e+000 2.755045e+000 3.283169e+000 2.257728e+000 2.282140e+000 1.090191e+000 1.370351e-001 2.497380e-001 1.991272e-001 3.590871e-001 4.804992e-001 3.879257e-001 5.426410e-001 3.792905e-001 4.505054e-001 5.733307e-001 4.180928e-001 4.304242e-001 1.592908e-001
<GCONST> 1.163548e+002
<TRANSP> 5
 0.000000e+000 1.000000e+000 0.000000e+000 0.000000e+000 0.000000e+000
 0.000000e+000 7.280665e-001 2.719335e-001 0.000000e+000 0.000000e+000
 0.000000e+000 0.000000e+000 7.055776e-001 2.944224e-001 0.000000e+000
 0.000000e+000 0.000000e+000 0.000000e+000 8.786365e-001 1.213635e-001
 0.000000e+000 0.000000e+000 0.000000e+000 0.000000e+000 0.000000e+000
<ENDHMM>
~h "aa"
<BEGINHMM>
<NUMSTATES> 5
<STATE> 2
<MEAN> 39
 -6.419518e+000 -1.442347e+001 -6.639923e+000 -1.996248e+001 1.060070e+000 -1.593634e+001 -8.944166e+000 2.225325e-001 -9.209555e+000 -7.733993e+000 -1.122606e+001 5.603441e+000 7.238613e+001 6.393848e-001 -8.779746e-001 7.095298e-002 -9.203924e-001 4.065540e-001 -8.433357e-001 -1.566515e-001 8.751465e-002 -4.976204e-001 -5.463552e-002 -7.897115e-001 7.993088e-001 5.758888e-001 -4.303755e-002 3.431193e-001 1.109095e-001 2.817523e-001 -2.114368e-001 1.309799e-001 2.421601e-002 -1.392994e-001 7.816140e-002 -2.471552e-003 7.647262e-002 -1.684865e-001 -3.082068e-001
<VARIANCE> 39
 2.762641e+001 7.126105e+001 2.420155e+001 8.013669e+001 6.380378e+001 5.499356e+001 5.508383e+001 8.414787e+001 3.708831e+001 4.464968e+001 4.919555e+001 4.782929e+001 5.585044e+001 2.277859e+000 6.715079e+000 2.185951e+000 9.009817e+000 4.640025e+000 4.662744e+000 5.434925e+000 9.274428e+000 3.288370e+000 4.320814e+000 5.783543e+000 4.115253e+000 5.523802e+000 5.072002e-001 9.050608e-001 3.648438e-001 1.364020e+000 7.853581e-001 9.136233e-001 1.116703e+000 1.726635e+000 6.755151e-001 7.158765e-001 1.164859e+000 7.344905e-001 6.294441e-001
<GCONST> 1.403730e+002
<STATE> 3
<MEAN> 39
 -4.428310e+000 -1.506792e+001 -5.810076e+000 -2.095507e+001 1.065652e+000 -1.787782e+001 -1.003295e+001 -5.121395e-002 -1.031408e+001 -8.290353e+000 -1.279940e+001 7.313709e+000 7.188110e+001 3.398889e-001 4.252573e-001 2.673487e-001 1.950033e-001 -3.481248e-001 -4.872379e-001 -3.572162e-001 -5.915132e-001 -3.613479e-001 -2.121918e-001 -2.533223e-001 3.683317e-001 -4.996604e-001 -5.655259e-002 3.447987e-001 4.811219e-002 2.068608e-001 -2.484585e-001 8.705989e-002 -5.153490e-002 -1.346591e-001 6.646180e-002 -8.662996e-003 1.685269e-001 -1.387651e-001 -2.598309e-001
<VARIANCE> 39
 1.168679e+001 5.011654e+001 3.535664e+001 4.972591e+001 5.884277e+001 5.843540e+001 5.932186e+001 6.664912e+001 3.283095e+001 4.477941e+001 3.506274e+001 4.942249e+001 5.659000e+001 1.148477e+000 6.218933e+000 1.822581e+000 5.862319e+000 3.842641e+000 3.470205e+000 4.631998e+000 8.153338e+000 2.868529e+000 3.486328e+000 3.805086e+000 3.058162e+000 5.756804e+000 1.965322e-001 7.215739e-001 3.125962e-001 1.033974e+000 6.006753e-001 6.400308e-001 8.143747e-001 1.502788e+000 6.366277e-001 6.372147e-001 7.284819e-001 5.795671e-001 5.688616e-001
<GCONST> 1.316323e+002
<STATE> 4
<MEAN> 39
 -3.470302e+000 -1.173917e+001 -5.111008e+000 -1.992660e+001 -9.516894e-001 -1.942501e+001 -1.177437e+001 -2.703663e+000 -1.103734e+001 -8.946272e+000 -1.251367e+001 8.689666e+000 6.873351e+001 1.722010e-001 9.000084e-001 3.073197e-001 2.730601e-001 -7.365738e-001 -2.736104e-001 -4.996611e-001 -6.148785e-001 -1.702392e-001 -9.458034e-002 1.029786e-001 -1.106621e-001 -7.222510e-001 -1.764056e-002 8.735118e-002 3.637577e-002 2.692623e-002 -6.484981e-002 7.179414e-002 -3.892496e-002 1.585782e-002 7.446446e-002 3.986444e-002 9.609148e-002 -1.830738e-001 -5.042818e-002
<VARIANCE> 39
 9.441024e+000 5.188714e+001 4.645566e+001 5.739161e+001 6.040361e+001 7.787753e+001 6.276992e+001 5.146881e+001 2.829930e+001 5.475018e+001 3.462864e+001 5.881890e+001 6.651535e+001 6.035555e-001 3.016953e+000 1.367187e+000 3.534144e+000 2.711866e+000 2.872027e+000 3.007878e+000 4.772512e+000 2.721708e+000 2.996823e+000 2.542614e+000 2.800383e+000 2.872067e+000 9.330621e-002 5.371134e-001 2.476215e-001 6.921009e-001 4.559698e-001 4.827256e-001 5.318885e-001 1.013394e+000 5.478314e-001 5.437245e-001 5.582171e-001 4.710949e-001 4.023034e-001
<GCONST> 1.231204e+002
<TRANSP> 5
 0.000000e+000 1.000000e+000 0.000000e+000 0.000000e+000 0.000000e+000
 0.000000e+000 6.590741e-001 3.409259e-001 0.000000e+000 0.000000e+000
 0.000000e+000 0.000000e+000 6.227250e-001 3.772749e-001 0.000000e+000
 0.000000e+000 0.000000e+000 0.000000e+000 7.485702e-001 2.514298e-001
 0.000000e+000 0.000000e+000 0.000000e+000 0.000000e+000 0.000000e+000
<ENDHMM>
~h "af"
<BEGINHMM>
<NUMSTATES> 5
<STATE> 2
<MEAN> 39
 -4.850997e+000 -2.418889e+001 -4.259284e+000 -1.753327e+001 5.652101e+000 -9.178309e+000 -4.241641e+000 -7.603907e+000 -1.272277e+001 -6.581047e+000 -1.412169e+001 6.340922e-001 7.746558e+001 -2.206086e-001 -1.448164e+000 -3.784177e-002 1.723991e-001 8.690522e-001 4.832141e-001 6.406719e-001 -3.548715e-001 -4.073562e-001 2.450366e-001 7.307383e-002 3.176838e-001 8.602915e-001 4.061113e-002 4.520950e-001 1.570200e-001 1.358265e-001 -2.340140e-001 -1.260782e-001 -1.591525e-001 2.474982e-002 1.423106e-001 -3.188027e-002 8.491581e-002 -9.472338e-002 -3.167571e-001
<VARIANCE> 39
 1.194497e+001 4.466578e+001 1.973576e+001 3.196302e+001 5.098053e+001 3.097907e+001 3.280396e+001 3.319555e+001 3.730243e+001 3.006459e+001 3.264840e+001 3.352848e+001 2.046492e+001 8.437553e-001 4.548560e+000 1.319884e+000 3.580414e+000 3.433001e+000 2.784706e+000 3.221359e+000 3.278145e+000 2.964846e+000 2.622341e+000 2.697142e+000 3.196877e+000 2.315976e+000 1.344515e-001 4.096326e-001 2.203629e-001 7.453071e-001 5.126057e-001 4.651571e-001 5.844704e-001 6.126193e-001 5.377217e-001 4.866138e-001 5.373980e-001 4.461923e-001 2.185436e-001
<GCONST> 1.169028e+002
<STATE> 3
<MEAN> 39
 -4.897880e+000 -2.567547e+001 -3.861230e+000 -1.696996e+001 6.660721e+000 -8.537154e+000 -3.149069e+000 -8.322809e+000 -1.273805e+001 -6.391899e+000 -1.399362e+001 8.567371e-001 7.814918e+001 2.521793e-002 -3.001678e-002 2.117961e-001 -1.491845e-001 -9.878089e-002 5.233665e-002 3.388200e-001 -4.868660e-002 -3.229742e-003 1.052201e-001 -1.270569e-001 -1.028756e-001 3.981821e-002 7.130322e-002 4.197873e-001 7.730708e-002 -8.847745e-002 -2.838103e-001 -1.371920e-001 -1.296061e-001 1.034090e-001 1.002406e-001 -3.020340e-002 -5.533452e-002 -1.084428e-001 -2.403926e-001
<VARIANCE> 39
 9.780607e+000 3.134321e+001 1.646574e+001 2.774947e+001 3.780611e+001 2.604782e+001 3.463761e+001 2.990714e+001 3.099833e+001 2.467194e+001 2.823722e+001 2.888559e+001 1.755510e+001 5.928357e-001 3.174610e+000 9.036611e-001 2.525598e+000 2.849607e+000 1.928841e+000 2.525028e+000 2.379817e+000 2.210457e+000 2.033659e+000 2.175751e+000 2.213310e+000 1.331363e+000 8.394544e-002 3.045983e-001 1.693025e-001 4.827133e-001 3.736840e-001 3.326765e-001 4.891566e-001 4.535568e-001 4.000503e-001 3.626106e-001 3.981268e-001 3.332565e-001 1.330518e-001
<GCONST> 1.061587e+002
<STATE> 4
<MEAN> 39
 -3.987328e+000 -2.236946e+001 -2.877107e+000 -1.778475e+001 4.687947e+000 -9.187565e+000 -2.870804e+000 -7.348820e+000 -1.166029e+001 -6.917407e+000 -1.511361e+001 -3.755822e-001 7.578620e+001 2.353285e-001 1.272231e+000 3.414549e-001 -2.629009e-001 -8.024296e-001 -2.917947e-001 -2.232270e-001 2.385656e-001 2.189065e-001 5.466849e-003 -1.679460e-001 -4.007843e-001 -8.193670e-001 1.674896e-002 2.510296e-001 4.923110e-002 1.129215e-001 -7.484431e-002 -5.525796e-002 -2.098309e-001 5.074056e-003 1.805918e-002 -1.869005e-003 9.641443e-002 -2.351064e-002 -1.745661e-001
<VARIANCE> 39
 1.372745e+001 5.374350e+001 2.129967e+001 5.734447e+001 4.673005e+001 3.380431e+001 5.179128e+001 3.816428e+001 3.586073e+001 3.341579e+001 3.450346e+001 3.944798e+001 4.649935e+001 7.422574e-001 3.061927e+000 1.404988e+000 3.841203e+000 2.916658e+000 2.715069e+000 3.677456e+000 2.872833e+000 2.546009e+000 2.937265e+000 2.472028e+000 2.520989e+000 1.881018e+000 1.160478e-001 3.787492e-001 2.044275e-001 6.712342e-001 4.916380e-001 4.519167e-001 6.069711e-001 5.636128e-001 4.904262e-001 4.968792e-001 4.678086e-001 4.185347e-001 2.011346e-001
<GCONST> 1.175598e+002
<TRANSP> 5
 0.000000e+000 1.000000e+000 0.000000e+000 0.000000e+000 0.000000e+000
 0.000000e+000 7.352654e-001 2.647346e-001 0.000000e+000 0.000000e+000
 0.000000e+000 0.000000e+000 7.182199e-001 2.817801e-001 0.000000e+000
 0.000000e+000 0.000000e+000 0.000000e+000 8.339108e-001 1.660891e-001
 0.000000e+000 0.000000e+000 0.000000e+000 0.000000e+000 0.000000e+000
<ENDHMM>
~h "aj"
<BEGINHMM>
<NUMSTATES> 5
<STATE> 2
<MEAN> 39
 -5.682162e+000 -2.472203e+001 -4.210105e+000 -1.422911e+001 7.826807e+000 -8.292436e+000 -1.989885e+000 -6.951642e+000 -1.036678e+001 -4.633292e+000 -1.167297e+001 9.137351e-001 7.615957e+001 -2.308659e-001 -6.235595e-001 1.079939e-001 2.354987e-001 2.720216e-001 1.565514e-001 7.712793e-001 -1.526463e-001 1.215505e-001 2.303664e-001 1.065756e-001 4.493986e-003 3.072647e-001 4.410147e-003 3.834854e-001 4.241178e-002 -9.202625e-003 -2.742280e-001 -3.582420e-002 -3.607766e-002 5.491573e-002 1.759108e-001 -3.900032e-002 8.336350e-002 -3.241607e-002 -3.162681e-001
<VARIANCE> 39
 1.424208e+001 7.511734e+001 1.668997e+001 4.056923e+001 5.566926e+001 3.011863e+001 6.321702e+001 3.519915e+001 3.989513e+001 2.750143e+001 2.752489e+001 4.205022e+001 6.329954e+001 1.034462e+000 7.040209e+000 1.692402e+000 4.370472e+000 4.612256e+000 1.849844e+000 4.612323e+000 3.349411e+000 3.130222e+000 2.754848e+000 2.501909e+000 3.591976e+000 5.030269e+000 2.248458e-001 7.863904e-001 3.192512e-001 9.265453e-001 5.619314e-001 4.107688e-001 9.511952e-001 6.564346e-001 5.303922e-001 4.740615e-001 4.722650e-001 6.225361e-001 4.134505e-001
<GCONST> 1.249627e+002
<STATE> 3
<MEAN> 39
