~o
<STREAMINFO> 1 39
<VECSIZE> 39<NULLD><MFCC_D_A_0><DIAGC>
~h "a"
<BEGINHMM>
<NUMSTATES> 5
<STATE> 2
<MEAN> 39
 -6.784649e+000 -1.082107e+001 -3.176211e+000 -1.415561e+001 -6.598079e-002 -9.240214e+000 -7.072161e+000 -6.496884e+000 -6.092460e+000 -5.933619e+000 -7.399576e+000 -1.008533e+000 6.365578e+001 -3.883333e-003 3.702882e-002 -9.145534e-004 -3.372659e-003 -1.644580e-002 1.270845e-002 1.971947e-002 9.943406e-003 2.312869e-002 2.277563e-002 3.352161e-003 -4.816155e-003 -4.696608e-002 6.789619e-004 1.294847e-004 1.035430e-003 -3.287277e-003 -1.963024e-003 -1.189596e-003 -2.319672e-003 -6.009208e-004 -2.769351e-003 -2.584197e-004 -1.769532e-003 3.655271e-004 4.473452e-003
<VARIANCE> 39
 3.471772e+001 1.103448e+002 4.371280e+001 1.011985e+002 7.005274e+001 6.584684e+001 7.964371e+001 5.009449e+001 6.613436e+001 5.271398e+001 5.193961e+001 4.324177e+001 1.655547e+002 1.822795e+000 3.492811e+000 1.849728e+000 4.562284e+000 3.379474e+000 3.083452e+000 4.068326e+000 3.624277e+000 3.480470e+000 3.402975e+000 3.123618e+000 2.749304e+000 3.155428e+000 2.770650e-001 4.298442e-001 2.980297e-001 7.064303e-001 5.678931e-001 5.481641e-001 6.838745e-001 6.562563e-001 6.413885e-001 5.925612e-001 5.776758e-001 5.070103e-001 3.595261e-001
<GCONST> 1.319510e+002
<STATE> 3
<MEAN> 39
 -6.792349e+000 -1.068615e+001 -3.174902e+000 -1.419203e+001 -1.369795e-001 -9.204768e+000 -7.013554e+000 -6.465160e+000 -6.023437e+000 -5.850212e+000 -7.399678e+000 -1.017639e+000 6.351412e+001 -6.692300e-004 3.637147e-002 2.379441e-003 -1.516294e-002 -2.290338e-002 8.024894e-003 1.027652e-002 7.967731e-003 1.265151e-002 2.177326e-002 -2.842188e-003 -3.310980e-003 -2.956806e-002 1.034257e-003 -2.748175e-004 1.029347e-003 -2.542928e-003 -1.273606e-003 -1.374476e-003 -2.438351e-003 -5.840369e-004 -2.611747e-003 -7.933156e-004 -1.735223e-003 4.041181e-004 4.343065e-003
<VARIANCE> 39
 3.539138e+001 1.106418e+002 4.388449e+001 1.010064e+002 7.019329e+001 6.602987e+001 7.892042e+001 5.001381e+001 6.679456e+001 5.187302e+001 5.192725e+001 4.319930e+001 1.669411e+002 1.845912e+000 3.507628e+000 1.838752e+000 4.567342e+000 3.362929e+000 3.073824e+000 4.052582e+000 3.615009e+000 3.477343e+000 3.365162e+000 3.115730e+000 2.744468e+000 3.207304e+000 2.803420e-001 4.345481e-001 2.960525e-001 7.078055e-001 5.667803e-001 5.460361e-001 6.825827e-001 6.553234e-001 6.415424e-001 5.882287e-001 5.750347e-001 5.064869e-001 3.666626e-001
<GCONST> 1.319831e+002
<STATE> 4
<MEAN> 39
 -6.764417e+000 -1.061052e+001 -3.161127e+000 -1.425978e+001 -2.623511e-001 -9.159451e+000 -6.997140e+000 -6.470704e+000 -6.080307e+000 -5.747236e+000 -7.485520e+000 -9.893385e-001 6.347958e+001 4.788449e-003 3.681938e-002 6.395192e-003 -2.601542e-002 -3.011740e-002 1.378198e-003 -2.216674e-003 8.022480e-003 3.200192e-003 2.038691e-002 -7.438058e-003 2.627163e-004 -1.403233e-002 1.087465e-003 -1.260064e-004 8.720509e-004 -8.694545e-004 -6.359774e-004 -8.733015e-004 -1.749807e-003 4.436702e-005 -1.596534e-003 -1.129988e-003 -8.992167e-004 5.873845e-004 2.445219e-003
<VARIANCE> 39
 3.554630e+001 1.117675e+002 4.360815e+001 1.004455e+002 7.081709e+001 6.679323e+001 7.831409e+001 5.014177e+001 6.790304e+001 5.070809e+001 5.191679e+001 4.324614e+001 1.685286e+002 1.825639e+000 3.510024e+000 1.811582e+000 4.527599e+000 3.315083e+000 3.063489e+000 4.011418e+000 3.609483e+000 3.461172e+000 3.320193e+000 3.088950e+000 2.724342e+000 3.268687e+000 2.764439e-001 4.377295e-001 2.902288e-001 7.017783e-001 5.621765e-001 5.407956e-001 6.774108e-001 6.532096e-001 6.399965e-001 5.816534e-001 5.670069e-001 5.013937e-001 3.754106e-001
<GCONST> 1.318484e+002
<TRANSP> 5
 0.000000e+000 1.000000e+000 0.000000e+000 0.000000e+000 0.000000e+000
 0.000000e+000 7.300923e-001 2.699077e-001 0.000000e+000 0.000000e+000
 0.000000e+000 0.000000e+000 7.300925e-001 2.699075e-001 0.000000e+000
 0.000000e+000 0.000000e+000 0.000000e+000 8.533698e-001 1.466302e-001
 0.000000e+000 0.000000e+000 0.000000e+000 0.000000e+000 0.000000e+000
<ENDHMM>
~h "b"
<BEGINHMM>
<NUMSTATES> 5
<STATE> 2
<MEAN> 39
 -5.104916e+000 -8.811053e+000 -2.095144e+000 -1.492519e+001 -1.954293e+000 -7.958601e+000 -8.469624e+000 -5.555835e+000 -6.947401e+000 -4.787366e+000 -8.618274e+000 -2.002619e+000 6.248558e+001 2.502662e-002 7.307146e-002 7.880811e-003 1.531153e-002 -2.701279e-002 2.536075e-002 -1.987176e-003 -1.314319e-003 2.655787e-002 -1.235809e-002 2.303611e-002 -2.393803e-002 -6.064433e-002 -5.343847e-005 -8.735914e-004 -1.828432e-003 1.849001e-004 1.244713e-003 2.423672e-003 1.275202e-003 -7.577266e-004 1.416911e-003 3.758612e-004 1.924632e-003 9.791231e-004 -1.426202e-004
<VARIANCE> 39
 3.233033e+001 9.443562e+001 5.386054e+001 1.125653e+002 7.279593e+001 6.383685e+001 9.209108e+001 5.120528e+001 7.039114e+001 5.626638e+001 6.279499e+001 5.032945e+001 1.707742e+002 1.413663e+000 3.292069e+000 2.059250e+000 4.564073e+000 3.414842e+000 2.838536e+000 3.899910e+000 3.578219e+000 3.313833e+000 3.533997e+000 3.327575e+000 3.151577e+000 3.919349e+000 2.195831e-001 4.368755e-001 3.154321e-001 6.805967e-001 5.828037e-001 4.833457e-001 6.619671e-001 6.430671e-001 6.118871e-001 6.063219e-001 6.008180e-001 5.620333e-001 4.608964e-001
<GCONST> 1.328033e+002
<STATE> 3
<MEAN> 39
 -5.006258e+000 -8.558928e+000 -2.073921e+000 -1.487824e+001 -2.042913e+000 -7.853200e+000 -8.469741e+000 -5.572477e+000 -6.848314e+000 -4.839692e+000 -8.533605e+000 -2.084179e+000 6.228512e+001 2.411412e-002 6.684351e-002 2.962532e-004 1.352507e-002 -2.108076e-002 3.014651e-002 4.135870e-003 -1.158380e-003 3.057127e-002 -1.298577e-002 2.302338e-002 -1.956904e-002 -5.654164e-002 -5.376048e-004 -2.363394e-003 -2.031015e-003 -9.439415e-004 1.668215e-003 6.911529e-004 1.594385e-003 2.426251e-004 6.887881e-004 1.450017e-004 -4.382099e-004 1.486595e-003 2.296834e-003
<VARIANCE> 39
 3.261832e+001 9.227312e+001 5.409773e+001 1.148441e+002 7.270169e+001 6.423458e+001 9.213815e+001 5.089177e+001 6.928897e+001 5.648204e+001 6.333014e+001 4.992492e+001 1.699586e+002 1.426384e+000 3.327691e+000 2.067108e+000 4.630465e+000 3.428230e+000 2.841399e+000 3.927891e+000 3.597936e+000 3.277551e+000 3.550972e+000 3.352516e+000 3.167413e+000 3.950042e+000 2.202569e-001 4.442724e-001 3.177067e-001 6.903092e-001 5.868055e-001 4.824577e-001 6.646200e-001 6.488987e-001 6.050074e-001 6.109044e-001 6.035898e-001 5.662106e-001 4.630576e-001
<GCONST> 1.329381e+002
<STATE> 4
<MEAN> 39
 -4.873619e+000 -8.388433e+000 -2.092889e+000 -1.485787e+001 -2.051648e+000 -7.761397e+000 -8.427076e+000 -5.658317e+000 -6.718740e+000 -4.948204e+000 -8.496907e+000 -2.150772e+000 6.225145e+001 1.831346e-002 4.828596e-002 -8.241992e-003 3.012946e-003 -1.166254e-002 2.142338e-002 1.089864e-002 1.445292e-003 2.670749e-002 -1.368112e-002 1.711233e-002 -6.050143e-003 -3.223367e-002 -1.702170e-003 -3.352875e-003 -1.424458e-003 -1.655711e-003 1.626539e-003 -1.941534e-003 1.243367e-003 9.713885e-004 -6.619759e-004 4.588477e-004 -8.366716e-004 2.513544e-003 4.255908e-003
<VARIANCE> 39
 3.306131e+001 9.231559e+001 5.379747e+001 1.173531e+002 7.307402e+001 6.491362e+001 9.272939e+001 5.053428e+001 6.715809e+001 5.624749e+001 6.319818e+001 4.936137e+001 1.693804e+002 1.453600e+000 3.467083e+000 2.074726e+000 4.760481e+000 3.435463e+000 2.858178e+000 3.979747e+000 3.637706e+000 3.254428e+000 3.587352e+000 3.389380e+000 3.195137e+000 4.035666e+000 2.225190e-001 4.648372e-001 3.208170e-001 7.125801e-001 5.890338e-001 4.832195e-001 6.712197e-001 6.594278e-001 6.023552e-001 6.217936e-001 6.085531e-001 5.737723e-001 4.698837e-001
<GCONST> 1.332762e+002
<TRANSP> 5
 0.000000e+000 1.000000e+000 0.000000e+000 0.000000e+000 0.000000e+000
 0.000000e+000 7.287055e-001 2.712945e-001 0.000000e+000 0.000000e+000
 0.000000e+000 0.000000e+000 7.287053e-001 2.712947e-001 0.000000e+000
 0.000000e+000 0.000000e+000 0.000000e+000 8.506220e-001 1.493780e-001
 0.000000e+000 0.000000e+000 0.000000e+000 0.000000e+000 0.000000e+000
<ENDHMM>
~h "c"
<BEGINHMM>
<NUMSTATES> 5
<STATE> 2
<MEAN> 39
 -5.574809e+000 -7.822220e+000 -3.634327e+000 -1.534995e+001 -1.418425e+000 -7.056647e+000 -7.798831e+000 -4.264177e+000 -5.453986e+000 -3.995689e+000 -7.260055e+000 -2.244593e+000 6.208369e+001 6.576100e-004 -1.711786e-002 -1.810360e-002 -1.637498e-002 1.851612e-002 -3.859123e-003 -5.681767e-004 -2.402795e-003 -1.077998e-003 2.096314e-003 -1.696252e-003 2.979331e-003 2.419644e-002 -1.059896e-003 2.984572e-004 1.158843e-003 1.879443e-003 8.185315e-004 -1.399860e-005 1.778468e-003 -2.265966e-004 1.134544e-003 -2.581408e-004 7.746444e-004 1.090482e-003 -1.895161e-003
<VARIANCE> 39
 3.445561e+001 8.458078e+001 4.529307e+001 1.297458e+002 7.160988e+001 6.449662e+001 1.027798e+002 4.837217e+001 6.831478e+001 5.801290e+001 6.358590e+001 5.424999e+001 1.650556e+002 1.716914e+000 3.106933e+000 2.094949e+000 6.007440e+000 3.892270e+000 3.511654e+000 4.513712e+000 3.802635e+000 3.887660e+000 4.031710e+000 4.016508e+000 3.155921e+000 4.587084e+000 2.817649e-001 4.477767e-001 3.462787e-001 9.029425e-001 6.898111e-001 6.362933e-001 7.775111e-001 7.147785e-001 7.036368e-001 7.361614e-001 7.487776e-001 5.845757e-001 5.228211e-001
<GCONST> 1.365231e+002
<STATE> 3
<MEAN> 39
 -5.581256e+000 -7.881357e+000 -3.691035e+000 -1.539593e+001 -1.346136e+000 -7.065978e+000 -7.781390e+000 -4.276226e+000 -5.450829e+000 -3.988267e+000 -7.256438e+000 -2.224137e+000 6.215921e+001 -2.887676e-003 -1.410731e-002 -1.375736e-002 -9.117359e-003 1.994819e-002 -3.887593e-003 6.156777e-003 -4.505993e-003 1.797989e-003 5.409484e-004 1.012672e-003 8.296297e-003 1.676390e-002 -8.794426e-004 8.667997e-004 1.164300e-003 1.992853e-003 2.151504e-004 7.165016e-006 1.772742e-003 -7.284126e-004 4.116366e-004 -6.486431e-004 5.343007e-004 1.481828e-003 -2.040457e-003
<VARIANCE> 39
 3.473439e+001 8.466387e+001 4.553893e+001 1.304453e+002 7.200555e+001 6.470809e+001 1.019967e+002 4.853014e+001 6.822561e+001 5.772245e+001 6.359632e+001 5.422713e+001 1.643734e+002 1.730688e+000 3.112691e+000 2.091613e+000 6.018423e+000 3.891306e+000 3.515530e+000 4.518692e+000 3.802089e+000 3.886675e+000 4.012667e+000 4.019906e+000 3.152841e+000 4.562263e+000 2.835532e-001 4.472582e-001 3.453366e-001 9.076750e-001 6.879903e-001 6.371296e-001 7.788110e-001 7.157289e-001 7.014971e-001 7.337075e-001 7.475696e-001 5.838019e-001 5.211253e-001
<GCONST> 1.365348e+002
<STATE> 4
<MEAN> 39
 -5.609548e+000 -7.900263e+000 -3.736840e+000 -1.545536e+001 -1.265019e+000 -7.073664e+000 -7.705452e+000 -4.321621e+000 -5.434420e+000 -3.972786e+000 -7.251523e+000 -2.183106e+000 6.225726e+001 -5.412385e-003 -9.581660e-003 -6.204362e-003 -4.238115e-003 1.608722e-002 -8.343169e-003 1.233136e-002 -1.029810e-002 -4.208914e-003 -4.063662e-003 -1.499437e-003 1.248651e-002 1.639381e-002 -3.675586e-004 7.511770e-004 1.352659e-003 9.662839e-004 -9.195314e-004 -1.074889e-003 7.589764e-004 -1.001531e-003 -1.366416e-003 -1.182775e-003 -8.592462e-004 6.954274e-004 -2.765715e-004
<VARIANCE> 39
 3.555204e+001 8.494860e+001 4.625769e+001 1.309575e+002 7.239571e+001 6.525694e+001 1.006002e+002 4.862991e+001 6.816577e+001 5.750531e+001 6.360474e+001 5.403978e+001 1.636826e+002 1.761009e+000 3.126418e+000 2.085186e+000 6.022574e+000 3.890309e+000 3.538759e+000 4.525256e+000 3.807117e+000 3.882656e+000 3.986353e+000 4.008928e+000 3.152171e+000 4.539050e+000 2.870921e-001 4.461484e-001 3.439975e-001 9.112630e-001 6.865717e-001 6.411353e-001 7.805738e-001 7.190129e-001 6.968868e-001 7.295458e-001 7.430338e-001 5.827600e-001 5.199257e-001
<GCONST> 1.365823e+002
<TRANSP> 5
 0.000000e+000 1.000000e+000 0.000000e+000 0.000000e+000 0.000000e+000
 0.000000e+000 7.236357e-001 2.763643e-001 0.000000e+000 0.000000e+000
 0.000000e+000 0.000000e+000 7.236346e-001 2.763654e-001 0.000000e+000
 0.000000e+000 0.000000e+000 0.000000e+000 8.447794e-001 1.552206e-001
 0.000000e+000 0.000000e+000 0.000000e+000 0.000000e+000 0.000000e+000
<ENDHMM>
~h "d"
<BEGINHMM>
<NUMSTATES> 5
<STATE> 2
<MEAN> 39
 -7.273431e+000 -5.863515e+000 -2.550279e+000 -1.419692e+001 -3.288934e+000 -1.112885e+001 -8.329795e+000 -4.908888e+000 -7.281609e+000 -5.668472e+000 -8.949184e+000 -1.005800e+000 6.444775e+001 2.452382e-004 -2.972969e-002 -1.020478e-003 1.356637e-003 -4.169104e-003 -1.997849e-002 8.833474e-003 -6.563696e-003 -9.312402e-003 -6.908914e-003 -3.424968e-002 -2.210748e-003 -3.683216e-002 4.839022e-005 -2.759339e-003 -1.472688e-003 3.486275e-004 3.074181e-003 4.898672e-003 2.047077e-003 -2.351187e-003 -7.583112e-004 -4.060104e-005 1.747382e-003 -3.611278e-003 3.167848e-004
<VARIANCE> 39
 3.959436e+001 1.019262e+002 5.210505e+001 1.190703e+002 7.607225e+001 6.989032e+001 1.061668e+002 6.144321e+001 7.068749e+001 5.641595e+001 5.896606e+001 5.469623e+001 1.411710e+002 2.217000e+000 3.792484e+000 1.919477e+000 5.748405e+000 3.550752e+000 3.918879e+000 4.501970e+000 3.981462e+000 3.340582e+000 3.988630e+000 3.428589e+000 3.058222e+000 2.974633e+000 3.355289e-001 4.601199e-001 2.999665e-001 7.831716e-001 5.692865e-001 6.936759e-001 7.782656e-001 7.054024e-001 6.175195e-001 6.995555e-001 6.202140e-001 5.568091e-001 3.277049e-001
<GCONST> 1.356098e+002
<STATE> 3
<MEAN> 39
 -7.258178e+000 -6.007301e+000 -2.570701e+000 -1.419336e+001 -3.275440e+000 -1.116758e+001 -8.276677e+000 -4.946782e+000 -7.320068e+000 -5.713317e+000 -9.063999e+000 -1.026975e+000 6.432435e+001 2.817775e-003 -4.034241e-002 -7.580989e-003 1.617621e-003 5.290828e-003 -1.867393e-003 1.918527e-002 -1.220435e-002 -6.800613e-003 -7.578838e-003 -2.393213e-002 -1.109953e-002 -3.399959e-002 4.375347e-004 -2.812445e-003 -1.446693e-003 -4.270227e-004 2.525241e-003 4.852361e-003 2.490437e-003 -1.667461e-003 4.495117e-004 4.813579e-004 2.587212e-003 -2.497063e-003 1.978163e-003
<VARIANCE> 39
 3.960618e+001 1.018721e+002 5.126793e+001 1.177012e+002 7.563798e+001 7.056468e+001 1.053600e+002 6.148558e+001 6.962579e+001 5.624720e+001 5.813572e+001 5.497449e+001 1.413655e+002 2.196146e+000 3.826554e+000 1.915382e+000 5.725464e+000 3.543929e+000 3.898088e+000 4.554283e+000 4.017008e+000 3.335016e+000 3.962815e+000 3.418965e+000 3.063326e+000 2.991846e+000 3.313388e-001 4.623640e-001 3.004816e-001 7.855834e-001 5.655696e-001 6.879594e-001 7.910881e-001 7.136997e-001 6.172549e-001 6.946917e-001 6.194394e-001 5.567861e-001 3.274004e-001
<GCONST> 1.355565e+002
<STATE> 4
<MEAN> 39
 -7.215473e+000 -6.381696e+000 -2.560176e+000 -1.423803e+001 -3.222714e+000 -1.083448e+001 -8.202580e+000 -5.277006e+000 -7.480601e+000 -5.727167e+000 -9.196927e+000 -1.259085e+000 6.444869e+001 1.352789e-002 -6.102337e-002 -1.617189e-002 -1.220362e-003 2.432263e-002 2.516035e-002 3.621987e-002 -8.296382e-003 5.820943e-003 -4.027020e-003 -2.919930e-003 -8.325526e-003 -2.697151e-002 7.077248e-004 -2.739261e-003 -3.712461e-004 -1.323697e-003 2.551921e-003 4.072544e-003 1.707110e-003 -1.549067e-004 1.216271e-003 2.066986e-003 2.594960e-003 -8.504995e-004 2.533542e-003
<VARIANCE> 39
 3.932642e+001 1.075583e+002 5.102092e+001 1.155626e+002 7.650745e+001 7.110851e+001 1.029119e+002 6.170982e+001 6.812482e+001 5.438499e+001 5.704430e+001 5.618359e+001 1.407058e+002 2.085402e+000 3.833836e+000 1.872144e+000 5.562678e+000 3.531819e+000 3.781532e+000 4.565506e+000 4.022645e+000 3.366255e+000 3.801675e+000 3.410923e+000 3.000556e+000 2.951821e+000 3.129351e-001 4.539205e-001 2.922440e-001 7.685433e-001 5.607223e-001 6.647255e-001 7.939147e-001 7.182901e-001 6.274919e-001 6.675852e-001 6.199479e-001 5.428930e-001 3.179355e-001
<GCONST> 1.350869e+002
<TRANSP> 5
 0.000000e+000 1.000000e+000 0.000000e+000 0.000000e+000 0.000000e+000
 0.000000e+000 7.320764e-001 2.679236e-001 0.000000e+000 0.000000e+000
 0.000000e+000 0.000000e+000 7.320769e-001 2.679231e-001 0.000000e+000
 0.000000e+000 0.000000e+000 0.000000e+000 8.571538e-001 1.428462e-001
 0.000000e+000 0.000000e+000 0.000000e+000 0.000000e+000 0.000000e+000
<ENDHMM>
~h "e"
<BEGINHMM>
<NUMSTATES> 5
<STATE> 2
<MEAN> 39
 -7.926006e+000 -7.503814e+000 -2.558654e+000 -1.463088e+001 -4.308822e+000 -9.808353e+000 -3.999175e+000 -5.118718e+000 -7.235151e+000 -5.255551e+000 -7.790964e+000 -2.110959e-001 6.471310e+001 1.680018e-002 -1.149249e-001 -7.857960e-002 -4.398789e-002 3.958010e-002 2.770990e-002 4.531399e-002 -2.090241e-002 -4.067966e-002 -5.706205e-002 2.065273e-002 7.227413e-002 1.385621e-001 3.334744e-003 -2.710458e-003 2.334663e-003 -5.811304e-003 8.443712e-004 -6.528689e-004 -3.775669e-004 -3.177306e-003 -6.657357e-003 5.004723e-005 -1.808833e-004 7.958625e-004 4.210087e-003
<VARIANCE> 39
 3.535513e+001 7.834900e+001 4.786105e+001 1.118452e+002 6.365191e+001 6.823866e+001 9.957553e+001 4.781349e+001 8.137180e+001 5.855460e+001 6.787138e+001 6.009445e+001 1.473957e+002 2.214676e+000 3.283836e+000 1.954664e+000 4.934052e+000 4.070713e+000 4.462802e+000 4.553535e+000 3.568300e+000 4.536572e+000 4.171048e+000 3.905175e+000 3.633223e+000 3.077305e+000 3.735728e-001 4.179286e-001 3.072690e-001 7.473675e-001 7.332790e-001 7.513335e-001 7.354792e-001 6.824604e-001 7.953535e-001 7.788974e-001 7.273315e-001 6.543111e-001 3.331326e-001
<GCONST> 1.365301e+002
<STATE> 3
<MEAN> 39
 -7.836730e+000 -7.931682e+000 -2.820089e+000 -1.484246e+001 -4.154340e+000 -9.710077e+000 -3.842686e+000 -5.210991e+000 -7.426756e+000 -5.452538e+000 -7.732697e+000 6.915448e-002 6.521920e+001 2.830070e-002 -1.194524e-001 -6.809066e-002 -6.459281e-002 4.256259e-002 1.834514e-002 3.935599e-002 -3.187873e-002 -6.269190e-002 -5.984762e-002 1.728366e-002 7.552227e-002 1.460613e-001 3.027565e-003 -6.691313e-004 3.319512e-003 -5.022099e-003 9.905547e-004 -3.146446e-003 -1.814944e-003 -2.772856e-003 -5.768490e-003 -9.926608e-004 -1.098474e-003 4.087220e-004 1.814131e-003
<VARIANCE> 39
 3.477164e+001 7.988287e+001 4.650575e+001 1.120066e+002 6.647095e+001 7.057250e+001 1.026702e+002 4.753630e+001 8.092142e+001 5.957993e+001 6.902255e+001 5.826366e+001 1.418687e+002 2.132947e+000 3.352037e+000 1.956807e+000 5.010132e+000 4.151688e+000 4.547549e+000 4.639934e+000 3.641596e+000 4.478778e+000 4.311385e+000 3.938908e+000 3.589752e+000 3.020130e+000 3.569323e-001 4.215245e-001 3.071460e-001 7.654016e-001 7.428771e-001 7.629525e-001 7.579007e-001 6.963577e-001 7.904773e-001 8.007370e-001 7.400321e-001 6.506859e-001 3.219798e-001
<GCONST> 1.367060e+002
<STATE> 4
<MEAN> 39
 -7.601570e+000 -8.531440e+000 -3.106143e+000 -1.537135e+001 -4.019971e+000 -9.726868e+000 -3.752235e+000 -5.466087e+000 -7.965488e+000 -5.751056e+000 -7.848222e+000 4.280739e-001 6.609328e+001 4.237911e-002 -1.071704e-001 -4.939891e-002 -8.409501e-002 4.732246e-002 -5.854385e-003 1.659623e-002 -3.820070e-002 -7.626588e-002 -6.181983e-002 4.453840e-003 7.176809e-002 1.229694e-001 2.136739e-003 2.608577e-003 3.563981e-003 -2.232280e-003 9.369631e-004 -5.276829e-003 -4.116966e-003 -8.984171e-004 -2.063335e-003 -5.620605e-004 -2.241925e-003 -2.130470e-003 -3.554353e-003
<VARIANCE> 39
 3.385690e+001 8.206323e+001 4.502090e+001 1.103077e+002 7.074373e+001 7.303559e+001 1.072234e+002 4.801439e+001 8.023811e+001 6.133609e+001 6.939113e+001 5.341284e+001 1.313129e+002 2.020229e+000 3.414917e+000 1.947446e+000 5.054295e+000 4.255415e+000 4.611040e+000 4.769100e+000 3.811691e+000 4.374656e+000 4.514004e+000 3.925611e+000 3.443183e+000 2.899672e+000 3.336346e-001 4.174265e-001 3.028113e-001 7.733624e-001 7.482380e-001 7.646576e-001 7.838619e-001 7.295058e-001 7.667118e-001 8.228307e-001 7.407244e-001 6.282677e-001 3.007186e-001
<GCONST> 1.365896e+002
<TRANSP> 5
 0.000000e+000 1.000000e+000 0.000000e+000 0.000000e+000 0.000000e+000
 0.000000e+000 7.176417e-001 2.823583e-001 0.000000e+000 0.000000e+000
 0.000000e+000 0.000000e+000 7.176418e-001 2.823581e-001 0.000000e+000
 0.000000e+000 0.000000e+000 0.000000e+000 8.373573e-001 1.626428e-001
 0.000000e+000 0.000000e+000 0.000000e+000 0.000000e+000 0.000000e+000
<ENDHMM>
~h "f"
<BEGINHMM>
<NUMSTATES> 5
<STATE> 2
<MEAN> 39
 -9.759813e+000 -4.583162e+000 4.048918e+000 -1.990669e+001 -6.386519e+000 -9.288469e+000 -1.306634e+001 -8.942513e+000 -9.719490e+000 -2.331792e+000 -1.179978e+001 -1.164060e+000 6.987260e+001 1.295133e-001 -2.493931e-001 4.252412e-002 -9.120374e-003 2.404508e-001 7.707371e-002 6.664360e-002 5.711799e-002 1.417476e-001 6.723099e-002 -4.963902e-002 -8.082900e-002 6.139066e-002 1.155555e-002 -5.075987e-003 -1.914207e-002 1.315972e-002 1.339457e-002 -2.327460e-003 -1.105915e-003 3.868885e-003 7.587560e-003 -8.379980e-003 7.496115e-003 -5.298615e-003 -3.421580e-003
<VARIANCE> 39
 4.291239e+001 8.906528e+001 1.064254e+002 9.105724e+001 9.377477e+001 5.843607e+001 8.068647e+001 3.776967e+001 6.385093e+001 5.326539e+001 1.085654e+002 7.260369e+001 5.710904e+001 2.705047e+000 3.007668e+000 4.139109e+000 5.687107e+000 4.342046e+000 3.994362e+000 4.543838e+000 2.823184e+000 4.879544e+000 3.694722e+000 5.147825e+000 3.070787e+000 3.750910e+000 4.382662e-001 4.554068e-001 5.375406e-001 8.602017e-001 7.142333e-001 6.068500e-001 6.288493e-001 5.075575e-001 8.520104e-001 7.256173e-001 7.602147e-001 5.824819e-001 4.615982e-001
<GCONST> 1.380896e+002
<STATE> 3
<MEAN> 39
 -9.202083e+000 -5.557158e+000 4.095645e+000 -1.986089e+001 -5.414431e+000 -9.015192e+000 -1.282552e+001 -8.698937e+000 -9.140446e+000 -2.122757e+000 -1.192738e+001 -1.479696e+000 7.008846e+001 1.695468e-001 -2.601393e-001 -2.777789e-002 4.390047e-002 2.871949e-001 6.589621e-002 5.519018e-002 6.868509e-002 1.654157e-001 3.496851e-002 -2.256427e-002 -1.007954e-001 4.496578e-002 8.017195e-003 2.663467e-003 -1.460712e-002 1.488858e-002 9.410552e-003 -4.217234e-003 -7.002872e-003 2.511248e-003 3.735173e-003 -9.469724e-003 6.509820e-003 -5.460954e-003 -6.655226e-003
<VARIANCE> 39
 4.559842e+001 1.034079e+002 9.936141e+001 8.792299e+001 1.012293e+002 5.756797e+001 8.252962e+001 3.646228e+001 6.192041e+001 5.336948e+001 1.039504e+002 7.272613e+001 6.158295e+001 2.777547e+000 3.167128e+000 4.169102e+000 5.567795e+000 4.503153e+000 4.058777e+000 4.765283e+000 2.755286e+000 4.835361e+000 3.516941e+000 4.868119e+000 3.132227e+000 3.946394e+000 4.514599e-001 4.729445e-001 5.598768e-001 8.505401e-001 7.591112e-001 6.080416e-001 6.555007e-001 4.934798e-001 8.546428e-001 6.994668e-001 7.455676e-001 5.928004e-001 4.815405e-001
<GCONST> 1.385258e+002
<STATE> 4
<MEAN> 39
 -8.355886e+000 -6.592632e+000 3.909437e+000 -1.942495e+001 -4.123358e+000 -8.679696e+000 -1.269062e+001 -8.215984e+000 -8.313850e+000 -2.110714e+000 -1.159701e+001 -2.105065e+000 7.023047e+001 2.006240e-001 -2.285924e-001 -9.313644e-002 1.174306e-001 3.190873e-001 4.416740e-002 8.349330e-003 7.449871e-002 1.733803e-001 -5.924531e-003 9.147914e-003 -1.207093e-001 6.030126e-003 2.629085e-003 1.257676e-002 -7.625388e-003 1.487026e-002 3.497665e-003 -4.617728e-003 -1.195963e-002 7.993058e-004 -3.007915e-004 -9.424662e-003 5.269405e-003 -4.625516e-003 -1.091614e-002
<VARIANCE> 39
 5.019168e+001 1.196671e+002 9.195770e+001 8.527902e+001 1.093738e+002 5.783062e+001 8.612077e+001 3.490523e+001 5.833018e+001 5.322404e+001 9.783559e+001 7.219344e+001 6.697605e+001 2.975162e+000 3.376281e+000 4.198550e+000 5.322022e+000 4.770413e+000 4.206812e+000 5.123104e+000 2.791735e+000 4.839388e+000 3.359835e+000 4.497437e+000 3.217807e+000 4.097697e+000 4.823521e-001 4.909720e-001 5.912403e-001 8.138187e-001 8.253317e-001 6.180095e-001 6.927364e-001 5.039250e-001 8.670641e-001 6.778067e-001 7.202047e-001 6.090006e-001 4.915107e-001
<GCONST> 1.391942e+002
<TRANSP> 5
 0.000000e+000 1.000000e+000 0.000000e+000 0.000000e+000 0.000000e+000
 0.000000e+000 7.379563e-001 2.620437e-001 0.000000e+000 0.000000e+000
 0.000000e+000 0.000000e+000 7.379564e-001 2.620436e-001 0.000000e+000
 0.000000e+000 0.000000e+000 0.000000e+000 8.597586e-001 1.402414e-001
 0.000000e+000 0.000000e+000 0.000000e+000 0.000000e+000 0.000000e+000
<ENDHMM>
~h "g"
<BEGINHMM>
<NUMSTATES> 5
<STATE> 2
<MEAN> 39
 -4.633868e+000 -1.250677e+001 -3.113767e+000 -1.770277e+001 1.091680e+000 -1.062776e+001 -7.532016e+000 -6.096025e+000 -8.079618e+000 -4.116022e+000 -1.127697e+001 -4.127353e-001 6.882956e+001 1.441588e-002 -8.545617e-002 -3.432652e-002 -9.091024e-002 3.266791e-002 -7.800560e-002 5.086204e-002 -2.718089e-002 -8.365057e-002 5.682643e-002 -8.588897e-002 7.965897e-002 1.947339e-001 -4.801064e-003 6.534927e-003 9.996664e-005 -9.108189e-004 -7.414563e-003 3.068570e-003 3.559727e-003 1.064899e-003 3.752222e-004 3.618208e-003 3.691828e-003 1.781745e-003 -3.278966e-003
<VARIANCE> 39
 3.328595e+001 1.102211e+002 3.957462e+001 1.237839e+002 7.513223e+001 6.984100e+001 1.086435e+002 5.088747e+001 4.878194e+001 6.758591e+001 7.639252e+001 5.303553e+001 1.066621e+002 1.678722e+000 4.489432e+000 2.178024e+000 6.274994e+000 4.236926e+000 4.574652e+000 4.919753e+000 4.849503e+000 3.817036e+000 4.487471e+000 4.410662e+000 3.432720e+000 3.451398e+000 2.700548e-001 6.041871e-001 3.814564e-001 9.360473e-001 7.177991e-001 7.839781e-001 8.092421e-001 9.266986e-001 7.027779e-001 8.345130e-001 7.829515e-001 6.464107e-001 3.497337e-001
<GCONST> 1.382394e+002
<STATE> 3
<MEAN> 39
 -4.625404e+000 -1.274329e+001 -3.229037e+000 -1.800707e+001 1.134566e+000 -1.087106e+001 -7.305945e+000 -6.198038e+000 -8.358339e+000 -3.881767e+000 -1.154794e+001 -1.175921e-001 6.946535e+001 -3.894859e-003 -5.671568e-002 -3.494094e-002 -8.584229e-002 4.085067e-003 -6.447790e-002 6.105774e-002 -2.238587e-002 -7.528769e-002 7.088862e-002 -6.572639e-002 8.430002e-002 1.699873e-001 -5.194264e-003 7.705752e-003 -4.146800e-004 2.168879e-003 -7.522371e-003 4.025513e-003 2.352299e-003 1.419214e-003 2.881316e-003 4.089447e-003 5.936446e-003 1.103951e-003 -7.240057e-003
<VARIANCE> 39
 3.209876e+001 1.125392e+002 3.973806e+001 1.218012e+002 7.464908e+001 6.996078e+001 1.088692e+002 5.107408e+001 4.764481e+001 6.487408e+001 7.649240e+001 5.341534e+001 9.940296e+001 1.625421e+000 4.433818e+000 2.166022e+000 6.220443e+000 4.125414e+000 4.538293e+000 4.944423e+000 4.812065e+000 3.813848e+000 4.399371e+000 4.421937e+000 3.432004e+000 3.418591e+000 2.580792e-001 5.862152e-001 3.807031e-001 9.228718e-001 6.919361e-001 7.767032e-001 8.060884e-001 9.170307e-001 6.991529e-001 8.266906e-001 7.850054e-001 6.428825e-001 3.432728e-001
<GCONST> 1.377738e+002
<STATE> 4
<MEAN> 39
 -4.790730e+000 -1.286157e+001 -3.297766e+000 -1.828300e+001 9.592085e-001 -1.126140e+001 -6.810976e+000 -6.389236e+000 -8.663360e+000 -3.461555e+000 -1.187147e+001 4.250741e-001 7.026971e+001 -2.723868e-002 -5.428098e-003 -3.525942e-002 -6.023555e-002 -3.105630e-002 -3.979154e-002 6.299185e-002 -1.452603e-002 -5.042238e-002 9.052211e-002 -3.200707e-002 8.143644e-002 1.080362e-001 -4.038897e-003 8.129930e-003 -4.097781e-004 4.903826e-003 -5.122986e-003 4.556973e-003 -9.538566e-004 2.277979e-003 4.880880e-003 3.300674e-003 6.597458e-003 -1.115652e-003 -1.099197e-002
<VARIANCE> 39
 3.114017e+001 1.154755e+002 4.125147e+001 1.183466e+002 7.531290e+001 7.059595e+001 1.116565e+002 5.104055e+001 4.757499e+001 6.078054e+001 7.494834e+001 5.230364e+001 8.973724e+001 1.588446e+000 4.260742e+000 2.137264e+000 6.095032e+000 4.047490e+000 4.477322e+000 5.016498e+000 4.735212e+000 3.874667e+000 4.297118e+000 4.376734e+000 3.423190e+000 3.413277e+000 2.495786e-001 5.474510e-001 3.735139e-001 9.004389e-001 6.695685e-001 7.695020e-001 8.085150e-001 9.028734e-001 7.070042e-001 8.249418e-001 7.765355e-001 6.394330e-001 3.464586e-001
<GCONST> 1.372589e+002
<TRANSP> 5
 0.000000e+000 1.000000e+000 0.000000e+000 0.000000e+000 0.000000e+000
 0.000000e+000 7.134591e-001 2.865408e-001 0.000000e+000 0.000000e+000
 0.000000e+000 0.000000e+000 7.134595e-001 2.865405e-001 0.000000e+000
 0.000000e+000 0.000000e+000 0.000000e+000 8.322231e-001 1.677769e-001
 0.000000e+000 0.000000e+000 0.000000e+000 0.000000e+000 0.000000e+000
<ENDHMM>
~h "h"
<BEGINHMM>
<NUMSTATES> 5
<STATE> 2
<MEAN> 39
 -5.851469e+000 -1.018104e+001 -2.239120e+000 -1.556226e+001 -1.751425e+000 -7.527882e+000 -8.001225e+000 -5.886040e+000 -6.368717e+000 -5.652172e+000 -7.194984e+000 -1.741256e+000 6.544480e+001 -7.053117e-003 -3.292195e-002 4.865664e-003 -2.971879e-003 6.873952e-003 -1.790662e-002 2.014834e-003 1.443223e-003 -4.171807e-003 -2.729581e-003 -7.338995e-003 4.209757e-003 3.893616e-002 -1.478663e-003 1.183925e-003 9.365981e-004 -1.848655e-003 2.475085e-004 2.853885e-003 -1.026941e-003 3.773051e-004 -6.222517e-004 6.419664e-004 -1.433239e-003 -1.116366e-003 -5.163529e-004
<VARIANCE> 39
 3.436624e+001 1.003224e+002 5.273570e+001 1.143477e+002 8.375729e+001 7.045535e+001 9.286242e+001 5.625248e+001 6.494714e+001 6.543533e+001 6.015645e+001 5.067960e+001 1.383380e+002 1.568962e+000 2.966524e+000 2.021227e+000 4.792338e+000 3.944144e+000 3.534547e+000 4.157354e+000 3.865603e+000 3.549486e+000 4.024139e+000 3.338763e+000 2.948831e+000 2.689853e+000 2.411095e-001 3.699198e-001 3.235003e-001 7.042282e-001 6.773213e-001 6.328116e-001 7.023851e-001 6.806218e-001 6.335995e-001 6.862308e-001 5.826490e-001 5.202760e-001 3.120674e-001
<GCONST> 1.335615e+002
<STATE> 3
<MEAN> 39
 -5.887350e+000 -1.028480e+001 -2.212856e+000 -1.558916e+001 -1.744335e+000 -7.578073e+000 -8.010539e+000 -5.879450e+000 -6.388257e+000 -5.651665e+000 -7.238153e+000 -1.740027e+000 6.558369e+001 -1.026283e-002 -2.515691e-002 8.021750e-003 -1.070165e-002 2.269715e-003 -1.274186e-002 -5.108377e-003 1.001555e-003 -5.827776e-003 1.542899e-003 -1.393175e-002 -2.195594e-003 3.641903e-002 -3.310207e-004 2.309435e-003 9.597790e-004 -2.373537e-003 -1.515066e-003 1.171152e-003 -2.042767e-003 -3.598785e-004 -7.331868e-004 1.218289e-003 -1.838366e-003 -1.879464e-003 -3.869084e-004
<VARIANCE> 39
 3.469531e+001 1.012528e+002 5.242294e+001 1.124685e+002 8.313563e+001 7.117912e+001 9.369171e+001 5.657424e+001 6.443459e+001 6.491234e+001 6.017926e+001 5.085412e+001 1.363047e+002 1.589280e+000 2.974961e+000 2.015363e+000 4.764738e+000 3.936850e+000 3.533898e+000 4.168598e+000 3.875811e+000 3.576390e+000 3.993660e+000 3.329795e+000 2.945293e+000 2.687464e+000 2.439296e-001 3.699849e-001 3.214824e-001 6.963409e-001 6.722890e-001 6.302544e-001 7.046458e-001 6.823977e-001 6.365350e-001 6.808452e-001 5.803850e-001 5.197517e-001 3.091247e-001
<GCONST> 1.335246e+002
<STATE> 4
<MEAN> 39
 -6.039881e+000 -1.015531e+001 -2.081689e+000 -1.538018e+001 -1.923622e+000 -7.498044e+000 -7.895104e+000 -5.799982e+000 -6.215055e+000 -5.464198e+000 -7.182371e+000 -1.857784e+000 6.531709e+001 -8.002051e-003 -4.375978e-003 1.313471e-002 -1.788048e-002 -1.301047e-002 -1.498346e-002 -1.342779e-002 1.744867e-004 -1.233982e-002 1.488343e-002 -2.008868e-002 -1.084681e-002 2.766731e-002 1.035070e-003 3.167661e-003 8.477934e-004 -1.449643e-003 -1.929232e-003 -4.625581e-004 -1.643646e-003 -5.551107e-004 -1.455011e-003 1.757408e-003 -1.171834e-003 -1.345533e-003 -1.038154e-003
<VARIANCE> 39
 3.466023e+001 1.013184e+002 5.228735e+001 1.102022e+002 8.022829e+001 7.089428e+001 9.417387e+001 5.592118e+001 6.553349e+001 6.340999e+001 5.895323e+001 5.006278e+001 1.406972e+002 1.581579e+000 2.894311e+000 1.997718e+000 4.594188e+000 3.806875e+000 3.458217e+000 4.133597e+000 3.800226e+000 3.570453e+000 3.867973e+000 3.262299e+000 2.877711e+000 2.633764e+000 2.424620e-001 3.604200e-001 3.147323e-001 6.613204e-001 6.451227e-001 6.115128e-001 6.970140e-001 6.685253e-001 6.330474e-001 6.618143e-001 5.691983e-001 5.075761e-001 2.976256e-001
<GCONST> 1.328629e+002
<TRANSP> 5
 0.000000e+000 1.000000e+000 0.000000e+000 0.000000e+000 0.000000e+000
 0.000000e+000 7.309147e-001 2.690853e-001 0.000000e+000 0.000000e+000
 0.000000e+000 0.000000e+000 7.309149e-001 2.690851e-001 0.000000e+000
 0.000000e+000 0.000000e+000 0.000000e+000 8.568609e-001 1.431391e-001
 0.000000e+000 0.000000e+000 0.000000e+000 0.000000e+000 0.000000e+000
<ENDHMM>
~h "i"
<BEGINHMM>
<NUMSTATES> 5
<STATE> 2
<MEAN> 39
 -6.594039e+000 -9.233190e+000 -1.510329e+000 -1.586689e+001 -2.574408e+000 -9.330796e+000 -8.467262e+000 -5.051788e+000 -7.485075e+000 -4.181952e+000 -8.484167e+000 -1.646730e+000 6.568382e+001 1.438216e-002 -2.879527e-003 2.072359e-003 -2.644255e-002 7.308936e-003 -1.539285e-002 -1.250746e-002 -2.550793e-003 -2.355810e-002 -6.206509e-003 -2.776473e-002 7.574097e-004 2.721568e-002 1.476289e-003 1.612066e-003 -4.310627e-004 9.423744e-004 -1.552697e-003 6.722991e-004 -1.179415e-004 -6.373915e-004 6.552591e-004 -5.498618e-005 -3.833690e-004 -6.551413e-004 -3.537115e-003
<VARIANCE> 39
 3.848656e+001 9.761835e+001 5.597079e+001 1.094033e+002 8.207115e+001 6.494440e+001 9.863201e+001 5.567353e+001 7.467780e+001 6.008087e+001 6.184027e+001 5.149452e+001 1.444507e+002 1.977404e+000 3.406822e+000 2.293760e+000 5.188986e+000 4.248086e+000 3.590928e+000 4.508358e+000 3.964411e+000 4.072624e+000 4.177825e+000 3.703828e+000 3.035240e+000 3.539048e+000 3.108995e-001 4.492849e-001 3.361440e-001 7.585681e-001 6.891280e-001 6.200396e-001 7.539514e-001 7.251869e-001 7.202776e-001 7.297699e-001 6.682295e-001 5.525281e-001 4.198104e-001
<GCONST> 1.364819e+002
<STATE> 3
<MEAN> 39
 -6.533626e+000 -9.232475e+000 -1.503210e+000 -1.594801e+001 -2.557039e+000 -9.379328e+000 -8.504938e+000 -5.069846e+000 -7.567326e+000 -4.205226e+000 -8.588367e+000 -1.645974e+000 6.574223e+001 1.958861e-002 4.206777e-003 6.050263e-004 -2.174955e-002 2.015910e-003 -1.206728e-002 -1.249603e-002 -5.489458e-003 -2.019941e-002 -7.699010e-003 -2.823277e-002 -2.112048e-003 1.164276e-002 1.097576e-003 2.079878e-003 -3.471967e-004 1.792949e-003 -1.469534e-003 9.626877e-004 3.489620e-004 -9.100290e-004 1.088860e-003 -2.045424e-004 3.598687e-004 -7.457337e-004 -4.598509e-003
<VARIANCE> 39
 3.863680e+001 9.765289e+001 5.622396e+001 1.091447e+002 8.218102e+001 6.515573e+001 9.813572e+001 5.578378e+001 7.429615e+001 6.015049e+001 6.192972e+001 5.178838e+001 1.429852e+002 1.989385e+000 3.424909e+000 2.303678e+000 5.197943e+000 4.236601e+000 3.621646e+000 4.499111e+000 3.966360e+000 4.061894e+000 4.158044e+000 3.713010e+000 3.054576e+000 3.575819e+000 3.131743e-001 4.517724e-001 3.378486e-001 7.593413e-001 6.909554e-001 6.253585e-001 7.532150e-001 7.258019e-001 7.202618e-001 7.275506e-001 6.687157e-001 5.556126e-001 4.250424e-001
<GCONST> 1.365618e+002
<STATE> 4
<MEAN> 39
 -6.472742e+000 -9.204684e+000 -1.517615e+000 -1.588402e+001 -2.566866e+000 -9.305715e+000 -8.427630e+000 -5.123517e+000 -7.545214e+000 -4.189978e+000 -8.643650e+000 -1.687518e+000 6.548913e+001 2.386845e-002 1.736315e-002 -1.145216e-003 -9.188327e-003 -1.731116e-003 -3.183638e-003 -8.796886e-003 -9.067610e-003 -1.036318e-002 -1.189704e-002 -2.331437e-002 -5.274123e-003 -1.904071e-002 5.071562e-004 2.483586e-003 -1.327439e-004 2.473493e-003 -5.932056e-004 1.571358e-003 8.412860e-004 -7.015486e-004 1.825020e-003 -3.866470e-004 1.492030e-003 -4.783759e-004 -4.984997e-003
<VARIANCE> 39
 3.763014e+001 9.704155e+001 5.564340e+001 1.088537e+002 8.133408e+001 6.527094e+001 9.687435e+001 5.515300e+001 7.418224e+001 5.917035e+001 6.170784e+001 5.145481e+001 1.463268e+002 1.930068e+000 3.388498e+000 2.278240e+000 5.110929e+000 4.145041e+000 3.593338e+000 4.415873e+000 3.920547e+000 3.996773e+000 4.058424e+000 3.682229e+000 3.041742e+000 3.560200e+000 3.047265e-001 4.489236e-001 3.348339e-001 7.471009e-001 6.819710e-001 6.213381e-001 7.426642e-001 7.176586e-001 7.112647e-001 7.135288e-001 6.613348e-001 5.519409e-001 4.237779e-001
<GCONST> 1.361354e+002
<TRANSP> 5
 0.000000e+000 1.000000e+000 0.000000e+000 0.000000e+000 0.000000e+000
 0.000000e+000 7.287031e-001 2.712969e-001 0.000000e+000 0.000000e+000
 0.000000e+000 0.000000e+000 7.287039e-001 2.712961e-001 0.000000e+000
 0.000000e+000 0.000000e+000 0.000000e+000 8.523428e-001 1.476572e-001
 0.000000e+000 0.000000e+000 0.000000e+000 0.000000e+000 0.000000e+000
<ENDHMM>
~h "k"
<BEGINHMM>
<NUMSTATES> 5
<STATE> 2
<MEAN> 39
 -6.282215e+000 -5.200884e+000 -2.128271e-001 -1.368721e+001 -6.206927e+000 -8.089780e+000 -6.531003e+000 -3.244575e+000 -7.401668e+000 -4.507454e+000 -9.098154e+000 -3.773685e+000 6.112304e+001 -1.366498e-002 2.509336e-002 1.436030e-002 4.164513e-002 -3.250911e-003 -5.030896e-002 4.288821e-002 6.591715e-002 4.857645e-002 -1.330306e-002 9.859663e-003 5.000959e-003 -2.256851e-002 -1.391666e-004 -4.952098e-003 -1.336115e-004 -5.316711e-004 2.919863e-003 -1.043314e-004 -1.406786e-003 -5.389893e-003 -4.647840e-003 4.703946e-004 3.881037e-003 3.359435e-003 5.375248e-003
<VARIANCE> 39
 3.561051e+001 5.957332e+001 5.634191e+001 9.519153e+001 6.592784e+001 6.859973e+001 9.333088e+001 4.631425e+001 9.633756e+001 7.033283e+001 5.209703e+001 4.699606e+001 1.655805e+002 1.633896e+000 2.558642e+000 1.936458e+000 3.887361e+000 3.759659e+000 2.966825e+000 4.775744e+000 3.678565e+000 4.316990e+000 3.857568e+000 3.509200e+000 3.342703e+000 3.808769e+000 2.298488e-001 3.900091e-001 3.103633e-001 5.706339e-001 6.328019e-001 5.258831e-001 7.866983e-001 6.688761e-001 7.919085e-001 6.066064e-001 6.664723e-001 6.505333e-001 4.781814e-001
<GCONST> 1.335936e+002
<STATE> 3
<MEAN> 39
 -6.337674e+000 -5.141639e+000 -1.462350e-001 -1.355217e+001 -6.232314e+000 -8.289225e+000 -6.399498e+000 -3.058147e+000 -7.293143e+000 -4.543283e+000 -9.028673e+000 -3.756783e+000 6.110710e+001 -1.468587e-002 8.734806e-003 1.099345e-002 3.161139e-002 1.223268e-004 -5.458575e-002 3.472390e-002 4.578182e-002 3.627536e-002 -6.951598e-003 2.390759e-002 1.500218e-002 -3.156594e-003 -7.299922e-005 -4.519380e-003 -7.325990e-004 -2.600116e-003 1.075532e-003 -8.881500e-004 -2.523112e-003 -5.847706e-003 -3.386427e-003 7.885312e-004 3.141648e-003 2.719538e-003 4.943146e-003
<VARIANCE> 39
 3.595308e+001 5.948762e+001 5.578485e+001 9.548534e+001 6.483068e+001 6.850665e+001 9.428932e+001 4.612793e+001 9.486157e+001 6.739639e+001 5.097315e+001 4.850729e+001 1.669131e+002 1.675621e+000 2.546560e+000 1.965150e+000 3.888559e+000 3.831587e+000 2.953735e+000 4.764264e+000 3.641634e+000 4.290222e+000 3.785164e+000 3.415908e+000 3.341731e+000 3.767516e+000 2.341552e-001 3.856810e-001 3.139591e-001 5.720156e-001 6.463358e-001 5.213189e-001 7.792477e-001 6.595966e-001 7.843344e-001 5.978152e-001 6.444496e-001 6.470344e-001 4.735151e-001
<GCONST> 1.334542e+002
<STATE> 4
<MEAN> 39
 -6.647239e+000 -5.291493e+000 3.235049e-003 -1.259813e+001 -6.567003e+000 -8.528728e+000 -6.134151e+000 -2.921069e+000 -6.932517e+000 -4.951651e+000 -8.561914e+000 -4.084419e+000 6.096637e+001 -7.132011e-003 -1.348738e-002 1.848193e-002 3.380329e-003 -7.383046e-003 -5.957258e-002 -2.488529e-003 1.456339e-002 -3.260710e-003 -1.193557e-002 1.820996e-002 1.115630e-002 5.402030e-002 6.597929e-004 -2.849857e-003 2.479913e-006 -2.435974e-003 1.357631e-003 1.109717e-004 -3.184770e-003 -3.945234e-003 -1.494547e-003 7.913409e-005 -1.721786e-004 1.423105e-003 3.851539e-003
<VARIANCE> 39
 3.477153e+001 5.970679e+001 5.192794e+001 9.068366e+001 7.000491e+001 6.736567e+001 8.841266e+001 4.589716e+001 9.783966e+001 6.418353e+001 5.186979e+001 4.993290e+001 1.676911e+002 1.576797e+000 2.389802e+000 1.985263e+000 3.503465e+000 3.693965e+000 2.851871e+000 4.442870e+000 3.754697e+000 4.167048e+000 3.464630e+000 3.358330e+000 3.145493e+000 3.633106e+000 2.191048e-001 3.522089e-001 3.155006e-001 5.176556e-001 6.130688e-001 4.911629e-001 7.284442e-001 6.744892e-001 7.448608e-001 5.648310e-001 6.085178e-001 5.932335e-001 4.538608e-001
<GCONST> 1.320595e+002
<TRANSP> 5
 0.000000e+000 1.000000e+000 0.000000e+000 0.000000e+000 0.000000e+000
 0.000000e+000 7.411222e-001 2.588778e-001 0.000000e+000 0.000000e+000
 0.000000e+000 0.000000e+000 7.411224e-001 2.588776e-001 0.000000e+000
 0.000000e+000 0.000000e+000 0.000000e+000 8.805142e-001 1.194858e-001
 0.000000e+000 0.000000e+000 0.000000e+000 0.000000e+000 0.000000e+000
<ENDHMM>
~h "l"
<BEGINHMM>
<NUMSTATES> 5
<STATE> 2
<MEAN> 39
 -5.382895e+000 -1.003840e+001 -1.607136e+000 -1.617922e+001 -1.531776e+000 -9.829386e+000 -9.727690e+000 -5.077642e+000 -7.798136e+000 -6.309860e+000 -9.542599e+000 -1.064960e+000 6.604130e+001 3.965448e-003 1.850966e-002 -1.751365e-003 6.470556e-002 8.305306e-003 1.011556e-002 4.369042e-002 -1.363765e-002 2.176833e-002 -9.998525e-003 7.421036e-003 -3.241345e-002 -4.243965e-002 -2.486765e-003 2.648438e-003 -1.436926e-003 1.355161e-003 -1.756978e-003 3.808181e-003 2.897483e-003 3.256706e-003 2.557764e-003 1.970272e-003 2.343378e-003 -6.159896e-004 -4.946459e-003
<VARIANCE> 39
 3.300316e+001 1.010636e+002 5.443211e+001 1.087275e+002 8.823457e+001 8.383587e+001 1.068591e+002 5.468407e+001 7.784099e+001 6.296729e+001 5.728982e+001 6.170667e+001 1.325334e+002 1.476575e+000 3.065922e+000 2.090616e+000 4.583220e+000 3.747919e+000 4.397880e+000 4.870111e+000 3.976362e+000 3.764299e+000 4.132057e+000 3.529514e+000 3.170762e+000 2.769264e+000 2.201714e-001 3.911455e-001 3.145125e-001 6.873222e-001 6.263057e-001 6.881161e-001 7.962112e-001 7.225019e-001 6.744905e-001 7.254844e-001 6.387680e-001 5.511627e-001 3.006040e-001
<GCONST> 1.349868e+002
<STATE> 3
<MEAN> 39
 -5.389072e+000 -9.968824e+000 -1.620212e+000 -1.593390e+001 -1.493954e+000 -9.761002e+000 -9.551842e+000 -5.108608e+000 -7.704581e+000 -6.329332e+000 -9.492669e+000 -1.179939e+000 6.585946e+001 -6.522126e-003 2.966634e-002 -4.979095e-003 7.247096e-002 4.600020e-003 2.401257e-002 5.445407e-002 -2.838111e-003 2.989596e-002 -3.824114e-003 1.602821e-002 -3.412426e-002 -6.257837e-002 -2.836367e-003 2.697785e-003 -8.484717e-004 1.518418e-003 -7.814357e-004 4.047090e-003 2.451319e-003 2.864819e-003 2.210907e-003 1.856917e-003 2.314770e-003 -1.272886e-004 -4.918369e-003
<VARIANCE> 39
 3.278246e+001 1.008392e+002 5.334831e+001 1.095790e+002 8.801424e+001 8.429250e+001 1.073630e+002 5.377073e+001 7.747771e+001 6.303962e+001 5.777922e+001 6.159320e+001 1.357562e+002 1.465380e+000 3.030742e+000 2.066840e+000 4.526315e+000 3.717015e+000 4.369441e+000 4.855935e+000 3.920315e+000 3.721918e+000 4.114811e+000 3.496410e+000 3.140922e+000 2.737223e+000 2.180103e-001 3.854846e-001 3.102109e-001 6.761246e-001 6.211106e-001 6.863511e-001 7.958046e-001 7.136039e-001 6.665555e-001 7.233586e-001 6.331247e-001 5.454983e-001 2.960724e-001
<GCONST> 1.347349e+002
<STATE> 4
<MEAN> 39
 -5.459805e+000 -9.802002e+000 -1.588625e+000 -1.562908e+001 -1.547063e+000 -9.562836e+000 -9.364800e+000 -5.097119e+000 -7.576928e+000 -6.319601e+000 -9.387207e+000 -1.370852e+000 6.558734e+001 -1.804420e-002 4.357779e-002 -4.680838e-003 8.016371e-002 3.887394e-003 3.680205e-002 5.985894e-002 8.308599e-003 3.737072e-002 6.121030e-003 2.744823e-002 -3.372688e-002 -8.492196e-002 -1.990046e-003 2.929955e-003 -3.071769e-004 5.484557e-004 -8.764202e-004 2.712484e-003 7.521449e-004 2.038629e-003 1.793514e-003 1.988953e-003 1.862607e-003 6.949506e-005 -4.047345e-003
<VARIANCE> 39
 3.302467e+001 1.006876e+002 5.227667e+001 1.098245e+002 8.864390e+001 8.296290e+001 1.063310e+002 5.220491e+001 7.733025e+001 6.271613e+001 5.824611e+001 6.200433e+001 1.406014e+002 1.465634e+000 2.969927e+000 2.041270e+000 4.439206e+000 3.671767e+000 4.286898e+000 4.785600e+000 3.820575e+000 3.652904e+000 4.052148e+000 3.456328e+000 3.125701e+000 2.711709e+000 2.165915e-001 3.768101e-001 3.058728e-001 6.605046e-001 6.123846e-001 6.798752e-001 7.878135e-001 6.978546e-001 6.500373e-001 7.127690e-001 6.250685e-001 5.409230e-001 2.927659e-001
<GCONST> 1.343389e+002
<TRANSP> 5
 0.000000e+000 1.000000e+000 0.000000e+000 0.000000e+000 0.000000e+000
 0.000000e+000 7.260842e-001 2.739158e-001 0.000000e+000 0.000000e+000
 0.000000e+000 0.000000e+000 7.260835e-001 2.739165e-001 0.000000e+000
 0.000000e+000 0.000000e+000 0.000000e+000 8.474661e-001 1.525339e-001
 0.000000e+000 0.000000e+000 0.000000e+000 0.000000e+000 0.000000e+000
<ENDHMM>
~h "m"
<BEGINHMM>
<NUMSTATES> 5
<STATE> 2
<MEAN> 39
 -5.074830e+000 -8.999458e+000 -2.059722e+000 -1.560426e+001 -8.608155e-001 -9.635644e+000 -1.074375e+001 -5.685506e+000 -8.624175e+000 -6.055132e+000 -8.905203e+000 -1.620948e+000 6.405872e+001 -1.190551e-003 -1.885479e-002 -9.125738e-003 -1.966980e-002 3.294104e-003 1.259331e-002 -2.389332e-002 -4.015901e-003 -2.386380e-002 1.097610e-003 9.720502e-003 8.986099e-003 3.223676e-002 -2.736053e-003 3.117755e-003 2.857145e-004 2.445007e-003 -7.402569e-004 2.092995e-003 3.006519e-003 7.271002e-004 2.533754e-003 8.947202e-004 3.596320e-003 -5.785552e-004 -4.112259e-003
<VARIANCE> 39
 3.672433e+001 9.716433e+001 5.480438e+001 1.040443e+002 8.431867e+001 7.857127e+001 9.976176e+001 5.519730e+001 7.529962e+001 6.147643e+001 5.987379e+001 6.026032e+001 1.405066e+002 1.813994e+000 3.505611e+000 2.376734e+000 4.899559e+000 4.146746e+000 3.656453e+000 4.663971e+000 4.028677e+000 4.107829e+000 4.134687e+000 3.642184e+000 3.456218e+000 3.728674e+000 2.822969e-001 4.632218e-001 3.703141e-001 7.665163e-001 7.207313e-001 6.090192e-001 7.643074e-001 6.964792e-001 7.407753e-001 7.010042e-001 6.564564e-001 6.131383e-001 4.384156e-001
<GCONST> 1.369947e+002
<STATE> 3
<MEAN> 39
 -5.103940e+000 -9.032457e+000 -2.101967e+000 -1.565738e+001 -8.512817e-001 -9.559624e+000 -1.080431e+001 -5.686254e+000 -8.682080e+000 -6.040742e+000 -8.833791e+000 -1.592295e+000 6.412846e+001 -1.108781e-002 -4.685205e-003 -8.017463e-003 -1.000631e-002 -1.475413e-003 1.989407e-002 -1.191130e-002 5.093264e-004 -1.328531e-002 4.938024e-003 2.125667e-002 4.745612e-003 1.595579e-002 -2.454054e-003 4.157309e-003 4.080459e-004 2.883007e-003 -1.350968e-003 1.909551e-003 3.132689e-003 1.019932e-003 3.185331e-003 1.039851e-003 3.048473e-003 -1.311660e-003 -4.778075e-003
<VARIANCE> 39
 3.718793e+001 9.754942e+001 5.510778e+001 1.035711e+002 8.460761e+001 7.873779e+001 9.949106e+001 5.546903e+001 7.526532e+001 6.168695e+001 6.061044e+001 6.015657e+001 1.400802e+002 1.806862e+000 3.457836e+000 2.372648e+000 4.863266e+000 4.146264e+000 3.627425e+000 4.631541e+000 4.043589e+000 4.109162e+000 4.130519e+000 3.660923e+000 3.439745e+000 3.639240e+000 2.806372e-001 4.569633e-001 3.694608e-001 7.568124e-001 7.200272e-001 6.027079e-001 7.571265e-001 6.985324e-001 7.402400e-001 6.998311e-001 6.568542e-001 6.106429e-001 4.271762e-001
<GCONST> 1.368833e+002
<STATE> 4
<MEAN> 39
 -5.199500e+000 -8.951256e+000 -2.138764e+000 -1.561724e+001 -7.986616e-001 -9.374068e+000 -1.086912e+001 -5.689441e+000 -8.646879e+000 -5.981083e+000 -8.611152e+000 -1.616593e+000 6.414936e+001 -2.387116e-002 1.831516e-002 -9.468325e-003 2.335916e-003 -1.152102e-002 3.469827e-002 8.849660e-003 1.059308e-002 8.471317e-003 1.536170e-002 3.586827e-002 -2.172238e-003 -1.055861e-002 -1.727298e-003 3.501637e-003 3.083413e-004 2.503804e-003 -1.698549e-003 1.888838e-003 3.130789e-003 9.114511e-004 3.670705e-003 1.465812e-003 2.224773e-003 -1.146097e-003 -4.440496e-003
<VARIANCE> 39
 3.862560e+001 9.715833e+001 5.663442e+001 1.058840e+002 8.577792e+001 7.957189e+001 9.951566e+001 5.559285e+001 7.510456e+001 6.161211e+001 6.167078e+001 5.977234e+001 1.392234e+002 1.803451e+000 3.344711e+000 2.367879e+000 4.822553e+000 4.107646e+000 3.583255e+000 4.570124e+000 4.018473e+000 4.076837e+000 4.105624e+000 3.669738e+000 3.378290e+000 3.467575e+000 2.785111e-001 4.415517e-001 3.678219e-001 7.415560e-001 7.118907e-001 5.937843e-001 7.433710e-001 6.927761e-001 7.321465e-001 6.964432e-001 6.547824e-001 5.999213e-001 4.046516e-001
<GCONST> 1.366197e+002
<TRANSP> 5
 0.000000e+000 1.000000e+000 0.000000e+000 0.000000e+000 0.000000e+000
 0.000000e+000 7.267095e-001 2.732906e-001 0.000000e+000 0.000000e+000
 0.000000e+000 0.000000e+000 7.267087e-001 2.732913e-001 0.000000e+000
 0.000000e+000 0.000000e+000 0.000000e+000 8.486498e-001 1.513502e-001
 0.000000e+000 0.000000e+000 0.000000e+000 0.000000e+000 0.000000e+000
<ENDHMM>
~h "n"
<BEGINHMM>
<NUMSTATES> 5
<STATE> 2
<MEAN> 39
 -5.053042e+000 -7.973606e+000 -1.119566e+000 -1.521021e+001 -2.835465e+000 -9.967162e+000 -8.852572e+000 -4.927482e+000 -7.974771e+000 -5.851578e+000 -9.366163e+000 -6.907406e-001 6.365771e+001 -1.253938e-002 -4.138884e-003 -2.435321e-003 2.054732e-002 2.558589e-002 -1.749070e-003 1.652475e-002 8.191092e-003 1.816185e-002 5.073043e-003 1.309254e-002 5.907207e-003 -2.296607e-002 -1.361703e-003 -4.017686e-004 -6.113787e-004 1.241999e-003 3.540126e-004 8.876634e-004 3.925207e-004 9.977773e-004 1.457825e-003 2.361850e-004 2.516282e-004 -1.151481e-003 -1.336260e-003
<VARIANCE> 39
 3.654417e+001 9.119392e+001 5.719484e+001 1.107546e+002 8.326430e+001 8.465943e+001 9.175499e+001 5.155378e+001 7.660907e+001 6.606998e+001 6.691405e+001 5.772969e+001 1.445051e+002 1.850636e+000 3.560178e+000 2.174035e+000 4.890151e+000 3.889052e+000 3.879601e+000 4.146023e+000 3.954625e+000 3.719489e+000 4.203528e+000 3.971197e+000 3.287380e+000 3.530216e+000 2.880267e-001 4.794050e-001 3.362168e-001 7.264362e-001 6.659011e-001 6.313094e-001 7.041264e-001 7.301154e-001 6.632141e-001 7.246791e-001 7.064209e-001 5.801400e-001 4.093482e-001
<GCONST> 1.365276e+002
<STATE> 3
<MEAN> 39
 -5.109096e+000 -7.987546e+000 -1.135199e+000 -1.512224e+001 -2.733321e+000 -9.959949e+000 -8.787625e+000 -4.892781e+000 -7.891220e+000 -5.829087e+000 -9.310232e+000 -6.817389e-001 6.355545e+001 -1.736506e-002 -5.023163e-003 -5.871603e-003 2.522177e-002 2.687711e-002 2.611837e-003 1.742494e-002 1.036634e-002 2.303897e-002 5.713608e-003 1.428624e-002 1.995420e-003 -2.916187e-002 -1.139796e-003 -1.492874e-004 -1.059625e-003 8.742067e-004 8.746548e-005 1.168933e-003 2.670770e-005 2.430127e-004 1.014984e-003 -1.058030e-004 1.404794e-004 -1.008571e-003 -1.527353e-003
<VARIANCE> 39
 3.656399e+001 9.126617e+001 5.682244e+001 1.094474e+002 8.269714e+001 8.425960e+001 9.204363e+001 5.151342e+001 7.724690e+001 6.540997e+001 6.634410e+001 5.803918e+001 1.459913e+002 1.850292e+000 3.545534e+000 2.174754e+000 4.841993e+000 3.881065e+000 3.857547e+000 4.140976e+000 3.930565e+000 3.715668e+000 4.186471e+000 3.935690e+000 3.277643e+000 3.484928e+000 2.876414e-001 4.775660e-001 3.362399e-001 7.212310e-001 6.636813e-001 6.291654e-001 7.024379e-001 7.252964e-001 6.645052e-001 7.217744e-001 7.020907e-001 5.774865e-001 4.042819e-001
<GCONST> 1.363943e+002
<STATE> 4
<MEAN> 39
 -5.213180e+000 -7.996962e+000 -1.118955e+000 -1.491302e+001 -2.611021e+000 -9.890525e+000 -8.689975e+000 -4.832438e+000 -7.738775e+000 -5.823989e+000 -9.205496e+000 -7.621736e-001 6.337437e+001 -2.353312e-002 -4.070556e-003 -1.548848e-002 2.769168e-002 2.979398e-002 1.406111e-002 1.899970e-002 8.696848e-003 3.080232e-002 9.745494e-003 1.811213e-002 -5.652469e-003 -3.989192e-002 -9.473747e-004 1.172432e-004 -1.684419e-003 -2.086820e-004 -6.286375e-005 1.800525e-003 1.967364e-004 -2.582468e-004 7.227902e-004 2.347231e-004 2.155236e-004 -1.139034e-003 -1.210011e-003
<VARIANCE> 39
 3.668859e+001 9.122410e+001 5.658176e+001 1.078611e+002 8.201566e+001 8.353194e+001 9.214189e+001 5.119288e+001 7.833208e+001 6.466857e+001 6.554555e+001 5.796525e+001 1.482369e+002 1.841930e+000 3.485858e+000 2.164197e+000 4.720094e+000 3.831264e+000 3.809520e+000 4.107071e+000 3.875690e+000 3.700147e+000 4.127585e+000 3.855632e+000 3.239720e+000 3.378194e+000 2.852764e-001 4.688021e-001 3.338154e-001 7.038745e-001 6.535249e-001 6.229504e-001 6.941745e-001 7.142057e-001 6.623939e-001 7.113091e-001 6.887252e-001 5.688146e-001 3.914909e-001
<GCONST> 1.359843e+002
<TRANSP> 5
 0.000000e+000 1.000000e+000 0.000000e+000 0.000000e+000 0.000000e+000
 0.000000e+000 7.254335e-001 2.745666e-001 0.000000e+000 0.000000e+000
 0.000000e+000 0.000000e+000 7.254336e-001 2.745664e-001 0.000000e+000
 0.000000e+000 0.000000e+000 0.000000e+000 8.478959e-001 1.521042e-001
 0.000000e+000 0.000000e+000 0.000000e+000 0.000000e+000 0.000000e+000
<ENDHMM>
~h "o"
<BEGINHMM>
<NUMSTATES> 5
<STATE> 2
<MEAN> 39
 -5.047301e+000 -9.834538e+000 -4.837755e+000 -1.656997e+001 1.400862e+000 -7.858222e+000 -7.873554e+000 -6.119506e+000 -6.032492e+000 -5.382541e+000 -8.624959e+000 -1.622638e+000 6.581100e+001 1.221710e-002 4.968523e-003 -1.523869e-002 -7.331659e-003 2.148350e-003 9.138654e-003 -5.065140e-003 -3.059115e-003 -2.499700e-003 4.772597e-003 -1.140001e-003 6.770088e-004 -1.842159e-002 -1.329436e-004 2.954365e-003 2.989057e-003 1.873982e-004 -3.970635e-003 -2.381935e-003 -2.630514e-003 6.894874e-004 8.324444e-005 -2.019754e-004 -3.324778e-005 9.979015e-004 -3.231966e-003
<VARIANCE> 39
 4.480720e+001 1.093489e+002 4.713754e+001 1.191327e+002 7.861728e+001 6.884653e+001 8.925449e+001 5.224184e+001 6.236613e+001 6.020160e+001 6.453793e+001 4.719284e+001 1.297319e+002 2.419016e+000 4.269419e+000 2.288511e+000 6.377966e+000 4.514843e+000 3.879924e+000 4.443482e+000 4.218135e+000 3.909408e+000 4.119222e+000 4.025384e+000 3.140798e+000 3.920890e+000 3.818474e-001 5.347975e-001 3.814794e-001 9.523467e-001 7.664484e-001 6.842038e-001 7.526303e-001 7.802479e-001 6.934147e-001 7.278190e-001 7.395332e-001 5.777199e-001 4.494207e-001
<GCONST> 1.383481e+002
<STATE> 3
<MEAN> 39
 -5.013988e+000 -9.787109e+000 -4.866702e+000 -1.658237e+001 1.370292e+000 -7.842216e+000 -7.916979e+000 -6.118138e+000 -6.036849e+000 -5.365073e+000 -8.630169e+000 -1.611509e+000 6.570845e+001 1.089106e-002 1.652621e-002 -2.336371e-003 -5.459825e-003 -1.431018e-002 -1.575412e-003 -1.516282e-002 -3.720939e-004 -3.687055e-003 3.909386e-003 -2.423863e-003 4.208531e-003 -2.942761e-002 -2.565197e-004 3.591984e-003 3.674085e-003 9.759206e-004 -4.574842e-003 -3.114052e-003 -3.024475e-003 6.623451e-004 -3.691253e-004 -2.759345e-004 -1.680481e-005 6.928928e-004 -3.029795e-003
<VARIANCE> 39
 4.391722e+001 1.072336e+002 4.673930e+001 1.194006e+002 7.798862e+001 6.953197e+001 8.921705e+001 5.190870e+001 6.234660e+001 6.065360e+001 6.449239e+001 4.761985e+001 1.302005e+002 2.375549e+000 4.197039e+000 2.263061e+000 6.422350e+000 4.480762e+000 3.875275e+000 4.455616e+000 4.177355e+000 3.870816e+000 4.112156e+000 4.032085e+000 3.135011e+000 3.898141e+000 3.750317e-001 5.281870e-001 3.782142e-001 9.601583e-001 7.605674e-001 6.832500e-001 7.536051e-001 7.715966e-001 6.859947e-001 7.217733e-001 7.413127e-001 5.761500e-001 4.489089e-001
<GCONST> 1.381731e+002
<STATE> 4
<MEAN> 39
 -4.937356e+000 -9.663483e+000 -4.891520e+000 -1.659214e+001 1.227627e+000 -7.824777e+000 -8.105767e+000 -6.118700e+000 -6.048270e+000 -5.385536e+000 -8.634193e+000 -1.598394e+000 6.557000e+001 5.851700e-003 3.560802e-002 1.966304e-002 1.469348e-003 -4.366728e-002 -1.667251e-002 -3.026862e-002 5.791588e-003 -6.870763e-003 3.881309e-003 -4.393065e-003 7.303498e-003 -4.516571e-002 -4.934947e-004 3.607431e-003 3.980327e-003 1.385704e-003 -4.824225e-003 -2.397837e-003 -2.362133e-003 1.205401e-003 -5.516394e-004 2.296803e-005 1.616288e-004 -1.452070e-004 -2.468721e-003
<VARIANCE> 39
 4.321717e+001 1.050325e+002 4.642800e+001 1.201791e+002 7.723896e+001 7.097783e+001 8.880093e+001 5.162441e+001 6.265900e+001 6.170644e+001 6.434732e+001 4.833886e+001 1.303800e+002 2.341830e+000 4.097432e+000 2.225083e+000 6.449447e+000 4.417870e+000 3.854270e+000 4.447787e+000 4.141649e+000 3.824792e+000 4.130147e+000 4.039289e+000 3.134326e+000 3.843297e+000 3.698256e-001 5.215400e-001 3.717088e-001 9.613045e-001 7.512898e-001 6.772880e-001 7.484423e-001 7.646399e-001 6.766211e-001 7.194200e-001 7.416922e-001 5.750910e-001 4.453964e-001
<GCONST> 1.379661e+002
<TRANSP> 5
 0.000000e+000 1.000000e+000 0.000000e+000 0.000000e+000 0.000000e+000
 0.000000e+000 7.202018e-001 2.797982e-001 0.000000e+000 0.000000e+000
 0.000000e+000 0.000000e+000 7.202026e-001 2.797975e-001 0.000000e+000
 0.000000e+000 0.000000e+000 0.000000e+000 8.403116e-001 1.596884e-001
 0.000000e+000 0.000000e+000 0.000000e+000 0.000000e+000 0.000000e+000
<ENDHMM>
~h "p"
<BEGINHMM>
<NUMSTATES> 5
<STATE> 2
<MEAN> 39
 -6.883016e+000 -7.703380e+000 -2.996126e+000 -1.468226e+001 -1.355374e+000 -7.176998e+000 -6.811867e+000 -3.842508e+000 -5.177145e+000 -3.923795e+000 -7.378619e+000 -1.636057e+000 6.182468e+001 2.640155e-002 4.895492e-002 7.036308e-003 -7.748251e-003 -5.042722e-003 2.135927e-002 -3.529349e-002 8.568395e-003 -3.448523e-003 -1.070081e-002 -3.587182e-003 -3.001510e-002 9.616707e-003 6.430810e-004 1.869006e-003 1.082472e-003 3.135937e-004 -5.105525e-004 -6.922970e-004 1.786260e-003 -5.200572e-006 7.281742e-004 1.763042e-003 5.663641e-004 5.003646e-004 -2.720379e-003
<VARIANCE> 39
 4.001392e+001 8.044804e+001 4.913756e+001 1.232761e+002 7.538110e+001 6.367907e+001 9.641264e+001 5.114994e+001 6.360295e+001 5.057850e+001 6.553951e+001 6.182992e+001 1.605624e+002 2.173191e+000 3.700414e+000 2.397517e+000 6.237327e+000 3.834586e+000 4.015263e+000 4.476888e+000 4.108729e+000 3.634835e+000 3.829348e+000 3.689026e+000 3.382145e+000 4.662596e+000 3.581538e-001 5.393975e-001 4.268937e-001 9.623407e-001 6.855743e-001 7.350258e-001 7.679864e-001 7.756290e-001 6.597628e-001 7.012396e-001 6.788127e-001 6.012952e-001 5.342376e-001
<GCONST> 1.380064e+002
<STATE> 3
<MEAN> 39
 -6.780678e+000 -7.524230e+000 -2.976496e+000 -1.470009e+001 -1.364008e+000 -7.092007e+000 -6.924438e+000 -3.806313e+000 -5.178262e+000 -3.958857e+000 -7.386246e+000 -1.752553e+000 6.183393e+001 2.870982e-002 5.244863e-002 8.621422e-003 -6.793668e-003 -4.823431e-003 2.077291e-002 -2.769665e-002 8.258638e-003 6.108892e-004 -3.520698e-003 -4.435403e-004 -2.895106e-002 -1.392705e-004 -5.198275e-004 -1.082923e-004 -4.340952e-004 6.386765e-004 5.193883e-004 -1.478257e-004 2.565069e-003 -5.108380e-004 1.901391e-003 3.081079e-003 2.131721e-003 9.109109e-004 -3.079796e-003
<VARIANCE> 39
 3.968510e+001 7.985642e+001 5.001489e+001 1.241208e+002 7.534145e+001 6.369276e+001 9.749451e+001 5.066163e+001 6.382404e+001 5.243485e+001 6.464294e+001 6.190243e+001 1.602020e+002 2.150412e+000 3.695270e+000 2.402088e+000 6.304070e+000 3.861295e+000 4.011416e+000 4.516309e+000 4.115651e+000 3.640640e+000 3.864598e+000 3.680289e+000 3.411166e+000 4.706985e+000 3.547206e-001 5.399185e-001 4.285746e-001 9.690676e-001 6.906061e-001 7.341208e-001 7.718094e-001 7.759977e-001 6.561549e-001 7.036030e-001 6.776448e-001 6.084277e-001 5.415037e-001
<GCONST> 1.381200e+002
<STATE> 4
<MEAN> 39
 -6.643903e+000 -7.301537e+000 -2.918687e+000 -1.477290e+001 -1.392963e+000 -6.987048e+000 -7.105360e+000 -3.751246e+000 -5.213092e+000 -3.942177e+000 -7.415186e+000 -1.950468e+000 6.187256e+001 2.676023e-002 4.723889e-002 2.811908e-003 -1.776138e-003 -2.140470e-003 2.467122e-002 -1.664821e-002 3.099064e-003 7.748393e-003 5.607205e-003 7.540756e-003 -2.948064e-002 -1.499301e-002 -1.980233e-003 -2.399659e-003 -1.596418e-003 6.393779e-005 -4.745092e-004 -4.603082e-004 1.734290e-003 -1.870789e-003 8.053886e-004 2.957984e-003 2.837116e-003 1.345806e-003 -1.721148e-003
<VARIANCE> 39
 3.899230e+001 7.880853e+001 5.158335e+001 1.237034e+002 7.547328e+001 6.395898e+001 9.929768e+001 5.005409e+001 6.479929e+001 5.413098e+001 6.350023e+001 6.217331e+001 1.590137e+002 2.126594e+000 3.668456e+000 2.413605e+000 6.331860e+000 3.913028e+000 3.989095e+000 4.547646e+000 4.120132e+000 3.658281e+000 3.867465e+000 3.704144e+000 3.442270e+000 4.753964e+000 3.517242e-001 5.367258e-001 4.326938e-001 9.695694e-001 7.019253e-001 7.305053e-001 7.730365e-001 7.748307e-001 6.508966e-001 6.998599e-001 6.838593e-001 6.146789e-001 5.493497e-001
<GCONST> 1.382199e+002
<TRANSP> 5
 0.000000e+000 1.000000e+000 0.000000e+000 0.000000e+000 0.000000e+000
 0.000000e+000 7.244421e-001 2.755578e-001 0.000000e+000 0.000000e+000
 0.000000e+000 0.000000e+000 7.244424e-001 2.755577e-001 0.000000e+000
 0.000000e+000 0.000000e+000 0.000000e+000 8.452405e-001 1.547595e-001
 0.000000e+000 0.000000e+000 0.000000e+000 0.000000e+000 0.000000e+000
<ENDHMM>
~h "q"
<BEGINHMM>
<NUMSTATES> 5
<STATE> 2
<MEAN> 39
 -4.125604e+000 -9.020201e+000 -3.610680e+000 -1.639161e+001 -1.372547e+000 -7.501415e+000 -8.447996e+000 -5.372760e+000 -7.797551e+000 -4.292324e+000 -9.935393e+000 -2.088817e+000 6.577460e+001 -1.442739e-003 -6.643952e-002 1.032177e-002 2.639797e-002 -1.718178e-002 -3.835558e-002 -3.001906e-002 -1.945354e-002 -3.426583e-002 -2.549644e-002 -5.103863e-002 2.392902e-002 8.932921e-002 -9.807234e-004 3.565456e-004 1.482941e-003 -7.271089e-004 -1.467898e-003 6.942689e-004 1.939430e-004 1.277913e-003 2.559963e-003 1.979292e-003 1.994218e-003 -1.274116e-003 -1.777869e-003
<VARIANCE> 39
 3.743428e+001 1.182964e+002 5.747177e+001 1.149389e+002 9.314008e+001 6.804998e+001 8.869570e+001 4.596426e+001 6.540557e+001 6.988779e+001 6.108315e+001 5.445951e+001 1.352047e+002 2.312232e+000 4.465008e+000 2.521660e+000 6.896173e+000 4.450710e+000 4.208577e+000 4.808413e+000 3.670215e+000 4.141245e+000 4.237514e+000 3.815924e+000 3.962698e+000 4.270818e+000 4.017790e-001 5.954307e-001 3.951046e-001 1.047527e+000 7.274016e-001 7.696931e-001 8.161854e-001 7.178910e-001 7.547046e-001 7.157843e-001 6.725839e-001 7.536383e-001 4.299410e-001
<GCONST> 1.398377e+002
<STATE> 3
<MEAN> 39
 -4.145435e+000 -9.279752e+000 -3.573402e+000 -1.630179e+001 -1.435976e+000 -7.635298e+000 -8.543763e+000 -5.435561e+000 -7.907110e+000 -4.350689e+000 -1.011078e+001 -1.995258e+000 6.609830e+001 -6.002153e-003 -6.385661e-002 1.680944e-002 2.153012e-002 -2.195643e-002 -3.583984e-002 -2.750492e-002 -1.245570e-002 -2.311022e-002 -1.349112e-002 -4.247081e-002 2.001449e-002 7.913085e-002 -4.031408e-004 5.125586e-004 1.632358e-003 -1.921773e-003 -1.015964e-003 1.177109e-003 7.896001e-004 2.047071e-003 2.493251e-003 3.553893e-003 2.137734e-003 -1.376166e-003 -2.640909e-003
<VARIANCE> 39
 3.695132e+001 1.179302e+002 5.774450e+001 1.125596e+002 9.475523e+001 6.635472e+001 8.783472e+001 4.657456e+001 6.286617e+001 7.092299e+001 6.054232e+001 5.435612e+001 1.309268e+002 2.369308e+000 4.545471e+000 2.560904e+000 6.975038e+000 4.528059e+000 4.247014e+000 4.865855e+000 3.741088e+000 4.196740e+000 4.316248e+000 3.923581e+000 4.006514e+000 4.295579e+000 4.164749e-001 6.108553e-001 4.016171e-001 1.066471e+000 7.457026e-001 7.780275e-001 8.361646e-001 7.313813e-001 7.724649e-001 7.309805e-001 6.876377e-001 7.624092e-001 4.298760e-001
<GCONST> 1.401877e+002
<STATE> 4
<MEAN> 39
 -4.165203e+000 -9.608471e+000 -3.492533e+000 -1.621863e+001 -1.626016e+000 -7.803193e+000 -8.704901e+000 -5.521889e+000 -8.006330e+000 -4.405178e+000 -1.031212e+001 -1.838392e+000 6.655714e+001 -1.296197e-002 -4.780489e-002 3.430023e-002 1.922666e-002 -2.819514e-002 -3.471722e-002 -2.258396e-002 1.549749e-003 -9.690085e-003 2.621399e-003 -2.593445e-002 1.809538e-002 4.638488e-002 1.664126e-004 2.916005e-003 2.943392e-003 -9.048132e-004 -8.628716e-004 6.437685e-004 6.030462e-004 2.235323e-003 1.780419e-003 2.415101e-003 2.868137e-003 -1.045642e-003 -5.816708e-003
<VARIANCE> 39
 3.718919e+001 1.163944e+002 5.898223e+001 1.094429e+002 9.700053e+001 6.368313e+001 8.721072e+001 4.772293e+001 6.129170e+001 7.229820e+001 6.004861e+001 5.425137e+001 1.226358e+002 2.432302e+000 4.657908e+000 2.566824e+000 7.018560e+000 4.654889e+000 4.295434e+000 4.943684e+000 3.799980e+000 4.275978e+000 4.434806e+000 4.063035e+000 3.995410e+000 4.271080e+000 4.297436e-001 6.342191e-001 4.012512e-001 1.080059e+000 7.730607e-001 7.858709e-001 8.635620e-001 7.399717e-001 7.981083e-001 7.542557e-001 7.071809e-001 7.576289e-001 4.230684e-001
<GCONST> 1.405343e+002
<TRANSP> 5
 0.000000e+000 1.000000e+000 0.000000e+000 0.000000e+000 0.000000e+000
 0.000000e+000 7.303219e-001 2.696781e-001 0.000000e+000 0.000000e+000
 0.000000e+000 0.000000e+000 7.303228e-001 2.696771e-001 0.000000e+000
 0.000000e+000 0.000000e+000 0.000000e+000 8.531002e-001 1.468998e-001
 0.000000e+000 0.000000e+000 0.000000e+000 0.000000e+000 0.000000e+000
<ENDHMM>
~h "r"
<BEGINHMM>
<NUMSTATES> 5
<STATE> 2
<MEAN> 39
 -6.920908e+000 -8.771761e+000 -5.779032e-001 -1.571996e+001 -2.791282e+000 -9.932575e+000 -9.190434e+000 -5.262512e+000 -7.634086e+000 -6.382717e+000 -9.103004e+000 -9.222435e-001 6.714344e+001 1.188536e-002 -7.921702e-002 -2.691555e-002 -1.292809e-002 6.411849e-002 -2.527233e-002 -5.472175e-003 1.445719e-002 1.607554e-002 -1.716631e-002 -2.423661e-002 3.215245e-002 4.708783e-002 1.320578e-003 1.255462e-003 -4.769622e-003 -1.342142e-003 2.314195e-003 1.418305e-003 -9.626989e-004 2.799597e-003 3.808613e-003 1.091467e-005 1.451319e-003 -1.425273e-003 -3.293093e-003
<VARIANCE> 39
 5.530589e+001 1.097941e+002 6.549159e+001 9.997001e+001 7.680904e+001 6.735998e+001 9.638464e+001 6.703638e+001 7.022669e+001 6.504898e+001 6.502339e+001 5.618036e+001 1.163292e+002 3.754973e+000 4.834152e+000 3.011829e+000 5.335633e+000 4.026599e+000 3.987586e+000 4.285326e+000 5.009520e+000 4.060141e+000 4.214174e+000 4.021250e+000 3.504291e+000 2.908223e+000 5.856346e-001 6.602682e-001 4.375364e-001 7.574375e-001 6.984652e-001 7.126353e-001 7.324646e-001 8.765871e-001 7.180591e-001 7.517158e-001 7.175630e-001 6.255514e-001 2.992248e-001
<GCONST> 1.401387e+002
<STATE> 3
<MEAN> 39
 -6.870265e+000 -9.082209e+000 -7.334010e-001 -1.577725e+001 -2.508235e+000 -1.000443e+001 -9.172693e+000 -5.164769e+000 -7.532614e+000 -6.444246e+000 -9.167023e+000 -8.012898e-001 6.728713e+001 1.721604e-002 -7.460331e-002 -4.642831e-002 -1.469371e-002 7.291976e-002 -1.666565e-002 -2.066115e-003 2.839427e-002 3.064620e-002 -1.719713e-002 -1.296830e-002 2.993494e-002 2.863441e-002 1.469497e-003 1.456638e-003 -5.236314e-003 -6.487084e-004 1.938922e-003 2.467140e-003 9.601318e-004 3.911190e-003 3.822212e-003 -3.331424e-004 3.219834e-003 -1.134360e-003 -4.906078e-003
<VARIANCE> 39
 5.570010e+001 1.097054e+002 6.388603e+001 9.867243e+001 7.746888e+001 6.783086e+001 9.506421e+001 6.810760e+001 6.963014e+001 6.534300e+001 6.552859e+001 5.738323e+001 1.146417e+002 3.772539e+000 4.895666e+000 2.975341e+000 5.372229e+000 4.083075e+000 3.979504e+000 4.221786e+000 5.056026e+000 4.006455e+000 4.209468e+000 4.052988e+000 3.560806e+000 2.955442e+000 5.887302e-001 6.652706e-001 4.311709e-001 7.630320e-001 7.118381e-001 7.123478e-001 7.241369e-001 8.866392e-001 7.104012e-001 7.540930e-001 7.261106e-001 6.347604e-001 3.048514e-001
<GCONST> 1.402403e+002
<STATE> 4
<MEAN> 39
 -6.751121e+000 -9.565528e+000 -1.049238e+000 -1.584525e+001 -1.984295e+000 -1.000894e+001 -9.199032e+000 -4.885075e+000 -7.325256e+000 -6.551258e+000 -9.179989e+000 -6.579413e-001 6.751032e+001 2.293748e-002 -6.068908e-002 -6.285193e-002 -2.895552e-003 8.252762e-002 -5.007945e-003 1.403832e-002 5.070039e-002 4.409432e-002 -2.348965e-002 9.931684e-003 2.645182e-002 -8.116382e-003 1.014050e-003 3.822766e-003 -2.262031e-003 1.528994e-003 -3.805537e-004 1.969278e-003 9.261770e-004 2.905710e-003 2.179962e-003 -1.297273e-003 3.304504e-003 -1.691565e-003 -6.099077e-003
<VARIANCE> 39
 5.620415e+001 1.103441e+002 6.240216e+001 9.669852e+001 7.756388e+001 6.786317e+001 9.346928e+001 6.872714e+001 6.874649e+001 6.697736e+001 6.591591e+001 5.968969e+001 1.138181e+002 3.748660e+000 4.981667e+000 2.872511e+000 5.376638e+000 4.179206e+000 3.983583e+000 4.089850e+000 5.065309e+000 3.942977e+000 4.177042e+000 4.048396e+000 3.631197e+000 3.021594e+000 5.818822e-001 6.723311e-001 4.114675e-001 7.675421e-001 7.343256e-001 7.143549e-001 7.067625e-001 8.965652e-001 7.019683e-001 7.456009e-001 7.309874e-001 6.438417e-001 3.177314e-001
<GCONST> 1.402610e+002
<TRANSP> 5
 0.000000e+000 1.000000e+000 0.000000e+000 0.000000e+000 0.000000e+000
 0.000000e+000 7.286338e-001 2.713661e-001 0.000000e+000 0.000000e+000
 0.000000e+000 0.000000e+000 7.286342e-001 2.713659e-001 0.000000e+000
 0.000000e+000 0.000000e+000 0.000000e+000 8.507079e-001 1.492921e-001
 0.000000e+000 0.000000e+000 0.000000e+000 0.000000e+000 0.000000e+000
<ENDHMM>
~h "s"
<BEGINHMM>
<NUMSTATES> 5
<STATE> 2
<MEAN> 39
 -9.512069e+000 -6.813734e+000 -9.063666e-001 -1.598293e+001 -7.512782e-001 -8.030095e+000 -7.910142e+000 -3.792631e+000 -5.559019e+000 -5.159131e+000 -6.588367e+000 -6.987654e-001 6.560300e+001 -1.303413e-002 3.528419e-002 -1.569415e-002 -2.673658e-002 2.554880e-002 4.314549e-002 6.636981e-003 2.043596e-003 -9.511310e-004 -2.398148e-002 1.065423e-002 -1.429541e-002 2.629254e-003 3.485754e-003 -4.221422e-003 -3.742213e-003 -3.820530e-003 2.220394e-003 1.818513e-003 -1.087568e-003 -2.997178e-003 -6.611440e-004 1.162496e-003 -1.191540e-003 -2.835818e-003 9.442293e-004
<VARIANCE> 39
 1.072583e+002 1.101591e+002 6.670121e+001 1.034585e+002 7.686022e+001 7.118314e+001 9.675384e+001 5.625850e+001 7.036651e+001 5.476479e+001 6.727919e+001 4.905684e+001 1.273306e+002 5.345220e+000 5.405541e+000 2.609676e+000 4.897534e+000 4.663237e+000 4.085380e+000 4.409483e+000 3.847230e+000 4.137973e+000 4.030495e+000 4.157983e+000 3.263253e+000 2.499998e+000 7.034815e-001 6.537331e-001 3.934837e-001 7.335964e-001 8.456800e-001 7.020907e-001 7.476341e-001 6.926932e-001 7.149660e-001 7.359300e-001 7.066346e-001 5.939760e-001 3.008826e-001
<GCONST> 1.404265e+002
<STATE> 3
<MEAN> 39
 -9.496476e+000 -6.724935e+000 -1.005877e+000 -1.610830e+001 -6.436095e-001 -7.869092e+000 -7.895114e+000 -3.800165e+000 -5.564020e+000 -5.235316e+000 -6.558852e+000 -7.637191e-001 6.560383e+001 8.594763e-003 1.773143e-002 -3.486330e-002 -4.053322e-002 3.239293e-002 4.632259e-002 2.186499e-003 -5.021658e-003 -2.919245e-003 -1.725138e-002 3.028483e-003 -2.226326e-002 9.573940e-004 6.065154e-003 -5.053008e-003 -5.050492e-003 -3.650617e-003 1.725467e-003 -1.285447e-004 -1.275208e-003 -1.544518e-003 -7.828238e-004 2.069332e-003 -2.549204e-003 -1.739832e-003 -1.992664e-004
<VARIANCE> 39
 1.090925e+002 1.108093e+002 6.929210e+001 1.058105e+002 7.759626e+001 7.089574e+001 9.491766e+001 5.610386e+001 6.904100e+001 5.482897e+001 6.700371e+001 4.824261e+001 1.260055e+002 5.362404e+000 5.433335e+000 2.621588e+000 4.952734e+000 4.634532e+000 4.056915e+000 4.389789e+000 3.795059e+000 4.086307e+000 4.023097e+000 4.147069e+000 3.229091e+000 2.515203e+000 7.078523e-001 6.533423e-001 3.945212e-001 7.426863e-001 8.423729e-001 6.993701e-001 7.455354e-001 6.808744e-001 7.059931e-001 7.356877e-001 7.082056e-001 5.892038e-001 3.011067e-001
<GCONST> 1.403904e+002
<STATE> 4
<MEAN> 39
 -9.297172e+000 -6.687279e+000 -1.151796e+000 -1.637354e+001 -5.038893e-001 -7.696962e+000 -7.959867e+000 -3.811060e+000 -5.620240e+000 -5.340799e+000 -6.585973e+000 -8.795737e-001 6.567298e+001 5.104629e-002 -1.191313e-002 -5.909520e-002 -5.746272e-002 3.221298e-002 3.878448e-002 -5.558395e-003 -1.321676e-002 -8.193081e-003 -1.431974e-002 -1.293000e-002 -2.423906e-002 -6.884030e-003 5.991491e-003 -5.283848e-003 -3.485231e-003 -2.860709e-003 -1.400442e-004 -1.939278e-003 -1.143545e-003 -1.233501e-003 -1.248738e-003 7.190997e-004 -3.194185e-003 1.207872e-005 -2.321603e-004
<VARIANCE> 39
 1.100565e+002 1.119702e+002 7.337973e+001 1.088015e+002 7.943155e+001 7.028920e+001 9.301823e+001 5.687805e+001 6.759112e+001 5.579030e+001 6.695374e+001 4.790626e+001 1.228900e+002 5.309032e+000 5.398861e+000 2.645255e+000 5.030509e+000 4.575236e+000 4.012037e+000 4.376550e+000 3.754210e+000 3.999916e+000 3.994589e+000 4.130496e+000 3.181927e+000 2.578758e+000 7.028297e-001 6.466500e-001 3.952769e-001 7.559599e-001 8.323812e-001 6.947443e-001 7.443093e-001 6.677138e-001 6.914031e-001 7.275168e-001 7.094259e-001 5.794032e-001 3.058534e-001
<GCONST> 1.403456e+002
<TRANSP> 5
 0.000000e+000 1.000000e+000 0.000000e+000 0.000000e+000 0.000000e+000
 0.000000e+000 7.266931e-001 2.733069e-001 0.000000e+000 0.000000e+000
 0.000000e+000 0.000000e+000 7.266934e-001 2.733066e-001 0.000000e+000
 0.000000e+000 0.000000e+000 0.000000e+000 8.480943e-001 1.519057e-001
 0.000000e+000 0.000000e+000 0.000000e+000 0.000000e+000 0.000000e+000
<ENDHMM>
~h "t"
<BEGINHMM>
<NUMSTATES> 5
<STATE> 2
<MEAN> 39
 -6.118885e+000 -8.425809e+000 -2.971472e+000 -1.482824e+001 -1.134214e+000 -7.550973e+000 -7.782462e+000 -4.011911e+000 -6.082742e+000 -4.849483e+000 -7.024124e+000 -1.365211e+000 6.205103e+001 -2.494067e-003 2.873850e-003 1.258010e-002 9.292410e-003 3.148890e-003 -5.341316e-003 2.759314e-003 -9.464929e-003 -8.881686e-003 -3.157201e-003 -9.917495e-003 -1.900706e-002 7.276704e-003 -3.109214e-004 -7.311109e-004 1.797311e-003 3.329869e-004 -2.824674e-004 -1.112550e-003 1.625133e-003 -6.125802e-004 -7.075216e-004 3.176220e-004 -1.320458e-003 7.027574e-004 7.220700e-004
<VARIANCE> 39
 3.709693e+001 8.481601e+001 4.980720e+001 1.115299e+002 7.513165e+001 6.606237e+001 9.246200e+001 4.945707e+001 7.143673e+001 6.146254e+001 6.534684e+001 5.870431e+001 1.626490e+002 1.942665e+000 3.328274e+000 2.308079e+000 5.394734e+000 3.986778e+000 3.668299e+000 4.243720e+000 3.765793e+000 3.963282e+000 4.066727e+000 4.061544e+000 3.441097e+000 4.898659e+000 3.256098e-001 4.730740e-001 3.855627e-001 8.079978e-001 7.105845e-001 6.677252e-001 7.439164e-001 7.101716e-001 7.137264e-001 7.294948e-001 7.437551e-001 6.224395e-001 5.910013e-001
<GCONST> 1.375020e+002
<STATE> 3
<MEAN> 39
 -6.127618e+000 -8.427260e+000 -2.916536e+000 -1.479837e+001 -1.121704e+000 -7.578608e+000 -7.763513e+000 -4.049095e+000 -6.117699e+000 -4.857659e+000 -7.074397e+000 -1.435386e+000 6.209778e+001 -3.231010e-003 3.565935e-004 1.764163e-002 8.909605e-003 1.454791e-003 -1.014207e-002 8.209365e-003 -1.017632e-002 -1.056692e-002 -1.358143e-003 -1.523802e-002 -1.635487e-002 1.150374e-002 -2.365729e-004 -8.461157e-004 1.047716e-003 -3.886292e-004 -4.516781e-004 -9.839133e-004 1.450206e-003 -4.386586e-005 -5.804507e-004 4.050907e-004 -1.371545e-003 7.400432e-004 1.155288e-003
<VARIANCE> 39
 3.738908e+001 8.565340e+001 4.950968e+001 1.113586e+002 7.488312e+001 6.550430e+001 9.267197e+001 4.940981e+001 7.150613e+001 6.159393e+001 6.519907e+001 5.835231e+001 1.629056e+002 1.934679e+000 3.315180e+000 2.299193e+000 5.393765e+000 3.976876e+000 3.669757e+000 4.256470e+000 3.743888e+000 3.958000e+000 4.058839e+000 4.063859e+000 3.420178e+000 4.934039e+000 3.224171e-001 4.703978e-001 3.838315e-001 8.067095e-001 7.070668e-001 6.659817e-001 7.429533e-001 7.057980e-001 7.119227e-001 7.267793e-001 7.439188e-001 6.190065e-001 5.977120e-001
<GCONST> 1.374424e+002
<STATE> 4
<MEAN> 39
 -6.136817e+000 -8.527563e+000 -2.831769e+000 -1.478094e+001 -1.083817e+000 -7.615013e+000 -7.700048e+000 -4.099172e+000 -6.182773e+000 -4.868332e+000 -7.166550e+000 -1.545482e+000 6.232921e+001 -2.955189e-003 -3.610438e-003 2.223461e-002 4.171497e-003 -3.762030e-003 -1.716139e-002 1.103508e-002 -1.133315e-002 -1.465487e-002 -7.063350e-005 -2.448002e-002 -1.291142e-002 2.274910e-002 -4.310321e-005 -4.104531e-004 6.765192e-004 -8.678264e-004 -9.356961e-004 -1.055300e-003 7.058013e-004 3.072248e-004 -8.126497e-004 2.523041e-004 -1.107181e-003 8.197455e-004 1.258849e-003
<VARIANCE> 39
 3.781392e+001 8.758327e+001 5.010152e+001 1.111339e+002 7.563609e+001 6.517297e+001 9.257948e+001 4.954012e+001 7.137496e+001 6.161968e+001 6.513501e+001 5.775680e+001 1.633663e+002 1.919362e+000 3.308719e+000 2.279685e+000 5.373271e+000 3.956497e+000 3.676212e+000 4.268822e+000 3.704185e+000 3.919755e+000 4.031240e+000 4.053257e+000 3.385878e+000 4.980786e+000 3.169811e-001 4.676712e-001 3.782478e-001 8.034196e-001 6.986683e-001 6.623797e-001 7.418275e-001 6.973277e-001 7.022823e-001 7.197008e-001 7.415882e-001 6.131677e-001 6.057103e-001
<GCONST> 1.373342e+002
<TRANSP> 5
 0.000000e+000 1.000000e+000 0.000000e+000 0.000000e+000 0.000000e+000
 0.000000e+000 7.253929e-001 2.746071e-001 0.000000e+000 0.000000e+000
 0.000000e+000 0.000000e+000 7.253885e-001 2.746115e-001 0.000000e+000
 0.000000e+000 0.000000e+000 0.000000e+000 8.471894e-001 1.528106e-001
 0.000000e+000 0.000000e+000 0.000000e+000 0.000000e+000 0.000000e+000
<ENDHMM>
~h "u"
<BEGINHMM>
<NUMSTATES> 5
<STATE> 2
<MEAN> 39
 -5.757710e+000 -6.435530e+000 -3.018640e+000 -1.694047e+001 -2.503723e+000 -7.086452e+000 -8.943300e+000 -4.352632e+000 -6.782052e+000 -3.390253e+000 -7.933842e+000 -2.163643e+000 6.382430e+001 1.492261e-002 -3.651123e-002 -1.552474e-002 1.368751e-002 8.888186e-003 -2.787055e-002 -1.893869e-002 -1.879162e-002 -1.055315e-002 -1.532422e-003 -1.788168e-002 1.489755e-002 -1.654179e-002 -1.305718e-003 -1.485017e-004 2.193206e-003 3.267431e-003 1.303192e-005 -8.612340e-004 8.547031e-004 9.961771e-005 5.231419e-004 -3.267451e-003 1.030688e-003 8.164751e-004 -1.343382e-003
<VARIANCE> 39
 5.045385e+001 8.263086e+001 6.258289e+001 1.293728e+002 8.562026e+001 6.730813e+001 9.343630e+001 5.047036e+001 7.888074e+001 6.300205e+001 6.253360e+001 5.070287e+001 1.499875e+002 2.565725e+000 3.659257e+000 2.469348e+000 5.608051e+000 4.377219e+000 3.752156e+000 4.682864e+000 4.046631e+000 4.378884e+000 4.119236e+000 4.010923e+000 3.276361e+000 3.754329e+000 3.903905e-001 4.923089e-001 3.839612e-001 8.255311e-001 7.771820e-001 6.699213e-001 8.151314e-001 7.476236e-001 7.686221e-001 7.358671e-001 7.288865e-001 6.087850e-001 4.270714e-001
<GCONST> 1.389330e+002
<STATE> 3
<MEAN> 39
 -5.720532e+000 -6.568929e+000 -3.056774e+000 -1.685686e+001 -2.467711e+000 -7.187339e+000 -8.999793e+000 -4.416197e+000 -6.806274e+000 -3.418190e+000 -7.978460e+000 -2.101770e+000 6.374102e+001 9.447727e-003 -3.682024e-002 -6.832318e-003 2.666183e-002 9.106807e-003 -3.069800e-002 -1.408309e-002 -1.817927e-002 -8.853774e-003 -1.405436e-002 -1.360369e-002 1.852572e-002 -2.206817e-002 -1.404419e-003 1.741219e-004 2.431274e-003 3.744687e-003 7.610636e-005 -4.951786e-004 1.576454e-003 2.809429e-004 5.558121e-004 -3.229191e-003 1.514104e-003 1.211538e-003 -1.420065e-003
<VARIANCE> 39
 4.777233e+001 8.151495e+001 6.222898e+001 1.282425e+002 8.491994e+001 6.767561e+001 9.404595e+001 5.040384e+001 7.974262e+001 6.318437e+001 6.227567e+001 5.097854e+001 1.508161e+002 2.465423e+000 3.606664e+000 2.437670e+000 5.576813e+000 4.360395e+000 3.720606e+000 4.677269e+000 4.060676e+000 4.362286e+000 4.111295e+000 4.002159e+000 3.278526e+000 3.790471e+000 3.788719e-001 4.900935e-001 3.811636e-001 8.273025e-001 7.785005e-001 6.640879e-001 8.145149e-001 7.503119e-001 7.682421e-001 7.345053e-001 7.283110e-001 6.087560e-001 4.334278e-001
<GCONST> 1.387605e+002
<STATE> 4
<MEAN> 39
 -5.613894e+000 -6.636511e+000 -3.067720e+000 -1.663317e+001 -2.486743e+000 -7.218042e+000 -9.029829e+000 -4.476811e+000 -6.736684e+000 -3.526024e+000 -7.917986e+000 -2.079566e+000 6.352883e+001 -6.189593e-004 -3.763041e-002 6.813894e-003 4.483782e-002 9.993287e-003 -3.171115e-002 -2.291593e-003 -1.584829e-002 -5.189693e-003 -2.873413e-002 -4.968005e-003 2.382237e-002 -3.103141e-002 -1.294156e-003 2.970767e-004 2.276216e-003 2.746644e-003 -7.531602e-005 -2.978561e-004 2.197473e-003 6.765919e-004 1.338266e-004 -2.087885e-003 1.625072e-003 9.143713e-004 -8.254133e-004
<VARIANCE> 39
 4.436134e+001 8.027850e+001 6.080783e+001 1.274473e+002 8.317797e+001 6.806523e+001 9.548280e+001 5.009166e+001 8.129559e+001 6.323185e+001 6.162117e+001 5.215927e+001 1.526873e+002 2.302397e+000 3.480297e+000 2.363926e+000 5.505858e+000 4.313250e+000 3.653294e+000 4.635420e+000 4.022618e+000 4.285705e+000 4.085236e+000 3.942777e+000 3.254003e+000 3.802001e+000 3.596488e-001 4.789098e-001 3.739707e-001 8.232743e-001 7.752585e-001 6.512732e-001 8.054889e-001 7.437776e-001 7.566723e-001 7.288962e-001 7.184443e-001 6.026844e-001 4.379514e-001
<GCONST> 1.382631e+002
<TRANSP> 5
 0.000000e+000 1.000000e+000 0.000000e+000 0.000000e+000 0.000000e+000
 0.000000e+000 7.253173e-001 2.746827e-001 0.000000e+000 0.000000e+000
 0.000000e+000 0.000000e+000 7.253191e-001 2.746809e-001 0.000000e+000
 0.000000e+000 0.000000e+000 0.000000e+000 8.470213e-001 1.529787e-001
 0.000000e+000 0.000000e+000 0.000000e+000 0.000000e+000 0.000000e+000
<ENDHMM>
~h "v"
<BEGINHMM>
<NUMSTATES> 5
<STATE> 2
<MEAN> 39
 -5.371777e+000 -7.384115e+000 -1.901704e+000 -1.554917e+001 -2.866256e+000 -7.781472e+000 -7.853610e+000 -4.925334e+000 -6.889701e+000 -4.476677e+000 -8.633355e+000 -2.696760e+000 6.358961e+001 1.122457e-002 -4.697136e-003 -1.040118e-002 3.739364e-003 1.376625e-002 2.213642e-003 -9.386407e-003 -7.445720e-003 1.338775e-003 -1.738901e-002 3.673356e-003 -2.712156e-003 1.903944e-002 -1.559000e-003 -2.703360e-003 4.022870e-004 2.145217e-004 1.784890e-003 9.130531e-004 -2.279520e-004 -1.399851e-003 -1.252484e-003 4.594187e-004 5.771398e-004 -5.885785e-004 2.032621e-003
<VARIANCE> 39
 3.324224e+001 9.017792e+001 5.545671e+001 1.317516e+002 8.048701e+001 5.993059e+001 8.050861e+001 5.512059e+001 6.826879e+001 6.558133e+001 6.025584e+001 5.376604e+001 1.498402e+002 1.868986e+000 3.423444e+000 2.065593e+000 6.245721e+000 3.795418e+000 3.076772e+000 4.100742e+000 3.993478e+000 3.614486e+000 4.283564e+000 4.086985e+000 3.047955e+000 3.582553e+000 3.169607e-001 4.708439e-001 3.335324e-001 9.169056e-001 6.408213e-001 5.469901e-001 7.250473e-001 7.254709e-001 6.386805e-001 7.622825e-001 7.594383e-001 5.568215e-001 3.780216e-001
<GCONST> 1.358320e+002
<STATE> 3
<MEAN> 39
 -5.343860e+000 -7.436304e+000 -1.935819e+000 -1.554814e+001 -2.804498e+000 -7.771715e+000 -7.887797e+000 -4.955708e+000 -6.904518e+000 -4.534195e+000 -8.633963e+000 -2.715744e+000 6.369590e+001 5.228479e-003 -1.515120e-002 -1.156357e-002 3.868178e-006 1.663288e-002 3.971585e-003 -1.042201e-002 -9.825972e-003 -2.923722e-003 -1.447502e-002 4.320777e-003 -6.013741e-003 2.733122e-002 -1.456841e-003 -2.523380e-003 -1.466363e-004 -1.282523e-003 4.584441e-004 2.747653e-004 -6.891119e-004 -6.506144e-004 -1.302353e-003 7.462711e-004 -2.292336e-004 -1.112946e-003 2.317278e-003
<VARIANCE> 39
 3.353170e+001 9.125253e+001 5.561650e+001 1.321444e+002 8.091496e+001 5.960944e+001 8.025581e+001 5.459943e+001 6.757687e+001 6.564747e+001 6.044537e+001 5.353048e+001 1.495651e+002 1.864854e+000 3.439125e+000 2.064628e+000 6.237053e+000 3.794877e+000 3.094985e+000 4.118406e+000 3.997247e+000 3.580643e+000 4.257386e+000 4.080487e+000 3.052160e+000 3.571111e+000 3.155640e-001 4.711647e-001 3.315786e-001 9.162120e-001 6.403387e-001 5.502872e-001 7.259606e-001 7.265483e-001 6.315845e-001 7.582146e-001 7.527470e-001 5.575756e-001 3.753183e-001
<GCONST> 1.357923e+002
<STATE> 4
<MEAN> 39
 -5.319103e+000 -7.557557e+000 -1.999959e+000 -1.561761e+001 -2.758420e+000 -7.712539e+000 -8.023046e+000 -5.086115e+000 -6.981470e+000 -4.597903e+000 -8.658790e+000 -2.859559e+000 6.403526e+001 9.708999e-004 -2.789591e-002 -6.813215e-003 -9.722366e-003 1.396780e-002 -2.097805e-003 -1.357173e-002 -8.638006e-003 -1.507831e-002 -1.333758e-002 -3.837375e-003 -6.303552e-003 4.384986e-002 -4.183319e-004 -1.276889e-003 6.604151e-004 -1.251194e-003 -3.870832e-004 -9.368098e-004 -1.057598e-003 4.393607e-005 -1.278960e-003 8.532793e-005 -1.034498e-003 -2.597076e-005 1.546086e-003
<VARIANCE> 39
 3.366952e+001 9.338615e+001 5.612363e+001 1.321666e+002 8.185014e+001 5.953603e+001 8.007693e+001 5.417619e+001 6.654591e+001 6.498814e+001 6.048399e+001 5.396893e+001 1.487360e+002 1.838902e+000 3.471367e+000 2.066089e+000 6.229705e+000 3.777566e+000 3.125947e+000 4.152432e+000 4.015993e+000 3.529106e+000 4.218163e+000 4.049834e+000 3.029979e+000 3.583280e+000 3.109006e-001 4.710731e-001 3.287095e-001 9.195682e-001 6.363802e-001 5.550068e-001 7.283317e-001 7.301424e-001 6.188361e-001 7.528204e-001 7.363775e-001 5.536169e-001 3.724884e-001
<GCONST> 1.357110e+002
<TRANSP> 5
 0.000000e+000 1.000000e+000 0.000000e+000 0.000000e+000 0.000000e+000
 0.000000e+000 7.247059e-001 2.752941e-001 0.000000e+000 0.000000e+000
 0.000000e+000 0.000000e+000 7.247055e-001 2.752945e-001 0.000000e+000
 0.000000e+000 0.000000e+000 0.000000e+000 8.466319e-001 1.533681e-001
 0.000000e+000 0.000000e+000 0.000000e+000 0.000000e+000 0.000000e+000
<ENDHMM>
~h "x"
<BEGINHMM>
<NUMSTATES> 5
<STATE> 2
<MEAN> 39
 -8.741052e+000 -7.174295e+000 -3.536152e+000 -1.372526e+001 -1.442404e+000 -9.325032e+000 -6.503656e+000 -4.337243e+000 -6.957089e+000 -5.032975e+000 -7.188900e+000 -7.489927e-001 6.623544e+001 7.250924e-003 -2.519712e-002 -1.686658e-002 1.547612e-002 -1.205680e-002 2.494347e-002 2.990373e-002 2.302200e-002 4.871526e-003 -2.350298e-002 3.476115e-002 1.082018e-002 -4.783687e-002 4.923125e-003 9.220272e-004 1.163222e-003 -3.277223e-004 1.182478e-004 1.297046e-003 -1.515131e-003 7.515352e-004 2.555529e-003 -1.313142e-003 4.602044e-004 1.330762e-003 -4.524782e-003
<VARIANCE> 39
 7.522027e+001 1.034687e+002 5.646265e+001 1.461049e+002 8.190648e+001 6.247778e+001 1.004254e+002 5.126696e+001 6.623672e+001 5.904136e+001 6.546548e+001 5.170499e+001 1.115950e+002 3.651245e+000 3.980144e+000 2.341436e+000 6.927031e+000 3.853271e+000 4.143466e+000 4.822938e+000 3.501863e+000 3.595247e+000 3.886465e+000 3.958247e+000 3.199361e+000 2.758260e+000 5.013903e-001 4.754168e-001 3.710994e-001 9.302118e-001 6.887664e-001 7.211745e-001 7.635132e-001 6.345004e-001 5.980816e-001 6.696964e-001 6.732362e-001 5.679569e-001 3.030083e-001
<GCONST> 1.381129e+002
<STATE> 3
<MEAN> 39
 -8.660620e+000 -7.263028e+000 -3.573050e+000 -1.368382e+001 -1.495478e+000 -9.227906e+000 -6.414133e+000 -4.260431e+000 -6.921641e+000 -5.135574e+000 -7.060548e+000 -7.161226e-001 6.601639e+001 2.700548e-002 -2.190995e-002 -9.247211e-003 1.513158e-002 -1.134146e-002 2.678113e-002 2.393527e-002 2.098499e-002 1.417581e-002 -2.880532e-002 3.487096e-002 1.530486e-002 -6.686246e-002 4.364530e-003 1.440044e-003 1.770539e-003 4.060939e-004 4.530350e-004 1.823676e-004 -1.949450e-003 -1.396752e-003 2.600785e-003 -1.328993e-003 -2.179535e-004 9.503781e-004 -4.930932e-003
<VARIANCE> 39
 7.416227e+001 1.031854e+002 5.539594e+001 1.433364e+002 8.169977e+001 6.236781e+001 1.006903e+002 5.167129e+001 6.638948e+001 5.898811e+001 6.471628e+001 5.198537e+001 1.152400e+002 3.573839e+000 3.940833e+000 2.313690e+000 6.863212e+000 3.824878e+000 4.092525e+000 4.752791e+000 3.496957e+000 3.597799e+000 3.841749e+000 3.958600e+000 3.166263e+000 2.750285e+000 4.962151e-001 4.723209e-001 3.682809e-001 9.265448e-001 6.848561e-001 7.133994e-001 7.578344e-001 6.324199e-001 6.023181e-001 6.607244e-001 6.801242e-001 5.632798e-001 2.993255e-001
<GCONST> 1.379065e+002
<STATE> 4
<MEAN> 39
 -8.634964e+000 -7.131649e+000 -3.441251e+000 -1.302858e+001 -1.503016e+000 -8.743488e+000 -6.257014e+000 -4.219812e+000 -6.407921e+000 -5.208385e+000 -6.449320e+000 -9.919226e-001 6.503398e+001 4.891784e-002 -1.752811e-002 8.664050e-003 1.187891e-002 -1.277877e-002 2.198699e-002 9.838330e-003 4.818658e-003 2.371425e-002 -3.492842e-002 2.940275e-002 1.257486e-002 -8.373139e-002 1.807821e-003 1.685265e-003 1.356390e-003 1.365094e-003 4.363287e-004 -3.365820e-004 -1.370737e-003 -2.451462e-003 2.660601e-003 -7.970197e-004 -5.324231e-004 2.616660e-004 -4.128452e-003
<VARIANCE> 39
 7.209685e+001 1.033568e+002 5.709346e+001 1.404477e+002 8.215606e+001 6.166563e+001 1.041180e+002 5.073493e+001 6.687381e+001 5.591629e+001 6.257616e+001 5.235449e+001 1.286652e+002 3.307058e+000 3.653677e+000 2.225461e+000 6.391253e+000 3.655981e+000 3.901533e+000 4.538027e+000 3.352454e+000 3.443502e+000 3.686299e+000 3.792762e+000 3.000745e+000 2.597804e+000 4.636548e-001 4.364701e-001 3.538306e-001 8.712400e-001 6.544413e-001 6.837279e-001 7.318612e-001 6.041160e-001 5.809419e-001 6.390892e-001 6.628129e-001 5.365061e-001 2.748965e-001
<GCONST> 1.366072e+002
<TRANSP> 5
 0.000000e+000 1.000000e+000 0.000000e+000 0.000000e+000 0.000000e+000
 0.000000e+000 7.293572e-001 2.706428e-001 0.000000e+000 0.000000e+000
 0.000000e+000 0.000000e+000 7.293580e-001 2.706421e-001 0.000000e+000
 0.000000e+000 0.000000e+000 0.000000e+000 8.584289e-001 1.415711e-001
 0.000000e+000 0.000000e+000 0.000000e+000 0.000000e+000 0.000000e+000
<ENDHMM>
~h "y"
<BEGINHMM>
<NUMSTATES> 5
<STATE> 2
<MEAN> 39
 -7.401824e+000 -8.260511e+000 1.996731e-001 -1.512153e+001 -4.116831e+000 -8.897245e+000 -6.158288e+000 -5.430104e+000 -8.052863e+000 -3.367770e+000 -8.742775e+000 -1.614777e+000 6.342530e+001 1.130540e-003 1.985353e-002 -1.653171e-002 -7.104696e-003 1.103566e-003 -1.504317e-002 -2.005932e-002 4.881847e-003 7.105307e-003 3.866612e-003 -1.179996e-002 -4.374344e-003 -1.028099e-002 7.373520e-004 1.062634e-003 -2.508841e-004 -1.642900e-003 1.437012e-003 -1.289791e-003 -3.712481e-003 7.103563e-004 9.911404e-004 -2.075939e-003 3.702254e-004 9.204421e-004 4.412799e-004
<VARIANCE> 39
 3.344879e+001 8.907363e+001 5.714646e+001 1.005680e+002 7.302627e+001 5.948191e+001 8.144186e+001 4.393622e+001 8.565437e+001 6.057037e+001 5.875286e+001 4.218174e+001 1.836436e+002 1.807159e+000 3.753256e+000 2.090374e+000 3.985760e+000 3.760164e+000 3.088727e+000 4.267937e+000 3.303224e+000 3.627250e+000 3.862857e+000 3.064336e+000 2.917926e+000 3.172616e+000 2.774162e-001 4.879110e-001 2.840396e-001 5.929502e-001 6.031244e-001 5.320769e-001 6.698325e-001 6.045352e-001 6.362509e-001 6.532688e-001 5.447002e-001 5.367520e-001 3.455733e-001
<GCONST> 1.326006e+002
<STATE> 3
<MEAN> 39
 -7.396729e+000 -8.181977e+000 1.321815e-001 -1.514313e+001 -4.093881e+000 -8.953712e+000 -6.259234e+000 -5.416472e+000 -8.021200e+000 -3.374470e+000 -8.774887e+000 -1.624291e+000 6.337070e+001 3.519608e-003 2.252087e-002 -1.969385e-002 -1.100435e-002 7.164398e-003 -1.833349e-002 -3.209283e-002 7.217155e-003 1.264282e-002 -5.583895e-003 -9.273594e-003 -1.326036e-003 -1.055316e-002 4.654409e-004 3.614196e-004 -7.748586e-004 -9.957231e-004 1.419476e-003 4.827916e-005 -3.149969e-003 7.406565e-004 1.734841e-003 -2.812039e-003 8.935404e-004 2.798076e-004 -3.556467e-004
<VARIANCE> 39
 3.357286e+001 8.881675e+001 5.763509e+001 1.010721e+002 7.299947e+001 5.993864e+001 8.174771e+001 4.429129e+001 8.673045e+001 6.023313e+001 5.813499e+001 4.269816e+001 1.836755e+002 1.819137e+000 3.703223e+000 2.095676e+000 4.007878e+000 3.717366e+000 3.104776e+000 4.229761e+000 3.323387e+000 3.644782e+000 3.873860e+000 3.083146e+000 2.938764e+000 3.167472e+000 2.802905e-001 4.831369e-001 2.861585e-001 5.959811e-001 5.956988e-001 5.352300e-001 6.684231e-001 6.077900e-001 6.406359e-001 6.554898e-001 5.499426e-001 5.404701e-001 3.492831e-001
<GCONST> 1.327012e+002
<STATE> 4
<MEAN> 39
 -7.426326e+000 -8.027382e+000 1.016119e-001 -1.519385e+001 -4.069144e+000 -8.967328e+000 -6.524091e+000 -5.447435e+000 -8.011368e+000 -3.427646e+000 -8.886196e+000 -1.676918e+000 6.334388e+001 6.759253e-003 1.734394e-002 -3.248386e-002 -5.047318e-003 2.226701e-002 -1.152918e-002 -3.784794e-002 1.057596e-002 2.707146e-002 -2.562269e-002 1.240391e-003 1.474538e-003 -2.095789e-002 4.472059e-004 -8.349178e-004 -1.665278e-003 3.470058e-004 1.654049e-003 1.745333e-003 -9.717833e-004 1.544463e-003 2.630194e-003 -3.135841e-003 2.008143e-003 1.376106e-004 -1.682549e-003
<VARIANCE> 39
 3.317830e+001 9.046954e+001 5.835331e+001 1.009058e+002 7.291476e+001 5.980148e+001 8.338754e+001 4.458008e+001 8.829664e+001 5.901455e+001 5.727929e+001 4.355769e+001 1.833024e+002 1.780802e+000 3.568779e+000 2.070005e+000 3.974488e+000 3.611820e+000 3.080122e+000 4.155768e+000 3.302483e+000 3.637824e+000 3.839817e+000 3.083232e+000 2.928132e+000 3.130887e+000 2.764828e-001 4.630365e-001 2.847708e-001 5.903588e-001 5.776601e-001 5.316740e-001 6.642007e-001 6.044350e-001 6.420639e-001 6.540375e-001 5.522841e-001 5.371005e-001 3.504753e-001
<GCONST> 1.324580e+002
<TRANSP> 5
 0.000000e+000 1.000000e+000 0.000000e+000 0.000000e+000 0.000000e+000
 0.000000e+000 7.266223e-001 2.733777e-001 0.000000e+000 0.000000e+000
 0.000000e+000 0.000000e+000 7.266225e-001 2.733775e-001 0.000000e+000
 0.000000e+000 0.000000e+000 0.000000e+000 8.500159e-001 1.499840e-001
 0.000000e+000 0.000000e+000 0.000000e+000 0.000000e+000 0.000000e+000
<ENDHMM>
~h "aa"
<BEGINHMM>
<NUMSTATES> 5
<STATE> 2
<MEAN> 39
 -6.215207e+000 -7.704505e+000 -3.315493e+000 -1.507621e+001 -1.583750e+000 -1.049629e+001 -9.559464e+000 -3.994961e+000 -6.632434e+000 -6.022805e+000 -8.654849e+000 8.498744e-001 6.334990e+001 -9.445352e-003 2.288033e-002 -4.142533e-003 -2.219427e-002 -3.419564e-002 -2.649792e-002 9.877695e-003 1.412988e-002 -2.138872e-002 6.447172e-003 -1.705283e-002 9.566396e-003 -7.822232e-003 -2.118469e-003 -6.979182e-004 -4.175434e-004 -1.632311e-003 -3.890552e-004 3.609371e-003 3.550972e-003 -1.342949e-003 1.630584e-003 1.165786e-003 1.505353e-003 -2.882225e-003 -4.666139e-004
<VARIANCE> 39
 4.551723e+001 8.437222e+001 4.575087e+001 1.132081e+002 6.827736e+001 8.890510e+001 9.198193e+001 5.457735e+001 7.087373e+001 7.032541e+001 5.687898e+001 5.749331e+001 1.511723e+002 2.234023e+000 3.719165e+000 2.075386e+000 5.380950e+000 3.726633e+000 3.957819e+000 4.343463e+000 4.498719e+000 3.730959e+000 4.108176e+000 3.845955e+000 3.365108e+000 3.391207e+000 3.376480e-001 4.882219e-001 3.237740e-001 8.002028e-001 6.479980e-001 6.657503e-001 7.407364e-001 8.337677e-001 6.937190e-001 7.207446e-001 7.039541e-001 6.075065e-001 3.969315e-001
<GCONST> 1.371031e+002
<STATE> 3
<MEAN> 39
 -6.238171e+000 -7.618644e+000 -3.325174e+000 -1.519577e+001 -1.726863e+000 -1.057959e+001 -9.533749e+000 -3.957050e+000 -6.713817e+000 -6.011638e+000 -8.732436e+000 8.535247e-001 6.334650e+001 -1.505985e-002 1.600501e-002 -5.023456e-003 -3.534323e-002 -3.758735e-002 -1.431413e-002 1.965883e-002 9.550204e-003 -1.898757e-002 1.267361e-002 -1.434017e-002 -1.820990e-003 2.086634e-004 -8.283911e-004 -2.543404e-003 -2.451302e-004 -3.131625e-003 -5.907574e-004 2.220051e-003 2.196476e-003 -1.460592e-003 4.566830e-004 8.640118e-004 5.579370e-004 -2.396894e-003 2.171382e-003
<VARIANCE> 39
 4.513032e+001 8.238885e+001 4.584457e+001 1.140151e+002 6.839059e+001 9.041153e+001 9.188263e+001 5.435630e+001 7.243938e+001 7.007216e+001 5.643441e+001 5.820806e+001 1.518704e+002 2.216315e+000 3.665247e+000 2.075695e+000 5.198524e+000 3.711408e+000 3.968287e+000 4.314463e+000 4.442451e+000 3.741643e+000 4.055817e+000 3.853480e+000 3.357558e+000 3.414965e+000 3.344019e-001 4.794697e-001 3.240086e-001 7.758967e-001 6.470666e-001 6.674237e-001 7.333290e-001 8.193669e-001 6.906506e-001 7.088549e-001 7.053349e-001 6.052389e-001 4.016474e-001
<GCONST> 1.369444e+002
<STATE> 4
<MEAN> 39
 -6.315840e+000 -7.623329e+000 -3.256995e+000 -1.558089e+001 -2.049755e+000 -1.048844e+001 -9.494400e+000 -4.047215e+000 -6.974651e+000 -5.923613e+000 -8.989866e+000 6.450997e-001 6.381901e+001 -1.196596e-002 -9.162035e-004 1.673482e-004 -6.720454e-002 -4.122388e-002 -4.219980e-003 1.559190e-002 -3.096625e-003 -3.660900e-002 1.994399e-002 -2.374526e-002 -2.089398e-002 3.510799e-002 3.860565e-004 -4.215919e-003 3.115648e-004 -3.195568e-003 1.190535e-004 9.149904e-004 1.143181e-003 -1.706983e-003 -1.585804e-003 5.648988e-004 -4.242254e-004 -1.754310e-003 3.878179e-003
<VARIANCE> 39
 4.367282e+001 8.361418e+001 4.673235e+001 1.122184e+002 7.058349e+001 9.039210e+001 9.290692e+001 5.380813e+001 7.455392e+001 6.875083e+001 5.593811e+001 5.916180e+001 1.518321e+002 2.125240e+000 3.600437e+000 2.026359e+000 4.882090e+000 3.683987e+000 3.907531e+000 4.248237e+000 4.309502e+000 3.757089e+000 4.018054e+000 3.867212e+000 3.300564e+000 3.512888e+000 3.213961e-001 4.644919e-001 3.164645e-001 7.298026e-001 6.383765e-001 6.578199e-001 7.160869e-001 7.957903e-001 6.839873e-001 6.995835e-001 7.041872e-001 5.909738e-001 4.107068e-001
<GCONST> 1.365097e+002
<TRANSP> 5
 0.000000e+000 1.000000e+000 0.000000e+000 0.000000e+000 0.000000e+000
 0.000000e+000 7.274420e-001 2.725581e-001 0.000000e+000 0.000000e+000
 0.000000e+000 0.000000e+000 7.274414e-001 2.725586e-001 0.000000e+000
 0.000000e+000 0.000000e+000 0.000000e+000 8.522629e-001 1.477372e-001
 0.000000e+000 0.000000e+000 0.000000e+000 0.000000e+000 0.000000e+000
<ENDHMM>
~h "af"
<BEGINHMM>
<NUMSTATES> 5
<STATE> 2
<MEAN> 39
 -5.250278e+000 -1.074231e+001 -1.357841e+000 -1.569483e+001 -7.432176e-001 -9.139806e+000 -6.963590e+000 -6.092139e+000 -8.275922e+000 -5.550761e+000 -1.057045e+001 -1.939271e+000 6.660149e+001 2.357776e-003 9.907484e-004 -2.168087e-002 -9.923226e-003 3.009991e-002 1.972619e-002 2.452098e-002 -1.193041e-002 8.570714e-003 6.256975e-003 -5.856292e-003 -1.769243e-002 1.467284e-002 -1.709931e-004 7.999298e-004 -9.906304e-004 -1.254873e-003 -7.754699e-004 8.895668e-004 -3.377585e-004 7.041636e-004 6.128827e-004 1.251918e-003 1.669316e-003 1.875335e-003 -4.514604e-004
<VARIANCE> 39
 3.476149e+001 1.184720e+002 4.936047e+001 1.050558e+002 7.941435e+001 6.586655e+001 8.030476e+001 4.735732e+001 6.936185e+001 6.179060e+001 6.202576e+001 4.929877e+001 1.484006e+002 1.895105e+000 4.213763e+000 2.060461e+000 5.238059e+000 3.772943e+000 3.782140e+000 4.252379e+000 3.663842e+000 3.587199e+000 3.926514e+000 3.521891e+000 3.070810e+000 3.334157e+000 2.975284e-001 5.040911e-001 3.188084e-001 8.097333e-001 6.344601e-001 6.490765e-001 7.195087e-001 6.799252e-001 6.353207e-001 6.905860e-001 6.438077e-001 5.477005e-001 3.600706e-001
<GCONST> 1.350980e+002
<STATE> 3
<MEAN> 39
 -5.242752e+000 -1.073658e+001 -1.437137e+000 -1.574635e+001 -6.416661e-001 -9.067670e+000 -6.880460e+000 -6.130735e+000 -8.255617e+000 -5.519674e+000 -1.058357e+001 -1.993116e+000 6.666498e+001 1.550677e-003 5.320058e-003 -2.514737e-002 -1.354672e-002 2.564374e-002 2.192403e-002 2.266985e-002 -7.345006e-003 1.222158e-002 1.061220e-002 2.154749e-003 -1.042449e-002 1.047668e-002 -5.044668e-005 1.045221e-003 -6.552546e-004 -1.168145e-003 -1.269727e-003 3.585785e-004 -1.051336e-003 1.110822e-003 4.188970e-004 8.545991e-004 2.013028e-003 2.135866e-003 -6.860219e-004
<VARIANCE> 39
 3.564222e+001 1.189454e+002 4.946984e+001 1.053992e+002 7.949425e+001 6.516708e+001 8.094575e+001 4.743079e+001 6.866660e+001 6.185399e+001 6.195339e+001 4.879474e+001 1.479342e+002 1.939489e+000 4.244750e+000 2.060366e+000 5.320394e+000 3.780510e+000 3.747742e+000 4.255393e+000 3.683676e+000 3.586030e+000 3.918584e+000 3.556424e+000 3.058846e+000 3.349231e+000 3.041423e-001 5.093754e-001 3.194450e-001 8.236179e-001 6.370512e-001 6.454825e-001 7.223697e-001 6.844326e-001 6.355230e-001 6.904685e-001 6.495446e-001 5.449505e-001 3.630115e-001
<GCONST> 1.352343e+002
<STATE> 4
<MEAN> 39
 -5.237421e+000 -1.075336e+001 -1.516712e+000 -1.582040e+001 -5.379563e-001 -8.976140e+000 -6.785567e+000 -6.163936e+000 -8.277829e+000 -5.466892e+000 -1.057458e+001 -2.028619e+000 6.681425e+001 -1.057853e-003 1.735894e-002 -2.861690e-002 -1.566085e-002 1.467450e-002 2.060122e-002 1.419813e-002 1.946125e-003 1.839538e-002 1.411404e-002 1.730620e-002 -6.279522e-004 -3.146012e-003 -3.060167e-004 2.007319e-003 -6.740154e-004 -6.039466e-004 -2.199989e-003 -5.258659e-004 -2.369427e-003 1.460457e-003 9.976831e-004 2.407576e-004 2.472751e-003 1.661742e-003 -2.167313e-003
<VARIANCE> 39
 3.674927e+001 1.199499e+002 5.003534e+001 1.055771e+002 8.050199e+001 6.416148e+001 8.160825e+001 4.772070e+001 6.762305e+001 6.172291e+001 6.155252e+001 4.828100e+001 1.463631e+002 1.984027e+000 4.266564e+000 2.062095e+000 5.427419e+000 3.798481e+000 3.682000e+000 4.259699e+000 3.707469e+000 3.583200e+000 3.904387e+000 3.596431e+000 3.038799e+000 3.372308e+000 3.108169e-001 5.139558e-001 3.191457e-001 8.408363e-001 6.407593e-001 6.383538e-001 7.263272e-001 6.894059e-001 6.366902e-001 6.914792e-001 6.573439e-001 5.398565e-001 3.688357e-001
<GCONST> 1.353822e+002
<TRANSP> 5
 0.000000e+000 1.000000e+000 0.000000e+000 0.000000e+000 0.000000e+000
 0.000000e+000 7.241015e-001 2.758985e-001 0.000000e+000 0.000000e+000
 0.000000e+000 0.000000e+000 7.241023e-001 2.758977e-001 0.000000e+000
 0.000000e+000 0.000000e+000 0.000000e+000 8.454938e-001 1.545062e-001
 0.000000e+000 0.000000e+000 0.000000e+000 0.000000e+000 0.000000e+000
<ENDHMM>
~h "aj"
<BEGINHMM>
<NUMSTATES> 5
<STATE> 2
<MEAN> 39
 -6.295111e+000 -1.106785e+001 -2.516538e+000 -1.244787e+001 4.216151e-001 -7.760987e+000 -4.020130e+000 -5.536047e+000 -5.449404e+000 -4.634710e+000 -7.901906e+000 -1.299978e+000 6.272565e+001 -9.868479e-003 4.731024e-002 2.647654e-002 5.542798e-002 -2.333072e-002 -8.987539e-003 3.617824e-002 -1.816530e-002 1.577227e-002 -7.298812e-003 3.115065e-002 -2.122370e-003 -6.180991e-002 4.948811e-004 2.961625e-003 3.109389e-003 -1.203854e-003 -8.640234e-004 -2.666066e-003 -4.916813e-003 1.227479e-003 1.649988e-003 -2.036326e-003 7.567769e-004 1.971753e-003 1.343748e-003
<VARIANCE> 39
 3.057591e+001 1.076172e+002 4.187670e+001 1.064209e+002 6.958392e+001 6.156976e+001 9.087234e+001 4.543186e+001 6.623943e+001 4.655682e+001 5.877292e+001 4.715592e+001 1.789399e+002 1.892841e+000 4.404381e+000 1.861526e+000 5.000171e+000 3.826598e+000 3.172415e+000 4.445249e+000 3.652931e+000 3.532849e+000 3.689556e+000 3.368715e+000 3.167117e+000 3.960235e+000 3.167720e-001 5.806671e-001 3.051781e-001 7.862828e-001 6.317362e-001 5.652488e-001 7.531466e-001 7.088669e-001 6.127765e-001 6.685057e-001 6.177137e-001 5.904880e-001 4.151139e-001
<GCONST> 1.344033e+002
<STATE> 3
<MEAN> 39
