~o
<STREAMINFO> 1 39
<VECSIZE> 39<NULLD><MFCC_D_A_0><DIAGC>
~h "a"
<BEGINHMM>
<NUMSTATES> 5
<STATE> 2
<MEAN> 39
 -6.267375e+000 -2.639869e+001 -6.774369e+000 -1.616836e+001 8.126736e+000 -9.898105e+000 -5.407749e+000 -7.560297e+000 -1.224313e+001 -5.957141e+000 -9.556002e+000 4.268439e+000 7.741856e+001 -2.298759e-001 -1.197569e+000 1.848855e-001 1.093711e+000 1.209023e+000 8.223751e-002 -1.345727e-001 -6.904775e-001 -7.487171e-002 6.978094e-001 2.103276e-001 2.019764e-001 5.784849e-001 5.875213e-002 6.332372e-001 1.623817e-001 3.768583e-003 -5.966366e-001 -1.711301e-001 -1.199445e-001 1.595827e-001 4.180181e-001 -9.974083e-002 9.096877e-002 -2.942948e-001 -3.797544e-001
<VARIANCE> 39
 5.904543e+000 1.651600e+001 1.273962e+001 2.238198e+001 3.742691e+001 3.369807e+001 4.227628e+001 3.106194e+001 4.612128e+001 2.491063e+001 2.588671e+001 2.592267e+001 1.123153e+001 4.869297e-001 1.474853e+000 1.035119e+000 1.740270e+000 2.878886e+000 2.064961e+000 2.579457e+000 4.050172e+000 3.189826e+000 1.839984e+000 1.872510e+000 2.204655e+000 7.617985e-001 1.217167e-001 2.946278e-001 2.073656e-001 5.252597e-001 4.759151e-001 3.924634e-001 5.360026e-001 5.040197e-001 6.250765e-001 4.131540e-001 3.623663e-001 3.976390e-001 1.890705e-001
<GCONST> 1.060177e+002
<STATE> 3
<MEAN> 39
 -6.821091e+000 -2.774635e+001 -5.728199e+000 -1.330613e+001 8.731002e+000 -1.089225e+001 -7.670785e+000 -9.003282e+000 -8.896569e+000 -5.935447e+000 -8.596591e+000 3.516710e+000 7.778246e+001 -2.353513e-002 3.120969e-001 -7.387285e-002 -3.449251e-001 -3.423247e-001 -1.459823e-001 3.982103e-001 -3.050137e-001 1.169475e-001 -4.460324e-001 1.776195e-001 4.183312e-002 -8.775402e-002 4.250763e-002 2.443870e-001 -3.764129e-002 -2.615830e-001 -1.901869e-001 -6.586669e-003 1.072812e-001 2.856756e-002 -3.145280e-002 -1.194046e-001 -3.598073e-002 -2.200939e-002 -9.842559e-002
<VARIANCE> 39
 6.328390e+000 1.050416e+001 1.248652e+001 1.588652e+001 1.916819e+001 3.092713e+001 4.251369e+001 2.920724e+001 2.586688e+001 2.253677e+001 1.659997e+001 2.425710e+001 7.367002e+000 2.065003e-001 8.093662e-001 5.416349e-001 1.138915e+000 1.054165e+000 1.077882e+000 1.702503e+000 1.210433e+000 1.513553e+000 1.020001e+000 8.120473e-001 8.709238e-001 4.948855e-001 4.277067e-002 1.344654e-001 1.007691e-001 1.766140e-001 1.782149e-001 1.858036e-001 2.140954e-001 2.201220e-001 2.273261e-001 1.748728e-001 1.368080e-001 1.607432e-001 5.374740e-002
<GCONST> 8.138428e+001
<STATE> 4
<MEAN> 39
 -6.694207e+000 -2.016171e+001 -5.781287e+000 -1.700368e+001 3.611600e+000 -1.004161e+001 -2.823980e+000 -1.060208e+001 -8.548965e+000 -1.109512e+001 -6.921307e+000 7.307712e-001 7.219612e+001 1.850770e-001 1.649104e+000 7.097029e-002 -1.007147e+000 -1.266326e+000 -2.902118e-001 2.254875e-001 4.836481e-001 6.043668e-001 6.087485e-002 -2.314885e-001 -5.037023e-001 -1.146942e+000 5.674831e-002 2.067245e-001 1.648028e-001 2.057583e-001 -8.439192e-002 -1.138872e-001 -4.508374e-001 4.235464e-002 9.008261e-002 2.695300e-001 -1.028491e-001 -1.261599e-001 -2.415816e-001
<VARIANCE> 39
 8.957246e+000 2.686123e+001 2.196662e+001 8.965744e+001 3.714475e+001 4.259824e+001 6.588394e+001 2.982349e+001 4.067006e+001 4.155893e+001 2.920395e+001 5.658734e+001 6.716791e+001 7.932004e-001 1.514881e+000 1.350394e+000 3.247006e+000 2.606616e+000 2.348537e+000 3.141088e+000 2.426279e+000 2.729672e+000 3.350846e+000 2.367198e+000 2.656299e+000 9.129007e-001 9.863865e-002 2.807206e-001 1.993336e-001 5.087679e-001 3.704301e-001 4.368546e-001 5.772488e-001 4.594225e-001 6.138558e-001 4.065439e-001 4.170380e-001 4.222699e-001 1.652970e-001
<GCONST> 1.142626e+002
<TRANSP> 5
 0.000000e+000 1.000000e+000 0.000000e+000 0.000000e+000 0.000000e+000
 0.000000e+000 7.287296e-001 2.712704e-001 0.000000e+000 0.000000e+000
 0.000000e+000 0.000000e+000 8.540676e-001 1.459324e-001 0.000000e+000
 0.000000e+000 0.000000e+000 0.000000e+000 7.553115e-001 2.446885e-001
 0.000000e+000 0.000000e+000 0.000000e+000 0.000000e+000 0.000000e+000
<ENDHMM>
~h "b"
<BEGINHMM>
<NUMSTATES> 5
<STATE> 2
<MEAN> 39
 -9.203141e-001 -5.547515e+000 3.354684e-001 -1.309555e+001 -1.933506e+000 -1.186603e+001 -1.250569e+001 -9.343467e+000 -9.051098e+000 -5.622170e+000 -1.164368e+001 -5.556032e+000 5.911145e+001 9.652503e-001 1.411369e+000 3.144404e-001 1.948029e+000 8.141827e-001 7.728944e-001 -7.610015e-001 -1.128201e+000 -6.340215e-002 -1.018921e+000 5.835226e-002 -1.697282e+000 -2.036932e+000 -1.860871e-001 -4.010126e-002 -6.756152e-002 -2.919772e-001 -2.419668e-001 -2.990968e-002 -3.527039e-002 -5.318085e-002 -8.664024e-002 9.936950e-002 1.419228e-002 7.146045e-002 3.536804e-001
<VARIANCE> 39
 1.542712e+001 4.381681e+001 3.785789e+001 5.865463e+001 5.372015e+001 6.277733e+001 7.510289e+001 3.566340e+001 5.517996e+001 3.628928e+001 4.363208e+001 4.018704e+001 7.089451e+001 1.056675e+000 2.069558e+000 1.668054e+000 3.658524e+000 2.607486e+000 2.826291e+000 4.021193e+000 3.326343e+000 4.024037e+000 2.977879e+000 3.033292e+000 3.783057e+000 4.479964e+000 2.148694e-001 2.714344e-001 2.057396e-001 7.332604e-001 5.120964e-001 4.654569e-001 6.264209e-001 5.239605e-001 6.762455e-001 5.728697e-001 5.481856e-001 5.549585e-001 4.003055e-001
<GCONST> 1.245182e+002
<STATE> 3
<MEAN> 39
 8.739793e-001 -2.221127e+000 7.917545e-001 -9.080381e+000 -4.970275e-001 -1.068433e+001 -1.380969e+001 -1.219549e+001 -1.030491e+001 -7.516566e+000 -1.141416e+001 -8.615935e+000 5.418839e+001 5.788894e-001 7.224838e-001 -8.504592e-002 5.353497e-001 2.086593e-002 9.432159e-002 -6.676503e-001 -1.108417e+000 -1.591765e-001 -3.387699e-001 -1.379382e-001 -8.503661e-001 -4.665574e-001 -1.462182e-001 -6.339632e-001 -3.679271e-001 -9.322820e-001 -2.288416e-001 -2.410540e-001 1.871329e-001 3.278904e-001 1.724910e-001 4.464903e-001 -4.670056e-002 5.264876e-001 1.119842e+000
<VARIANCE> 39
 8.765204e+000 2.561414e+001 2.675265e+001 3.677689e+001 2.855934e+001 4.996817e+001 5.606420e+001 2.802351e+001 4.340474e+001 3.460406e+001 3.634192e+001 4.031453e+001 1.323630e+001 9.253491e-001 1.054163e+000 1.144292e+000 2.173053e+000 1.780238e+000 2.091297e+000 3.265309e+000 2.669327e+000 2.371878e+000 2.458807e+000 2.149268e+000 2.556246e+000 1.999106e+000 1.233761e-001 3.283695e-001 2.361011e-001 4.014664e-001 3.825885e-001 3.909205e-001 6.906261e-001 5.683137e-001 6.546005e-001 5.682852e-001 5.768149e-001 7.714877e-001 3.267885e-001
<GCONST> 1.130038e+002
<STATE> 4
<MEAN> 39
 1.808106e+000 -5.781410e+000 -2.746106e+000 -1.270452e+001 -3.983737e-001 -1.103169e+001 -1.390696e+001 -1.246674e+001 -8.457400e+000 -5.820392e+000 -1.225317e+001 -7.962548e+000 6.072102e+001 -5.589673e-001 -3.383301e+000 -1.583040e+000 -2.965805e+000 4.515703e-001 2.126808e-001 1.489554e+000 1.458654e+000 2.250443e-001 8.514627e-001 -4.682074e-001 1.557907e+000 4.493131e+000 -5.400403e-001 -8.323061e-001 -7.000131e-002 -4.867835e-001 2.918959e-001 3.381884e-001 5.863428e-001 6.992832e-001 -2.086814e-001 1.161604e-001 3.171270e-002 7.085124e-001 6.686360e-001
<VARIANCE> 39
 9.022525e+000 8.405337e+001 3.936343e+001 6.946706e+001 3.083912e+001 3.738816e+001 5.740005e+001 5.632132e+001 5.084614e+001 4.186425e+001 3.598950e+001 5.951604e+001 8.762800e+001 1.982157e+000 8.484082e+000 3.147951e+000 6.068542e+000 5.589822e+000 3.877234e+000 8.394878e+000 7.009543e+000 6.339826e+000 4.832737e+000 5.352369e+000 7.119903e+000 5.376857e+000 2.124337e-001 1.326575e+000 8.035610e-001 1.872585e+000 7.342812e-001 5.347293e-001 1.565785e+000 1.382884e+000 1.140929e+000 1.013876e+000 9.009976e-001 1.251256e+000 1.777735e+000
<GCONST> 1.426478e+002
<TRANSP> 5
 0.000000e+000 1.000000e+000 0.000000e+000 0.000000e+000 0.000000e+000
 0.000000e+000 4.741134e-001 5.258866e-001 0.000000e+000 0.000000e+000
 0.000000e+000 0.000000e+000 5.770751e-001 4.229250e-001 0.000000e+000
 0.000000e+000 0.000000e+000 0.000000e+000 7.071403e-001 2.928597e-001
 0.000000e+000 0.000000e+000 0.000000e+000 0.000000e+000 0.000000e+000
<ENDHMM>
~h "c"
<BEGINHMM>
<NUMSTATES> 5
<STATE> 2
<MEAN> 39
 -5.494520e+000 -5.977106e+000 -3.757897e+000 -1.022002e+001 1.115902e+000 -5.121358e+000 -5.161049e+000 -4.079593e+000 -2.151166e+000 -2.979995e+000 -5.228714e+000 -3.124602e+000 5.107494e+001 -7.441955e-001 -3.228549e-001 -4.319594e-001 7.874408e-001 1.450815e-001 4.367001e-001 9.253216e-001 4.230610e-001 8.660282e-001 3.247350e-001 6.655245e-001 -1.569287e-001 -9.668930e-001 4.061082e-002 2.644015e-002 -1.877278e-001 -3.435977e-001 -4.562898e-002 -3.631871e-001 -2.640203e-001 6.651627e-003 -1.089310e-001 1.786228e-001 3.360797e-002 2.690411e-001 8.592406e-001
<VARIANCE> 39
 1.381258e+001 2.794506e+001 2.905404e+001 4.494276e+001 4.038393e+001 4.105077e+001 4.169078e+001 4.005312e+001 3.286169e+001 4.053070e+001 4.453202e+001 4.001578e+001 2.228593e+001 9.521766e-001 1.959978e+000 2.097150e+000 3.254992e+000 3.453933e+000 3.279242e+000 3.502973e+000 3.224445e+000 3.219293e+000 3.371456e+000 3.227417e+000 3.090286e+000 3.969271e+000 2.239156e-001 4.192128e-001 3.999619e-001 7.272705e-001 7.589203e-001 6.404441e-001 6.958236e-001 7.275587e-001 6.507739e-001 6.626148e-001 5.711632e-001 5.819855e-001 6.448591e-001
<GCONST> 1.235002e+002
<STATE> 3
<MEAN> 39
 -7.831939e+000 -6.881795e+000 -5.626355e+000 -7.750356e+000 1.936794e+000 -5.484425e+000 -3.380046e+000 -2.489042e+000 4.485356e-001 -1.482836e+000 -2.700343e+000 -2.845032e+000 5.122576e+001 -1.783690e-001 8.337217e-002 -1.147952e+000 -2.924488e-001 6.145135e-001 -1.260296e+000 1.815554e-001 4.924211e-001 2.433199e-001 8.550174e-001 5.661108e-001 7.513024e-001 2.867039e+000 4.614694e-001 1.395464e-001 5.075811e-002 -1.046723e+000 -2.859977e-001 -3.714378e-001 -4.626068e-001 -2.340623e-001 -5.724866e-001 -1.888387e-001 -6.181965e-001 1.776261e-001 1.071734e+000
<VARIANCE> 39
 1.369479e+001 2.597621e+001 2.968211e+001 3.573556e+001 4.865849e+001 3.909564e+001 3.709863e+001 3.121117e+001 2.758603e+001 3.404996e+001 2.967406e+001 2.629025e+001 3.605742e+001 1.882682e+000 3.171065e+000 4.109510e+000 6.720639e+000 7.407998e+000 5.119474e+000 5.440366e+000 4.576207e+000 3.733344e+000 4.896883e+000 3.700384e+000 3.633477e+000 9.251291e+000 3.251619e-001 4.321491e-001 5.218055e-001 1.265661e+000 8.154646e-001 7.747291e-001 9.328146e-001 7.300562e-001 6.578282e-001 7.358451e-001 8.120442e-001 6.513717e-001 8.476393e-001
<GCONST> 1.311494e+002
<STATE> 4
<MEAN> 39
 -6.164484e+000 -6.536048e+000 -8.455186e+000 -1.354679e+001 2.145705e+000 -1.030179e+001 -4.909565e+000 -2.335358e+000 -1.103558e+000 1.140044e-001 -4.237821e+000 -1.959029e-001 6.374774e+001 1.053722e+000 -2.009231e-001 -2.223717e-001 -3.981733e+000 -7.545406e-001 -7.566764e-001 -1.086646e+000 -7.485465e-001 -1.553135e+000 -2.367560e-001 -2.111874e+000 4.253576e-001 3.626405e+000 4.364903e-002 -3.090139e-001 4.244973e-001 -3.884000e-001 -1.322342e-001 6.628357e-001 -1.719410e-001 -3.368327e-001 -5.121340e-001 -5.558906e-001 -5.636095e-001 -3.861256e-001 -4.883925e-001
<VARIANCE> 39
 2.378101e+001 3.932258e+001 3.464081e+001 1.162239e+002 7.169728e+001 6.368908e+001 8.198225e+001 3.837308e+001 3.409620e+001 4.367171e+001 5.369130e+001 3.488234e+001 8.890734e+001 2.455352e+000 5.076115e+000 3.546499e+000 1.243826e+001 5.670106e+000 6.819779e+000 8.657528e+000 5.005349e+000 4.552461e+000 5.075323e+000 6.208437e+000 4.599915e+000 6.833456e+000 4.433136e-001 5.087195e-001 6.221955e-001 2.360074e+000 1.416935e+000 1.159672e+000 1.563177e+000 8.413205e-001 8.555801e-001 9.008621e-001 1.366794e+000 6.909146e-001 9.576582e-001
<GCONST> 1.440794e+002
<TRANSP> 5
 0.000000e+000 1.000000e+000 0.000000e+000 0.000000e+000 0.000000e+000
 0.000000e+000 7.214275e-001 2.785725e-001 0.000000e+000 0.000000e+000
 0.000000e+000 0.000000e+000 4.097672e-001 5.902328e-001 0.000000e+000
 0.000000e+000 0.000000e+000 0.000000e+000 5.403115e-001 4.596885e-001
 0.000000e+000 0.000000e+000 0.000000e+000 0.000000e+000 0.000000e+000
<ENDHMM>
~h "d"
<BEGINHMM>
<NUMSTATES> 5
<STATE> 2
<MEAN> 39
 -1.018176e+001 2.074443e+000 -4.530424e+000 -5.575966e+000 -5.344488e+000 -1.572626e+001 -8.494551e+000 -1.075873e+001 -8.501173e+000 -1.029415e+001 -8.384328e+000 -8.690335e-001 6.343732e+001 -1.911012e+000 1.901627e+000 -8.767956e-001 2.466951e+000 -1.304551e-001 3.654973e-001 4.637246e-001 -9.622527e-001 1.019832e-002 -6.896126e-001 1.438247e-001 -1.152349e+000 -3.124445e-001 -1.592141e-001 -2.321954e-001 -8.180804e-002 -1.098893e-001 1.113415e-001 3.910970e-001 2.089103e-001 2.680370e-001 1.457245e-003 2.073644e-001 6.005633e-002 -7.458992e-002 1.279840e-001
<VARIANCE> 39
 3.726513e+001 4.392846e+001 3.097222e+001 7.451134e+001 3.437746e+001 6.009849e+001 6.214337e+001 3.732994e+001 4.257693e+001 4.372809e+001 4.132403e+001 5.153021e+001 4.201213e+001 2.165050e+000 2.083371e+000 2.547554e+000 4.061207e+000 3.371862e+000 6.090374e+000 6.417696e+000 3.740698e+000 3.632631e+000 4.564571e+000 4.115793e+000 4.032346e+000 2.317564e+000 3.837930e-001 3.695178e-001 4.954140e-001 8.837773e-001 5.959200e-001 9.767303e-001 9.322125e-001 7.290078e-001 5.854967e-001 8.994082e-001 7.031257e-001 8.542448e-001 1.596388e-001
<GCONST> 1.309444e+002
<STATE> 3
<MEAN> 39
 -1.882596e+001 5.813647e+000 -7.839831e+000 1.066595e+000 -4.673923e+000 -1.160748e+001 -4.738613e+000 -1.035638e+001 -7.636217e+000 -9.175546e+000 -6.024119e+000 -3.756733e+000 6.339584e+001 1.147748e-001 -3.665917e-001 1.663374e-001 -7.948631e-001 -2.141762e-001 -6.188252e-001 -4.203649e-001 3.184586e-001 2.482981e-001 3.498029e-001 1.408639e-001 6.072357e-001 7.122503e-001 8.483225e-001 -6.640548e-001 3.016783e-001 -1.106698e+000 -5.248384e-002 -4.972641e-001 -4.962674e-001 2.468865e-001 -1.591742e-002 4.183873e-002 -3.562391e-001 4.615959e-001 3.744768e-001
<VARIANCE> 39
 2.781132e+001 2.460500e+001 2.284107e+001 2.945741e+001 2.733228e+001 5.175382e+001 3.552908e+001 3.262708e+001 3.372802e+001 3.838457e+001 3.185202e+001 3.189025e+001 9.266026e+000 6.562622e+000 2.433934e+000 2.289358e+000 6.062880e+000 2.700649e+000 7.163252e+000 6.293772e+000 2.955575e+000 3.061231e+000 2.874888e+000 3.721888e+000 3.135677e+000 1.303649e+000 6.096154e-001 4.084919e-001 3.781767e-001 5.148298e-001 5.808728e-001 1.134141e+000 9.927611e-001 7.550433e-001 6.431417e-001 6.616261e-001 8.775412e-001 5.332221e-001 1.565367e-001
<GCONST> 1.243266e+002
<STATE> 4
<MEAN> 39
 -1.009370e+001 -1.459224e+000 -4.738450e+000 -1.336604e+001 -6.096447e+000 -1.798769e+001 -1.163211e+001 -6.614062e+000 -7.079170e+000 -8.346494e+000 -1.104543e+001 3.374254e-001 6.984544e+001 2.010694e+000 -3.864603e+000 3.715460e-001 -4.549269e+000 8.156245e-001 -3.381628e-001 -6.366109e-001 2.468783e+000 -2.646116e-001 7.631302e-001 -1.872648e+000 1.226510e+000 2.302639e+000 -3.073494e-001 -3.712472e-001 -1.255366e-001 1.142331e-001 5.233237e-001 7.540448e-001 5.328251e-001 1.366741e-001 -3.181538e-001 1.487319e-001 -9.188497e-002 -3.898734e-001 1.656841e-002
<VARIANCE> 39
 2.875137e+001 8.146967e+001 2.759307e+001 1.132062e+002 4.889019e+001 4.511890e+001 6.715034e+001 8.051455e+001 4.275257e+001 3.617553e+001 4.493213e+001 4.898887e+001 2.496972e+001 3.730114e+000 4.192041e+000 2.428798e+000 6.605361e+000 6.857656e+000 7.854781e+000 1.015856e+001 7.960184e+000 7.296093e+000 4.639887e+000 5.471333e+000 4.336957e+000 1.071915e+000 8.784704e-001 1.166741e+000 3.540642e-001 1.985002e+000 8.857751e-001 1.321050e+000 1.422021e+000 2.200025e+000 1.257596e+000 7.895972e-001 1.407841e+000 7.630152e-001 3.167575e-001
<GCONST> 1.425823e+002
<TRANSP> 5
 0.000000e+000 1.000000e+000 0.000000e+000 0.000000e+000 0.000000e+000
 0.000000e+000 7.614751e-001 2.385249e-001 0.000000e+000 0.000000e+000
 0.000000e+000 0.000000e+000 7.846466e-001 2.153534e-001 0.000000e+000
 0.000000e+000 0.000000e+000 0.000000e+000 6.720970e-001 3.279030e-001
 0.000000e+000 0.000000e+000 0.000000e+000 0.000000e+000 0.000000e+000
<ENDHMM>
~h "e"
<BEGINHMM>
<NUMSTATES> 5
<STATE> 2
<MEAN> 39
 -6.464708e+000 -9.730349e+000 -3.093734e+000 -2.214543e+001 -9.310374e+000 -1.576232e+001 -1.831035e+000 -4.324928e+000 -9.435824e+000 -7.988919e+000 -8.515574e+000 4.360273e+000 7.116370e+001 7.774607e-002 -2.768431e+000 -1.106843e+000 -3.145087e+000 4.093656e-001 -1.428093e+000 2.637170e+000 5.580090e-001 -1.542770e+000 -1.053190e-001 -1.539664e+000 5.829538e-002 2.610967e+000 -6.292189e-001 -8.850176e-002 -1.024634e-001 1.158515e+000 7.978936e-001 1.151734e+000 5.066137e-001 -1.976913e-001 6.658973e-002 7.505583e-002 3.413559e-001 -3.953451e-001 -1.894787e-001
<VARIANCE> 39
 9.825524e+000 2.907619e+001 2.431203e+001 3.101676e+001 1.732106e+001 5.570482e+001 4.547554e+001 4.709692e+001 3.414797e+001 4.535562e+001 6.356395e+001 5.038222e+001 2.299481e+001 3.919432e+000 3.297173e+000 1.755160e+000 5.424440e+000 6.915614e+000 9.637963e+000 5.494776e+000 7.268430e+000 4.091625e+000 8.156396e+000 4.758536e+000 3.275875e+000 1.671287e+000 7.508990e-001 5.506996e-001 2.808035e-001 1.088011e+000 1.107627e+000 8.863175e-001 1.569859e+000 1.266358e+000 7.400548e-001 1.643076e+000 4.750159e-001 6.682462e-001 3.195877e-001
<GCONST> 1.330255e+002
<STATE> 3
<MEAN> 39
 -7.967339e+000 -1.439412e+001 -3.962901e+000 -2.307627e+001 -6.611720e+000 -1.219893e+001 4.530001e+000 -5.337502e+000 -1.239908e+001 -8.844011e+000 -9.031426e+000 5.306378e-001 7.501736e+001 -4.582306e-001 -1.777011e+000 -9.170340e-001 -4.482084e-001 8.445991e-001 7.138939e-001 2.011002e+000 -7.207041e-001 -1.171538e+000 -1.167645e-001 1.611541e-001 -6.910381e-002 1.255340e+000 -1.057537e-001 2.722395e-001 2.130959e-001 7.951193e-001 2.734997e-001 3.097838e-001 -5.415856e-001 -2.587813e-001 1.119505e-001 2.694227e-001 3.103574e-001 2.709536e-001 -4.421880e-001
<VARIANCE> 39
 3.676353e+000 1.420253e+001 1.345282e+001 1.805351e+001 1.721116e+001 2.228797e+001 3.469458e+001 5.223888e+001 3.446095e+001 3.655125e+001 4.355710e+001 2.801880e+001 6.758866e+000 5.000449e-001 1.917445e+000 1.245398e+000 3.335824e+000 3.136419e+000 6.523350e+000 2.575501e+000 3.345978e+000 2.959275e+000 2.561831e+000 2.482879e+000 2.218278e+000 5.523590e-001 2.186921e-001 3.931682e-001 1.999011e-001 5.004790e-001 7.429413e-001 6.381679e-001 9.293682e-001 1.282765e+000 4.925342e-001 6.930169e-001 6.474929e-001 4.019590e-001 2.005453e-001
<GCONST> 1.110722e+002
<STATE> 4
<MEAN> 39
 -8.857927e+000 -1.752900e+001 -5.164084e+000 -2.368083e+001 -4.199312e+000 -1.217294e+001 4.697668e+000 -8.763630e+000 -1.367346e+001 -6.147840e+000 -1.012572e+001 2.528708e+000 7.684662e+001 1.801638e-001 1.778832e-001 7.057305e-002 3.168046e-002 1.638364e-001 -4.655082e-001 -6.162779e-001 -8.084803e-002 3.633322e-001 8.316752e-002 -2.308854e-001 2.163202e-002 -2.629621e-001 1.197149e-001 2.935160e-001 6.967174e-002 8.211748e-002 -9.269198e-003 -1.148735e-001 -3.022291e-001 5.014584e-002 1.534959e-001 -7.362106e-002 -6.609470e-004 -7.886698e-002 -2.586583e-001
<VARIANCE> 39
 2.355953e+000 1.529257e+001 9.965512e+000 1.277169e+001 3.727687e+001 2.927059e+001 3.102073e+001 3.089237e+001 3.898862e+001 2.985819e+001 3.422559e+001 1.764763e+001 5.511793e+000 4.043056e-001 1.713615e+000 9.325619e-001 1.354222e+000 2.018891e+000 2.179882e+000 2.087793e+000 2.966644e+000 2.273450e+000 1.459172e+000 1.459063e+000 1.147084e+000 8.915053e-001 5.220460e-002 1.698913e-001 1.142425e-001 3.654102e-001 2.594826e-001 2.892493e-001 3.656339e-001 5.548465e-001 4.577280e-001 3.215160e-001 2.406362e-001 2.393947e-001 1.046472e-001
<GCONST> 9.479580e+001
<TRANSP> 5
 0.000000e+000 1.000000e+000 0.000000e+000 0.000000e+000 0.000000e+000
 0.000000e+000 4.071209e-001 5.928792e-001 0.000000e+000 0.000000e+000
 0.000000e+000 0.000000e+000 4.501987e-001 5.498013e-001 0.000000e+000
 0.000000e+000 0.000000e+000 0.000000e+000 9.149826e-001 8.501746e-002
 0.000000e+000 0.000000e+000 0.000000e+000 0.000000e+000 0.000000e+000
<ENDHMM>
~h "f"
<BEGINHMM>
<NUMSTATES> 5
<STATE> 2
<MEAN> 39
 -1.317812e+001 -1.257681e+000 8.411334e+000 -2.336302e+001 -1.242317e+001 -1.012545e+001 -1.742667e+001 -1.181063e+001 -1.582857e+001 -5.067186e-001 -1.358760e+001 -5.885955e-001 7.205276e+001 9.577343e-002 -3.310091e-002 1.077876e+000 -6.365682e-001 5.632560e-002 5.472066e-001 -4.780460e-001 6.322169e-002 -1.040420e-001 4.804546e-001 -7.647572e-001 -2.705799e-001 1.858131e-001 3.602828e-002 5.327511e-002 -9.404538e-002 2.450417e-001 1.180824e-001 -2.802946e-002 7.232773e-002 -4.810214e-002 8.329423e-002 -1.611345e-001 1.029789e-001 1.070433e-001 -1.278654e-001
<VARIANCE> 39
 4.301995e+000 1.283865e+001 8.917236e+001 4.263954e+001 5.995889e+001 2.350948e+001 4.707870e+001 2.693564e+001 2.802483e+001 2.013037e+001 1.541225e+002 6.755859e+001 8.516794e+000 6.946908e-001 6.533995e-001 2.036370e+000 2.827355e+000 1.912785e+000 1.544879e+000 2.716405e+000 1.789134e+000 1.912660e+000 2.359216e+000 4.252317e+000 1.303651e+000 3.997795e-001 1.672365e-001 1.635752e-001 2.608129e-001 3.683069e-001 2.909923e-001 2.182368e-001 4.079117e-001 2.555723e-001 3.549866e-001 3.703258e-001 4.974784e-001 2.342474e-001 6.094784e-002
<GCONST> 1.040488e+002
<STATE> 3
<MEAN> 39
 -8.522408e+000 -2.187415e+000 1.372284e+001 -2.067238e+001 -9.699213e+000 -1.038523e+001 -1.341041e+001 -1.191226e+001 -9.367268e+000 -1.517980e+000 -1.703140e+001 9.858618e-001 6.630527e+001 4.479333e-001 1.091431e-001 -3.604957e-001 3.304486e-001 1.479292e+000 -1.793347e-001 1.673697e+000 1.005895e+000 2.510629e+000 -4.789593e-001 9.378112e-001 7.669578e-001 -1.968155e+000 -1.635555e-001 -1.666230e-001 -3.804900e-001 -4.087414e-001 1.474230e-001 2.322304e-001 -3.783206e-003 2.563689e-001 2.158222e-001 3.182872e-001 1.440438e-001 -9.058630e-002 -3.851657e-002
<VARIANCE> 39
 2.211965e+000 1.719402e+001 1.102955e+001 4.502475e+001 2.484121e+001 4.218851e+001 4.015631e+001 3.032831e+001 5.027736e+001 8.612109e+001 1.016488e+002 6.943597e+001 5.009021e+001 6.491635e-001 1.022148e+000 8.409858e-001 6.651769e+000 9.875962e-001 2.882302e+000 1.458716e+000 1.134212e+000 2.004042e+000 4.088602e+000 2.017241e+000 5.011059e+000 5.673435e+000 1.067203e-001 2.341316e-001 1.641538e-001 1.036684e+000 2.601602e-001 2.206658e-001 5.573105e-001 1.671381e-001 8.812157e-001 8.230192e-001 5.681499e-001 9.429179e-001 8.748773e-001
<GCONST> 1.139752e+002
<STATE> 4
<MEAN> 39
 -8.934803e+000 -2.966152e+000 7.574932e+000 -1.777086e+001 -2.652301e+000 -4.596807e+000 -8.562526e+000 -6.678750e+000 2.956274e-001 3.822392e+000 -8.589175e+000 -2.345949e+000 5.568476e+001 -5.469374e-002 -1.030339e+000 -3.405061e+000 2.545441e-001 2.242279e+000 -5.722859e-001 2.815082e-001 9.241319e-001 5.206776e-001 2.022578e-001 1.662122e+000 -3.439071e-001 9.656655e-001 1.120162e-002 -1.224788e-001 -2.814435e-001 2.377068e-001 -3.672441e-002 -3.402406e-001 2.043544e-002 -3.950596e-001 -8.172289e-001 -4.675779e-001 -5.243767e-001 -4.235686e-001 1.279277e+000
<VARIANCE> 39
 7.853051e+000 2.075819e+001 1.056869e+002 5.308157e+001 6.028550e+001 5.807468e+001 2.090241e+001 2.999408e+001 1.425635e+001 3.051819e+001 3.990662e+001 1.118036e+002 7.866528e+001 1.282424e+000 1.054366e+000 4.213206e+000 3.926691e+000 7.318104e+000 2.594914e+000 2.045269e+000 8.609623e-001 1.862073e+000 2.113194e+000 7.380032e+000 1.556497e+000 1.309839e+001 5.867968e-001 6.024172e-001 1.216667e+000 2.116400e+000 1.895176e+000 9.395226e-001 5.905680e-001 3.012648e-001 5.506202e-001 4.958597e-001 1.702272e+000 6.335038e-001 9.475709e-001
<GCONST> 1.293300e+002
<TRANSP> 5
 0.000000e+000 1.000000e+000 0.000000e+000 0.000000e+000 0.000000e+000
 0.000000e+000 9.440417e-001 5.595833e-002 0.000000e+000 0.000000e+000
 0.000000e+000 0.000000e+000 8.253945e-001 1.746055e-001 0.000000e+000
 0.000000e+000 0.000000e+000 0.000000e+000 6.569287e-001 3.430713e-001
 0.000000e+000 0.000000e+000 0.000000e+000 0.000000e+000 0.000000e+000
<ENDHMM>
~h "g"
<BEGINHMM>
<NUMSTATES> 5
<STATE> 2
<MEAN> 39
 -1.624150e+000 -6.629691e+000 -1.119160e+000 -2.233418e+001 -2.531040e+000 -1.495654e+001 -1.190868e+001 -8.364965e+000 -8.570288e+000 1.625664e+000 -1.574192e+001 -6.629783e-001 6.540990e+001 -4.398400e-001 2.427913e-001 -7.380442e-001 -3.598655e+000 5.479252e-001 -6.077661e-001 -3.339980e-001 1.548082e+000 -3.014157e-001 1.112049e+000 -6.540182e-001 1.034365e+000 1.685272e+000 -1.877062e-001 -5.758344e-001 -2.695508e-001 3.259966e-001 4.067789e-001 3.897471e-001 3.114365e-001 1.239425e-001 -7.872639e-002 -2.754991e-001 4.128384e-001 1.646319e-001 4.029284e-001
<VARIANCE> 39
 1.818309e+001 5.110617e+001 4.858942e+001 7.193513e+001 2.069506e+001 3.757607e+001 7.749746e+001 3.971687e+001 2.550428e+001 5.889728e+001 3.982557e+001 3.142970e+001 5.577127e+001 7.172028e-001 4.239120e+000 2.325584e+000 8.409098e+000 5.818752e+000 4.890997e+000 5.515805e+000 4.575673e+000 8.021913e+000 3.424599e+000 4.955631e+000 2.940830e+000 4.426603e+000 1.946732e-001 3.327874e-001 5.793374e-001 1.280812e+000 4.909528e-001 1.228983e+000 7.281716e-001 1.472692e+000 9.031947e-001 7.658890e-001 8.256441e-001 4.801693e-001 5.030248e-001
<GCONST> 1.325181e+002
<STATE> 3
<MEAN> 39
 -4.046590e+000 -1.085646e+001 -6.130279e+000 -3.045274e+001 2.732129e+000 -1.255150e+001 -8.291759e+000 -4.235941e+000 -8.490012e+000 -1.832824e-001 -1.338543e+001 4.870639e+000 7.290971e+001 -3.993610e-001 -8.587753e-001 -7.699842e-001 -2.300400e-001 1.223763e+000 5.655786e-001 5.557446e-002 8.843454e-002 -3.090482e-001 3.010557e-001 5.053058e-001 8.295310e-001 1.100470e+000 2.438352e-001 -1.043499e-001 1.464737e-001 8.466315e-001 5.677965e-002 7.502595e-002 -1.040205e-001 -5.368510e-001 -5.445780e-002 -1.512754e-001 4.717528e-001 -3.931141e-001 -5.573223e-001
<VARIANCE> 39
 7.956348e+000 3.857504e+001 5.272268e+001 6.159009e+001 5.387430e+001 6.917706e+001 7.186455e+001 2.441458e+001 2.937340e+001 4.457145e+001 1.019419e+002 3.616027e+001 2.969818e+001 1.024431e+000 7.338134e+000 2.293204e+000 2.645079e+000 3.471146e+000 8.785009e+000 8.012369e+000 1.368296e+000 1.787832e+000 4.849172e+000 2.819153e+000 3.753371e+000 4.913622e+000 4.626445e-002 4.219616e-001 2.970850e-001 6.770968e-001 5.242361e-001 6.421777e-001 4.446817e-001 6.792421e-001 9.243312e-001 5.023728e-001 3.829838e-001 7.355239e-001 1.680884e-001
<GCONST> 1.240631e+002
<STATE> 4
<MEAN> 39
 -3.919757e+000 -9.243439e+000 -2.618360e+000 -1.987688e+001 2.602416e+000 -1.837412e+001 -9.247048e+000 -1.041571e+001 -8.365149e+000 -4.113047e-001 -1.899169e+001 2.997304e+000 6.672684e+001 6.922914e-002 4.271999e-003 -3.609855e-001 -8.354859e-002 4.002185e-001 7.264283e-001 -2.939331e-001 -3.021355e-001 1.882022e-001 -1.834204e-001 1.455332e-001 -6.861570e-001 -1.922212e-001 -6.812254e-002 -3.050773e-001 -7.723746e-002 -1.857136e-001 -3.937742e-002 2.697034e-001 2.759971e-001 1.967349e-001 3.453706e-002 -8.851412e-002 2.199965e-002 -9.775731e-002 3.126202e-001
<VARIANCE> 39
 1.380954e+001 2.253756e+001 3.577084e+001 1.097726e+002 4.567807e+001 6.484940e+001 5.614065e+001 3.121114e+001 3.526211e+001 3.892112e+001 4.915499e+001 5.303452e+001 4.360574e+001 2.013647e+000 2.389239e+000 2.061236e+000 7.485129e+000 2.847873e+000 5.160183e+000 9.757754e+000 4.772780e+000 3.308801e+000 5.050580e+000 3.322438e+000 5.211284e+000 5.642285e+000 4.238066e-001 3.552336e-001 4.360153e-001 1.186173e+000 7.511876e-001 1.035053e+000 1.541548e+000 9.598088e-001 6.619651e-001 1.236625e+000 6.596130e-001 1.254632e+000 5.523545e-001
<GCONST> 1.348590e+002
<TRANSP> 5
 0.000000e+000 1.000000e+000 0.000000e+000 0.000000e+000 0.000000e+000
 0.000000e+000 5.604848e-001 4.395152e-001 0.000000e+000 0.000000e+000
 0.000000e+000 0.000000e+000 3.986593e-001 6.013408e-001 0.000000e+000
 0.000000e+000 0.000000e+000 0.000000e+000 7.952265e-001 2.047734e-001
 0.000000e+000 0.000000e+000 0.000000e+000 0.000000e+000 0.000000e+000
<ENDHMM>
~h "h"
<BEGINHMM>
<NUMSTATES> 5
<STATE> 2
<MEAN> 39
 -7.141109e+000 -9.813390e+000 -1.619203e+000 -1.483022e+001 -8.330589e-001 -6.021016e+000 -5.392021e+000 -8.846384e+000 -6.643127e+000 -1.116786e+001 -5.888064e+000 -1.870536e+000 6.763738e+001 -4.985939e-001 -6.335148e-001 -1.018170e-001 8.615329e-001 8.001322e-001 1.780815e-001 -3.367090e-002 -1.316804e+000 2.256386e-001 -1.205539e+000 7.072100e-001 -6.489117e-001 1.257646e-001 1.059897e-001 3.110715e-002 5.543673e-003 -9.373591e-002 -2.725388e-001 -1.649192e-001 -3.658232e-001 6.381693e-002 2.465852e-002 2.561790e-001 -1.144442e-001 -1.061526e-001 2.999915e-002
<VARIANCE> 39
 2.220060e+001 4.732272e+001 6.458308e+001 1.385177e+002 7.656283e+001 6.161735e+001 6.468745e+001 5.122361e+001 4.654639e+001 5.537468e+001 5.031451e+001 4.126254e+001 5.570927e+001 1.098053e+000 2.044303e+000 1.906164e+000 3.858402e+000 3.980604e+000 2.911189e+000 3.709198e+000 3.771128e+000 3.479630e+000 3.593070e+000 3.307168e+000 2.059199e+000 1.002236e+000 1.785182e-001 2.424503e-001 3.297882e-001 6.873614e-001 6.391687e-001 6.758206e-001 6.988896e-001 6.728820e-001 6.816310e-001 7.319905e-001 5.220017e-001 4.180544e-001 1.023670e-001
<GCONST> 1.254350e+002
<STATE> 3
<MEAN> 39
 -8.964586e+000 -1.237582e+001 -1.569603e+000 -1.104666e+001 6.259046e-001 -5.933909e+000 -7.533704e+000 -1.191986e+001 -5.468204e+000 -1.372886e+001 -4.268765e+000 -4.714699e+000 6.684521e+001 8.326996e-003 -5.402794e-001 -8.121965e-002 -6.145296e-002 -1.701008e-001 -2.833913e-001 -9.674307e-001 -7.141849e-001 -1.439606e-002 -3.382762e-001 -2.459136e-002 -5.761074e-001 4.040336e-001 2.700290e-001 -2.950075e-002 -1.390215e-001 -4.838639e-001 -3.071572e-001 -1.202508e-001 -7.764445e-002 3.229528e-001 -1.257506e-001 4.077877e-001 -2.213894e-001 2.079792e-001 1.514526e-001
<VARIANCE> 39
 2.674948e+001 5.159996e+001 4.225500e+001 7.628447e+001 5.942260e+001 4.662140e+001 4.788505e+001 3.922213e+001 5.089542e+001 5.224412e+001 4.381581e+001 3.317561e+001 4.167448e+001 1.261081e+000 1.343819e+000 1.635509e+000 5.050930e+000 2.940215e+000 2.856198e+000 2.640766e+000 2.763106e+000 2.897782e+000 2.730104e+000 2.311988e+000 1.955899e+000 1.064887e+000 1.928835e-001 1.989073e-001 2.474525e-001 5.727891e-001 5.380132e-001 5.335106e-001 4.946738e-001 6.236222e-001 5.400664e-001 5.807711e-001 4.464158e-001 3.500535e-001 8.459949e-002
<GCONST> 1.186181e+002
<STATE> 4
<MEAN> 39
 -7.839064e+000 -1.562797e+001 -2.752129e+000 -1.398683e+001 -1.166822e+000 -8.208346e+000 -1.046889e+001 -1.341169e+001 -6.158797e+000 -1.315293e+001 -4.920838e+000 -5.017582e+000 6.992138e+001 6.593424e-001 -9.382274e-001 -5.258377e-001 -1.125542e+000 -9.253825e-002 -3.615406e-001 -4.441599e-001 3.824002e-001 -2.244166e-001 8.506541e-001 -6.412119e-001 4.790413e-001 9.462971e-001 3.296508e-004 -1.631109e-001 -9.199291e-002 -1.052551e-001 1.992206e-001 1.520028e-001 2.159593e-001 3.789085e-001 -1.511460e-001 3.570408e-001 -1.402549e-001 2.249405e-001 1.360030e-001
<VARIANCE> 39
 3.025927e+001 5.532175e+001 2.857370e+001 6.183120e+001 4.467615e+001 3.432818e+001 3.898682e+001 3.274662e+001 3.799172e+001 4.031277e+001 3.245263e+001 3.105072e+001 2.468858e+001 1.172107e+000 1.489579e+000 1.567765e+000 3.112228e+000 2.937031e+000 2.904169e+000 2.637236e+000 2.911194e+000 2.723482e+000 3.104247e+000 2.082028e+000 2.194562e+000 9.181938e-001 2.335567e-001 1.620501e-001 2.428655e-001 5.088528e-001 5.295692e-001 4.632390e-001 4.019027e-001 4.623740e-001 4.388017e-001 5.074741e-001 3.184571e-001 3.038383e-001 9.836583e-002
<GCONST> 1.138034e+002
<TRANSP> 5
 0.000000e+000 1.000000e+000 0.000000e+000 0.000000e+000 0.000000e+000
 0.000000e+000 5.148985e-001 4.851015e-001 0.000000e+000 0.000000e+000
 0.000000e+000 0.000000e+000 5.576515e-001 4.423485e-001 0.000000e+000
 0.000000e+000 0.000000e+000 0.000000e+000 7.233179e-001 2.766820e-001
 0.000000e+000 0.000000e+000 0.000000e+000 0.000000e+000 0.000000e+000
<ENDHMM>
~h "i"
<BEGINHMM>
<NUMSTATES> 5
<STATE> 2
<MEAN> 39
 -7.478695e+000 -1.129146e+001 1.115401e+000 -2.388330e+001 -1.148679e+001 -1.455797e+001 -6.509210e+000 -1.013982e+000 -1.018941e+001 9.397268e-001 -1.275926e+001 -6.363671e-001 7.551090e+001 -3.234518e-001 9.754896e-001 1.614570e+000 -3.862448e-001 -1.777654e+000 -4.615745e-001 -6.910660e-001 -7.597623e-001 -1.069132e+000 9.319592e-001 3.453208e-001 2.267212e-001 -5.546769e-001 8.990874e-002 -9.774073e-003 -7.912717e-002 2.242596e-001 5.951665e-001 2.738162e-001 -3.674195e-001 -5.215874e-001 -1.015164e-001 -1.503204e-001 1.150861e-001 -8.393052e-002 -2.324559e-001
<VARIANCE> 39
 7.310819e+000 2.280797e+001 3.557219e+001 3.510432e+001 5.078456e+001 2.705058e+001 1.120357e+002 7.415475e+001 4.517532e+001 4.344265e+001 4.103309e+001 3.995617e+001 1.248804e+001 5.950614e-001 1.540913e+000 1.587893e+000 2.289854e+000 3.924053e+000 3.102240e+000 4.782263e+000 3.493519e+000 5.279873e+000 3.988014e+000 4.695113e+000 3.183331e+000 6.255615e-001 1.027394e-001 1.805763e-001 1.861283e-001 5.350310e-001 4.912906e-001 6.255805e-001 6.927184e-001 6.457781e-001 7.120189e-001 7.747909e-001 6.964058e-001 7.055914e-001 9.013905e-002
<GCONST> 1.174947e+002
<STATE> 3
<MEAN> 39
 -8.986769e+000 -7.856006e+000 6.696652e+000 -2.416828e+001 -1.422208e+001 -1.391408e+001 -1.178708e+001 -7.064600e+000 -1.469247e+001 3.087077e+000 -1.194027e+001 5.273123e-001 7.298595e+001 2.400308e-001 5.892037e-001 8.425325e-001 7.199408e-001 3.688433e-001 -1.198252e-002 -7.972972e-001 -1.171980e+000 -7.486812e-001 -5.552285e-001 -1.554437e-001 3.593729e-002 -1.058775e+000 2.579186e-001 6.415415e-002 -3.208784e-001 6.459998e-001 5.905088e-001 -1.058254e-002 2.203764e-001 1.226448e-001 3.402226e-001 -5.104858e-001 5.913532e-002 -1.165719e-001 -3.756818e-001
<VARIANCE> 39
 1.168765e+001 2.039691e+001 2.798845e+001 4.043890e+001 3.801178e+001 2.986126e+001 5.758712e+001 4.819365e+001 4.616699e+001 3.585024e+001 4.281118e+001 5.641459e+001 1.243912e+001 8.062479e-001 1.420853e+000 1.535703e+000 2.444179e+000 2.592179e+000 2.647085e+000 3.779760e+000 2.684391e+000 3.049304e+000 3.129544e+000 2.672595e+000 2.617100e+000 1.049621e+000 1.442654e-001 2.349481e-001 2.685309e-001 4.287310e-001 6.521387e-001 5.465317e-001 6.835545e-001 5.071099e-001 8.179431e-001 6.021232e-001 6.225302e-001 4.865325e-001 1.608840e-001
<GCONST> 1.154516e+002
<STATE> 4
<MEAN> 39
 -6.546428e+000 -4.543629e+000 7.396866e+000 -1.709514e+001 -1.037620e+001 -1.234894e+001 -1.214388e+001 -9.871678e+000 -1.265431e+001 -1.131192e+000 -1.044507e+001 -1.012229e+000 6.501074e+001 6.309180e-001 6.167343e-001 -5.277091e-001 2.172256e+000 1.524638e+000 2.344369e-001 4.998376e-001 -1.280269e-001 9.017526e-001 -1.310522e+000 4.948718e-001 -5.274785e-001 -2.203775e+000 -1.082816e-001 -1.529821e-002 -3.724895e-001 7.684284e-002 1.436609e-001 1.056770e-001 2.300254e-001 2.695476e-001 3.645953e-001 -1.526414e-002 1.311803e-001 -1.558142e-001 -8.381069e-002
<VARIANCE> 39
 1.596858e+001 3.432678e+001 4.131596e+001 7.326665e+001 4.233007e+001 5.270568e+001 5.310920e+001 3.932975e+001 7.064295e+001 4.487709e+001 6.423890e+001 5.261504e+001 5.916332e+001 1.325875e+000 2.150276e+000 1.858594e+000 3.808029e+000 3.863546e+000 3.051498e+000 4.738903e+000 3.572680e+000 4.387839e+000 4.011164e+000 3.014860e+000 2.990091e+000 2.512302e+000 2.357844e-001 4.328190e-001 3.676646e-001 5.523329e-001 6.124487e-001 5.292655e-001 6.772857e-001 6.673133e-001 8.139090e-001 6.405978e-001 6.081370e-001 5.050266e-001 3.082963e-001
<GCONST> 1.271044e+002
<TRANSP> 5
 0.000000e+000 1.000000e+000 0.000000e+000 0.000000e+000 0.000000e+000
 0.000000e+000 6.863315e-001 3.136685e-001 0.000000e+000 0.000000e+000
 0.000000e+000 0.000000e+000 6.506144e-001 3.493856e-001 0.000000e+000
 0.000000e+000 0.000000e+000 0.000000e+000 7.044938e-001 2.955061e-001
 0.000000e+000 0.000000e+000 0.000000e+000 0.000000e+000 0.000000e+000
<ENDHMM>
~h "k"
<BEGINHMM>
<NUMSTATES> 5
<STATE> 2
<MEAN> 39
 -7.412454e-001 3.319278e+000 1.750718e-001 -1.159117e+001 -5.526885e+000 -6.400318e+000 -6.293120e+000 -5.027746e+000 -4.020270e+000 -1.060708e+001 -6.682951e+000 -6.846988e+000 5.500064e+001 -5.034655e-001 -6.821805e-001 -1.344542e-001 6.954964e-001 5.232278e-001 6.129282e-001 1.793952e+000 9.170659e-001 7.082040e-001 1.074324e+000 -7.332860e-002 -3.778339e-002 -1.319579e+000 -2.829731e-001 -2.824768e-001 4.032699e-002 -1.346021e-001 -1.221583e-001 -1.419979e-001 -1.237139e-001 -1.665949e-001 4.300812e-002 3.363827e-001 1.897979e-001 2.804967e-001 4.766872e-001
<VARIANCE> 39
 3.328006e+001 3.939475e+001 2.313299e+001 7.076118e+001 4.100580e+001 4.020510e+001 3.908837e+001 2.285450e+001 3.159361e+001 4.454468e+001 3.197313e+001 3.288432e+001 4.306585e+001 9.642220e-001 1.168624e+000 2.542851e+000 2.556188e+000 2.816426e+000 2.562123e+000 2.437306e+000 2.354381e+000 3.254896e+000 2.664552e+000 3.018926e+000 2.134113e+000 2.197405e+000 1.031293e-001 2.220080e-001 5.519812e-001 5.800134e-001 5.379736e-001 4.215330e-001 4.872204e-001 5.142046e-001 7.824994e-001 3.911840e-001 6.518416e-001 6.075917e-001 8.407067e-001
<GCONST> 1.188869e+002
<STATE> 3
<MEAN> 39
 -8.102920e+000 -3.801817e+000 1.186261e+000 -1.052245e+001 -4.489792e+000 -6.428659e+000 -3.071227e+000 -5.028921e+000 -2.736366e+000 -2.646218e+000 -6.390959e+000 -2.742930e+000 5.553269e+001 -1.084523e+000 -9.813871e-001 3.087967e-001 -7.035263e-001 -1.171903e+000 -3.368080e-001 4.529385e-001 -5.803655e-001 -5.008957e-001 1.315103e+000 -1.281230e-001 1.343364e+000 2.081996e+000 1.020952e-001 1.122970e-001 8.928727e-002 -4.129073e-002 -3.501963e-001 -3.885378e-001 -3.818459e-001 -2.448831e-001 -5.474529e-001 -2.581614e-001 -2.665084e-001 4.891364e-002 6.966066e-001
<VARIANCE> 39
 2.522204e+001 2.458367e+001 2.611653e+001 6.078853e+001 5.408009e+001 3.090947e+001 5.347074e+001 3.522565e+001 4.789111e+001 4.094016e+001 3.531615e+001 7.225846e+001 1.192726e+002 1.887503e+000 2.375893e+000 2.309628e+000 6.116667e+000 6.295794e+000 3.963839e+000 7.242218e+000 3.829069e+000 8.095757e+000 4.954331e+000 4.803027e+000 5.639239e+000 1.017265e+001 3.829466e-001 4.251777e-001 5.139925e-001 8.682057e-001 1.420039e+000 6.960753e-001 1.111084e+000 9.279485e-001 1.208888e+000 5.976337e-001 9.188165e-001 1.402840e+000 2.019000e+000
<GCONST> 1.386734e+002
<STATE> 4
<MEAN> 39
 -8.581418e+000 -7.075373e+000 1.145869e+000 -1.385885e+001 -4.797117e+000 -8.591276e+000 -6.451849e+000 -5.840921e+000 -6.628722e+000 -4.452539e+000 -9.894060e+000 -1.690626e-001 6.137417e+001 -5.067783e-001 -7.820529e-001 1.117449e-001 -8.637292e-002 -1.653543e-001 -5.580885e-001 -1.755887e-001 -2.439085e-001 -4.076217e-001 -2.804656e-001 -3.114538e-001 3.633139e-001 1.393791e+000 5.914725e-002 1.114759e-001 9.404829e-002 -2.123519e-001 -1.445961e-001 -6.405329e-002 -1.620944e-001 6.008455e-002 -4.451940e-002 -3.557320e-002 -4.332704e-002 -1.035426e-002 3.161538e-001
<VARIANCE> 39
 1.904782e+001 3.976971e+001 3.721970e+001 9.819962e+001 4.488310e+001 3.471700e+001 6.288176e+001 8.747734e+001 7.157066e+001 7.275209e+001 7.767404e+001 2.664688e+001 1.670422e+002 1.734439e+000 1.716544e+000 2.656148e+000 2.872308e+000 2.971579e+000 3.873889e+000 4.909400e+000 6.591285e+000 3.681997e+000 3.901133e+000 2.676794e+000 3.467629e+000 7.999746e+000 1.400895e-001 2.501118e-001 3.833991e-001 5.099902e-001 6.179427e-001 4.665176e-001 7.215098e-001 1.406358e+000 5.208117e-001 6.567084e-001 5.025755e-001 5.553182e-001 9.518840e-001
<GCONST> 1.311907e+002
<TRANSP> 5
 0.000000e+000 1.000000e+000 0.000000e+000 0.000000e+000 0.000000e+000
 0.000000e+000 6.426795e-001 3.573205e-001 0.000000e+000 0.000000e+000
 0.000000e+000 0.000000e+000 6.271155e-001 3.728845e-001 0.000000e+000
 0.000000e+000 0.000000e+000 0.000000e+000 7.448978e-001 2.551023e-001
 0.000000e+000 0.000000e+000 0.000000e+000 0.000000e+000 0.000000e+000
<ENDHMM>
~h "l"
<BEGINHMM>
<NUMSTATES> 5
<STATE> 2
<MEAN> 39
 -4.912365e+000 -1.027433e+001 3.222224e+000 -2.112687e+001 -4.664211e+000 -2.074862e+001 -1.755197e+001 -3.127058e+000 -7.565925e+000 -1.041078e+001 -1.054222e+001 6.560642e+000 6.896337e+001 -1.765262e-001 -3.227569e-001 -1.578345e-001 -1.118685e+000 8.818483e-001 -1.102148e+000 -1.934172e-001 1.028829e+000 1.971558e-001 -4.583861e-001 -6.243820e-001 8.168768e-001 5.506331e-001 1.435667e-002 -2.056679e-001 -3.855886e-001 4.645135e-002 1.490665e-002 4.920431e-001 6.422749e-001 7.432997e-002 -1.632423e-001 2.542516e-001 -8.256502e-002 -2.762158e-001 1.320192e-001
<VARIANCE> 39
 1.297888e+001 2.335392e+001 4.460318e+001 6.347848e+001 5.236743e+001 5.640044e+001 6.455424e+001 4.580174e+001 8.326765e+001 4.583717e+001 5.852098e+001 5.461521e+001 1.900188e+001 6.298333e-001 2.149695e+000 2.274939e+000 3.421125e+000 4.523782e+000 5.790606e+000 6.179311e+000 4.708621e+000 4.749164e+000 4.543501e+000 3.861456e+000 3.699579e+000 1.454211e+000 1.088617e-001 3.008097e-001 2.546726e-001 6.921936e-001 7.992367e-001 9.005463e-001 1.018474e+000 9.478539e-001 8.822396e-001 9.110689e-001 7.499098e-001 6.828632e-001 1.546137e-001
<GCONST> 1.274071e+002
<STATE> 3
<MEAN> 39
 -5.451608e+000 -1.386126e+001 -1.264329e+000 -2.452935e+001 -4.568514e-001 -2.188189e+001 -1.141865e+001 1.635761e+000 -7.781891e+000 -1.091135e+001 -1.359773e+001 6.838465e+000 7.239965e+001 -4.902687e-002 -1.962838e+000 -1.774068e+000 3.899389e-001 5.832261e-001 2.480361e+000 2.581316e+000 1.916407e-001 -1.044752e+000 4.606282e-001 -7.243173e-001 -3.638670e-001 1.370284e+000 -4.597190e-002 -2.886808e-001 5.410650e-003 4.943821e-001 1.661768e-001 7.438976e-001 -3.574298e-002 -6.065306e-001 -3.287207e-001 2.636660e-001 2.888898e-001 -3.529350e-002 1.236865e-001
<VARIANCE> 39
 8.810475e+000 3.068765e+001 3.269813e+001 3.462475e+001 4.753177e+001 7.173369e+001 6.975361e+001 3.566328e+001 6.031994e+001 4.450154e+001 4.075170e+001 3.765112e+001 1.216033e+001 4.207520e-001 3.257099e+000 2.167946e+000 3.309142e+000 3.640758e+000 8.258657e+000 5.709911e+000 4.400388e+000 4.880486e+000 4.226992e+000 3.282206e+000 2.981894e+000 8.320273e-001 5.658947e-002 4.100379e-001 3.803961e-001 5.111579e-001 5.022460e-001 1.141413e+000 1.062423e+000 6.975026e-001 7.965718e-001 6.958346e-001 6.183239e-001 5.011767e-001 1.390181e-001
<GCONST> 1.220365e+002
<STATE> 4
<MEAN> 39
 -6.203235e+000 -2.186892e+001 -4.282623e+000 -1.861543e+001 3.005381e+000 -1.078922e+001 -7.787649e+000 -1.208573e+000 -1.225343e+001 -6.976510e+000 -1.354330e+001 5.806374e+000 7.674236e+001 -1.576228e-001 -1.194335e+000 -3.884180e-001 9.054738e-001 9.331649e-001 1.553295e+000 3.971274e-001 -1.063848e+000 -3.236073e-001 1.195506e+000 1.618689e-001 -6.677963e-001 6.947241e-001 3.195114e-002 3.743413e-001 3.211439e-001 -1.336983e-001 -7.259287e-002 -4.690485e-001 -5.458016e-001 -1.804212e-001 3.276686e-001 9.834083e-003 1.937369e-001 -1.362373e-001 -2.931084e-001
<VARIANCE> 39
 7.026763e+000 5.706832e+001 2.966409e+001 3.876893e+001 9.921819e+001 4.113523e+001 5.215875e+001 3.949746e+001 4.288409e+001 4.650037e+001 2.848598e+001 4.225826e+001 1.378210e+001 3.891850e-001 2.463032e+000 1.842161e+000 4.027311e+000 3.545590e+000 5.353508e+000 4.650248e+000 3.754465e+000 4.513873e+000 3.547486e+000 2.815820e+000 2.672816e+000 9.319284e-001 6.064213e-002 2.420118e-001 3.165754e-001 4.338042e-001 5.909964e-001 7.857847e-001 8.388298e-001 5.900976e-001 5.686108e-001 7.146087e-001 4.796144e-001 4.303173e-001 9.137470e-002
<GCONST> 1.179158e+002
<TRANSP> 5
 0.000000e+000 1.000000e+000 0.000000e+000 0.000000e+000 0.000000e+000
 0.000000e+000 7.902492e-001 2.097508e-001 0.000000e+000 0.000000e+000
 0.000000e+000 0.000000e+000 6.465647e-001 3.534353e-001 0.000000e+000
 0.000000e+000 0.000000e+000 0.000000e+000 5.324876e-001 4.675124e-001
 0.000000e+000 0.000000e+000 0.000000e+000 0.000000e+000 0.000000e+000
<ENDHMM>
~h "m"
<BEGINHMM>
<NUMSTATES> 5
<STATE> 2
<MEAN> 39
 6.249243e-001 -7.122874e+000 1.674435e+000 -1.265423e+001 1.651677e+000 -1.429594e+001 -1.761804e+001 -9.880377e+000 -1.265772e+001 -1.058908e+001 -1.117193e+001 -6.301505e+000 6.251636e+001 4.451760e-001 1.674424e+000 9.276185e-001 1.795531e+000 8.740174e-001 -9.831089e-001 -2.311257e+000 -9.708953e-001 -1.707579e+000 -1.575177e+000 3.687498e-001 -9.872898e-001 -1.583872e+000 -3.108008e-001 -3.433074e-001 -1.775963e-001 -3.051196e-001 -1.288215e-001 1.413605e-001 3.096543e-001 1.736617e-001 -6.326069e-004 2.198997e-001 8.340260e-003 3.402955e-001 4.223742e-001
<VARIANCE> 39
 9.023471e+000 5.590571e+001 4.923426e+001 5.165674e+001 5.646040e+001 6.367719e+001 6.444164e+001 4.333317e+001 5.586286e+001 4.920796e+001 3.699506e+001 6.457781e+001 3.747650e+001 1.195552e+000 2.785759e+000 2.327675e+000 4.112619e+000 3.799678e+000 3.658752e+000 5.815127e+000 3.776317e+000 5.354510e+000 4.523914e+000 3.731378e+000 4.412008e+000 3.392639e+000 1.890571e-001 3.072873e-001 3.282659e-001 7.725194e-001 7.188898e-001 4.960703e-001 9.239497e-001 6.029388e-001 9.675589e-001 6.397275e-001 5.046755e-001 8.020355e-001 2.792915e-001
<GCONST> 1.290851e+002
<STATE> 3
<MEAN> 39
 4.247532e-001 -4.939423e+000 2.788322e+000 -1.044194e+001 2.289165e+000 -1.763752e+001 -2.232397e+001 -1.095908e+001 -1.604678e+001 -1.324349e+001 -1.072769e+001 -6.547536e+000 6.063082e+001 -3.400861e-002 1.581148e-001 -3.084986e-001 -7.758077e-002 -3.075566e-001 2.901237e-002 -4.431817e-002 -9.266160e-002 -2.285321e-001 -2.957305e-001 1.695766e-001 6.060418e-001 -2.567116e-002 -7.053933e-002 -3.567092e-001 -3.726533e-001 -5.105853e-001 -2.105083e-001 4.108402e-001 6.430488e-001 2.329425e-001 4.624089e-001 3.331726e-001 -5.231570e-002 2.813385e-001 4.201453e-001
<VARIANCE> 39
 5.522480e+000 3.326102e+001 3.373415e+001 2.995284e+001 4.724490e+001 6.058192e+001 4.767721e+001 3.930304e+001 3.784765e+001 4.517803e+001 4.029063e+001 8.440778e+001 9.950382e+000 5.157410e-001 1.641586e+000 1.393768e+000 2.363540e+000 2.715471e+000 3.079243e+000 3.973486e+000 2.551582e+000 3.739595e+000 3.398923e+000 3.126254e+000 4.744634e+000 1.489469e+000 1.089364e-001 2.581008e-001 2.866337e-001 5.046752e-001 5.172607e-001 4.600438e-001 7.300442e-001 5.706791e-001 7.959665e-001 6.487886e-001 5.466537e-001 8.843591e-001 2.327705e-001
<GCONST> 1.176192e+002
<STATE> 4
<MEAN> 39
 -8.732990e-002 -4.536334e+000 2.440349e-001 -1.065013e+001 3.905198e-001 -1.331884e+001 -1.812281e+001 -1.021764e+001 -1.389184e+001 -1.293882e+001 -9.272023e+000 -3.375554e+000 6.003776e+001 -3.845608e-001 -5.488526e-001 -1.236432e+000 -1.029974e+000 -2.727670e-001 1.169523e+000 1.265811e+000 5.309209e-001 9.726583e-001 8.365287e-001 3.754032e-001 4.732407e-001 6.691113e-001 -1.981015e-001 -2.614390e-001 -1.520803e-001 -3.063283e-001 1.652069e-001 8.366387e-002 1.906580e-001 2.858218e-001 3.254566e-001 3.290831e-001 -1.165426e-001 -1.054530e-001 3.037541e-001
<VARIANCE> 39
 1.063338e+001 3.719041e+001 4.142214e+001 7.389635e+001 5.862371e+001 6.855042e+001 6.468590e+001 4.021344e+001 5.740966e+001 5.535965e+001 5.125913e+001 6.956092e+001 3.190456e+001 1.092151e+000 3.576045e+000 2.710993e+000 5.334900e+000 4.310746e+000 4.060273e+000 5.157280e+000 3.093632e+000 4.772498e+000 5.932683e+000 4.053194e+000 3.981666e+000 3.665018e+000 1.800028e-001 3.845069e-001 5.076694e-001 7.744133e-001 7.971044e-001 6.324302e-001 7.903074e-001 7.175343e-001 9.270626e-001 8.465875e-001 8.597032e-001 7.234286e-001 3.360921e-001
<GCONST> 1.319776e+002
<TRANSP> 5
 0.000000e+000 1.000000e+000 0.000000e+000 0.000000e+000 0.000000e+000
 0.000000e+000 5.652609e-001 4.347391e-001 0.000000e+000 0.000000e+000
 0.000000e+000 0.000000e+000 6.365706e-001 3.634295e-001 0.000000e+000
 0.000000e+000 0.000000e+000 0.000000e+000 6.266971e-001 3.733029e-001
 0.000000e+000 0.000000e+000 0.000000e+000 0.000000e+000 0.000000e+000
<ENDHMM>
~h "n"
<BEGINHMM>
<NUMSTATES> 5
<STATE> 2
<MEAN> 39
 -3.326217e-001 -6.028627e+000 3.903261e+000 -1.277284e+001 -4.427830e+000 -1.820211e+001 -1.265321e+001 -6.030327e+000 -1.192377e+001 -1.173697e+001 -1.477722e+001 3.640988e+000 6.306260e+001 4.022173e-001 1.826492e+000 7.083552e-001 1.143575e+000 -4.598567e-002 -1.856968e+000 -4.411296e-001 -1.257935e+000 -5.153505e-001 -1.736558e+000 -5.856473e-001 8.380282e-001 -1.526566e+000 -2.300157e-001 -4.201845e-001 -3.400466e-001 -3.012410e-001 -1.377364e-001 3.337775e-001 1.227905e-001 2.523486e-001 4.579737e-002 4.082712e-001 1.780692e-001 -1.604558e-001 4.130080e-001
<VARIANCE> 39
 8.593286e+000 5.395050e+001 3.930763e+001 4.274809e+001 5.780845e+001 4.882049e+001 5.679473e+001 5.342127e+001 5.745764e+001 3.807964e+001 6.673534e+001 6.415485e+001 3.714371e+001 9.822728e-001 3.411353e+000 2.146181e+000 3.354704e+000 3.715367e+000 4.498158e+000 3.799390e+000 5.545276e+000 3.697313e+000 4.041545e+000 4.555532e+000 3.556821e+000 3.166009e+000 1.307284e-001 4.619035e-001 3.015526e-001 6.264971e-001 8.220568e-001 7.302115e-001 6.611674e-001 9.654151e-001 6.380347e-001 7.000061e-001 7.641625e-001 6.643382e-001 3.169563e-001
<GCONST> 1.284969e+002
<STATE> 3
<MEAN> 39
 -6.002403e-002 -2.954602e+000 4.120838e+000 -1.146630e+001 -6.894596e+000 -2.262149e+001 -1.345800e+001 -6.845676e+000 -1.267192e+001 -1.495798e+001 -1.585294e+001 6.048985e+000 6.077136e+001 -7.297877e-002 -3.653368e-002 -3.312150e-001 2.374930e-001 -2.694528e-001 1.455963e-001 -1.491797e-001 9.998360e-002 1.094146e-001 -9.571426e-002 3.207092e-001 -1.990357e-001 -1.361250e-001 -1.206511e-001 -3.804636e-001 -1.929109e-001 -1.327074e-001 1.725808e-001 5.688413e-001 9.923037e-003 7.512328e-002 5.560716e-002 3.417487e-001 2.638409e-001 -3.858457e-001 2.602231e-001
<VARIANCE> 39
 5.749771e+000 2.276114e+001 2.873050e+001 2.487513e+001 4.319680e+001 4.112917e+001 5.055430e+001 3.867485e+001 5.617087e+001 4.064089e+001 5.718132e+001 5.934540e+001 1.173676e+001 3.430907e-001 2.502204e+000 1.441462e+000 1.909239e+000 2.037995e+000 3.657180e+000 2.718456e+000 2.644612e+000 2.991734e+000 3.086221e+000 2.874629e+000 2.936328e+000 1.652373e+000 9.447952e-002 3.351901e-001 2.603990e-001 3.557139e-001 4.268112e-001 6.184357e-001 5.537199e-001 5.764449e-001 5.906036e-001 6.782482e-001 5.891008e-001 4.904382e-001 2.178326e-001
<GCONST> 1.142225e+002
<STATE> 4
<MEAN> 39
 -1.093198e+000 -3.498369e+000 2.204906e+000 -7.928226e+000 -4.945258e+000 -1.565899e+001 -1.235032e+001 -6.762521e+000 -1.059538e+001 -1.314262e+001 -1.108200e+001 2.467839e-001 5.848405e+001 -7.636759e-001 -6.230224e-001 -7.586712e-001 1.139497e-001 7.284050e-001 1.676446e+000 4.142785e-001 1.950202e-001 4.834890e-001 7.551932e-001 1.024228e+000 -1.308337e+000 -1.073522e-001 -2.042795e-001 -3.962192e-002 -3.713056e-002 -1.353834e-001 1.881527e-001 3.990636e-002 2.309216e-001 5.253495e-002 1.430647e-001 1.958476e-001 -7.696702e-003 5.546446e-002 7.599681e-002
<VARIANCE> 39
 1.029825e+001 4.665125e+001 3.560314e+001 4.802830e+001 5.203271e+001 5.407508e+001 6.530868e+001 4.866966e+001 5.259586e+001 4.248850e+001 4.472417e+001 6.359962e+001 4.293375e+001 1.041907e+000 4.188730e+000 2.173428e+000 3.276294e+000 3.402698e+000 3.750334e+000 4.598809e+000 3.928956e+000 3.946235e+000 3.977803e+000 3.310110e+000 3.344875e+000 3.484924e+000 1.912655e-001 4.528413e-001 3.519453e-001 4.037338e-001 5.234430e-001 6.356321e-001 6.621672e-001 7.284377e-001 6.338328e-001 6.375636e-001 5.799487e-001 6.061999e-001 2.704774e-001
<GCONST> 1.265245e+002
<TRANSP> 5
 0.000000e+000 1.000000e+000 0.000000e+000 0.000000e+000 0.000000e+000
 0.000000e+000 6.146734e-001 3.853266e-001 0.000000e+000 0.000000e+000
 0.000000e+000 0.000000e+000 7.369737e-001 2.630263e-001 0.000000e+000
 0.000000e+000 0.000000e+000 0.000000e+000 7.004259e-001 2.995742e-001
 0.000000e+000 0.000000e+000 0.000000e+000 0.000000e+000 0.000000e+000
<ENDHMM>
~h "o"
<BEGINHMM>
<NUMSTATES> 5
<STATE> 2
<MEAN> 39
 -3.505169e+000 -1.822718e+001 -9.453006e+000 -2.622096e+001 6.653752e+000 -9.169472e+000 -7.696313e+000 -5.598567e+000 -6.097455e+000 -5.111701e+000 -1.465126e+001 -1.431239e+000 7.597292e+001 5.819849e-001 -1.202731e+000 -1.481311e+000 -1.411018e+000 2.090367e+000 1.216207e+000 -3.506666e-001 -1.078421e+000 2.885194e-001 2.015289e-001 -5.540086e-001 -6.198937e-001 5.766211e-001 -2.302044e-001 5.086070e-001 2.596934e-001 6.868917e-001 -2.232158e-001 2.165894e-001 4.500513e-002 -2.573042e-001 1.323961e-002 9.567977e-002 8.027128e-001 2.331230e-002 -4.485451e-001
<VARIANCE> 39
 1.187991e+001 4.158510e+001 1.457277e+001 3.289921e+001 5.631012e+001 4.602572e+001 3.551881e+001 5.252265e+001 3.793895e+001 4.760183e+001 4.310703e+001 5.327226e+001 1.085663e+001 8.026906e-001 7.213902e+000 2.040123e+000 5.028755e+000 8.019122e+000 3.653588e+000 4.563504e+000 6.261324e+000 4.802159e+000 5.185496e+000 4.898069e+000 2.815864e+000 1.718355e+000 2.479040e-001 5.094928e-001 2.537381e-001 1.301702e+000 1.168107e+000 7.583800e-001 7.953205e-001 1.234630e+000 9.946487e-001 9.156414e-001 8.570311e-001 6.874591e-001 2.060536e-001
<GCONST> 1.287429e+002
<STATE> 3
<MEAN> 39
 -1.674801e+000 -1.876418e+001 -1.240432e+001 -2.869136e+001 1.099693e+001 -2.589272e+000 -8.482223e+000 -1.106971e+001 -4.560061e+000 -4.309567e+000 -1.107195e+001 -2.400254e+000 7.550460e+001 3.823205e-001 6.686959e-001 -2.007020e-001 -4.333321e-001 -4.130369e-001 2.248724e-001 -3.034185e-001 -1.586775e-002 1.388639e-001 1.238227e-001 4.683666e-001 2.170149e-001 -4.748527e-001 -2.506112e-002 2.156135e-001 2.522399e-001 4.010498e-001 -3.812571e-001 -3.634532e-001 -7.913672e-002 3.416214e-001 -1.047277e-001 -1.940570e-001 5.119357e-002 1.844037e-001 -2.071421e-001
<VARIANCE> 39
 5.686620e+000 2.635507e+001 1.042915e+001 2.867691e+001 3.704868e+001 4.214675e+001 3.203533e+001 3.160160e+001 3.708488e+001 3.620598e+001 3.133498e+001 3.160325e+001 5.879704e+000 4.786214e-001 4.158750e+000 8.796508e-001 2.903661e+000 3.509854e+000 3.417340e+000 2.790822e+000 4.190627e+000 3.196294e+000 2.600573e+000 2.737957e+000 2.268350e+000 8.260400e-001 7.343302e-002 2.853035e-001 1.786847e-001 6.619969e-001 4.900364e-001 4.536982e-001 4.517359e-001 5.613032e-001 5.684366e-001 5.071232e-001 5.441831e-001 4.277117e-001 9.128176e-002
<GCONST> 1.088843e+002
<STATE> 4
<MEAN> 39
 1.047239e+000 -9.191072e+000 -9.721382e+000 -2.424663e+001 2.896035e+000 -6.244832e+000 -9.873124e+000 -5.974543e+000 -3.584408e+000 -3.239818e+000 -8.561728e+000 -1.638969e+000 6.694550e+001 1.571579e-002 8.951129e-001 9.113532e-001 2.185069e+000 -6.738350e-001 -6.052935e-001 -2.400532e-001 2.922158e-001 -1.476892e-001 -6.515598e-001 2.495822e-001 1.269054e-001 -1.574341e+000 -1.641762e-001 -1.227183e-001 1.312338e-001 4.378192e-001 1.771732e-001 1.146270e-001 1.177003e-001 -2.689103e-001 -5.231496e-002 -2.312908e-001 -2.214327e-002 -1.340401e-001 -1.032017e-001
<VARIANCE> 39
 1.581393e+001 7.398624e+001 2.437592e+001 9.935124e+001 6.023329e+001 5.100881e+001 5.175457e+001 4.489622e+001 5.006586e+001 4.409962e+001 4.285826e+001 3.509644e+001 6.774199e+001 1.022921e+000 3.821395e+000 1.606318e+000 5.552128e+000 4.926211e+000 4.768263e+000 4.013822e+000 3.710128e+000 3.837592e+000 4.411828e+000 3.256978e+000 3.669591e+000 2.735541e+000 1.374755e-001 4.996285e-001 2.861778e-001 9.337571e-001 7.388219e-001 7.806078e-001 7.544305e-001 8.275827e-001 6.493570e-001 7.436126e-001 6.810858e-001 6.427923e-001 3.354934e-001
<GCONST> 1.296064e+002
<TRANSP> 5
 0.000000e+000 1.000000e+000 0.000000e+000 0.000000e+000 0.000000e+000
 0.000000e+000 4.870434e-001 5.129566e-001 0.000000e+000 0.000000e+000
 0.000000e+000 0.000000e+000 8.026719e-001 1.973281e-001 0.000000e+000
 0.000000e+000 0.000000e+000 0.000000e+000 7.457858e-001 2.542142e-001
 0.000000e+000 0.000000e+000 0.000000e+000 0.000000e+000 0.000000e+000
<ENDHMM>
~h "p"
<BEGINHMM>
<NUMSTATES> 5
<STATE> 2
<MEAN> 39
 -5.320667e+000 -1.278431e+001 -5.140296e+000 -1.353794e+001 2.304303e+000 -5.623311e+000 -1.198089e+000 -8.234806e-001 -2.870336e+000 -3.485368e+000 -6.796649e+000 1.021978e+000 5.605296e+001 -3.705850e-001 9.161764e-001 8.846415e-002 1.622055e+000 3.360434e-001 1.035118e+000 6.331149e-001 4.010340e-001 5.188140e-001 -2.505836e-002 5.458416e-001 -5.119291e-001 -1.866038e+000 -1.121204e-001 7.577019e-002 4.029704e-002 -1.669762e-002 -8.992292e-003 -1.608249e-002 -1.773148e-002 -2.991210e-002 -7.585473e-002 -4.616121e-002 -4.951830e-002 9.287144e-003 3.302414e-001
<VARIANCE> 39
 1.842467e+001 3.131293e+001 2.693439e+001 4.577747e+001 4.241379e+001 4.527293e+001 7.293537e+001 3.262159e+001 3.388245e+001 2.381904e+001 4.013953e+001 8.320789e+001 6.246109e+001 1.755257e+000 2.201750e+000 1.686437e+000 4.028296e+000 2.154808e+000 3.447403e+000 3.417243e+000 2.904293e+000 2.766491e+000 2.241714e+000 3.276961e+000 3.306126e+000 4.714298e+000 4.462633e-001 4.496947e-001 3.655260e-001 7.756528e-001 4.304821e-001 6.624857e-001 6.643080e-001 6.155313e-001 5.337753e-001 3.886270e-001 5.949208e-001 4.811713e-001 5.431127e-001
<GCONST> 1.243052e+002
<STATE> 3
<MEAN> 39
 -7.685824e+000 -7.712957e+000 -5.683733e+000 -8.260754e+000 3.439231e+000 -5.847965e-001 -1.525416e-001 -5.072234e-001 1.726473e-001 -3.214561e+000 -2.883570e+000 -1.120455e+000 5.228979e+001 -4.964716e-001 9.381180e-001 1.661475e-001 9.968880e-001 -2.780647e-001 6.414400e-002 -6.405054e-002 -7.652415e-002 2.910879e-001 -1.053742e-001 2.901827e-001 -2.472547e-001 -2.859806e-001 1.079379e-001 -2.115164e-002 3.476419e-002 -3.153085e-001 -2.462735e-001 -4.561918e-001 -3.197362e-001 -3.176252e-001 -2.353601e-001 -4.079488e-002 -1.421767e-001 2.930854e-002 3.620901e-001
<VARIANCE> 39
 3.046677e+001 3.457002e+001 3.794671e+001 3.316029e+001 5.104881e+001 4.753912e+001 5.564759e+001 3.947176e+001 3.100891e+001 2.364216e+001 2.316577e+001 3.800392e+001 1.735663e+001 1.767987e+000 3.019556e+000 2.618984e+000 3.282990e+000 2.276035e+000 4.020537e+000 3.938596e+000 3.877697e+000 2.913108e+000 2.057338e+000 2.209481e+000 2.214677e+000 3.364124e+000 3.880104e-001 5.531166e-001 5.535430e-001 8.311266e-001 4.916060e-001 7.824280e-001 7.828040e-001 8.205623e-001 6.020985e-001 4.041682e-001 5.178323e-001 4.056325e-001 5.375739e-001
<GCONST> 1.235453e+002
<STATE> 4
<MEAN> 39
 -6.695452e+000 -3.950427e+000 -3.715088e+000 -7.167733e+000 1.939069e+000 -3.954388e+000 -2.216939e+000 -1.708812e+000 -7.670685e-001 -3.641782e+000 -2.470320e+000 -4.979588e-001 5.579251e+001 5.161365e-001 8.948676e-001 2.728288e-001 -2.365273e-001 -1.161167e+000 -1.500548e+000 -1.498170e+000 -1.332832e+000 -1.263802e+000 -3.869428e-001 -1.111783e-001 1.608141e-002 9.535264e-001 6.001536e-002 -3.578029e-001 -1.171189e-001 -4.727459e-001 -2.298734e-001 -1.913161e-001 -4.225004e-001 -2.646430e-001 -4.001907e-001 -1.316464e-001 -3.416844e-001 -1.026182e-001 8.417965e-002
<VARIANCE> 39
 5.008033e+001 3.337254e+001 4.240680e+001 6.025225e+001 6.152508e+001 8.285225e+001 6.717026e+001 3.890659e+001 4.024170e+001 3.415364e+001 2.520668e+001 3.343336e+001 5.008173e+001 4.647867e+000 5.101899e+000 6.017739e+000 7.473351e+000 6.626575e+000 6.885479e+000 7.752173e+000 4.148046e+000 4.330493e+000 3.059870e+000 3.460134e+000 3.384642e+000 4.552931e+000 8.153325e-001 8.320487e-001 1.025335e+000 1.287446e+000 1.175658e+000 1.460876e+000 1.212865e+000 8.448380e-001 8.674774e-001 5.962704e-001 7.697498e-001 6.367335e-001 8.940075e-001
<GCONST> 1.410195e+002
<TRANSP> 5
 0.000000e+000 1.000000e+000 0.000000e+000 0.000000e+000 0.000000e+000
 0.000000e+000 7.644911e-001 2.355089e-001 0.000000e+000 0.000000e+000
 0.000000e+000 0.000000e+000 7.022107e-001 2.977892e-001 0.000000e+000
 0.000000e+000 0.000000e+000 0.000000e+000 6.117206e-001 3.882794e-001
 0.000000e+000 0.000000e+000 0.000000e+000 0.000000e+000 0.000000e+000
<ENDHMM>
~h "q"
<BEGINHMM>
<NUMSTATES> 5
<STATE> 2
<MEAN> 39
 -3.798581e+000 -4.948052e+000 -7.729376e+000 -1.306854e+001 6.110308e-001 -6.669788e+000 -2.742943e+000 -2.442115e+000 -1.732458e+000 -3.465807e-001 -5.889883e+000 -2.662565e+000 5.369745e+001 1.126496e+000 1.047724e+000 -1.302737e+000 -2.046793e+000 -4.584446e-001 1.605622e-001 5.206511e-001 6.615186e-001 -4.309210e-001 7.790141e-001 2.116951e-001 1.131541e+000 1.006905e+000 4.089293e-001 3.203766e-002 9.067093e-002 -8.319685e-001 -1.749308e-001 1.355675e-001 -5.231361e-001 -2.142825e-001 -5.925666e-001 -1.136639e-001 -3.028359e-001 1.972639e-001 8.407427e-001
<VARIANCE> 39
 1.254928e+001 4.345578e+001 3.208237e+001 5.488504e+001 4.457677e+001 3.280971e+001 5.790350e+001 3.718038e+001 3.369028e+001 3.339808e+001 5.453893e+001 2.920893e+001 4.932464e+001 3.289297e+000 3.949410e+000 3.695235e+000 1.271414e+001 3.729820e+000 3.656462e+000 4.728148e+000 3.975601e+000 5.973504e+000 4.667421e+000 4.003892e+000 4.192788e+000 9.707757e+000 5.161854e-001 1.060208e+000 6.192929e-001 1.030710e+000 6.884633e-001 8.357558e-001 1.068993e+000 9.860868e-001 9.874203e-001 8.172351e-001 8.633309e-001 7.715923e-001 5.756008e-001
<GCONST> 1.363694e+002
<STATE> 3
<MEAN> 39
 5.187426e+000 1.094896e+000 -1.069217e+001 -3.129727e+001 -4.672459e+000 -4.081202e+000 -5.607664e+000 -2.392004e+000 -1.001292e+001 2.876855e-001 -7.798664e+000 4.594881e+000 6.504480e+001 8.058077e-001 -2.419880e+000 1.647331e-002 -3.748529e+000 8.907140e-001 2.131550e+000 -2.412453e+000 -1.851299e+000 -2.614022e+000 6.298969e-001 -1.646553e+000 -1.162351e-001 3.508271e+000 -1.147125e+000 -1.692079e+000 2.754792e-001 1.810975e+000 9.879451e-001 1.401647e-001 -1.699945e-001 -1.978223e-001 8.423900e-001 1.504158e-001 -3.778388e-001 -1.411538e+000 -3.613347e-001
<VARIANCE> 39
 7.469640e+000 2.925330e+001 1.961731e+001 1.050374e+002 4.330622e+001 3.482102e+001 3.652950e+001 2.691007e+001 3.702993e+001 2.904631e+001 3.270924e+001 3.202603e+001 1.683862e+001 2.435630e+000 7.620573e+000 2.135828e+000 8.759163e+000 5.620995e+000 2.870569e+000 6.081311e+000 2.971021e+000 4.354667e+000 5.277598e+000 4.089726e+000 8.103822e+000 2.106704e+000 2.056897e-001 7.601801e-001 6.225662e-001 1.612099e+000 1.117936e+000 1.084537e+000 1.096406e+000 7.828965e-001 1.035596e+000 1.149301e+000 1.027342e+000 8.998293e-001 1.595680e-001
<GCONST> 1.310165e+002
<STATE> 4
<MEAN> 39
 2.013267e+000 -1.046426e+001 -1.140195e+001 -3.002953e+001 2.534430e+000 1.352221e+000 -1.128677e+001 -6.491692e+000 -1.062282e+001 5.108728e+000 -1.305680e+001 -2.393638e+000 7.196128e+001 -1.566525e+000 -4.444341e+000 8.262093e-002 2.151422e+000 2.083288e+000 -4.262812e-001 -1.502790e+000 -4.151861e-001 8.326359e-001 2.182058e-001 -2.555032e+000 -2.587217e+000 2.183686e+000 -3.951791e-001 1.671040e-001 3.100505e-001 1.364877e+000 -4.588892e-001 -1.238586e+000 8.999555e-001 6.570058e-001 4.580019e-001 -8.351800e-001 2.893845e-001 2.514769e-001 -6.103019e-001
<VARIANCE> 39
 7.497873e+000 5.723280e+001 1.988727e+001 7.031136e+001 4.368551e+001 3.063893e+001 4.264283e+001 2.289400e+001 3.678957e+001 4.843981e+001 4.329897e+001 6.540108e+001 1.161887e+001 1.067634e+000 4.144076e+000 1.855219e+000 4.846604e+000 8.993142e+000 7.539877e+000 8.819693e+000 3.233448e+000 4.341791e+000 7.109108e+000 5.029986e+000 5.345749e+000 1.566370e+000 4.936058e-001 8.965320e-001 3.175642e-001 1.440297e+000 1.322714e+000 8.127136e-001 1.242568e+000 8.861994e-001 1.217596e+000 1.188549e+000 1.051056e+000 1.489661e+000 1.644278e-001
<GCONST> 1.329564e+002
<TRANSP> 5
 0.000000e+000 1.000000e+000 0.000000e+000 0.000000e+000 0.000000e+000
 0.000000e+000 8.126072e-001 1.873928e-001 0.000000e+000 0.000000e+000
 0.000000e+000 0.000000e+000 5.887606e-001 4.112394e-001 0.000000e+000
 0.000000e+000 0.000000e+000 0.000000e+000 4.860082e-001 5.139918e-001
 0.000000e+000 0.000000e+000 0.000000e+000 0.000000e+000 0.000000e+000
<ENDHMM>
~h "r"
<BEGINHMM>
<NUMSTATES> 5
<STATE> 2
<MEAN> 39
 -1.254493e+001 -2.378944e+000 7.484630e+000 -1.046545e+001 -5.136892e+000 -1.068451e+001 -1.315343e+001 -1.025205e+001 -6.278682e+000 -8.024788e+000 -6.813191e+000 -1.501225e+000 6.563607e+001 -2.559484e+000 1.238047e+000 1.264822e+000 9.733045e-001 4.656446e-001 2.469601e-001 9.742278e-002 -6.031571e-001 3.982747e-001 -6.811319e-001 8.185671e-002 -9.698067e-001 5.453773e-001 -2.159177e-002 1.132649e-001 -8.706474e-002 -2.755294e-001 1.719321e-002 3.462398e-002 6.318416e-002 1.748248e-001 -9.251645e-002 -1.190027e-002 -1.031270e-001 -4.529695e-002 4.028032e-002
<VARIANCE> 39
 8.468819e+001 4.600644e+001 6.504141e+001 8.149786e+001 5.029954e+001 4.952324e+001 6.169341e+001 6.229995e+001 6.229408e+001 6.990796e+001 5.594380e+001 4.343359e+001 4.496235e+001 4.828295e+000 3.948675e+000 3.049916e+000 3.919091e+000 3.853055e+000 4.344069e+000 4.966463e+000 4.625610e+000 3.317404e+000 5.515483e+000 4.597736e+000 3.359669e+000 1.799005e+000 9.497537e-001 6.651993e-001 6.114131e-001 5.261323e-001 6.233564e-001 7.607331e-001 8.367234e-001 8.495508e-001 5.054333e-001 9.356440e-001 7.724214e-001 6.425465e-001 1.634931e-001
<GCONST> 1.362466e+002
<STATE> 3
<MEAN> 39
 -2.074137e+001 1.569590e+000 8.711826e+000 -1.033054e+001 -3.264730e+000 -1.300226e+001 -1.307924e+001 -9.791523e+000 -5.415524e+000 -1.352314e+001 -6.230208e+000 -4.803707e+000 6.922996e+001 1.910442e+000 -1.550322e+000 -1.565088e+000 -1.489684e+000 -7.307341e-001 -9.235926e-001 -3.805690e-001 1.090486e+000 6.055907e-001 4.839662e-002 -2.099124e-001 5.966896e-001 6.235615e-001 1.271890e+000 -1.131934e+000 -7.107241e-001 -5.698500e-001 -2.028752e-001 -1.160976e-003 -1.152920e-002 5.723795e-001 -5.302896e-002 3.940389e-001 -4.073446e-001 5.394850e-001 1.199082e-001
<VARIANCE> 39
 4.053949e+001 2.269497e+001 3.186503e+001 5.170584e+001 5.568803e+001 4.214946e+001 3.912285e+001 4.659711e+001 3.826684e+001 3.144262e+001 4.210184e+001 3.623979e+001 7.787325e+000 1.154025e+001 6.401951e+000 4.271330e+000 2.710427e+000 4.414571e+000 4.504923e+000 4.702900e+000 4.370463e+000 2.890095e+000 3.020325e+000 3.951236e+000 3.953037e+000 5.641565e-001 8.809395e-001 5.133882e-001 5.231608e-001 3.105382e-001 7.581872e-001 1.161809e+000 8.971698e-001 7.971547e-001 6.898448e-001 6.365424e-001 8.552338e-001 6.765664e-001 7.752687e-002
<GCONST> 1.277607e+002
<STATE> 4
<MEAN> 39
 -3.433134e+000 -1.650296e+001 -3.256107e+000 -2.065687e+001 -5.760993e+000 -1.424962e+001 -1.338881e+001 1.478958e+000 -5.263212e+000 -9.704791e+000 -1.351422e+001 2.286518e+000 7.357789e+001 2.170000e+000 -3.900569e+000 -2.279330e+000 -1.794816e+000 1.438813e+000 1.644225e+000 7.984122e-001 2.064931e+000 -2.073198e+000 2.109710e+000 -2.007530e+000 1.297481e+000 1.413225e+000 -1.266303e+000 1.011951e+000 6.184897e-001 5.836611e-001 8.380985e-001 4.217283e-001 3.480236e-001 -1.009944e+000 -4.966866e-001 1.579921e-001 5.447462e-001 -5.333982e-001 -8.844116e-002
<VARIANCE> 39
 1.468354e+001 4.178710e+001 2.314298e+001 3.585014e+001 3.884177e+001 4.075632e+001 6.944441e+001 8.515429e+001 7.010274e+001 3.096546e+001 5.785711e+001 3.837230e+001 1.479503e+001 5.502543e+000 6.575618e+000 2.329522e+000 5.348233e+000 6.122702e+000 3.967896e+000 5.644507e+000 1.047032e+001 4.434688e+000 3.786858e+000 5.600512e+000 6.412471e+000 4.740276e-001 4.172938e-001 7.845803e-001 2.874278e-001 6.003576e-001 7.631788e-001 9.262378e-001 8.810449e-001 1.554728e+000 1.433892e+000 6.107195e-001 1.004434e+000 8.001743e-001 1.113855e-001
<GCONST> 1.325364e+002
<TRANSP> 5
 0.000000e+000 1.000000e+000 0.000000e+000 0.000000e+000 0.000000e+000
 0.000000e+000 8.309537e-001 1.690464e-001 0.000000e+000 0.000000e+000
 0.000000e+000 0.000000e+000 7.935375e-001 2.064625e-001 0.000000e+000
 0.000000e+000 0.000000e+000 0.000000e+000 6.872914e-001 3.127086e-001
 0.000000e+000 0.000000e+000 0.000000e+000 0.000000e+000 0.000000e+000
<ENDHMM>
~h "s"
<BEGINHMM>
<NUMSTATES> 5
<STATE> 2
<MEAN> 39
 -1.171947e+001 -3.652885e+000 5.401433e+000 -1.356932e+001 -4.070256e+000 -1.262378e+001 -9.009767e+000 -7.280183e+000 -6.805069e+000 -9.183885e+000 -4.216734e+000 1.932649e-001 6.680559e+001 -4.078420e+000 3.204512e+000 8.010625e-001 1.776189e+000 1.926526e+000 1.984936e+000 7.570511e-001 4.779017e-001 1.390273e+000 -6.713239e-001 1.789856e+000 -8.048594e-001 4.968789e-001 -7.324418e-001 1.360013e-001 -7.136477e-002 -1.143344e-001 6.025901e-001 6.250440e-001 3.463117e-001 6.194009e-001 2.346617e-001 5.665631e-001 -1.543448e-001 -3.523606e-002 1.111191e-001
<VARIANCE> 39
 6.653768e+001 7.362849e+001 4.793867e+001 6.184674e+001 5.531380e+001 9.769617e+001 6.672680e+001 6.582561e+001 8.389327e+001 5.120578e+001 6.231390e+001 4.489101e+001 6.045881e+001 4.835989e+000 6.319079e+000 4.484594e+000 6.301336e+000 7.132655e+000 7.552094e+000 7.247668e+000 6.660419e+000 5.923945e+000 5.530737e+000 4.791307e+000 3.827531e+000 2.725297e+000 9.967574e-001 1.228351e+000 5.828536e-001 8.217067e-001 1.054133e+000 1.309084e+000 9.482436e-001 1.126272e+000 1.062874e+000 1.008111e+000 8.217444e-001 7.327735e-001 2.262964e-001
<GCONST> 1.455102e+002
<STATE> 3
<MEAN> 39
 -3.103444e+001 6.083339e+000 6.925689e+000 -9.836099e+000 5.717748e+000 -1.865924e+000 -1.941929e+000 7.665549e-001 5.039988e-001 -4.142384e+000 1.650667e+000 -1.244864e+000 6.860178e+001 -4.335402e-001 -1.366661e-001 -1.960782e-003 3.592952e-002 3.196722e-001 4.202591e-001 4.795327e-001 6.540015e-001 5.366965e-001 3.065877e-001 3.745294e-001 1.676046e-001 5.959906e-002 1.097277e+000 -6.139532e-001 -2.141878e-001 -2.817978e-001 -5.067217e-001 -5.037174e-001 -3.232595e-001 -2.384170e-001 -2.751718e-001 -3.113301e-001 -2.091408e-001 1.922067e-001 -2.036518e-002
<VARIANCE> 39
 1.358854e+001 2.019044e+001 2.659499e+001 1.836729e+001 2.750209e+001 3.059382e+001 2.925550e+001 2.670413e+001 3.236841e+001 2.519382e+001 2.182665e+001 1.668604e+001 8.769886e+000 6.579041e+000 2.193158e+000 1.402549e+000 1.353191e+000 2.411421e+000 3.169862e+000 2.456243e+000 2.681630e+000 2.578894e+000 3.074658e+000 2.114196e+000 1.905462e+000 5.067570e-001 4.514575e-001 3.779293e-001 4.250327e-001 3.585091e-001 5.271068e-001 5.106457e-001 4.902612e-001 4.670581e-001 4.018506e-001 5.385535e-001 5.142346e-001 3.953594e-001 8.149797e-002
<GCONST> 1.095979e+002
<STATE> 4
<MEAN> 39
 -1.217002e+001 -6.725204e+000 7.933487e-001 -1.555514e+001 -1.296398e+000 -8.303873e+000 -6.613563e+000 5.442536e-001 -1.652394e+000 -1.001146e+001 -1.925020e+000 2.934404e+000 7.042169e+001 5.559972e+000 -4.860731e+000 -2.990791e+000 -2.876973e+000 -1.550125e+000 -2.045363e+000 -2.106559e+000 -8.474358e-001 -2.171515e+000 -1.031083e+000 -2.855384e+000 6.932713e-001 1.323321e+000 -8.543730e-001 -1.800443e-001 -6.065815e-002 -7.222125e-002 8.371302e-001 3.934866e-001 1.491791e-001 -1.530261e-001 -4.081726e-001 7.466002e-001 -3.497792e-001 -3.843394e-001 3.131385e-001
<VARIANCE> 39
 1.139842e+002 7.277534e+001 5.350611e+001 5.695590e+001 6.222731e+001 5.325962e+001 6.943676e+001 3.194916e+001 4.601992e+001 3.685809e+001 5.537950e+001 2.773012e+001 1.232052e+001 7.456271e+000 3.857485e+000 2.395212e+000 3.404132e+000 8.904423e+000 4.441111e+000 4.441875e+000 3.446002e+000 3.712671e+000 5.825134e+000 5.018290e+000 4.625960e+000 1.010516e+000 2.380789e+000 1.297107e+000 9.409210e-001 1.230493e+000 1.575712e+000 1.069870e+000 1.068955e+000 6.110010e-001 7.372736e-001 8.919421e-001 1.204045e+000 6.083660e-001 1.910380e-001
<GCONST> 1.388945e+002
<TRANSP> 5
 0.000000e+000 1.000000e+000 0.000000e+000 0.000000e+000 0.000000e+000
 0.000000e+000 7.509601e-001 2.490400e-001 0.000000e+000 0.000000e+000
 0.000000e+000 0.000000e+000 8.862877e-001 1.137123e-001 0.000000e+000
 0.000000e+000 0.000000e+000 0.000000e+000 7.525176e-001 2.474824e-001
 0.000000e+000 0.000000e+000 0.000000e+000 0.000000e+000 0.000000e+000
<ENDHMM>
~h "t"
<BEGINHMM>
<NUMSTATES> 5
<STATE> 2
<MEAN> 39
 -6.527097e+000 -7.679957e+000 -4.440846e+000 -1.008893e+001 4.486288e-001 -5.258010e+000 -4.263108e+000 -3.449102e+000 -2.730664e+000 -4.124575e+000 -3.568630e+000 -1.763672e+000 5.214867e+001 -7.128382e-001 1.335285e-002 -3.710554e-001 7.203441e-001 1.040350e-001 5.600911e-001 6.645577e-001 1.473653e-001 6.331694e-001 2.190444e-001 4.073291e-001 -4.010006e-001 -1.198178e+000 2.205889e-002 -1.025148e-002 6.946636e-002 -2.334192e-001 -1.755967e-001 -2.556271e-001 -1.852386e-001 -5.258450e-003 -1.205984e-001 3.034574e-002 -1.155651e-002 2.585890e-001 7.192424e-001
<VARIANCE> 39
 1.431599e+001 3.310991e+001 3.561999e+001 3.942412e+001 4.092044e+001 4.078798e+001 3.805194e+001 3.508408e+001 3.577420e+001 3.458902e+001 3.902930e+001 4.481131e+001 3.165151e+001 1.203465e+000 1.809271e+000 1.881451e+000 2.730827e+000 2.432797e+000 2.932729e+000 2.835890e+000 2.388660e+000 2.725925e+000 2.692587e+000 2.750459e+000 2.970052e+000 3.702181e+000 3.199556e-001 4.246067e-001 4.102808e-001 6.513877e-001 5.565384e-001 6.454957e-001 6.225139e-001 5.382698e-001 5.623120e-001 5.525569e-001 6.076386e-001 5.373409e-001 6.754251e-001
<GCONST> 1.213267e+002
<STATE> 3
<MEAN> 39
 -9.084445e+000 -6.711948e+000 -4.116947e+000 -7.094463e+000 -1.776677e-001 -4.938002e+000 -2.573901e+000 -3.275373e+000 -8.209084e-001 -3.416951e+000 -1.787741e+000 -2.156243e+000 5.102817e+001 -1.138190e-001 2.760282e-001 2.696679e-001 -4.342993e-001 -4.343214e-001 -1.083779e+000 -2.860929e-002 3.198453e-001 1.203497e-001 2.243441e-001 5.114763e-001 9.155980e-001 2.928862e+000 3.297652e-001 -2.358082e-001 7.956457e-002 -8.560117e-001 -7.921144e-002 -4.941623e-001 -6.195337e-001 1.206638e-001 -5.619313e-001 -1.164612e-001 -5.565777e-001 2.613410e-001 1.318094e+000
<VARIANCE> 39
 1.604365e+001 3.150672e+001 2.893028e+001 3.458463e+001 3.671154e+001 2.989107e+001 3.127973e+001 2.977495e+001 2.862001e+001 2.869896e+001 2.860269e+001 2.635902e+001 3.644741e+001 1.901368e+000 3.437725e+000 3.420797e+000 5.430927e+000 4.596433e+000 3.920903e+000 4.398459e+000 4.755323e+000 4.111903e+000 3.837700e+000 3.926196e+000 4.000835e+000 1.143762e+001 3.580298e-001 7.682025e-001 5.967811e-001 1.095342e+000 1.066465e+000 7.625712e-001 9.111681e-001 8.083014e-001 7.326001e-001 7.282647e-001 7.586588e-001 6.523200e-001 1.397465e+000
<GCONST> 1.310362e+002
<STATE> 4
<MEAN> 39
 -7.718760e+000 -7.979746e+000 -3.261504e+000 -1.243761e+001 -1.726804e+000 -1.034204e+001 -5.135316e+000 -9.285955e-001 -3.061373e+000 -3.219581e+000 -2.641063e+000 1.949206e+000 6.550182e+001 4.012837e-001 -1.248747e+000 5.627812e-002 -2.847026e+000 -6.296778e-002 -1.163469e+000 -1.874858e+000 3.887056e-001 -1.834537e+000 1.047661e-001 -1.851558e+000 7.302942e-001 4.224759e+000 -3.890064e-002 -2.604699e-001 -3.429832e-002 -1.718637e-001 3.147620e-001 4.721058e-001 -3.072399e-001 -4.018149e-001 -4.184399e-001 -5.625394e-002 -5.604243e-001 -5.324693e-001 -6.802891e-001
<VARIANCE> 39
 1.796384e+001 5.116587e+001 4.910542e+001 8.318360e+001 7.210043e+001 6.027258e+001 5.946629e+001 4.955133e+001 4.857650e+001 4.249324e+001 5.914903e+001 4.025564e+001 1.116931e+002 2.441850e+000 7.660429e+000 5.082819e+000 1.021976e+001 1.056806e+001 6.567427e+000 7.638674e+000 6.974831e+000 6.765069e+000 5.930463e+000 5.947362e+000 5.777580e+000 1.333647e+001 3.284409e-001 8.751199e-001 6.573852e-001 1.547067e+000 1.183161e+000 1.194408e+000 1.194972e+000 1.118687e+000 1.117109e+000 9.062691e-001 1.336735e+000 9.185943e-001 1.756436e+000
<GCONST> 1.484055e+002
<TRANSP> 5
 0.000000e+000 1.000000e+000 0.000000e+000 0.000000e+000 0.000000e+000
 0.000000e+000 7.654772e-001 2.345228e-001 0.000000e+000 0.000000e+000
 0.000000e+000 0.000000e+000 4.415660e-001 5.584340e-001 0.000000e+000
 0.000000e+000 0.000000e+000 0.000000e+000 5.108292e-001 4.891708e-001
 0.000000e+000 0.000000e+000 0.000000e+000 0.000000e+000 0.000000e+000
<ENDHMM>
~h "u"
<BEGINHMM>
<NUMSTATES> 5
<STATE> 2
<MEAN> 39
 -1.880933e+000 -7.662300e+000 -8.741094e+000 -2.816270e+001 -1.648118e+000 -4.927185e+000 -1.565713e+001 -5.225376e+000 -7.183426e+000 1.721398e+000 -9.635796e+000 -1.477131e+000 7.333127e+001 3.951233e-001 7.473197e-001 -4.594938e-001 -1.310243e+000 -1.053487e-001 4.602158e-001 -1.112559e+000 -2.005079e-001 -6.768457e-001 -2.627016e-001 5.822579e-001 5.715687e-001 -4.438378e-001 -1.837746e-001 7.415068e-002 2.801269e-001 4.719540e-001 -4.278313e-002 -8.457406e-002 4.014625e-001 1.999826e-001 -2.444961e-001 -3.690948e-001 4.958150e-002 -7.739303e-002 -2.256747e-001
<VARIANCE> 39
 1.825857e+001 4.450438e+001 4.116489e+001 7.686765e+001 6.621783e+001 6.635291e+001 6.971093e+001 5.022602e+001 4.977665e+001 6.076394e+001 6.217162e+001 6.243165e+001 2.505379e+001 1.519236e+000 5.844109e+000 1.907943e+000 6.220708e+000 5.898849e+000 5.704939e+000 5.343619e+000 5.478956e+000 4.871844e+000 5.558210e+000 6.709496e+000 5.214446e+000 1.619118e+000 2.600979e-001 4.605461e-001 2.771800e-001 8.127931e-001 8.154197e-001 7.593424e-001 1.023672e+000 9.472424e-001 1.117202e+000 1.020243e+000 1.103593e+000 9.221066e-001 1.616932e-001
<GCONST> 1.355752e+002
<STATE> 3
<MEAN> 39
 -4.800498e-001 -3.662690e+000 -9.564988e+000 -3.158887e+001 -2.086208e+000 -3.515458e+000 -1.732961e+001 -4.700232e+000 -1.121614e+001 -2.449265e+000 -8.246740e+000 -2.566995e-001 7.058391e+001 1.162973e-001 3.715658e-001 3.580348e-001 6.316440e-001 -2.390830e-001 -3.775302e-001 -7.233480e-002 5.088445e-001 -7.370392e-001 -1.149996e+000 -4.330636e-001 -2.710884e-001 -8.220129e-001 -9.119756e-002 -1.284504e-001 2.323260e-001 7.212253e-001 9.334535e-002 -2.125951e-001 3.441376e-001 9.987868e-003 2.991937e-001 3.623335e-002 -6.190078e-002 -2.211431e-001 -1.580653e-001
<VARIANCE> 39
 1.629457e+001 4.421899e+001 3.647115e+001 8.543711e+001 5.620286e+001 5.942624e+001 5.373774e+001 5.698050e+001 4.915701e+001 5.881196e+001 5.373193e+001 5.054788e+001 1.989195e+001 9.671474e-001 3.347918e+000 1.673335e+000 5.959346e+000 4.402888e+000 3.905413e+000 4.737780e+000 3.924541e+000 4.764283e+000 5.039274e+000 3.954367e+000 3.733428e+000 1.582809e+000 1.521819e-001 4.326163e-001 2.717451e-001 8.425862e-001 8.412857e-001 8.590420e-001 8.170679e-001 7.754200e-001 9.871940e-001 8.774134e-001 9.351642e-001 7.589995e-001 1.369532e-001
<GCONST> 1.294301e+002
<STATE> 4
<MEAN> 39
 7.109635e-001 -8.766717e-001 -6.789416e+000 -2.410201e+001 -2.144779e+000 -4.181567e+000 -1.384885e+001 -3.625211e+000 -9.628860e+000 -5.548449e+000 -7.105951e+000 -2.821857e+000 6.358076e+001 -2.914929e-001 -1.707466e-001 7.125781e-001 2.142425e+000 2.395789e-001 -4.222634e-001 7.658768e-001 -2.559582e-001 6.674138e-001 -1.592122e-001 -2.775008e-002 -2.841539e-001 -1.153153e+000 -1.445142e-001 -4.233584e-002 5.096567e-002 1.091688e-001 -3.277517e-002 3.979496e-002 1.403244e-001 -6.735120e-002 1.364356e-001 9.149170e-002 1.578642e-001 9.018086e-002 -2.965256e-002
<VARIANCE> 39
 1.974443e+001 4.076299e+001 4.327403e+001 1.636713e+002 6.251954e+001 5.762199e+001 9.323647e+001 5.254955e+001 7.298592e+001 5.889581e+001 6.007712e+001 4.316125e+001 6.197451e+001 1.008680e+000 1.783629e+000 2.192938e+000 6.126060e+000 4.417775e+000 4.242772e+000 4.560783e+000 3.923970e+000 4.354729e+000 4.237153e+000 3.538926e+000 3.072422e+000 2.094832e+000 1.881908e-001 3.612779e-001 3.167643e-001 9.160191e-001 7.150200e-001 7.775674e-001 8.828433e-001 6.775649e-001 7.617598e-001 7.560855e-001 6.989194e-001 5.278367e-001 2.555691e-001
<GCONST> 1.313746e+002
<TRANSP> 5
 0.000000e+000 1.000000e+000 0.000000e+000 0.000000e+000 0.000000e+000
 0.000000e+000 5.669644e-001 4.330356e-001 0.000000e+000 0.000000e+000
 0.000000e+000 0.000000e+000 5.720312e-001 4.279688e-001 0.000000e+000
 0.000000e+000 0.000000e+000 0.000000e+000 7.491489e-001 2.508511e-001
 0.000000e+000 0.000000e+000 0.000000e+000 0.000000e+000 0.000000e+000
<ENDHMM>
~h "v"
<BEGINHMM>
<NUMSTATES> 5
<STATE> 2
<MEAN> 39
 -5.750766e+000 3.684915e-001 -1.684856e+000 -3.888471e+000 -1.812206e+000 -6.803705e+000 -8.396928e+000 -1.138972e+001 -8.561015e+000 -8.812510e+000 -7.534930e+000 -6.538439e+000 5.608097e+001 -7.834970e-001 8.065860e-001 1.300103e-001 1.093543e+000 -1.997674e-001 -3.493087e-001 -4.014528e-001 -9.816882e-001 -4.516169e-001 -5.989780e-001 -9.701303e-002 -5.884237e-001 5.647314e-001 1.376426e-001 -3.960119e-001 -9.913044e-002 -7.814913e-001 -9.585017e-002 -1.531213e-001 -2.348620e-001 2.304270e-001 7.382298e-002 3.249452e-001 -5.288362e-002 2.041593e-001 5.534966e-001
<VARIANCE> 39
 3.283220e+001 2.351802e+001 3.659585e+001 4.524525e+001 2.582169e+001 3.661073e+001 3.062399e+001 3.032442e+001 3.120301e+001 3.436651e+001 3.561377e+001 4.089917e+001 2.526411e+001 3.145468e+000 1.623758e+000 2.007665e+000 4.602363e+000 2.335637e+000 2.614352e+000 3.975720e+000 2.999541e+000 4.378292e+000 3.735774e+000 3.553271e+000 3.179612e+000 2.865436e+000 5.837650e-001 3.095928e-001 3.610599e-001 8.230833e-001 5.271366e-001 4.777410e-001 6.519570e-001 5.334942e-001 6.714405e-001 7.036301e-001 6.820071e-001 5.223536e-001 2.697104e-001
<GCONST> 1.228771e+002
<STATE> 3
<MEAN> 39
 -8.419439e+000 1.593441e+000 -1.868559e+000 -3.436160e+000 -3.618671e+000 -9.521869e+000 -1.102476e+001 -1.372295e+001 -9.738046e+000 -9.575845e+000 -7.083673e+000 -6.971050e+000 5.995763e+001 9.394242e-001 -1.456143e+000 -8.155596e-001 -2.970851e+000 -2.965298e-001 -4.119358e-001 -9.096937e-001 1.676494e-001 -3.661199e-002 1.146669e+000 -2.337872e-001 1.971449e-001 2.607361e+000 6.162662e-001 -1.131868e+000 -2.409588e-001 -1.628843e+000 2.125845e-001 2.698616e-001 1.265022e-001 8.896399e-001 1.991862e-001 7.607418e-001 -5.249762e-001 1.478959e-001 5.645568e-001
<VARIANCE> 39
 2.382015e+001 1.879059e+001 2.743843e+001 3.676368e+001 2.306415e+001 2.786218e+001 2.349725e+001 2.105742e+001 2.599139e+001 2.755392e+001 2.773270e+001 4.050626e+001 1.869785e+001 4.435106e+000 3.075081e+000 2.979548e+000 8.322619e+000 3.766820e+000 3.933460e+000 3.532803e+000 3.701353e+000 4.213408e+000 3.901930e+000 4.062018e+000 2.568647e+000 1.747414e+000 6.261050e-001 4.502416e-001 4.976627e-001 7.047789e-001 8.196186e-001 6.208378e-001 1.065145e+000 7.121269e-001 7.947694e-001 8.211921e-001 8.789421e-001 5.774127e-001 2.370694e-001
<GCONST> 1.248765e+002
<STATE> 4
<MEAN> 39
 -2.715818e+000 -8.278093e+000 -6.630376e+000 -1.912249e+001 -1.704244e+000 -8.575822e+000 -1.255597e+001 -9.432052e+000 -7.411441e+000 -2.901327e+000 -1.046954e+001 -5.758395e+000 6.865022e+001 1.146153e+000 -4.108232e+000 -6.915380e-001 -5.194669e+000 1.079411e+000 2.183162e-001 1.778841e-001 2.424607e+000 -1.759219e-001 1.840982e+000 -2.425298e+000 4.869364e-001 3.577687e+000 -5.912277e-001 3.945877e-002 4.415729e-001 7.444705e-001 1.466171e-001 1.216518e-001 4.210525e-001 1.616942e-001 -3.410241e-001 -3.890078e-001 -5.376399e-002 2.091606e-001 -2.371103e-001
<VARIANCE> 39
 1.616649e+001 6.388478e+001 3.511842e+001 1.118706e+002 4.828263e+001 5.137554e+001 3.707133e+001 3.885997e+001 4.570163e+001 4.098387e+001 5.204243e+001 5.187253e+001 2.491886e+001 2.727322e+000 3.737818e+000 3.726068e+000 7.295780e+000 9.323716e+000 3.859242e+000 8.127550e+000 4.455076e+000 5.499044e+000 6.784584e+000 5.816808e+000 4.077917e+000 1.410725e+000 4.610071e-001 9.163665e-001 3.376111e-001 2.238629e+000 8.222879e-001 7.393368e-001 9.415162e-001 1.211902e+000 1.144801e+000 9.961140e-001 1.384949e+000 8.630657e-001 3.735395e-001
<GCONST> 1.383782e+002
<TRANSP> 5
 0.000000e+000 1.000000e+000 0.000000e+000 0.000000e+000 0.000000e+000
 0.000000e+000 7.280621e-001 2.719379e-001 0.000000e+000 0.000000e+000
 0.000000e+000 0.000000e+000 5.422449e-001 4.577551e-001 0.000000e+000
 0.000000e+000 0.000000e+000 0.000000e+000 5.442855e-001 4.557145e-001
 0.000000e+000 0.000000e+000 0.000000e+000 0.000000e+000 0.000000e+000
<ENDHMM>
~h "x"
<BEGINHMM>
<NUMSTATES> 5
<STATE> 2
<MEAN> 39
 -1.248674e+001 3.130365e+000 -4.301802e+000 -4.007626e+000 -3.859357e+000 -1.433239e+001 -6.875726e+000 -9.713428e+000 -7.528774e+000 -9.668568e+000 -6.987196e+000 -9.581051e-001 6.561341e+001 -3.452967e+000 1.557017e+000 -1.465348e+000 3.340995e+000 9.483554e-001 2.303441e+000 2.481770e+000 2.757224e-002 1.393426e+000 4.657929e-001 1.598223e+000 -8.159635e-001 -3.181750e-001 -2.017337e-001 -5.926085e-001 -1.485730e-001 -2.728969e-001 1.684484e-001 6.288947e-001 2.465309e-001 5.262302e-001 8.983098e-002 6.305763e-001 9.579368e-002 1.596407e-001 6.537391e-002
<VARIANCE> 39
 4.247277e+001 4.123106e+001 3.181605e+001 7.336388e+001 5.659567e+001 6.053493e+001 5.829042e+001 4.125367e+001 4.397340e+001 3.525182e+001 3.905392e+001 4.230705e+001 2.362291e+001 2.024477e+000 4.464473e+000 2.901289e+000 5.726389e+000 4.487744e+000 6.250963e+000 5.441121e+000 4.523142e+000 4.659585e+000 5.129448e+000 2.962709e+000 4.426221e+000 1.563075e+000 6.521556e-001 4.075504e-001 4.355362e-001 1.150547e+000 7.609048e-001 1.347585e+000 9.574364e-001 8.212670e-001 6.346814e-001 9.067697e-001 5.828445e-001 7.936215e-001 1.108504e-001
<GCONST> 1.327320e+002
<STATE> 3
<MEAN> 39
 -2.263492e+001 3.096414e+000 -8.529258e+000 2.387951e+000 -5.218703e-001 -5.142514e+000 1.759383e+000 -5.278227e+000 -1.882201e+000 -4.186772e+000 -1.452597e+000 -9.023323e-001 6.443596e+001 -1.934491e+000 -5.990248e-001 -1.221972e+000 6.393976e-001 3.538881e-001 1.465426e+000 1.532841e+000 1.539908e+000 1.044986e+000 1.497097e+000 1.135423e+000 3.185829e-001 -8.145854e-002 8.336118e-001 -2.117033e-001 3.429151e-001 -6.791491e-001 -3.098715e-001 -6.387793e-001 -6.157978e-001 -4.825862e-003 -3.576621e-001 -1.567576e-001 -2.626548e-001 1.805398e-001 5.820868e-002
<VARIANCE> 39
 1.826185e+001 2.421120e+001 1.589776e+001 2.212674e+001 2.971528e+001 2.450464e+001 3.470001e+001 2.973305e+001 3.085327e+001 1.902861e+001 2.601774e+001 1.463841e+001 2.172973e+001 2.855221e+000 1.592282e+000 1.828241e+000 2.425104e+000 2.869170e+000 2.999026e+000 3.807734e+000 3.483845e+000 3.540694e+000 2.790485e+000 2.270660e+000 2.157806e+000 8.224443e-001 2.696210e-001 3.234418e-001 3.632469e-001 5.763776e-001 6.232759e-001 6.389785e-001 6.518208e-001 5.978892e-001 6.776867e-001 4.996285e-001 4.157272e-001 4.761443e-001 1.056227e-001
<GCONST> 1.131662e+002
<STATE> 4
<MEAN> 39
 -2.221505e+001 1.323787e+000 -8.907028e+000 5.117939e-001 -1.112406e+000 -5.285011e+000 1.825411e+000 -2.525698e+000 -3.933257e-001 -1.719035e+000 7.988166e-001 1.028562e+000 6.531282e+001 1.595549e+000 -7.767635e-001 4.712446e-001 -1.947375e+000 -3.248683e-001 -8.472549e-001 -9.823012e-001 1.323906e-001 -3.999374e-001 -2.642103e-001 -4.485769e-001 6.039876e-001 7.179031e-001 4.732028e-001 -2.871684e-001 9.023394e-002 -6.026189e-001 -4.897332e-002 -2.639885e-001 -3.351063e-001 -1.535746e-001 -2.614870e-001 -2.578702e-001 -3.701200e-001 3.325892e-002 1.978768e-001
<VARIANCE> 39
 5.004325e+001 1.758422e+001 2.212358e+001 5.486612e+001 2.781726e+001 3.874768e+001 4.269063e+001 2.226228e+001 2.324677e+001 2.425413e+001 2.290235e+001 2.121463e+001 1.224337e+001 7.139897e+000 2.284142e+000 2.282499e+000 8.841677e+000 3.583372e+000 4.696714e+000 5.355145e+000 2.980605e+000 3.092162e+000 3.342774e+000 3.968404e+000 2.571515e+000 9.897385e-001 9.049505e-001 3.794692e-001 4.829239e-001 9.168164e-001 7.575310e-001 9.169439e-001 7.790390e-001 5.334691e-001 5.186201e-001 5.111791e-001 6.006054e-001 4.772381e-001 1.165674e-001
<GCONST> 1.226094e+002
<TRANSP> 5
 0.000000e+000 1.000000e+000 0.000000e+000 0.000000e+000 0.000000e+000
 0.000000e+000 7.145876e-001 2.854124e-001 0.000000e+000 0.000000e+000
 0.000000e+000 0.000000e+000 4.670012e-001 5.329988e-001 0.000000e+000
 0.000000e+000 0.000000e+000 0.000000e+000 8.889260e-001 1.110740e-001
 0.000000e+000 0.000000e+000 0.000000e+000 0.000000e+000 0.000000e+000
<ENDHMM>
~h "y"
<BEGINHMM>
<NUMSTATES> 5
<STATE> 2
<MEAN> 39
 -9.090714e+000 -1.626654e+001 5.516517e-001 -2.555517e+001 -8.848078e+000 -1.150797e+001 4.182611e+000 -2.683517e+000 -1.414881e+001 -1.278017e+000 -1.479467e+001 -2.097380e+000 7.866574e+001 -3.234912e-001 2.217278e+000 1.547152e+000 -1.365828e+000 -2.302305e+000 -6.411933e-001 -9.210271e-001 -1.533526e-001 9.606010e-001 2.151434e+000 1.476159e-002 -8.978534e-001 -4.305052e-001 9.298125e-002 3.987698e-002 1.480941e-001 2.540061e-001 3.213697e-001 -9.354945e-002 -9.122381e-001 -3.759194e-001 7.552498e-004 6.597847e-002 2.421243e-001 3.907695e-001 -1.907876e-001
<VARIANCE> 39
 3.898089e+000 2.212032e+001 2.262135e+001 1.896909e+001 3.521764e+001 2.204885e+001 6.378321e+001 4.577193e+001 3.604317e+001 3.580440e+001 2.734914e+001 2.422924e+001 4.924963e+000 2.690696e-001 8.402772e-001 7.932221e-001 1.419652e+000 1.770684e+000 1.615762e+000 4.650661e+000 2.207744e+000 2.252154e+000 2.433789e+000 2.968262e+000 2.357911e+000 2.197704e-001 4.121473e-002 1.688949e-001 1.072625e-001 2.645420e-001 2.973195e-001 2.684609e-001 5.183164e-001 3.304735e-001 4.918016e-001 5.625415e-001 4.050392e-001 4.521380e-001 2.620808e-002
<GCONST> 9.678096e+001
<STATE> 3
<MEAN> 39
 -1.000119e+001 -7.492129e+000 8.360532e+000 -2.806893e+001 -1.383257e+001 -1.383405e+001 -9.043117e+000 -7.694458e+000 -1.383225e+001 5.849155e+000 -1.305772e+001 -1.080015e+000 7.488873e+001 -3.605647e-002 1.064893e+000 1.071379e+000 3.168742e-001 7.556617e-002 -6.548599e-002 -2.024659e+000 -1.035855e+000 -5.068611e-001 2.961788e-002 1.687958e-001 4.784739e-001 -7.574443e-001 9.738500e-002 -1.976353e-001 -2.293930e-001 3.606569e-001 3.396874e-001 1.311191e-001 2.800542e-001 5.949240e-002 -1.684711e-001 -5.190521e-001 -8.758084e-002 -5.914146e-002 -7.250471e-002
<VARIANCE> 39
 5.778567e+000 1.345179e+001 2.240385e+001 2.094040e+001 3.060975e+001 2.141155e+001 5.634859e+001 3.100236e+001 4.168012e+001 3.779957e+001 3.136375e+001 3.426973e+001 5.159119e+000 4.014216e-001 9.353492e-001 8.719694e-001 1.496377e+000 1.891382e+000 2.168395e+000 2.764980e+000 2.019145e+000 1.770305e+000 2.767148e+000 2.685463e+000 2.064606e+000 2.314712e-001 8.340456e-002 1.190297e-001 1.166738e-001 2.158060e-001 4.298272e-001 3.792755e-001 3.713700e-001 3.495908e-001 4.003633e-001 5.243459e-001 4.564298e-001 3.846541e-001 4.777221e-002
<GCONST> 9.787956e+001
<STATE> 4
<MEAN> 39
 -8.194448e+000 -1.688680e+000 1.029567e+001 -1.860397e+001 -1.016410e+001 -9.428977e+000 -1.336119e+001 -9.803717e+000 -1.367941e+001 1.052496e+000 -9.981431e+000 -2.042734e+000 6.528184e+001 3.725919e-001 7.437257e-002 -4.381762e-001 1.286690e+000 6.708138e-001 1.445922e-001 5.089845e-001 -3.168774e-004 3.133935e-001 -9.743922e-001 3.121364e-001 -1.185859e-001 -1.366072e+000 3.650865e-002 -5.430998e-002 -1.985856e-001 9.575177e-002 9.632444e-002 7.060607e-003 2.622470e-001 1.663937e-001 1.814796e-001 -1.021282e-001 9.778031e-002 -9.737855e-002 -1.054663e-001
<VARIANCE> 39
 1.321598e+001 3.014865e+001 3.127108e+001 7.017091e+001 4.508679e+001 4.365189e+001 5.328678e+001 2.423685e+001 5.885389e+001 4.150432e+001 6.808988e+001 4.710116e+001 7.052187e+001 9.437888e-001 1.665888e+000 1.718266e+000 2.759676e+000 2.309777e+000 2.046722e+000 3.924773e+000 2.004676e+000 2.851312e+000 3.121739e+000 2.270446e+000 2.191616e+000 1.194274e+000 1.458187e-001 2.750574e-001 2.283167e-001 3.817970e-001 5.121390e-001 4.067172e-001 5.846657e-001 3.921529e-001 4.663726e-001 5.311730e-001 4.558683e-001 4.231525e-001 1.668714e-001
<GCONST> 1.163009e+002
<TRANSP> 5
 0.000000e+000 1.000000e+000 0.000000e+000 0.000000e+000 0.000000e+000
 0.000000e+000 7.719353e-001 2.280646e-001 0.000000e+000 0.000000e+000
 0.000000e+000 0.000000e+000 8.055189e-001 1.944810e-001 0.000000e+000
 0.000000e+000 0.000000e+000 0.000000e+000 8.531284e-001 1.468716e-001
 0.000000e+000 0.000000e+000 0.000000e+000 0.000000e+000 0.000000e+000
<ENDHMM>
~h "aa"
<BEGINHMM>
<NUMSTATES> 5
<STATE> 2
<MEAN> 39
 -6.290555e+000 -1.526873e+001 -7.809059e+000 -2.397278e+001 -1.602692e-001 -1.590895e+001 -8.249680e+000 2.093545e+000 -8.215990e+000 -6.565080e+000 -1.483194e+001 6.036383e+000 7.472675e+001 4.537025e-001 -2.711902e+000 -6.454999e-001 -1.863979e+000 1.753264e+000 -1.351819e-001 7.744308e-001 1.415442e+000 -1.399121e+000 4.001176e-003 -1.886103e+000 8.288645e-001 1.925322e+000 -3.497983e-001 6.373284e-001 2.718515e-001 1.126066e+000 7.151811e-002 5.516848e-001 1.594190e-001 -6.085064e-001 1.082009e-001 8.768144e-003 8.190750e-001 -5.331910e-001 -7.651788e-001
<VARIANCE> 39
 8.761733e+000 3.086143e+001 2.727080e+001 3.905239e+001 5.363169e+001 5.605088e+001 4.360077e+001 4.528201e+001 3.455114e+001 4.990664e+001 4.487031e+001 4.858779e+001 2.605931e+001 2.047773e+000 4.662186e+000 1.777868e+000 8.300997e+000 5.051417e+000 4.963912e+000 6.671773e+000 8.414470e+000 3.359432e+000 4.965442e+000 6.223134e+000 4.032946e+000 3.305914e+000 6.219099e-001 6.981659e-001 5.595489e-001 9.772424e-001 8.508483e-001 1.105538e+000 1.226243e+000 1.206601e+000 6.037475e-001 8.237931e-001 1.020155e+000 7.543766e-001 5.088331e-001
<GCONST> 1.349315e+002
<STATE> 3
<MEAN> 39
 -5.397327e+000 -2.016384e+001 -7.430333e+000 -2.423959e+001 3.937604e+000 -1.615503e+001 -8.151691e+000 4.087497e+000 -1.071522e+001 -6.432000e+000 -1.320059e+001 6.356983e+000 7.661741e+001 5.926644e-001 6.037592e-001 5.851798e-001 5.882729e-001 -3.981566e-001 -4.317633e-001 -8.174303e-001 -7.235313e-001 2.141537e-003 -1.824028e-001 6.473989e-001 1.061634e-001 -9.687341e-001 7.236269e-002 8.568343e-001 2.804461e-001 4.428751e-001 -5.219566e-001 -1.943422e-001 -3.770865e-001 -5.734854e-001 1.302728e-001 -1.926775e-001 2.291885e-001 2.580239e-004 -6.965253e-001
<VARIANCE> 39
 6.455799e+000 1.739528e+001 2.077645e+001 1.920233e+001 5.131105e+001 3.185166e+001 5.352966e+001 4.739088e+001 2.428028e+001 2.488821e+001 2.805893e+001 2.950026e+001 9.267119e+000 8.092870e-001 4.508443e+000 1.644201e+000 3.242511e+000 4.398576e+000 3.132016e+000 4.844849e+000 5.586040e+000 2.606060e+000 2.824947e+000 2.060670e+000 2.572349e+000 3.164776e+000 1.215684e-001 3.260796e-001 2.196961e-001 7.903563e-001 6.945433e-001 4.607832e-001 8.002667e-001 1.238997e+000 6.211390e-001 6.055043e-001 6.086441e-001 4.866791e-001 2.166341e-001
<GCONST> 1.168289e+002
<STATE> 4
<MEAN> 39
 -3.164227e+000 -1.201537e+001 -6.491698e+000 -2.120407e+001 1.235974e+000 -1.818357e+001 -1.496856e+001 -3.484706e+000 -9.783214e+000 -7.511800e+000 -1.157419e+001 7.582758e+000 6.846539e+001 2.144930e-001 1.298967e+000 3.596254e-001 5.059567e-001 -8.690331e-001 -2.889007e-001 -5.647828e-001 -9.177408e-001 -2.929479e-001 -1.743167e-001 2.684706e-001 7.868388e-002 -1.106872e+000 -3.887467e-002 -3.555848e-003 -3.212132e-002 -6.762174e-002 -9.732600e-002 5.230281e-003 1.205765e-001 2.186820e-001 2.521775e-003 3.253127e-002 -5.060719e-003 -1.135893e-001 9.287777e-002
<VARIANCE> 39
 6.278744e+000 3.483751e+001 4.358814e+001 4.490517e+001 6.629773e+001 6.807073e+001 6.138766e+001 3.889328e+001 2.159440e+001 5.212719e+001 2.367872e+001 5.410979e+001 5.949154e+001 4.127784e-001 2.161752e+000 1.116891e+000 3.339957e+000 1.731380e+000 1.979629e+000 2.632844e+000 4.521315e+000 2.186725e+000 2.441940e+000 1.683579e+000 2.013480e+000 2.284110e+000 7.992169e-002 3.877767e-001 2.023049e-001 5.064801e-001 4.039521e-001 3.026909e-001 3.959132e-001 6.410477e-001 5.228187e-001 4.080871e-001 3.489713e-001 3.557659e-001 2.470690e-001
<GCONST> 1.134838e+002
<TRANSP> 5
 0.000000e+000 1.000000e+000 0.000000e+000 0.000000e+000 0.000000e+000
 0.000000e+000 5.844320e-001 4.155680e-001 0.000000e+000 0.000000e+000
 0.000000e+000 0.000000e+000 7.268813e-001 2.731187e-001 0.000000e+000
 0.000000e+000 0.000000e+000 0.000000e+000 6.918750e-001 3.081249e-001
 0.000000e+000 0.000000e+000 0.000000e+000 0.000000e+000 0.000000e+000
<ENDHMM>
~h "af"
<BEGINHMM>
<NUMSTATES> 5
<STATE> 2
<MEAN> 39
 -4.918522e+000 -2.336003e+001 -5.226963e+000 -2.049504e+001 4.596543e+000 -9.208939e+000 -3.652893e+000 -6.383124e+000 -1.437685e+001 -8.192982e+000 -1.480618e+001 1.582752e+000 7.741737e+001 -7.722560e-001 -2.646595e+000 -7.694167e-002 9.766113e-001 2.211609e+000 1.232398e+000 1.131529e+000 -1.295618e+000 -1.213840e+000 5.849176e-001 7.356567e-001 9.241132e-001 1.555427e+000 1.049255e-001 9.672140e-001 4.681382e-001 6.169021e-001 -4.578751e-001 -4.496637e-001 -5.693551e-001 -2.107275e-001 4.577719e-001 9.108010e-002 3.199697e-001 -3.366572e-001 -7.237730e-001
<VARIANCE> 39
 1.092557e+001 2.128375e+001 1.783456e+001 2.578579e+001 5.610868e+001 2.903311e+001 3.215372e+001 4.057331e+001 4.867501e+001 2.872198e+001 4.034385e+001 3.262048e+001 7.299929e+000 7.803282e-001 2.575723e+000 1.562276e+000 3.155802e+000 3.054299e+000 2.811130e+000 3.439424e+000 4.066369e+000 3.220604e+000 3.816210e+000 2.834659e+000 3.845716e+000 1.517657e+000 1.746654e-001 2.815101e-001 2.277115e-001 7.420348e-001 6.379891e-001 6.536586e-001 6.389697e-001 9.038824e-001 7.281220e-001 6.977467e-001 7.203625e-001 5.062572e-001 1.852995e-001
<GCONST> 1.170505e+002
<STATE> 3
<MEAN> 39
 -5.295825e+000 -2.749741e+001 -4.203676e+000 -1.611995e+001 8.172746e+000 -8.020473e+000 -3.122675e+000 -8.573236e+000 -1.281201e+001 -5.726040e+000 -1.322621e+001 2.010045e+000 7.943371e+001 5.592743e-002 3.534542e-002 1.775620e-001 -1.249721e-001 -2.611393e-001 -2.960470e-003 3.571272e-001 4.825452e-002 1.412299e-001 2.829527e-002 -2.021843e-001 -1.894321e-001 1.969528e-002 7.081627e-002 3.376277e-001 1.298058e-002 -2.843463e-001 -3.108173e-001 -1.319274e-001 -2.688182e-002 2.022496e-001 1.145006e-001 -7.204860e-002 -1.869675e-001 -1.091160e-001 -1.457262e-001
<VARIANCE> 39
 6.973130e+000 8.624371e+000 1.350521e+001 1.402309e+001 2.608686e+001 2.161558e+001 2.847683e+001 2.475629e+001 2.478391e+001 1.793517e+001 2.231120e+001 2.377155e+001 3.438840e+000 2.583761e-001 9.444804e-001 5.057987e-001 1.554261e+000 1.594308e+000 1.086448e+000 1.630000e+000 1.687526e+000 1.592602e+000 1.370158e+000 1.504434e+000 1.475280e+000 1.396490e-001 4.268388e-002 1.255684e-001 9.372885e-002 1.576421e-001 2.273265e-001 2.128669e-001 3.000389e-001 2.754853e-001 2.788563e-001 2.382889e-001 2.269439e-001 2.551404e-001 3.703852e-002
<GCONST> 8.321412e+001
<STATE> 4
<MEAN> 39
 -3.798601e+000 -2.105428e+001 -2.860113e+000 -1.958179e+001 2.615256e+000 -9.456007e+000 -1.582431e+000 -5.621462e+000 -1.074888e+001 -8.176344e+000 -1.631578e+001 -9.113659e-001 7.520088e+001 5.025251e-001 2.394355e+000 6.345032e-001 -6.401591e-001 -1.599925e+000 -9.456727e-001 -8.812832e-001 4.352195e-001 6.474410e-001 2.651595e-001 -3.998771e-001 -9.501171e-001 -1.437680e+000 3.436648e-002 4.243319e-001 2.001791e-001 5.908530e-001 1.554924e-001 -7.076842e-002 -6.097322e-001 -3.177833e-001 -1.142359e-001 3.561334e-002 4.555532e-001 -1.565310e-002 -4.061208e-001
<VARIANCE> 39
 1.324483e+001 3.604973e+001 1.995711e+001 7.467923e+001 4.409373e+001 4.085072e+001 6.239825e+001 4.673830e+001 4.126572e+001 3.840189e+001 4.192585e+001 3.737089e+001 4.322687e+001 8.538006e-001 2.151225e+000 1.669173e+000 4.193077e+000 2.820409e+000 3.156757e+000 4.130126e+000 3.463858e+000 2.863979e+000 3.856121e+000 3.186369e+000 2.922803e+000 1.585101e+000 1.314557e-001 3.545639e-001 2.266877e-001 7.604078e-001 5.521325e-001 6.575994e-001 6.575568e-001 7.450103e-001 6.199599e-001 7.034412e-001 5.170178e-001 4.360268e-001 2.086405e-001
<GCONST> 1.211756e+002
<TRANSP> 5
 0.000000e+000 1.000000e+000 0.000000e+000 0.000000e+000 0.000000e+000
 0.000000e+000 5.837663e-001 4.162337e-001 0.000000e+000 0.000000e+000
 0.000000e+000 0.000000e+000 8.895740e-001 1.104260e-001 0.000000e+000
 0.000000e+000 0.000000e+000 0.000000e+000 6.462600e-001 3.537400e-001
 0.000000e+000 0.000000e+000 0.000000e+000 0.000000e+000 0.000000e+000
<ENDHMM>
~h "aj"
<BEGINHMM>
<NUMSTATES> 5
<STATE> 2
<MEAN> 39
 -6.432198e+000 -2.833537e+001 -5.140946e+000 -1.596811e+001 1.067702e+001 -8.130218e+000 -3.197828e+000 -6.198158e+000 -1.304293e+001 -4.768563e+000 -1.299001e+001 1.870223e+000 7.949191e+001 -3.925125e-001 -1.024203e+000 4.690815e-001 7.387626e-001 7.383180e-001 1.264936e-001 6.968771e-001 -3.895625e-001 -5.670011e-002 5.660989e-001 2.064827e-001 4.019443e-002 5.032306e-001 1.521113e-001 7.094254e-001 1.206739e-001 2.315349e-002 -5.280759e-001 -1.360839e-001 -6.175682e-002 7.223881e-003 3.569125e-001 -6.831283e-002 1.065748e-001 -1.719028e-001 -4.781989e-001
<VARIANCE> 39
 6.392742e+000 1.694283e+001 1.225988e+001 2.422022e+001 3.320059e+001 2.344422e+001 4.110130e+001 3.171420e+001 2.551396e+001 2.731198e+001 2.322180e+001 2.739752e+001 4.528325e+000 6.693589e-001 3.562346e+000 9.450449e-001 2.442430e+000 3.930236e+000 1.746285e+000 2.674507e+000 2.671062e+000 3.019524e+000 2.286682e+000 2.127087e+000 2.877075e+000 1.206714e+000 1.163988e-001 3.504691e-001 2.728136e-001 8.901366e-001 3.296042e-001 3.854358e-001 5.840790e-001 5.175614e-001 5.047835e-001 4.168818e-001 4.956965e-001 4.629015e-001 2.881022e-001
<GCONST> 1.077785e+002
<STATE> 3
<MEAN> 39
