~o
<STREAMINFO> 1 39
<VECSIZE> 39<NULLD><MFCC_D_A_0><DIAGC>
~s "silst"
<MEAN> 39
 -8.988817e+000 -3.868541e+000 -3.579659e+000 -5.246769e+000 -2.415297e+000 -2.506626e+000 -4.375848e-002 -2.508029e+000 2.760292e+000 -3.343376e+000 -2.763759e+000 -2.931509e+000 4.377230e+001 -1.192472e-002 2.408330e-002 -7.723133e-003 -1.560409e-003 -2.854861e-002 -3.148495e-002 8.030301e-003 2.017261e-002 1.547289e-002 -1.146125e-002 -2.133261e-002 -4.333476e-003 -2.631845e-002 8.504931e-004 -3.715229e-003 7.776257e-003 1.310317e-003 1.482148e-002 6.196662e-003 -1.998494e-003 -1.630301e-003 -9.816352e-003 -3.299844e-003 3.470557e-003 5.249985e-003 9.510394e-003
<VARIANCE> 39
 1.072307e+000 2.735290e+000 4.970733e+000 5.983101e+000 7.719276e+000 9.399024e+000 1.105622e+001 1.247503e+001 1.277057e+001 1.224063e+001 1.263630e+001 1.195937e+001 1.670515e+000 9.397042e-002 2.175090e-001 3.847660e-001 5.896722e-001 7.912913e-001 9.469722e-001 1.115335e+000 1.284673e+000 1.264839e+000 1.281559e+000 1.274727e+000 1.206590e+000 3.398504e-002 1.909012e-002 4.380154e-002 7.814944e-002 1.197801e-001 1.610311e-001 1.936486e-001 2.281160e-001 2.622332e-001 2.603248e-001 2.659368e-001 2.623186e-001 2.491074e-001 5.923578e-003
<GCONST> 5.959974e+001
~h "a"
<BEGINHMM>
<NUMSTATES> 5
<STATE> 2
<MEAN> 39
 -6.335401e+000 -2.558740e+001 -7.001283e+000 -1.774968e+001 7.446703e+000 -1.078047e+001 -4.107843e+000 -6.799469e+000 -1.239882e+001 -6.932250e+000 -9.707472e+000 4.795105e+000 7.736652e+001 -3.958825e-001 -1.821478e+000 1.091807e-001 1.082405e+000 1.872477e+000 3.098776e-001 1.089341e-001 -9.938544e-001 -8.024740e-001 7.877769e-001 2.175229e-001 4.252568e-001 1.014098e+000 1.596927e-002 8.455176e-001 2.962849e-001 3.672659e-001 -6.453080e-001 -1.480569e-001 -3.034471e-001 3.290020e-002 5.502067e-001 5.413812e-002 2.203237e-001 -4.779731e-001 -6.202290e-001
<VARIANCE> 39
 5.624255e+000 1.651429e+001 1.361432e+001 2.360217e+001 4.395807e+001 3.070097e+001 4.077989e+001 3.647548e+001 5.229400e+001 2.758819e+001 3.189063e+001 2.608866e+001 5.738454e+000 6.666682e-001 2.302316e+000 1.248407e+000 2.267136e+000 3.720965e+000 2.630511e+000 3.141691e+000 4.911792e+000 4.289870e+000 2.339900e+000 2.488058e+000 2.998630e+000 1.852777e+000 1.958326e-001 3.551627e-001 2.482993e-001 7.581422e-001 5.809703e-001 5.085872e-001 7.259201e-001 7.269825e-001 7.300624e-001 5.430946e-001 5.398689e-001 4.898302e-001 3.095919e-001
<GCONST> 1.140360e+002
<STATE> 3
<MEAN> 39
 -6.841794e+000 -2.794426e+001 -5.751212e+000 -1.330950e+001 8.668980e+000 -1.081238e+001 -7.575689e+000 -8.550036e+000 -9.740541e+000 -5.453475e+000 -8.905075e+000 3.890803e+000 7.809022e+001 -3.846546e-002 2.290530e-001 -3.420623e-002 -1.998973e-001 -2.952492e-001 -1.265554e-001 3.376285e-001 -3.446388e-001 1.779728e-001 -3.566439e-001 2.149387e-001 5.100852e-004 -8.616238e-002 4.006206e-002 2.498414e-001 -4.384569e-002 -2.951607e-001 -2.113788e-001 -2.016207e-002 1.220188e-001 2.185183e-002 -4.670203e-003 -1.546108e-001 -2.869225e-002 -2.669138e-002 -9.595674e-002
<VARIANCE> 39
 6.145772e+000 8.573460e+000 1.178198e+001 1.401239e+001 1.892303e+001 3.396728e+001 4.204261e+001 2.838992e+001 2.518750e+001 2.062642e+001 1.605862e+001 2.156378e+001 2.767058e+000 1.816793e-001 6.862109e-001 5.240743e-001 1.179487e+000 1.039906e+000 1.051901e+000 1.805781e+000 1.254219e+000 1.454271e+000 9.780657e-001 7.656639e-001 8.344592e-001 1.072529e-001 3.851577e-002 1.154531e-001 9.788040e-002 1.746411e-001 1.782465e-001 1.901488e-001 1.999721e-001 2.278650e-001 2.203177e-001 1.654351e-001 1.298238e-001 1.438807e-001 2.139664e-002
<GCONST> 7.633803e+001
<STATE> 4
<MEAN> 39
 -6.345706e+000 -2.075890e+001 -5.930648e+000 -1.744336e+001 3.337500e+000 -1.082196e+001 -2.863040e+000 -1.077759e+001 -8.743518e+000 -1.153680e+001 -7.483923e+000 6.638739e-001 7.290585e+001 2.726720e-001 1.801605e+000 1.507677e-001 -8.762458e-001 -1.346320e+000 -3.584401e-001 -2.907495e-002 4.878202e-001 6.803215e-001 -1.113533e-003 -1.896481e-001 -6.096927e-001 -1.327000e+000 4.958173e-002 2.452411e-001 1.791967e-001 3.199254e-001 -2.355587e-002 -6.745597e-002 -4.904107e-001 1.257842e-002 6.366558e-002 2.628173e-001 -4.972176e-002 -1.052872e-001 -3.032652e-001
<VARIANCE> 39
 9.462240e+000 2.352871e+001 2.136892e+001 7.569524e+001 3.774932e+001 4.777132e+001 6.997001e+001 3.453097e+001 4.291339e+001 4.092005e+001 3.177612e+001 5.822291e+001 4.929987e+001 9.167956e-001 1.720646e+000 1.399651e+000 3.800378e+000 2.819846e+000 2.709583e+000 3.585756e+000 2.507700e+000 2.869232e+000 3.732298e+000 2.381996e+000 2.763185e+000 1.124060e+000 1.237376e-001 3.183532e-001 2.108725e-001 6.487274e-001 4.334365e-001 5.985608e-001 6.494663e-001 5.655722e-001 6.829593e-001 4.625745e-001 4.687853e-001 4.451741e-001 1.582240e-001
<GCONST> 1.172426e+002
<TRANSP> 5
 0.000000e+000 1.000000e+000 0.000000e+000 0.000000e+000 0.000000e+000
 0.000000e+000 6.843171e-001 3.156829e-001 0.000000e+000 0.000000e+000
 0.000000e+000 0.000000e+000 8.674883e-001 1.325116e-001 0.000000e+000
 0.000000e+000 0.000000e+000 0.000000e+000 7.662439e-001 2.337561e-001
 0.000000e+000 0.000000e+000 0.000000e+000 0.000000e+000 0.000000e+000
<ENDHMM>
~h "b"
<BEGINHMM>
<NUMSTATES> 5
<STATE> 2
<MEAN> 39
 -1.081345e+000 -6.116922e+000 7.674845e-001 -1.317285e+001 -2.087656e+000 -1.278624e+001 -1.240919e+001 -9.184682e+000 -9.689235e+000 -4.975132e+000 -1.269215e+001 -5.150122e+000 5.976027e+001 1.259265e+000 1.556851e+000 3.512788e-001 2.327141e+000 1.218156e+000 9.609808e-001 -8.558340e-001 -1.327747e+000 6.093529e-002 -1.174242e+000 1.120478e-001 -1.972770e+000 -2.351274e+000 -2.329256e-001 -1.539474e-003 -1.412490e-001 -3.608199e-001 -3.020644e-001 1.034455e-001 4.393294e-002 1.450903e-002 -5.613663e-002 7.782678e-002 1.110472e-001 -2.496744e-003 3.119023e-001
<VARIANCE> 39
 1.722404e+001 4.546735e+001 3.604578e+001 5.481569e+001 5.224372e+001 7.497369e+001 7.849324e+001 3.211055e+001 6.070349e+001 3.850610e+001 4.905829e+001 4.795977e+001 7.415698e+001 1.225496e+000 2.248203e+000 1.858097e+000 4.187828e+000 2.866521e+000 2.836309e+000 4.522245e+000 3.395516e+000 4.406736e+000 3.146291e+000 3.441680e+000 4.029729e+000 5.197097e+000 2.030839e-001 3.562491e-001 2.366059e-001 6.222685e-001 4.732868e-001 5.309029e-001 6.895748e-001 4.615282e-001 7.116956e-001 5.558748e-001 6.118557e-001 6.229510e-001 4.626518e-001
<GCONST> 1.269295e+002
<STATE> 3
<MEAN> 39
 1.425848e+000 -1.694906e+000 9.086705e-001 -9.081418e+000 -6.380532e-001 -1.076963e+001 -1.412784e+001 -1.277816e+001 -1.052465e+001 -7.604400e+000 -1.180037e+001 -9.086844e+000 5.425748e+001 4.785449e-001 4.402344e-001 -2.803211e-001 1.582329e-001 -1.533931e-001 -1.697311e-003 -5.809875e-001 -1.059306e+000 -8.697558e-002 -1.814215e-001 -1.280055e-001 -7.042485e-001 -5.760026e-002 -2.402067e-001 -7.770492e-001 -3.861683e-001 -1.051462e+000 -2.395420e-001 -2.157311e-001 2.930792e-001 4.705690e-001 1.860081e-001 5.338770e-001 1.043084e-002 6.307713e-001 1.265543e+000
<VARIANCE> 39
 6.598490e+000 2.546283e+001 2.689282e+001 3.730925e+001 2.749713e+001 4.442924e+001 5.122414e+001 2.705042e+001 4.009043e+001 3.513858e+001 3.435674e+001 4.402060e+001 9.083085e+000 8.162462e-001 1.162196e+000 1.115410e+000 2.254490e+000 1.811993e+000 2.361251e+000 3.486632e+000 2.941117e+000 2.624006e+000 2.634601e+000 2.423710e+000 3.122926e+000 2.484260e+000 1.370485e-001 4.613486e-001 3.555233e-001 4.792311e-001 4.533238e-001 4.201799e-001 8.320526e-001 6.505784e-001 6.910891e-001 5.950598e-001 6.812563e-001 8.264605e-001 3.411396e-001
<GCONST> 1.150096e+002
<STATE> 4
<MEAN> 39
 1.903008e+000 -6.684027e+000 -3.954591e+000 -1.444448e+001 -9.633387e-001 -1.132842e+001 -1.372988e+001 -1.230030e+001 -7.831707e+000 -4.847741e+000 -1.198752e+001 -7.774153e+000 6.266328e+001 -9.077988e-001 -4.226585e+000 -1.914215e+000 -3.881244e+000 5.394799e-001 3.172435e-001 2.126456e+000 2.336544e+000 5.130093e-001 1.268406e+000 -4.188600e-001 2.082158e+000 5.476605e+000 -5.782162e-001 -7.218552e-001 1.157524e-001 -2.685310e-001 4.360988e-001 4.653240e-001 5.418223e-001 6.522747e-001 -4.016018e-001 -6.962119e-002 -3.759605e-002 6.958978e-001 3.985580e-001
<VARIANCE> 39
 7.284579e+000 7.953753e+001 4.161805e+001 7.655534e+001 2.966188e+001 3.712118e+001 5.112292e+001 5.990497e+001 5.033302e+001 4.299685e+001 3.826521e+001 5.689574e+001 8.756379e+001 1.637200e+000 6.923107e+000 3.413611e+000 5.254401e+000 6.689075e+000 4.115719e+000 7.739389e+000 5.662873e+000 6.386254e+000 4.959652e+000 6.233147e+000 6.675221e+000 2.390102e+000 2.136605e-001 1.271621e+000 7.604483e-001 1.916426e+000 6.645780e-001 5.002272e-001 1.504415e+000 1.463127e+000 1.166197e+000 9.945191e-001 8.681743e-001 1.181678e+000 1.749367e+000
<GCONST> 1.409343e+002
<TRANSP> 5
 0.000000e+000 1.000000e+000 0.000000e+000 0.000000e+000 0.000000e+000
 0.000000e+000 4.606204e-001 5.393797e-001 0.000000e+000 0.000000e+000
 0.000000e+000 0.000000e+000 6.787044e-001 3.212955e-001 0.000000e+000
 0.000000e+000 0.000000e+000 0.000000e+000 6.572433e-001 3.427568e-001
 0.000000e+000 0.000000e+000 0.000000e+000 0.000000e+000 0.000000e+000
<ENDHMM>
~h "c"
<BEGINHMM>
<NUMSTATES> 5
<STATE> 2
<MEAN> 39
 -5.490656e+000 -6.465089e+000 -3.976526e+000 -1.030193e+001 1.295183e+000 -5.027909e+000 -5.698909e+000 -3.755071e+000 -1.808290e+000 -2.574607e+000 -5.037746e+000 -3.466170e+000 5.086102e+001 -8.021693e-001 -2.710221e-001 -3.749177e-001 6.736514e-001 -1.316904e-001 3.810072e-001 8.688663e-001 3.260306e-001 8.487545e-001 2.478303e-001 6.177925e-001 -1.281032e-001 -1.101291e+000 4.194606e-002 1.028720e-001 -1.589960e-001 -2.771759e-001 -1.421681e-002 -3.344034e-001 -2.419908e-001 -4.270581e-002 -1.473843e-001 1.630475e-001 5.567445e-002 2.713158e-001 8.115967e-001
<VARIANCE> 39
 1.245172e+001 2.786683e+001 2.933332e+001 4.212115e+001 4.123325e+001 3.997916e+001 4.048720e+001 3.836310e+001 3.448009e+001 4.196570e+001 4.384173e+001 3.964632e+001 1.310781e+001 8.310028e-001 1.865931e+000 1.756148e+000 2.609827e+000 2.474493e+000 2.809165e+000 3.103021e+000 2.790674e+000 3.217030e+000 3.129394e+000 2.986365e+000 2.727566e+000 2.161010e+000 1.927819e-001 3.858023e-001 3.864057e-001 6.404887e-001 6.906421e-001 5.549808e-001 6.364349e-001 6.946460e-001 6.667435e-001 7.064825e-001 5.360059e-001 5.403219e-001 5.214280e-001
<GCONST> 1.195351e+002
<STATE> 3
<MEAN> 39
 -8.038515e+000 -6.478834e+000 -5.103184e+000 -7.410210e+000 1.212413e+000 -5.176107e+000 -2.705303e+000 -2.535751e+000 1.866107e-001 -2.232734e+000 -2.959291e+000 -3.018249e+000 5.023279e+001 -1.610367e-001 8.718438e-002 -1.403175e+000 -2.354059e-001 9.346944e-001 -1.455888e+000 2.260298e-001 6.001793e-001 2.095598e-001 1.012485e+000 7.565804e-001 8.540545e-001 3.366805e+000 5.474583e-001 1.530224e-001 -1.323910e-002 -1.171289e+000 -2.795320e-001 -5.085509e-001 -6.160582e-001 -2.590404e-001 -5.824855e-001 -1.326612e-001 -6.384643e-001 2.428079e-001 1.289684e+000
<VARIANCE> 39
 1.231956e+001 2.517948e+001 2.539130e+001 3.011641e+001 4.319867e+001 3.510717e+001 3.440157e+001 2.896400e+001 2.670045e+001 3.396139e+001 2.599973e+001 2.150302e+001 2.586090e+001 2.170664e+000 3.716365e+000 4.521573e+000 6.558019e+000 8.533244e+000 4.987775e+000 5.619235e+000 5.048039e+000 3.999037e+000 5.203306e+000 3.605582e+000 3.543146e+000 7.028200e+000 3.204308e-001 3.925858e-001 4.800826e-001 1.157500e+000 7.351008e-001 6.819501e-001 8.716754e-001 6.189908e-001 6.273129e-001 7.374126e-001 7.276381e-001 6.062555e-001 7.109815e-001
<GCONST> 1.288788e+002
<STATE> 4
<MEAN> 39
 -5.537526e+000 -6.124692e+000 -8.943610e+000 -1.484083e+001 2.123096e+000 -1.067730e+001 -5.438797e+000 -2.401760e+000 -1.608808e+000 5.145159e-001 -4.510047e+000 -1.715857e-001 6.501219e+001 1.148676e+000 -2.524569e-001 -1.156905e-001 -4.460048e+000 -8.635021e-001 -6.514396e-001 -1.279706e+000 -7.111163e-001 -1.629950e+000 -3.233573e-001 -2.362739e+000 4.227404e-001 3.794809e+000 -4.464897e-002 -3.800542e-001 4.642062e-001 -3.047097e-001 -9.960184e-002 7.990974e-001 -1.138199e-001 -3.132072e-001 -4.681022e-001 -6.049393e-001 -5.414812e-001 -4.354371e-001 -6.393678e-001
<VARIANCE> 39
 2.607242e+001 4.255600e+001 3.417589e+001 1.325996e+002 7.726949e+001 6.340063e+001 7.568684e+001 3.968605e+001 3.543805e+001 4.262125e+001 5.740325e+001 3.609991e+001 7.474177e+001 2.328357e+000 4.905735e+000 3.464625e+000 1.125842e+001 5.307748e+000 7.064603e+000 9.167104e+000 4.486195e+000 4.340570e+000 5.293227e+000 5.550841e+000 4.726721e+000 6.201226e+000 4.567348e-001 4.845344e-001 6.535046e-001 2.490101e+000 1.537393e+000 1.071742e+000 1.523209e+000 9.044765e-001 8.756579e-001 9.052799e-001 1.455488e+000 6.948892e-001 7.489520e-001
<GCONST> 1.438377e+002
<TRANSP> 5
 0.000000e+000 1.000000e+000 0.000000e+000 0.000000e+000 0.000000e+000
 0.000000e+000 7.425258e-001 2.574743e-001 0.000000e+000 0.000000e+000
 0.000000e+000 0.000000e+000 4.302548e-001 5.697452e-001 0.000000e+000
 0.000000e+000 0.000000e+000 0.000000e+000 5.543396e-001 4.456604e-001
 0.000000e+000 0.000000e+000 0.000000e+000 0.000000e+000 0.000000e+000
<ENDHMM>
~h "d"
<BEGINHMM>
<NUMSTATES> 5
<STATE> 2
<MEAN> 39
 -9.432621e+000 2.758860e+000 -3.961347e+000 -5.157385e+000 -5.895951e+000 -1.671708e+001 -9.580424e+000 -1.185058e+001 -8.938869e+000 -1.123402e+001 -8.670466e+000 -9.518057e-001 6.328630e+001 -1.960686e+000 2.015619e+000 -1.062256e+000 2.550557e+000 5.563694e-003 5.151525e-001 5.515894e-001 -8.963046e-001 8.224023e-002 -8.340457e-001 2.951121e-001 -1.269429e+000 -2.021259e-001 -2.488794e-001 -2.633599e-001 -9.168532e-002 -1.668734e-001 1.535261e-001 4.346318e-001 3.351777e-001 3.853650e-001 3.655916e-002 3.486722e-001 4.505245e-002 -1.175911e-001 1.114875e-001
<VARIANCE> 39
 2.819783e+001 3.946925e+001 3.214741e+001 5.751803e+001 3.668848e+001 4.877787e+001 5.021966e+001 3.016366e+001 4.429330e+001 4.113882e+001 3.964584e+001 5.302058e+001 3.147789e+001 2.137012e+000 1.963560e+000 2.408214e+000 4.007338e+000 3.572880e+000 5.936209e+000 5.942933e+000 3.623280e+000 3.587014e+000 4.063681e+000 3.827969e+000 3.778797e+000 2.579616e+000 3.258498e-001 4.060723e-001 4.978288e-001 7.575849e-001 6.034410e-001 8.082168e-001 8.516043e-001 6.763198e-001 6.306064e-001 7.762229e-001 7.063339e-001 8.055313e-001 1.937931e-001
<GCONST> 1.285722e+002
<STATE> 3
<MEAN> 39
 -1.979638e+001 6.084921e+000 -8.057838e+000 1.562118e+000 -3.986756e+000 -1.097472e+001 -4.138821e+000 -1.033205e+001 -7.876592e+000 -9.010426e+000 -5.941098e+000 -3.932424e+000 6.362662e+001 -1.889937e-002 -4.627480e-001 1.490617e-001 -8.543909e-001 -1.673693e-001 -4.601929e-001 -2.259776e-001 2.558402e-001 3.853113e-001 5.444608e-001 1.872805e-001 7.015372e-001 6.426842e-001 9.908053e-001 -6.985206e-001 3.333943e-001 -1.188921e+000 -1.338906e-001 -6.452765e-001 -6.336617e-001 2.673460e-001 1.229567e-002 1.176798e-003 -4.151410e-001 5.134996e-001 4.175413e-001
<VARIANCE> 39
 1.870508e+001 2.102188e+001 2.160348e+001 2.312488e+001 2.626254e+001 4.551408e+001 3.418845e+001 3.332422e+001 3.377668e+001 3.999457e+001 3.133091e+001 2.965104e+001 6.784621e+000 5.948703e+000 1.992412e+000 2.129671e+000 5.226060e+000 2.770005e+000 5.989525e+000 5.254725e+000 2.762843e+000 3.087423e+000 2.449355e+000 3.045716e+000 3.201478e+000 9.701742e-001 4.000947e-001 4.320274e-001 3.576716e-001 4.843227e-001 4.967441e-001 8.333582e-001 9.147613e-001 7.936645e-001 6.297970e-001 6.128478e-001 8.869289e-001 5.073909e-001 1.097849e-001
<GCONST> 1.199133e+002
<STATE> 4
<MEAN> 39
 -8.602959e+000 -3.061440e+000 -4.407788e+000 -1.607900e+001 -6.283839e+000 -1.963200e+001 -1.318882e+001 -5.168354e+000 -6.151842e+000 -7.127394e+000 -1.162125e+001 2.347300e+000 7.097552e+001 2.329707e+000 -4.454645e+000 4.517982e-001 -5.090858e+000 9.929606e-001 -5.235265e-001 -7.117608e-001 3.158812e+000 -5.337569e-001 6.319618e-001 -2.666220e+000 9.733881e-001 2.609743e+000 -6.482084e-001 -2.376206e-001 -2.346751e-001 5.238330e-001 6.524516e-001 1.149793e+000 8.843905e-001 9.506913e-003 -4.831463e-001 7.541009e-002 7.896538e-002 -6.816988e-001 -1.156052e-001
<VARIANCE> 39
 1.753246e+001 6.503392e+001 2.887486e+001 8.520432e+001 5.727058e+001 4.220773e+001 6.049281e+001 7.754665e+001 4.439608e+001 3.652223e+001 4.966856e+001 5.177586e+001 1.649888e+001 3.697164e+000 2.937886e+000 2.765974e+000 5.139283e+000 7.085880e+000 8.617025e+000 1.411227e+001 6.900636e+000 6.786300e+000 5.365364e+000 5.091560e+000 4.534391e+000 7.345660e-001 5.242445e-001 1.005352e+000 3.370933e-001 1.420172e+000 8.630105e-001 9.902808e-001 1.228750e+000 2.062959e+000 1.114730e+000 9.131269e-001 1.366072e+000 6.146199e-001 2.273308e-001
<GCONST> 1.387279e+002
<TRANSP> 5
 0.000000e+000 1.000000e+000 0.000000e+000 0.000000e+000 0.000000e+000
 0.000000e+000 7.516541e-001 2.483459e-001 0.000000e+000 0.000000e+000
 0.000000e+000 0.000000e+000 8.044890e-001 1.955110e-001 0.000000e+000
 0.000000e+000 0.000000e+000 0.000000e+000 6.834534e-001 3.165465e-001
 0.000000e+000 0.000000e+000 0.000000e+000 0.000000e+000 0.000000e+000
<ENDHMM>
~h "e"
<BEGINHMM>
<NUMSTATES> 5
<STATE> 2
<MEAN> 39
 -6.887073e+000 -1.091175e+001 -3.933725e+000 -2.343548e+001 -9.583822e+000 -1.658878e+001 -1.195218e+000 -4.486115e+000 -1.004450e+001 -7.463339e+000 -8.474456e+000 4.280085e+000 7.222642e+001 1.743394e-001 -2.933562e+000 -1.130727e+000 -3.133588e+000 5.464073e-001 -1.307272e+000 2.991496e+000 6.956878e-001 -1.299891e+000 -1.195753e-002 -1.610409e+000 1.747994e-001 2.587623e+000 -5.851626e-001 6.799634e-002 -2.887981e-002 1.388561e+000 8.930219e-001 1.307855e+000 4.643307e-001 -1.819718e-001 1.109673e-001 -4.657691e-002 3.818629e-001 -4.138547e-001 -2.958961e-001
<VARIANCE> 39
 6.652896e+000 3.164130e+001 2.319902e+001 2.356098e+001 1.053457e+001 4.638404e+001 2.521216e+001 4.798296e+001 3.571227e+001 4.111161e+001 6.228103e+001 5.399834e+001 9.823635e+000 3.922732e+000 2.956702e+000 1.894626e+000 5.239605e+000 5.822714e+000 7.746194e+000 4.834678e+000 6.305857e+000 5.473538e+000 7.485405e+000 5.096391e+000 3.352329e+000 1.704948e+000 7.839907e-001 5.828099e-001 2.949307e-001 9.178712e-001 1.046891e+000 7.619986e-001 1.294609e+000 1.391408e+000 6.308345e-001 1.590612e+000 4.813169e-001 6.790551e-001 2.997753e-001
<GCONST> 1.293274e+002
<STATE> 3
<MEAN> 39
 -8.038547e+000 -1.519068e+001 -4.526364e+000 -2.338615e+001 -6.182271e+000 -1.246543e+001 5.578944e+000 -5.669599e+000 -1.258839e+001 -8.232661e+000 -8.885544e+000 9.605997e-001 7.548110e+001 -4.654659e-001 -1.721293e+000 -7.948363e-001 9.511720e-002 1.239181e+000 7.737627e-001 1.739438e+000 -4.939031e-001 -1.115704e+000 -7.051840e-002 -3.916822e-002 2.751562e-001 1.075194e+000 -3.197231e-002 3.330562e-001 2.446163e-001 6.788883e-001 1.928205e-001 1.688464e-001 -7.668030e-001 -2.633658e-001 1.146662e-001 7.660361e-002 1.447348e-001 2.038156e-001 -4.410100e-001
<VARIANCE> 39
 3.324475e+000 1.324587e+001 8.767900e+000 1.411825e+001 1.739595e+001 1.859054e+001 2.902210e+001 5.062058e+001 3.742545e+001 3.550715e+001 4.185436e+001 2.588439e+001 4.768375e+000 3.426220e-001 1.757500e+000 1.102695e+000 2.304258e+000 2.456442e+000 5.518789e+000 2.775774e+000 3.357921e+000 2.774629e+000 2.417843e+000 3.244176e+000 2.310936e+000 3.576391e-001 1.825321e-001 3.650891e-001 1.545860e-001 4.637236e-001 5.913271e-001 5.367414e-001 5.673813e-001 1.156801e+000 5.427180e-001 6.150903e-001 6.759794e-001 3.687705e-001 1.915005e-001
<GCONST> 1.061963e+002
<STATE> 4
<MEAN> 39
 -9.084347e+000 -1.795366e+001 -5.301507e+000 -2.372806e+001 -4.067573e+000 -1.168385e+001 5.157132e+000 -9.077922e+000 -1.405226e+001 -5.721261e+000 -1.007380e+001 2.404297e+000 7.731265e+001 1.481377e-001 2.505455e-001 1.514518e-001 -1.185195e-001 -5.824067e-002 -5.025393e-001 -6.052914e-001 -2.596920e-002 4.109165e-001 1.474114e-001 -1.551634e-001 -2.929788e-002 -1.928473e-001 1.361768e-001 3.062389e-001 7.080737e-002 3.671734e-002 -5.599597e-002 -1.655903e-001 -2.808103e-001 7.860503e-002 1.657890e-001 -1.011695e-001 -2.429007e-002 -5.606416e-002 -2.461772e-001
<VARIANCE> 39
 1.784197e+000 1.204979e+001 7.446341e+000 1.301547e+001 3.686168e+001 2.814320e+001 2.840520e+001 2.898441e+001 3.848317e+001 2.733296e+001 2.977011e+001 1.786843e+001 2.822712e+000 3.379455e-001 1.132762e+000 7.018387e-001 9.955601e-001 1.783924e+000 1.953916e+000 1.765442e+000 2.609741e+000 2.009543e+000 1.264462e+000 1.038808e+000 9.666418e-001 4.268634e-001 4.776586e-002 1.393871e-001 9.950494e-002 3.122056e-001 2.137837e-001 2.605131e-001 3.225587e-001 4.800029e-001 4.001571e-001 2.899876e-001 1.718922e-001 2.091115e-001 9.067414e-002
<GCONST> 8.767545e+001
<TRANSP> 5
 0.000000e+000 1.000000e+000 0.000000e+000 0.000000e+000 0.000000e+000
 0.000000e+000 3.431207e-001 6.568792e-001 0.000000e+000 0.000000e+000
 0.000000e+000 0.000000e+000 6.154029e-001 3.845972e-001 0.000000e+000
 0.000000e+000 0.000000e+000 0.000000e+000 8.989752e-001 1.010248e-001
 0.000000e+000 0.000000e+000 0.000000e+000 0.000000e+000 0.000000e+000
<ENDHMM>
~h "f"
<BEGINHMM>
<NUMSTATES> 5
<STATE> 2
<MEAN> 39
 -1.329105e+001 -1.376711e+000 1.154050e+001 -2.535363e+001 -1.188788e+001 -8.873594e+000 -1.893522e+001 -1.156169e+001 -1.700111e+001 8.497876e-002 -1.700111e+001 -1.789974e+000 7.305572e+001 -1.811697e-002 5.191358e-002 7.739711e-001 -5.521325e-001 1.974926e-001 6.286464e-001 -6.561397e-001 1.273011e-001 7.506841e-002 2.976014e-001 -7.877306e-001 -2.210681e-001 1.210744e-001 4.979956e-002 3.980955e-002 -2.011411e-001 3.581592e-001 4.412825e-002 -1.042766e-001 2.022322e-001 -1.268110e-002 1.560783e-001 -1.504930e-001 2.657463e-001 1.281352e-001 -1.712886e-001
<VARIANCE> 39
 3.159935e+000 1.162899e+001 1.405792e+001 1.762678e+001 6.708150e+001 1.388586e+001 3.688950e+001 2.903810e+001 1.624941e+001 1.869390e+001 7.770963e+001 6.177461e+001 1.986163e+000 4.201215e-001 6.256883e-001 1.274297e+000 1.684513e+000 1.844139e+000 1.387750e+000 1.794213e+000 1.748152e+000 1.400634e+000 2.001613e+000 3.445100e+000 1.244223e+000 2.945245e-001 7.935759e-002 1.404354e-001 1.294459e-001 2.421086e-001 2.798392e-001 1.680284e-001 3.067262e-001 2.733991e-001 2.691900e-001 3.755130e-001 2.784181e-001 2.065404e-001 4.455184e-002
<GCONST> 9.050639e+001
<STATE> 3
<MEAN> 39
 -8.361725e+000 -1.994610e+000 1.461532e+001 -2.030179e+001 -1.035072e+001 -9.233966e+000 -1.478582e+001 -1.199751e+001 -1.173849e+001 -1.064430e+000 -1.694474e+001 -5.783148e-001 6.687668e+001 6.490088e-001 1.732030e-001 -1.282996e-001 1.049911e+000 1.523149e+000 -2.166038e-001 1.911323e+000 6.976160e-001 2.418395e+000 -1.025855e+000 9.395604e-001 4.045298e-001 -2.284917e+000 -2.200242e-001 -7.728530e-002 -3.211904e-001 -5.240842e-001 1.643250e-001 1.677320e-001 -9.371458e-002 3.412515e-001 4.526308e-001 2.286334e-001 9.462919e-002 -2.034162e-002 -1.525328e-001
<VARIANCE> 39
 2.695023e+000 2.101108e+001 9.811562e+000 3.397857e+001 2.266412e+001 3.800005e+001 3.255252e+001 3.118224e+001 4.025394e+001 8.562392e+001 1.000177e+002 5.595701e+001 3.799482e+001 5.689837e-001 7.253169e-001 6.163380e-001 6.444030e+000 1.414135e+000 3.771716e+000 1.636364e+000 1.161840e+000 2.473697e+000 3.255425e+000 2.675265e+000 4.444377e+000 5.772800e+000 1.062164e-001 2.516509e-001 1.182097e-001 9.117681e-001 3.131760e-001 2.198320e-001 5.154308e-001 8.454937e-002 5.465786e-001 8.767982e-001 5.841113e-001 7.899790e-001 7.152060e-001
<GCONST> 1.112393e+002
<STATE> 4
<MEAN> 39
 -8.123759e+000 -1.579138e+000 1.236071e+001 -1.823663e+001 -5.667659e+000 -2.781931e+000 -8.648150e+000 -5.840604e+000 -9.950405e-003 3.532242e-001 -1.260660e+001 -5.513011e+000 5.373132e+001 -7.709209e-001 -1.434597e+000 -1.949304e+000 -4.864294e-001 6.342728e-001 -1.527007e-001 6.831682e-001 5.988025e-001 7.887325e-001 6.421829e-001 1.273408e+000 9.219148e-001 -8.206120e-001 -5.211726e-001 -1.114621e-001 -6.502801e-001 5.675269e-001 2.181170e-001 -5.810989e-001 8.031455e-002 -5.676089e-001 -7.524779e-001 -2.625735e-001 5.083272e-001 2.170911e-001 1.558735e+000
<VARIANCE> 39
 1.936892e+000 8.366902e+000 1.031259e+001 4.121741e+001 1.986431e+000 6.158294e+001 2.791525e+001 2.217508e+001 4.297321e+000 3.508358e+001 5.474246e+001 9.267529e+001 5.394020e+001 6.617683e-001 7.916637e-001 5.192357e-001 4.305850e+000 5.405492e-001 9.412671e-001 1.508018e+000 2.248607e+000 2.621241e+000 3.237718e+000 2.518856e+000 2.212915e+000 2.393354e+000 3.206734e-001 2.252638e-001 2.617495e-001 5.575793e-001 5.575094e-001 3.980707e-001 4.045570e-001 1.559807e-001 3.495999e-001 5.192038e-001 3.523805e-001 5.898238e-001 4.498411e-001
<GCONST> 1.018209e+002
<TRANSP> 5
 0.000000e+000 1.000000e+000 0.000000e+000 0.000000e+000 0.000000e+000
 0.000000e+000 9.334097e-001 6.659034e-002 0.000000e+000 0.000000e+000
 0.000000e+000 0.000000e+000 8.121368e-001 1.878632e-001 0.000000e+000
 0.000000e+000 0.000000e+000 0.000000e+000 5.925496e-001 4.074504e-001
 0.000000e+000 0.000000e+000 0.000000e+000 0.000000e+000 0.000000e+000
<ENDHMM>
~h "g"
<BEGINHMM>
<NUMSTATES> 5
<STATE> 2
<MEAN> 39
 -8.111339e-001 -5.682597e+000 -1.512796e+000 -2.200254e+001 -3.353116e+000 -1.381496e+001 -1.307059e+001 -8.096023e+000 -9.033808e+000 2.400641e+000 -1.560569e+001 -1.121557e+000 6.410218e+001 -2.288279e-001 6.285377e-001 -1.730970e-001 -3.443578e+000 8.356207e-001 -5.969580e-001 -9.663812e-001 8.153169e-001 -8.246171e-001 1.525347e+000 -4.942837e-001 1.445554e+000 1.186963e+000 -1.574344e-001 -4.974843e-001 -3.070303e-001 2.389790e-001 6.113731e-001 3.182202e-001 3.748094e-001 4.973768e-002 5.694071e-002 -4.453710e-001 4.411542e-001 1.682107e-002 2.894372e-001
<VARIANCE> 39
 1.672446e+001 3.047964e+001 5.397447e+001 7.740382e+001 2.435724e+001 4.395935e+001 6.247380e+001 4.350071e+001 3.262590e+001 4.627797e+001 2.903666e+001 5.281089e+001 6.042058e+001 9.954872e-001 4.062624e+000 3.393739e+000 1.022007e+001 4.915462e+000 4.177993e+000 5.443447e+000 5.692980e+000 7.339710e+000 3.594917e+000 4.560533e+000 2.801690e+000 4.870790e+000 2.231652e-001 2.492216e-001 5.756301e-001 1.507675e+000 5.139301e-001 1.169446e+000 5.427862e-001 1.454035e+000 1.043008e+000 6.007707e-001 4.217728e-001 4.978884e-001 3.441186e-001
<GCONST> 1.318202e+002
<STATE> 3
<MEAN> 39
 -3.879605e+000 -7.995292e+000 -1.658410e+000 -2.735917e+001 -1.111741e+000 -1.742230e+001 -1.056910e+001 -4.942576e+000 -9.660150e+000 5.367431e+000 -1.695766e+001 5.711958e+000 7.215159e+001 -1.267381e-001 2.893300e-001 -2.346477e-001 2.599059e-001 1.557191e+000 3.894918e-001 2.622311e-002 -8.313298e-001 -3.755706e-001 -3.177604e-001 7.401603e-002 5.134345e-001 -3.252218e-002 1.480045e-001 -5.614577e-001 -1.856765e-001 8.046360e-001 2.866525e-001 7.845116e-001 4.138178e-001 -6.760002e-001 3.574055e-002 -9.304376e-001 1.011412e-001 -9.727812e-001 -4.273877e-001
<VARIANCE> 39
 6.996173e+000 2.062427e+001 4.246573e+001 5.217275e+001 3.323777e+001 8.528126e+001 4.367533e+001 2.791009e+001 3.162061e+001 3.655305e+001 4.082775e+001 5.692965e+001 2.222285e+001 1.339562e+000 4.447086e+000 3.030478e+000 4.868514e+000 2.720626e+000 9.586082e+000 9.186727e+000 2.371492e+000 7.768096e-001 3.022625e+000 3.365412e+000 3.703528e+000 8.120619e+000 5.545161e-002 3.185412e-001 3.312063e-001 5.666328e-001 5.087305e-001 6.127685e-001 3.303874e-001 6.227605e-001 9.841340e-001 6.292412e-001 3.588254e-001 6.311759e-001 1.442411e-001
<GCONST> 1.212454e+002
<STATE> 4
<MEAN> 39
 -4.024446e+000 -8.123121e+000 -2.043782e+000 -1.915872e+001 1.866771e+000 -1.850487e+001 -9.646470e+000 -1.124174e+001 -8.460006e+000 -8.107600e-001 -1.922223e+001 2.301234e+000 6.525072e+001 -5.090424e-002 -2.190276e-001 -6.004601e-001 -4.680551e-001 4.239129e-001 9.331912e-001 6.688809e-002 -2.960929e-004 5.892572e-001 -4.290760e-001 -5.774237e-004 -8.709722e-001 2.051946e-001 -1.175172e-001 -3.343785e-001 -1.390240e-001 -2.764446e-001 -1.404380e-001 2.434631e-001 3.603331e-001 3.718650e-001 5.043669e-002 4.077600e-003 5.575281e-002 1.222905e-002 5.015455e-001
<VARIANCE> 39
 1.387707e+001 1.355600e+001 3.571600e+001 1.045345e+002 5.001819e+001 5.215712e+001 4.820232e+001 2.527783e+001 3.501305e+001 3.738767e+001 4.478647e+001 4.507360e+001 2.930279e+001 1.928701e+000 1.730748e+000 1.710322e+000 7.051033e+000 2.931358e+000 4.582932e+000 9.128565e+000 4.774861e+000 3.144695e+000 4.622393e+000 3.860545e+000 4.342996e+000 5.870837e+000 4.016456e-001 3.195615e-001 4.391645e-001 1.167302e+000 6.716661e-001 9.039963e-001 1.475284e+000 7.937296e-001 8.160229e-001 1.048337e+000 7.963433e-001 1.095871e+000 4.690813e-001
<GCONST> 1.314987e+002
<TRANSP> 5
 0.000000e+000 1.000000e+000 0.000000e+000 0.000000e+000 0.000000e+000
 0.000000e+000 5.669482e-001 4.330518e-001 0.000000e+000 0.000000e+000
 0.000000e+000 0.000000e+000 2.527375e-001 7.472625e-001 0.000000e+000
 0.000000e+000 0.000000e+000 0.000000e+000 7.940118e-001 2.059883e-001
 0.000000e+000 0.000000e+000 0.000000e+000 0.000000e+000 0.000000e+000
<ENDHMM>
~h "h"
<BEGINHMM>
<NUMSTATES> 5
<STATE> 2
<MEAN> 39
 -6.802244e+000 -9.380930e+000 -1.210183e+000 -1.427472e+001 -1.380333e+000 -6.444434e+000 -5.427185e+000 -9.913569e+000 -7.709971e+000 -1.190095e+001 -5.365515e+000 -1.396990e+000 6.825259e+001 -6.948555e-001 -8.160180e-001 -1.896550e-002 1.563377e+000 1.251403e+000 6.843421e-001 -2.357427e-001 -1.080060e+000 1.430167e-001 -1.039274e+000 6.709309e-001 -7.338642e-001 1.244364e-002 4.106795e-002 2.643385e-002 2.473187e-002 -1.662808e-001 -2.772810e-001 -2.481095e-001 -4.517858e-001 4.519414e-002 1.248748e-001 3.974925e-001 -1.795334e-001 -1.838364e-001 5.814629e-002
<VARIANCE> 39
 2.070821e+001 5.106716e+001 7.089809e+001 9.837670e+001 8.169157e+001 6.551211e+001 5.896841e+001 5.446361e+001 4.504709e+001 4.695938e+001 4.745052e+001 4.611421e+001 3.423689e+001 1.401526e+000 2.839051e+000 2.233979e+000 4.515188e+000 4.192822e+000 2.999664e+000 4.532325e+000 4.260667e+000 4.314456e+000 3.518495e+000 3.818475e+000 1.924861e+000 9.978996e-001 1.726313e-001 2.974381e-001 3.614003e-001 6.639179e-001 6.642815e-001 7.838588e-001 7.970790e-001 7.543077e-001 7.135078e-001 7.315658e-001 5.705283e-001 4.591973e-001 1.231853e-001
<GCONST> 1.272877e+002
<STATE> 3
<MEAN> 39
 -1.088027e+001 -1.325455e+001 -5.865119e-001 -8.120113e+000 1.791968e+000 -4.367756e+000 -7.483897e+000 -1.108997e+001 -4.571989e+000 -1.340726e+001 -2.739415e+000 -5.127257e+000 6.622688e+001 1.467711e-001 -3.192939e-001 1.232406e-001 -3.713220e-001 -5.148160e-001 -7.156246e-001 -1.091925e+000 -7.470567e-001 -7.589057e-002 -4.475792e-001 -2.525742e-001 -4.227374e-001 5.009443e-001 4.333567e-001 1.305035e-002 -2.199467e-001 -6.744501e-001 -4.169797e-001 -2.986222e-001 -1.018472e-001 1.488934e-001 -1.174569e-001 2.301481e-001 -2.427611e-001 2.228876e-001 1.386992e-001
<VARIANCE> 39
 2.887647e+001 5.530008e+001 3.947266e+001 4.671429e+001 4.920874e+001 4.293299e+001 3.756327e+001 3.542205e+001 4.899112e+001 4.391912e+001 3.773380e+001 3.167868e+001 3.315023e+001 1.496079e+000 1.068383e+000 1.304781e+000 3.076928e+000 2.456893e+000 2.650237e+000 2.599377e+000 3.045772e+000 3.500778e+000 2.555280e+000 2.414659e+000 2.080038e+000 9.176056e-001 1.688398e-001 2.014449e-001 2.562693e-001 4.941666e-001 4.963720e-001 4.843813e-001 3.977072e-001 6.149145e-001 5.342388e-001 5.546739e-001 4.336886e-001 3.417400e-001 8.442523e-002
<GCONST> 1.153252e+002
<STATE> 4
<MEAN> 39
 -5.505536e+000 -1.458698e+001 -2.708987e+000 -1.551142e+001 -2.266024e+000 -9.987627e+000 -1.175262e+001 -1.426106e+001 -6.688923e+000 -1.408867e+001 -6.558417e+000 -4.581584e+000 7.054002e+001 8.753857e-001 -1.356395e+000 -1.159093e+000 -1.884895e+000 -2.428686e-001 -3.704312e-001 -2.865908e-001 6.622168e-001 -3.370683e-001 1.433212e+000 -8.563269e-001 6.533387e-001 1.263466e+000 -2.328055e-001 -2.993800e-001 -5.634138e-002 1.222041e-001 4.652689e-001 4.421226e-001 3.548298e-001 5.990098e-001 -2.389259e-001 5.714176e-001 -4.525774e-002 2.074649e-001 1.655701e-001
<VARIANCE> 39
 1.886694e+001 7.068533e+001 3.535221e+001 5.282389e+001 3.834167e+001 3.098267e+001 3.964425e+001 2.520277e+001 3.087918e+001 3.273744e+001 3.337546e+001 3.206219e+001 1.355103e+001 1.150261e+000 1.480498e+000 1.398693e+000 2.791124e+000 3.956038e+000 3.462025e+000 2.999576e+000 2.995607e+000 2.958096e+000 2.815021e+000 1.967675e+000 2.425009e+000 8.562347e-001 1.585519e-001 1.577838e-001 2.792063e-001 4.228712e-001 4.779792e-001 3.631446e-001 4.333863e-001 4.618690e-001 4.624852e-001 4.435998e-001 3.514937e-001 3.263998e-001 8.526640e-002
<GCONST> 1.117311e+002
<TRANSP> 5
 0.000000e+000 1.000000e+000 0.000000e+000 0.000000e+000 0.000000e+000
 0.000000e+000 5.425610e-001 4.574390e-001 0.000000e+000 0.000000e+000
 0.000000e+000 0.000000e+000 6.900273e-001 3.099727e-001 0.000000e+000
 0.000000e+000 0.000000e+000 0.000000e+000 6.652371e-001 3.347629e-001
 0.000000e+000 0.000000e+000 0.000000e+000 0.000000e+000 0.000000e+000
<ENDHMM>
~h "i"
<BEGINHMM>
<NUMSTATES> 5
<STATE> 2
<MEAN> 39
 -7.184638e+000 -1.166709e+001 5.623908e-001 -2.387393e+001 -1.106537e+001 -1.505483e+001 -5.631643e+000 -3.526984e-001 -9.303360e+000 8.135411e-001 -1.237966e+001 -8.482041e-001 7.600606e+001 -2.949265e-001 1.160661e+000 1.711977e+000 -3.187451e-001 -1.999396e+000 -5.963107e-001 -7.523872e-001 -7.144638e-001 -9.502735e-001 1.035496e+000 5.685689e-001 2.438226e-001 -6.451297e-001 6.183631e-002 -3.983832e-002 -5.553668e-002 1.735988e-001 6.006551e-001 3.469045e-001 -4.236434e-001 -6.191888e-001 -2.039021e-001 -1.820302e-001 5.667090e-002 -8.295926e-002 -2.162095e-001
<VARIANCE> 39
 6.819973e+000 2.068027e+001 3.435743e+001 3.354081e+001 5.242592e+001 2.622258e+001 1.138279e+002 6.801603e+001 4.134266e+001 4.527554e+001 4.460836e+001 3.396442e+001 1.032108e+001 5.628746e-001 1.315232e+000 1.440288e+000 1.951079e+000 2.923787e+000 2.968787e+000 4.592045e+000 3.534545e+000 5.309314e+000 3.746499e+000 4.157422e+000 3.300955e+000 4.246381e-001 8.481396e-002 1.634817e-001 1.746034e-001 5.173259e-001 4.517596e-001 5.735632e-001 6.205767e-001 5.808588e-001 6.562359e-001 8.018221e-001 7.295446e-001 6.761832e-001 6.662125e-002
<GCONST> 1.143708e+002
<STATE> 3
<MEAN> 39
 -9.506031e+000 -7.014765e+000 7.319997e+000 -2.448433e+001 -1.427159e+001 -1.264309e+001 -1.315385e+001 -8.091576e+000 -1.542756e+001 2.258955e+000 -1.271487e+001 -8.182664e-002 7.275355e+001 1.970882e-001 4.691444e-001 7.362771e-001 5.919885e-001 4.066111e-001 1.205399e-003 -6.274410e-001 -9.825677e-001 -7.169707e-001 -5.337613e-001 -2.295370e-001 -1.145313e-002 -9.197056e-001 2.696930e-001 8.418420e-002 -2.786760e-001 5.970892e-001 4.664880e-001 -1.002330e-001 2.122519e-001 1.363109e-001 3.511882e-001 -3.965135e-001 9.790539e-002 -5.516471e-002 -3.472903e-001
<VARIANCE> 39
 1.115710e+001 2.160944e+001 2.519659e+001 3.735881e+001 3.658497e+001 3.422454e+001 4.990218e+001 4.785361e+001 4.034712e+001 3.633446e+001 4.324699e+001 6.097375e+001 9.607656e+000 7.305914e-001 1.320375e+000 1.392018e+000 1.970199e+000 1.992861e+000 2.592655e+000 3.295366e+000 2.720748e+000 2.557433e+000 2.737236e+000 2.503949e+000 2.198953e+000 7.843607e-001 1.313983e-001 2.106501e-001 2.369039e-001 3.769792e-001 6.177088e-001 4.835914e-001 5.686991e-001 4.281119e-001 6.972186e-001 5.462187e-001 5.254685e-001 4.373175e-001 1.519682e-001
<GCONST> 1.116244e+002
<STATE> 4
<MEAN> 39
 -5.445429e+000 -4.946686e+000 7.279041e+000 -1.566866e+001 -1.000452e+001 -1.348536e+001 -1.113992e+001 -9.366269e+000 -1.224225e+001 -8.956206e-001 -9.426013e+000 -1.082756e+000 6.482833e+001 7.389894e-001 7.826486e-001 -6.856360e-001 2.796617e+000 2.140360e+000 4.121720e-001 7.510987e-001 -2.271478e-001 1.326768e+000 -1.678888e+000 5.910575e-001 -6.504726e-001 -2.831613e+000 -2.058477e-001 -7.845452e-002 -4.882018e-001 2.714201e-002 1.664463e-001 2.112429e-001 3.037004e-001 3.955603e-001 4.339240e-001 6.850570e-003 1.614731e-001 -2.027120e-001 -9.203587e-002
<VARIANCE> 39
 1.258051e+001 4.095713e+001 4.727998e+001 6.676816e+001 4.585809e+001 4.761538e+001 5.558671e+001 4.354816e+001 7.129467e+001 4.884777e+001 5.960366e+001 4.880836e+001 4.662348e+001 1.561478e+000 2.454248e+000 2.090659e+000 3.212900e+000 3.821092e+000 3.551580e+000 5.839765e+000 4.187556e+000 5.007129e+000 4.311088e+000 3.532319e+000 3.607182e+000 2.114560e+000 2.629032e-001 5.365698e-001 3.945060e-001 6.509448e-001 7.560748e-001 6.039572e-001 8.235123e-001 7.262344e-001 9.442728e-001 7.396441e-001 7.433784e-001 5.880852e-001 3.145546e-001
<GCONST> 1.298927e+002
<TRANSP> 5
 0.000000e+000 1.000000e+000 0.000000e+000 0.000000e+000 0.000000e+000
 0.000000e+000 6.801116e-001 3.198884e-001 0.000000e+000 0.000000e+000
 0.000000e+000 0.000000e+000 7.280739e-001 2.719261e-001 0.000000e+000
 0.000000e+000 0.000000e+000 0.000000e+000 6.147476e-001 3.852524e-001
 0.000000e+000 0.000000e+000 0.000000e+000 0.000000e+000 0.000000e+000
<ENDHMM>
~h "k"
<BEGINHMM>
<NUMSTATES> 5
<STATE> 2
<MEAN> 39
 -1.619744e+000 2.419309e+000 6.512592e-001 -9.575879e+000 -4.384615e+000 -5.923565e+000 -4.798167e+000 -3.860954e+000 -3.445502e+000 -9.060162e+000 -6.194619e+000 -6.364061e+000 5.269976e+001 -8.073744e-001 -8.997409e-001 -3.709056e-001 5.414720e-001 3.482729e-001 5.147808e-001 1.413854e+000 5.538681e-001 1.031225e+000 1.206652e+000 2.853099e-001 1.383255e-001 -1.290303e+000 -2.398684e-001 -2.064463e-001 -1.976490e-002 -2.066123e-001 -1.588058e-001 -1.881239e-001 -2.131109e-001 -2.676004e-001 -4.696428e-002 2.304457e-001 1.584466e-001 3.227106e-001 5.776232e-001
<VARIANCE> 39
 2.697547e+001 3.087854e+001 2.188455e+001 5.201310e+001 3.363406e+001 3.803827e+001 3.829160e+001 2.108004e+001 3.708388e+001 5.399256e+001 3.077972e+001 3.489402e+001 3.651418e+001 8.373837e-001 1.087281e+000 2.425615e+000 2.674948e+000 2.730351e+000 2.347722e+000 3.019994e+000 3.036710e+000 2.822858e+000 2.412141e+000 3.506753e+000 1.991037e+000 1.522092e+000 1.296740e-001 1.759225e-001 5.522305e-001 5.589826e-001 5.056002e-001 4.232536e-001 4.370643e-001 5.333738e-001 5.882223e-001 6.026059e-001 5.383397e-001 4.995572e-001 7.162853e-001
<GCONST> 1.169599e+002
<STATE> 3
<MEAN> 39
 -1.048371e+001 -6.178021e+000 -5.337428e-001 -7.394464e+000 -3.209156e+000 -7.111946e+000 -9.537433e-001 -5.626840e+000 -5.548204e-002 -3.273597e+000 -3.791346e+000 -9.816679e-001 5.529810e+001 -1.324021e+000 -9.015540e-001 9.891071e-001 -8.483406e-001 -1.136923e+000 -1.331476e+000 -1.715760e-001 -9.808116e-001 -6.441749e-001 5.985437e-001 -7.654466e-002 1.822713e+000 4.251476e+000 4.344600e-001 4.972240e-001 4.066809e-001 -5.695612e-001 -7.423019e-001 -3.142402e-001 -9.015216e-001 -1.133685e-001 -9.070213e-001 1.737626e-002 -5.580141e-001 -2.076566e-001 6.403174e-001
<VARIANCE> 39
 2.452514e+001 1.967170e+001 1.817457e+001 2.323270e+001 2.048099e+001 4.400714e+001 2.449331e+001 4.310818e+001 2.482072e+001 3.087978e+001 2.962128e+001 3.878891e+001 1.104009e+002 2.086152e+000 2.978491e+000 2.041727e+000 4.346875e+000 5.209346e+000 5.433362e+000 6.478171e+000 3.503660e+000 6.341354e+000 5.174878e+000 3.523072e+000 4.611086e+000 7.634564e+000 4.615252e-001 5.151898e-001 3.180251e-001 6.923751e-001 9.451928e-001 9.840614e-001 8.949986e-001 8.612955e-001 8.688908e-001 7.299889e-001 8.360208e-001 1.323372e+000 2.143468e+000
<GCONST> 1.319726e+002
<STATE> 4
<MEAN> 39
 -9.950154e+000 -8.159830e+000 3.566349e+000 -1.868085e+001 -7.313656e+000 -1.211642e+001 -1.033248e+001 -7.899234e+000 -1.071332e+001 -4.109806e+000 -1.353419e+001 1.781867e+000 7.049062e+001 4.310681e-001 8.612161e-002 4.894511e-001 -8.257390e-001 -1.067433e+000 -1.563315e-002 -1.137720e+000 4.951314e-003 -1.621801e+000 1.345203e-001 -9.226778e-001 -6.865939e-001 1.009995e+000 6.771266e-002 -2.501477e-002 -1.300033e-001 4.258207e-002 7.034308e-002 3.473509e-001 1.228326e-001 2.434332e-001 5.454531e-002 -3.119899e-002 3.469881e-002 -3.898993e-001 -4.831224e-001
<VARIANCE> 39
 2.191480e+001 3.812301e+001 4.087804e+001 8.385715e+001 5.920589e+001 3.529055e+001 6.269190e+001 9.831948e+001 4.503488e+001 8.163983e+001 4.547836e+001 4.213364e+001 4.366064e+001 1.666952e+000 2.733517e+000 3.199516e+000 5.759376e+000 8.035312e+000 2.032100e+000 8.390674e+000 7.557318e+000 7.245894e+000 4.724230e+000 4.260924e+000 5.366563e+000 4.747955e+000 1.706858e-001 2.585950e-001 2.788458e-001 7.782989e-001 8.528890e-001 8.055427e-001 8.968068e-001 1.635033e+000 8.184950e-001 7.146467e-001 7.506422e-001 9.131729e-001 6.789447e-001
<GCONST> 1.361119e+002
<TRANSP> 5
 0.000000e+000 1.000000e+000 0.000000e+000 0.000000e+000 0.000000e+000
 0.000000e+000 7.562332e-001 2.437669e-001 0.000000e+000 0.000000e+000
 0.000000e+000 0.000000e+000 7.235153e-001 2.764848e-001 0.000000e+000
 0.000000e+000 0.000000e+000 0.000000e+000 6.709074e-001 3.290926e-001
 0.000000e+000 0.000000e+000 0.000000e+000 0.000000e+000 0.000000e+000
<ENDHMM>
~h "l"
<BEGINHMM>
<NUMSTATES> 5
<STATE> 2
<MEAN> 39
 -4.910316e+000 -9.804289e+000 3.661206e+000 -2.042094e+001 -5.185429e+000 -2.116463e+001 -1.841787e+001 -3.701095e+000 -8.609494e+000 -1.083729e+001 -9.850789e+000 5.796937e+000 6.885172e+001 -2.360339e-001 -2.723626e-001 -6.722081e-002 -1.025129e+000 7.665420e-001 -9.526978e-001 -2.684680e-001 8.799931e-001 2.880297e-001 -2.729777e-001 -5.355344e-001 6.973405e-001 5.138035e-001 1.281803e-002 -1.801597e-001 -3.936474e-001 -5.660519e-002 -5.457858e-002 4.941729e-001 6.572790e-001 1.839413e-001 -3.306914e-002 3.033735e-001 -1.610469e-001 -2.759548e-001 1.449395e-001
<VARIANCE> 39
 1.257273e+001 1.896501e+001 4.505804e+001 6.191159e+001 5.399850e+001 5.490715e+001 5.814671e+001 3.966882e+001 8.494643e+001 4.260553e+001 5.832077e+001 6.366477e+001 1.221234e+001 5.502459e-001 1.432995e+000 1.851716e+000 3.198321e+000 4.155909e+000 4.517444e+000 4.702478e+000 4.586592e+000 4.235642e+000 4.671147e+000 3.551663e+000 3.556684e+000 1.229813e+000 1.004693e-001 2.547675e-001 2.349581e-001 6.105790e-001 7.193790e-001 7.765824e-001 8.732345e-001 8.244618e-001 7.782955e-001 8.313072e-001 7.389667e-001 6.118465e-001 1.478101e-001
<GCONST> 1.233533e+002
<STATE> 3
<MEAN> 39
 -5.520965e+000 -1.268552e+001 -1.267018e-001 -2.531815e+001 -1.408882e+000 -2.331379e+001 -1.264754e+001 2.225138e+000 -6.006557e+000 -9.760242e+000 -1.340540e+001 6.721438e+000 7.214073e+001 1.863527e-002 -2.281271e+000 -2.222507e+000 -1.969958e-002 3.756880e-001 2.722036e+000 3.324733e+000 8.177831e-001 -1.048424e+000 5.265440e-001 -1.111460e+000 -5.065956e-001 1.648759e+000 -7.461946e-002 -4.890850e-001 -1.417493e-001 6.453905e-001 3.146806e-001 1.116676e+000 1.782378e-001 -7.466514e-001 -7.273981e-001 7.187136e-002 3.048919e-001 -1.273363e-002 1.945471e-001
<VARIANCE> 39
 9.499160e+000 1.784166e+001 2.782656e+001 3.543569e+001 5.478506e+001 4.693578e+001 5.366666e+001 3.381703e+001 5.883342e+001 4.836481e+001 4.172469e+001 4.451953e+001 7.245540e+000 4.573242e-001 2.412272e+000 1.844859e+000 3.000976e+000 3.466471e+000 6.562620e+000 4.793597e+000 3.913926e+000 4.767820e+000 4.542660e+000 3.166724e+000 2.851373e+000 5.219347e-001 5.052115e-002 3.666698e-001 2.825201e-001 5.646710e-001 4.804594e-001 7.307192e-001 8.405455e-001 5.465749e-001 6.059084e-001 7.010661e-001 5.714169e-001 5.652804e-001 1.292311e-001
<GCONST> 1.173310e+002
<STATE> 4
<MEAN> 39
 -6.023880e+000 -2.096722e+001 -5.863962e+000 -2.192333e+001 6.490803e-001 -1.060499e+001 -4.841468e+000 9.899959e-001 -1.265189e+001 -8.770330e+000 -1.466381e+001 7.035198e+000 7.713312e+001 -4.307906e-001 -1.991768e+000 -1.162555e+000 1.560235e+000 1.840046e+000 3.101170e+000 1.261871e+000 -1.707934e+000 -1.323390e+000 1.198319e+000 4.290976e-001 -2.527874e-001 1.336839e+000 -2.176604e-002 5.720167e-001 6.573467e-001 1.723800e-001 1.946820e-001 -7.923518e-001 -1.066162e+000 -5.855840e-001 5.577989e-001 2.240863e-001 3.819899e-001 -1.725397e-001 -4.471911e-001
<VARIANCE> 39
 7.367563e+000 3.929913e+001 2.764563e+001 2.661684e+001 8.252349e+001 3.318302e+001 4.986525e+001 4.666278e+001 4.077948e+001 4.765691e+001 3.822889e+001 4.566833e+001 6.655592e+000 3.803823e-001 3.020940e+000 2.016447e+000 5.356705e+000 3.626019e+000 5.775745e+000 5.836202e+000 3.977193e+000 5.129506e+000 3.958459e+000 3.739699e+000 3.611398e+000 5.779077e-001 7.182595e-002 1.848244e-001 2.233535e-001 4.568616e-001 6.207153e-001 7.066287e-001 6.544043e-001 7.771927e-001 5.537790e-001 8.252518e-001 5.995007e-001 5.240284e-001 6.671041e-002
<GCONST> 1.175645e+002
<TRANSP> 5
 0.000000e+000 1.000000e+000 0.000000e+000 0.000000e+000 0.000000e+000
 0.000000e+000 8.198865e-001 1.801135e-001 0.000000e+000 0.000000e+000
 0.000000e+000 0.000000e+000 5.566989e-001 4.433011e-001 0.000000e+000
 0.000000e+000 0.000000e+000 0.000000e+000 4.510879e-001 5.489121e-001
 0.000000e+000 0.000000e+000 0.000000e+000 0.000000e+000 0.000000e+000
<ENDHMM>
~h "m"
<BEGINHMM>
<NUMSTATES> 5
<STATE> 2
<MEAN> 39
 7.954799e-001 -7.174978e+000 1.581673e+000 -1.283964e+001 1.530812e+000 -1.369980e+001 -1.738794e+001 -1.017817e+001 -1.304403e+001 -1.062943e+001 -1.134475e+001 -5.963981e+000 6.271449e+001 5.277796e-001 1.951254e+000 1.161500e+000 2.147041e+000 1.089244e+000 -1.003732e+000 -2.451775e+000 -1.166558e+000 -1.929571e+000 -1.877188e+000 4.366971e-001 -1.091627e+000 -1.850462e+000 -3.789406e-001 -3.632804e-001 -2.013715e-001 -3.429430e-001 -1.459570e-001 1.072971e-001 3.062948e-001 2.876837e-001 4.596367e-002 2.603615e-001 2.705158e-002 2.884799e-001 4.463794e-001
<VARIANCE> 39
 8.355707e+000 5.156056e+001 4.479665e+001 4.726003e+001 5.901775e+001 6.108683e+001 6.310184e+001 4.380158e+001 5.156482e+001 5.873562e+001 3.781354e+001 6.507845e+001 3.475067e+001 1.310706e+000 2.340601e+000 2.243537e+000 4.200729e+000 3.903887e+000 3.774573e+000 5.889863e+000 3.788899e+000 5.239816e+000 4.947553e+000 4.274731e+000 4.314487e+000 3.602175e+000 1.543788e-001 2.878453e-001 3.232891e-001 6.841965e-001 7.191755e-001 4.765853e-001 8.903762e-001 5.955055e-001 8.400900e-001 6.480219e-001 4.985672e-001 7.376264e-001 2.597583e-001
<GCONST> 1.282148e+002
<STATE> 3
<MEAN> 39
 3.720798e-001 -4.426378e+000 3.081736e+000 -1.038196e+001 1.571641e+000 -1.747458e+001 -2.204090e+001 -1.060909e+001 -1.549641e+001 -1.270473e+001 -1.030925e+001 -5.784673e+000 6.045307e+001 1.458879e-002 3.532633e-001 -2.174272e-001 9.999536e-002 -3.573156e-001 -2.073350e-002 -1.454102e-001 -1.800136e-002 -1.936095e-001 -3.098982e-001 1.499879e-001 3.826363e-001 -2.725967e-001 -2.764098e-002 -2.660829e-001 -3.399205e-001 -4.327844e-001 -1.970834e-001 3.503780e-001 5.294271e-001 2.119536e-001 3.863138e-001 2.352228e-001 -5.426770e-002 1.549883e-001 3.403355e-001
<VARIANCE> 39
 5.373502e+000 3.261629e+001 3.436998e+001 3.380614e+001 5.032845e+001 6.024406e+001 4.545737e+001 4.161518e+001 4.086919e+001 5.379863e+001 4.241270e+001 8.143418e+001 8.100432e+000 3.144729e-001 7.520897e-001 8.056054e-001 1.530366e+000 2.222594e+000 2.517771e+000 2.705039e+000 2.227440e+000 2.940800e+000 3.005127e+000 2.604496e+000 4.186440e+000 5.220097e-001 7.471650e-002 1.991811e-001 2.530172e-001 4.670587e-001 4.717086e-001 3.936996e-001 6.109844e-001 5.594392e-001 7.111723e-001 6.217031e-001 5.452493e-001 8.071908e-001 1.961278e-001
<GCONST> 1.112358e+002
<STATE> 4
<MEAN> 39
 4.329283e-001 -4.014588e+000 -6.198196e-001 -1.197557e+001 -9.349618e-001 -1.331697e+001 -1.807342e+001 -1.000650e+001 -1.476562e+001 -1.373765e+001 -9.183261e+000 -3.960682e+000 6.064008e+001 -4.127201e-001 -1.209416e+000 -1.891423e+000 -1.923002e+000 -5.917141e-002 1.486454e+000 1.608581e+000 8.671631e-001 1.529116e+000 1.419273e+000 1.732025e-001 3.822895e-001 1.589484e+000 -3.382217e-001 -4.474827e-001 -1.388042e-001 -4.072380e-001 3.486783e-001 9.867068e-002 2.061104e-001 3.817474e-001 4.509225e-001 5.054777e-001 -2.198450e-001 8.275961e-002 4.331847e-001
<VARIANCE> 39
 8.778593e+000 3.224268e+001 4.372878e+001 7.859364e+001 5.499815e+001 6.259312e+001 6.095426e+001 4.190829e+001 5.716172e+001 5.771132e+001 5.350545e+001 7.676810e+001 3.020864e+001 1.102261e+000 3.964057e+000 3.296923e+000 6.525534e+000 5.865738e+000 4.442430e+000 5.990302e+000 3.889016e+000 5.550572e+000 6.901295e+000 5.327487e+000 4.422561e+000 4.218794e+000 1.787735e-001 4.431712e-001 5.805602e-001 8.581767e-001 9.612719e-001 7.237629e-001 1.031053e+000 8.621938e-001 1.078437e+000 9.534039e-001 1.130909e+000 8.132823e-001 3.938364e-001
<GCONST> 1.357811e+002
<TRANSP> 5
 0.000000e+000 1.000000e+000 0.000000e+000 0.000000e+000 0.000000e+000
 0.000000e+000 4.831911e-001 5.168089e-001 0.000000e+000 0.000000e+000
 0.000000e+000 0.000000e+000 7.508808e-001 2.491191e-001 0.000000e+000
 0.000000e+000 0.000000e+000 0.000000e+000 5.759163e-001 4.240836e-001
 0.000000e+000 0.000000e+000 0.000000e+000 0.000000e+000 0.000000e+000
<ENDHMM>
~h "n"
<BEGINHMM>
<NUMSTATES> 5
<STATE> 2
<MEAN> 39
 -2.306850e-002 -6.059262e+000 4.233941e+000 -1.225569e+001 -4.129394e+000 -1.753264e+001 -1.282717e+001 -6.279561e+000 -1.185806e+001 -1.157279e+001 -1.412994e+001 3.224836e+000 6.318747e+001 4.081553e-001 2.312666e+000 9.388529e-001 1.367958e+000 3.373974e-001 -2.148058e+000 -3.887638e-001 -1.782259e+000 -6.987661e-001 -2.123884e+000 -9.157354e-001 9.302300e-001 -1.942926e+000 -3.134921e-001 -4.929401e-001 -4.662334e-001 -4.684619e-001 -2.250884e-001 3.612849e-001 1.826479e-001 3.510424e-001 4.599005e-002 4.942770e-001 1.112633e-001 -1.468804e-001 5.189555e-001
<VARIANCE> 39
 7.932464e+000 5.115648e+001 3.981837e+001 4.063946e+001 6.211084e+001 4.635394e+001 5.546009e+001 5.391304e+001 5.469621e+001 3.838237e+001 6.192686e+001 6.466795e+001 3.194768e+001 1.151947e+000 2.873305e+000 2.279597e+000 3.984995e+000 4.386940e+000 4.629292e+000 4.111257e+000 5.608543e+000 3.943457e+000 4.340421e+000 5.000833e+000 3.909388e+000 3.307899e+000 1.209233e-001 4.219744e-001 2.773331e-001 6.046385e-001 1.031972e+000 6.899218e-001 6.933753e-001 8.972465e-001 6.327047e-001 6.552164e-001 8.286738e-001 6.981284e-001 2.678749e-001
<GCONST> 1.286905e+002
<STATE> 3
<MEAN> 39
 -1.084772e-001 -2.730833e+000 4.289670e+000 -1.139410e+001 -6.693589e+000 -2.215247e+001 -1.307659e+001 -6.691905e+000 -1.265112e+001 -1.414643e+001 -1.536606e+001 6.033588e+000 6.055930e+001 -6.476862e-003 2.954663e-001 -2.314186e-001 3.827366e-001 -3.509460e-001 -4.109694e-002 -1.796129e-001 -1.882327e-002 2.069996e-001 -1.697672e-001 2.907910e-001 -1.567414e-001 -4.406767e-001 -7.999359e-002 -3.079582e-001 -1.326234e-001 -5.206549e-002 1.090630e-001 4.741884e-001 -4.413244e-002 7.498838e-002 7.822815e-002 2.310305e-001 2.550462e-001 -3.406938e-001 1.908204e-001
<VARIANCE> 39
 5.400442e+000 2.099871e+001 3.011770e+001 2.736131e+001 4.618448e+001 3.823599e+001 5.483873e+001 3.870458e+001 5.711475e+001 3.946633e+001 5.715170e+001 6.163646e+001 1.154206e+001 2.466373e-001 8.768069e-001 1.015548e+000 1.281344e+000 1.704631e+000 2.649734e+000 2.360785e+000 2.078387e+000 2.512826e+000 2.606546e+000 2.675592e+000 2.942232e+000 5.159338e-001 7.515880e-002 2.448627e-001 2.080351e-001 2.938894e-001 3.336930e-001 5.040427e-001 5.121555e-001 5.040904e-001 5.248044e-001 5.898781e-001 5.481528e-001 4.734641e-001 1.547777e-001
<GCONST> 1.073903e+002
<STATE> 4
<MEAN> 39
 -9.009787e-001 -3.893326e+000 1.975013e+000 -8.172372e+000 -5.433170e+000 -1.570301e+001 -1.310001e+001 -6.694568e+000 -1.056158e+001 -1.350111e+001 -1.153939e+001 -1.120022e-001 5.889510e+001 -9.579440e-001 -1.271970e+000 -9.468724e-001 -1.980083e-001 8.774534e-001 2.145591e+000 6.013712e-001 5.756165e-001 3.186584e-001 8.683201e-001 1.175436e+000 -1.423620e+000 3.617972e-001 -2.886355e-001 -1.412171e-001 -1.052034e-001 -2.578777e-001 2.868950e-001 1.247047e-001 3.728418e-001 9.649189e-002 1.384498e-001 3.497355e-001 1.048960e-002 6.350684e-002 1.603674e-001
<VARIANCE> 39
 1.002312e+001 4.499761e+001 3.584890e+001 5.099174e+001 5.451207e+001 6.322158e+001 6.326031e+001 5.290522e+001 5.102857e+001 4.719983e+001 5.137570e+001 6.216451e+001 4.305092e+001 1.029510e+000 5.584392e+000 2.858461e+000 4.511495e+000 3.870605e+000 4.383074e+000 5.401638e+000 4.791980e+000 4.956854e+000 4.835171e+000 3.900195e+000 3.766285e+000 5.143517e+000 2.031164e-001 6.318383e-001 4.608025e-001 5.153952e-001 6.926610e-001 8.634024e-001 6.911446e-001 8.935154e-001 7.002034e-001 7.390592e-001 7.093244e-001 6.846697e-001 3.654191e-001
<GCONST> 1.321964e+002
<TRANSP> 5
 0.000000e+000 1.000000e+000 0.000000e+000 0.000000e+000 0.000000e+000
 0.000000e+000 5.455899e-001 4.544101e-001 0.000000e+000 0.000000e+000
 0.000000e+000 0.000000e+000 7.995300e-001 2.004700e-001 0.000000e+000
 0.000000e+000 0.000000e+000 0.000000e+000 6.430741e-001 3.569259e-001
 0.000000e+000 0.000000e+000 0.000000e+000 0.000000e+000 0.000000e+000
<ENDHMM>
~h "o"
<BEGINHMM>
<NUMSTATES> 5
<STATE> 2
<MEAN> 39
 -3.793563e+000 -1.953601e+001 -9.298342e+000 -2.563819e+001 6.754967e+000 -8.927125e+000 -7.523116e+000 -5.091632e+000 -7.186451e+000 -5.017156e+000 -1.490418e+001 -1.599173e+000 7.657808e+001 3.935217e-001 -1.294166e+000 -1.422273e+000 -8.356900e-001 2.484944e+000 1.348546e+000 -2.057872e-001 -1.185719e+000 2.801979e-001 1.087670e-001 -4.819517e-001 -8.292050e-001 4.366050e-001 -2.258475e-001 6.908295e-001 2.710924e-001 5.872424e-001 -2.810676e-001 1.913152e-001 2.875716e-002 -3.177268e-001 1.508492e-001 1.048243e-001 8.263541e-001 3.680809e-002 -4.357639e-001
<VARIANCE> 39
 1.018127e+001 3.504491e+001 1.514059e+001 2.963805e+001 5.662687e+001 4.207484e+001 3.530916e+001 5.275793e+001 3.591774e+001 4.126989e+001 4.044609e+001 5.277450e+001 6.518002e+000 6.427945e-001 6.101751e+000 1.762923e+000 3.540881e+000 6.427368e+000 2.831353e+000 4.533126e+000 5.868896e+000 4.814717e+000 4.820722e+000 4.394629e+000 2.689199e+000 9.773548e-001 2.500419e-001 3.772455e-001 2.597006e-001 1.270925e+000 1.215537e+000 6.665038e-001 7.352711e-001 1.181001e+000 9.249498e-001 8.622428e-001 8.854360e-001 6.670312e-001 1.147688e-001
<GCONST> 1.240414e+002
<STATE> 3
<MEAN> 39
 -1.795444e+000 -1.947995e+001 -1.237310e+001 -2.806975e+001 1.165856e+001 -2.346974e+000 -8.278430e+000 -1.138349e+001 -4.377578e+000 -4.730927e+000 -1.106221e+001 -2.563373e+000 7.585699e+001 3.566067e-001 8.427694e-001 -2.526453e-001 -6.787109e-001 -4.740530e-001 7.869572e-002 -2.775200e-001 1.660463e-001 2.597716e-001 9.466201e-002 3.470624e-001 2.991359e-001 -4.413968e-001 -3.885487e-003 2.427311e-001 2.321678e-001 2.522394e-001 -4.234298e-001 -4.220951e-001 -1.198412e-001 3.879590e-001 -1.370454e-001 -1.384085e-001 2.627745e-002 2.552749e-001 -1.845372e-001
<VARIANCE> 39
 4.571123e+000 2.185710e+001 1.002478e+001 2.835728e+001 3.095338e+001 3.822450e+001 3.170229e+001 3.017420e+001 3.754613e+001 3.262596e+001 3.051476e+001 3.050209e+001 4.624998e+000 4.348726e-001 3.565423e+000 7.715986e-001 2.586425e+000 2.793242e+000 3.396036e+000 2.526736e+000 4.200840e+000 2.828380e+000 2.291035e+000 2.552719e+000 2.002913e+000 5.552142e-001 5.595115e-002 2.347057e-001 1.590202e-001 4.714519e-001 3.893658e-001 3.663188e-001 3.866431e-001 5.018724e-001 5.326231e-001 4.419113e-001 4.523185e-001 3.328746e-001 7.403699e-002
<GCONST> 1.035490e+002
<STATE> 4
<MEAN> 39
 1.284782e+000 -8.751724e+000 -9.868630e+000 -2.556322e+001 2.020813e+000 -7.049775e+000 -1.016226e+001 -6.014312e+000 -4.282385e+000 -2.962003e+000 -8.938144e+000 -1.190912e+000 6.768774e+001 1.262009e-001 1.100858e+000 1.055045e+000 2.435422e+000 -8.008996e-001 -5.432104e-001 -3.155473e-001 9.863430e-002 -2.632298e-001 -7.392046e-001 3.804886e-001 1.030854e-001 -1.751377e+000 -1.906401e-001 -2.025346e-001 1.423671e-001 5.942457e-001 2.868140e-001 2.154429e-001 1.501287e-001 -2.918853e-001 -8.947223e-003 -2.765326e-001 -1.594830e-002 -2.560511e-001 -1.369077e-001
<VARIANCE> 39
 1.576293e+001 6.750777e+001 2.218909e+001 8.572208e+001 5.605316e+001 5.319236e+001 5.417337e+001 4.408155e+001 5.070019e+001 4.913704e+001 4.379494e+001 3.666339e+001 5.304689e+001 1.107625e+000 3.708575e+000 1.607967e+000 5.848845e+000 5.206406e+000 4.713977e+000 4.437717e+000 3.525010e+000 4.265861e+000 4.623678e+000 3.399043e+000 4.173057e+000 2.160599e+000 1.509051e-001 4.932597e-001 3.062489e-001 9.802728e-001 7.474494e-001 7.942789e-001 8.534480e-001 8.194480e-001 7.294631e-001 8.009812e-001 7.620951e-001 6.967549e-001 2.703011e-001
<GCONST> 1.299995e+002
<TRANSP> 5
 0.000000e+000 1.000000e+000 0.000000e+000 0.000000e+000 0.000000e+000
 0.000000e+000 5.187219e-001 4.812781e-001 0.000000e+000 0.000000e+000
 0.000000e+000 0.000000e+000 8.049546e-001 1.950454e-001 0.000000e+000
 0.000000e+000 0.000000e+000 0.000000e+000 7.506379e-001 2.493621e-001
 0.000000e+000 0.000000e+000 0.000000e+000 0.000000e+000 0.000000e+000
<ENDHMM>
~h "p"
<BEGINHMM>
<NUMSTATES> 5
<STATE> 2
<MEAN> 39
 -5.348714e+000 -1.276409e+001 -4.074057e+000 -1.378778e+001 1.864564e+000 -6.291160e+000 -1.379099e+000 -3.881871e-001 -3.332286e+000 -3.903766e+000 -8.731410e+000 -8.275203e-001 5.491806e+001 -7.660070e-001 4.628650e-001 -2.859080e-001 1.277662e+000 1.954094e-001 8.967774e-001 5.366901e-001 4.031059e-001 5.984722e-001 1.732735e-001 7.825863e-001 -2.408289e-001 -1.845221e+000 -1.329249e-001 6.825265e-002 1.525577e-002 -1.853552e-002 8.327200e-003 2.903843e-002 5.002602e-003 -5.303720e-002 -6.584920e-002 1.937594e-002 1.287110e-001 1.311404e-001 4.907284e-001
<VARIANCE> 39
 1.618923e+001 2.449135e+001 2.430232e+001 2.977639e+001 4.568252e+001 3.951113e+001 7.194273e+001 2.938856e+001 3.337718e+001 2.844995e+001 4.963078e+001 8.556703e+001 3.562048e+001 1.229855e+000 1.796806e+000 1.427495e+000 3.486850e+000 2.011274e+000 3.307896e+000 2.953754e+000 2.617706e+000 2.927951e+000 2.632107e+000 3.432040e+000 3.077705e+000 3.919579e+000 3.975296e-001 4.634394e-001 3.779927e-001 6.557536e-001 3.699939e-001 5.954474e-001 5.737832e-001 5.821865e-001 5.647178e-001 4.455806e-001 5.147758e-001 4.006230e-001 3.453301e-001
<GCONST> 1.205681e+002
<STATE> 3
<MEAN> 39
 -8.521482e+000 -9.936318e+000 -6.949403e+000 -7.837504e+000 3.739213e+000 -9.691496e-001 -1.493434e-001 -7.274909e-001 -3.807190e-003 -2.845530e+000 -2.927044e+000 -8.912787e-001 5.198145e+001 -5.833634e-001 1.075761e+000 8.375490e-002 9.419892e-001 -4.225001e-001 6.116227e-003 -1.268850e-001 -1.003350e-001 2.205952e-001 -2.056838e-001 3.960864e-001 -3.092523e-001 -7.639343e-002 2.668776e-001 1.652535e-001 1.914620e-001 -2.298212e-001 -2.396992e-001 -4.809989e-001 -3.264954e-001 -3.226192e-001 -2.214455e-001 -7.980862e-002 -1.278917e-001 1.415931e-002 4.262132e-001
<VARIANCE> 39
 2.535331e+001 5.179953e+001 3.794366e+001 2.628421e+001 4.971292e+001 4.088584e+001 4.637836e+001 3.376411e+001 2.940162e+001 2.053820e+001 2.373805e+001 3.654634e+001 1.149419e+001 1.452412e+000 2.673744e+000 2.351697e+000 2.500456e+000 2.004975e+000 3.434168e+000 2.889060e+000 3.290354e+000 2.540100e+000 1.764563e+000 1.996887e+000 1.822065e+000 2.359937e+000 2.925601e-001 4.759311e-001 4.446659e-001 7.644191e-001 4.577835e-001 7.278131e-001 6.114350e-001 7.058920e-001 5.037718e-001 3.759648e-001 4.308486e-001 3.494973e-001 3.702479e-001
<GCONST> 1.177660e+002
<STATE> 4
<MEAN> 39
 -6.250293e+000 -3.474406e+000 -2.861211e+000 -6.358705e+000 2.180246e+000 -3.632093e+000 -1.643760e+000 -8.807881e-001 -3.035173e-001 -2.791429e+000 -2.168304e+000 -1.866429e-001 5.646960e+001 6.759398e-001 1.123775e+000 4.399689e-001 -6.196640e-002 -9.695294e-001 -1.127312e+000 -1.233413e+000 -1.202092e+000 -1.094625e+000 -2.335101e-001 5.648834e-002 2.466005e-001 9.589222e-001 3.097806e-002 -4.723320e-001 -2.412225e-001 -5.887028e-001 -2.562316e-001 -2.051695e-001 -5.081370e-001 -3.999465e-001 -5.026163e-001 -2.508039e-001 -5.024232e-001 -1.959933e-001 -1.229771e-001
<VARIANCE> 39
 4.461531e+001 3.467566e+001 3.904910e+001 5.266114e+001 5.939326e+001 8.982894e+001 7.365263e+001 3.759500e+001 4.025117e+001 3.122000e+001 2.325914e+001 2.922414e+001 4.878238e+001 4.428513e+000 5.416167e+000 6.508020e+000 7.721785e+000 7.130507e+000 8.192369e+000 8.359267e+000 4.752764e+000 4.834888e+000 3.088000e+000 3.591960e+000 3.633243e+000 5.122385e+000 7.978629e-001 8.159745e-001 9.933163e-001 1.253490e+000 1.073791e+000 1.498673e+000 1.290774e+000 7.236838e-001 9.098692e-001 5.628023e-001 6.935168e-001 6.308080e-001 1.000236e+000
<GCONST> 1.411555e+002
<TRANSP> 5
 0.000000e+000 1.000000e+000 0.000000e+000 0.000000e+000 0.000000e+000
 0.000000e+000 7.572187e-001 2.427814e-001 0.000000e+000 0.000000e+000
 0.000000e+000 0.000000e+000 7.192176e-001 2.807824e-001 0.000000e+000
 0.000000e+000 0.000000e+000 0.000000e+000 5.871580e-001 4.128420e-001
 0.000000e+000 0.000000e+000 0.000000e+000 0.000000e+000 0.000000e+000
<ENDHMM>
~h "q"
<BEGINHMM>
<NUMSTATES> 5
<STATE> 2
<MEAN> 39
 -4.169288e+000 -5.356145e+000 -6.681035e+000 -1.157838e+001 1.526074e-001 -5.479037e+000 -2.457898e+000 -2.996412e+000 -1.615106e+000 -1.205849e+000 -5.526620e+000 -2.984377e+000 5.233372e+001 6.453148e-001 6.741619e-001 -1.251117e+000 -1.581892e+000 -3.517891e-001 3.008487e-001 7.228791e-001 7.524235e-001 6.917943e-002 8.842667e-001 4.134755e-001 9.151573e-001 5.923696e-001 4.279940e-001 1.803269e-001 -3.688655e-002 -9.114923e-001 -2.197245e-001 -3.616281e-002 -5.446374e-001 -1.675035e-001 -5.424671e-001 -1.508699e-002 -2.632065e-001 2.440752e-001 8.904657e-001
<VARIANCE> 39
 1.184922e+001 4.136702e+001 3.704850e+001 4.883439e+001 4.124832e+001 3.709485e+001 3.960702e+001 3.640594e+001 2.954871e+001 3.883027e+001 4.518202e+001 3.152950e+001 2.997701e+001 3.525215e+000 3.764347e+000 3.171025e+000 1.082887e+001 3.579317e+000 3.614448e+000 3.970916e+000 3.534363e+000 5.298759e+000 4.141185e+000 3.944188e+000 4.191012e+000 8.205522e+000 4.170004e-001 7.756760e-001 5.870789e-001 7.195658e-001 6.691909e-001 7.136146e-001 9.451916e-001 9.267601e-001 8.314157e-001 7.323784e-001 7.600491e-001 7.597126e-001 3.699924e-001
<GCONST> 1.321071e+002
<STATE> 3
<MEAN> 39
 5.339268e+000 2.304244e+000 -1.037435e+001 -3.046354e+001 -4.915682e+000 -4.721824e+000 -5.281664e+000 -2.097555e+000 -9.552060e+000 3.297075e-001 -7.312192e+000 4.831259e+000 6.448244e+001 1.049232e+000 -2.055009e+000 9.434492e-002 -4.293694e+000 4.780022e-001 2.056448e+000 -2.602735e+000 -1.777431e+000 -2.902094e+000 5.402813e-001 -1.593141e+000 1.888534e-001 3.659162e+000 -1.188878e+000 -1.864383e+000 2.986155e-001 1.702585e+000 9.605507e-001 2.467240e-001 -2.431970e-001 -2.500392e-001 7.765403e-001 1.430151e-001 -4.496543e-001 -1.477092e+000 -3.547387e-001
<VARIANCE> 39
 6.971955e+000 2.076068e+001 1.930180e+001 1.083228e+002 3.901472e+001 3.571796e+001 3.296511e+001 2.882376e+001 3.590759e+001 2.695348e+001 3.569008e+001 2.865345e+001 1.607653e+001 2.074723e+000 6.161701e+000 2.410429e+000 6.509464e+000 5.155891e+000 2.765233e+000 6.695817e+000 3.282505e+000 3.702327e+000 5.654075e+000 3.794860e+000 7.439192e+000 1.268031e+000 2.005199e-001 4.597809e-001 5.573291e-001 1.431809e+000 1.093169e+000 1.089697e+000 8.626100e-001 7.847055e-001 1.057587e+000 1.143252e+000 1.077223e+000 7.849675e-001 1.294616e-001
<GCONST> 1.277971e+002
<STATE> 4
<MEAN> 39
 2.248847e+000 -1.097247e+001 -1.228479e+001 -3.268348e+001 2.528825e+000 2.152326e+000 -9.925673e+000 -5.975378e+000 -1.147547e+001 4.654168e+000 -1.221916e+001 -2.635592e+000 7.234238e+001 -1.541482e+000 -4.878993e+000 -1.524203e-001 2.395376e+000 2.902389e+000 2.928283e-001 -1.231079e+000 -6.534889e-001 7.054347e-001 8.459191e-001 -2.361577e+000 -2.930325e+000 2.377639e+000 -3.792094e-001 1.191248e-001 3.120329e-001 1.577664e+000 -2.724721e-001 -1.233620e+000 7.025127e-001 5.838619e-001 5.555611e-001 -7.571185e-001 2.016089e-001 2.666727e-001 -5.661415e-001
<VARIANCE> 39
 4.682266e+000 4.690851e+001 1.873184e+001 4.762214e+001 4.362245e+001 2.337173e+001 3.099113e+001 1.997851e+001 2.512710e+001 4.159606e+001 2.305821e+001 5.845898e+001 8.521434e+000 6.215179e-001 1.939442e+000 1.306055e+000 4.404710e+000 5.245524e+000 6.325424e+000 6.547476e+000 2.064319e+000 3.646152e+000 5.275322e+000 4.203049e+000 3.033564e+000 6.466574e-001 3.195284e-001 6.833053e-001 2.670217e-001 1.275640e+000 1.143484e+000 6.050853e-001 9.669092e-001 7.026033e-001 8.773718e-001 1.020897e+000 6.507273e-001 1.323785e+000 1.019617e-001
<GCONST> 1.207316e+002
<TRANSP> 5
 0.000000e+000 1.000000e+000 0.000000e+000 0.000000e+000 0.000000e+000
 0.000000e+000 8.436877e-001 1.563123e-001 0.000000e+000 0.000000e+000
 0.000000e+000 0.000000e+000 5.767835e-001 4.232165e-001 0.000000e+000
 0.000000e+000 0.000000e+000 0.000000e+000 5.564308e-001 4.435692e-001
 0.000000e+000 0.000000e+000 0.000000e+000 0.000000e+000 0.000000e+000
<ENDHMM>
~h "r"
<BEGINHMM>
<NUMSTATES> 5
<STATE> 2
<MEAN> 39
 -1.191623e+001 -2.827404e+000 7.484591e+000 -1.080232e+001 -5.737728e+000 -1.153657e+001 -1.402145e+001 -1.035937e+001 -6.469831e+000 -8.320251e+000 -7.005305e+000 -1.569412e+000 6.623785e+001 -2.814324e+000 1.469770e+000 1.435951e+000 1.064841e+000 5.210198e-001 3.619301e-001 1.370249e-001 -6.482729e-001 3.782059e-001 -7.897722e-001 1.268243e-001 -9.831260e-001 6.024446e-001 -9.827186e-002 1.834320e-001 -7.024574e-002 -3.051800e-001 8.885263e-002 1.341193e-001 1.306306e-001 2.060001e-001 -1.369893e-001 3.696199e-002 -1.220921e-001 -4.152696e-002 2.006955e-002
<VARIANCE> 39
 7.556104e+001 4.441418e+001 6.354377e+001 8.174931e+001 5.094934e+001 4.302790e+001 5.828861e+001 6.024129e+001 6.071816e+001 7.320261e+001 5.471022e+001 4.360294e+001 3.230324e+001 4.716290e+000 3.350157e+000 2.807496e+000 3.897137e+000 4.112961e+000 4.340182e+000 4.935161e+000 4.731920e+000 3.479942e+000 5.169173e+000 4.595161e+000 3.579380e+000 1.821522e+000 8.383333e-001 6.047553e-001 5.469036e-001 5.430157e-001 5.805262e-001 6.520621e-001 8.203390e-001 7.888052e-001 5.003207e-001 9.921365e-001 7.773332e-001 5.896910e-001 1.563276e-001
<GCONST> 1.346980e+002
<STATE> 3
<MEAN> 39
 -2.157430e+001 1.987081e+000 9.176919e+000 -1.015766e+001 -2.885399e+000 -1.234385e+001 -1.266444e+001 -9.936326e+000 -5.572838e+000 -1.329491e+001 -6.209985e+000 -4.728151e+000 6.917027e+001 1.637988e+000 -1.381450e+000 -1.357507e+000 -1.343791e+000 -6.771011e-001 -8.631073e-001 -3.584758e-001 9.247494e-001 6.146588e-001 -1.717489e-004 -1.654918e-001 5.362696e-001 5.767756e-001 1.343332e+000 -1.147771e+000 -7.569324e-001 -5.569234e-001 -2.581885e-001 -1.118065e-001 -6.952951e-002 5.407091e-001 -8.540365e-003 3.359785e-001 -3.471842e-001 5.452551e-001 1.158510e-001
<VARIANCE> 39
 3.441837e+001 2.008401e+001 3.006598e+001 5.277713e+001 5.581901e+001 4.491043e+001 4.193247e+001 4.668368e+001 3.757720e+001 3.079821e+001 4.354456e+001 3.750296e+001 5.981025e+000 1.108552e+001 5.799365e+000 4.162382e+000 2.551996e+000 4.070754e+000 4.352783e+000 4.663548e+000 4.284249e+000 2.717520e+000 2.814147e+000 3.512806e+000 3.903436e+000 5.007544e-001 7.116122e-001 4.384810e-001 4.387666e-001 2.821017e-001 7.213502e-001 1.145058e+000 8.952776e-001 7.972861e-001 6.418371e-001 6.143082e-001 8.554926e-001 6.633360e-001 6.880165e-002
<GCONST> 1.256328e+002
<STATE> 4
<MEAN> 39
 -3.404703e+000 -1.560693e+001 -2.733534e+000 -2.019643e+001 -6.451602e+000 -1.454801e+001 -1.409547e+001 1.014238e+000 -3.671010e+000 -9.916660e+000 -1.321319e+001 1.800149e+000 7.333020e+001 2.606392e+000 -4.271584e+000 -2.523997e+000 -2.134420e+000 1.260210e+000 1.662344e+000 6.953238e-001 2.616435e+000 -2.033330e+000 2.198837e+000 -2.317352e+000 1.394550e+000 1.445184e+000 -1.345057e+000 9.408609e-001 6.213070e-001 5.376396e-001 9.103171e-001 5.644627e-001 4.478521e-001 -9.346219e-001 -7.279107e-001 2.372651e-001 4.580779e-001 -4.943115e-001 -4.214281e-002
<VARIANCE> 39
 1.484060e+001 4.281016e+001 2.425081e+001 3.683762e+001 2.940148e+001 3.906491e+001 6.279038e+001 8.616247e+001 5.694562e+001 3.404160e+001 6.006026e+001 3.700261e+001 1.165013e+001 5.445071e+000 5.429537e+000 2.360911e+000 4.500639e+000 6.128169e+000 4.265501e+000 5.816963e+000 8.040187e+000 4.622064e+000 3.913067e+000 4.857349e+000 6.359290e+000 5.123269e-001 3.305134e-001 8.426941e-001 2.847460e-001 6.542801e-001 6.734374e-001 8.727785e-001 8.449220e-001 1.594942e+000 1.096690e+000 6.525776e-001 1.038399e+000 7.564209e-001 9.298740e-002
<GCONST> 1.306722e+002
<TRANSP> 5
 0.000000e+000 1.000000e+000 0.000000e+000 0.000000e+000 0.000000e+000
 0.000000e+000 8.090656e-001 1.909344e-001 0.000000e+000 0.000000e+000
 0.000000e+000 0.000000e+000 8.040351e-001 1.959650e-001 0.000000e+000
 0.000000e+000 0.000000e+000 0.000000e+000 6.630813e-001 3.369187e-001
 0.000000e+000 0.000000e+000 0.000000e+000 0.000000e+000 0.000000e+000
<ENDHMM>
~h "s"
<BEGINHMM>
<NUMSTATES> 5
<STATE> 2
<MEAN> 39
 -1.344900e+001 -3.002754e+000 6.232368e+000 -1.335250e+001 -2.903647e+000 -1.134066e+001 -8.823208e+000 -6.591100e+000 -6.647239e+000 -9.621385e+000 -4.167436e+000 -2.744994e-001 6.725809e+001 -4.039455e+000 2.973089e+000 6.263753e-001 1.528325e+000 1.912538e+000 1.915553e+000 8.482653e-001 5.754862e-001 1.333554e+000 -4.524532e-001 1.604224e+000 -7.301205e-001 5.375909e-001 -4.724590e-001 3.885224e-002 -1.662488e-001 -1.138086e-001 4.130800e-001 4.739758e-001 3.416863e-001 5.310124e-001 2.086126e-001 5.879774e-001 -1.487879e-001 5.527089e-003 2.800106e-002
<VARIANCE> 39
 8.364767e+001 8.049580e+001 4.890751e+001 5.862737e+001 6.291546e+001 1.042829e+002 6.046602e+001 6.931534e+001 8.313119e+001 4.890953e+001 6.070410e+001 4.326710e+001 4.804173e+001 4.822300e+000 5.951276e+000 3.924259e+000 6.094501e+000 6.633710e+000 7.296462e+000 6.691112e+000 6.792427e+000 5.578628e+000 5.785894e+000 4.739461e+000 3.780999e+000 2.716307e+000 1.168447e+000 1.273047e+000 5.631230e-001 8.403664e-001 1.196579e+000 1.363871e+000 8.864485e-001 1.138700e+000 1.004944e+000 9.317049e-001 7.713718e-001 7.171671e-001 2.589035e-001
<GCONST> 1.453647e+002
<STATE> 3
<MEAN> 39
 -3.155897e+001 6.315663e+000 6.642365e+000 -9.776644e+000 5.880214e+000 -1.817428e+000 -1.562161e+000 9.622456e-001 7.070211e-001 -3.773826e+000 1.844036e+000 -1.179468e+000 6.886852e+001 1.599435e-002 -3.679894e-001 -5.429088e-002 -4.388511e-003 1.324280e-001 2.360718e-001 3.761618e-001 5.906626e-001 4.773297e-001 2.063717e-001 3.736552e-001 2.294999e-001 -2.700161e-002 1.143141e+000 -6.291191e-001 -2.073611e-001 -3.009779e-001 -5.142640e-001 -5.231166e-001 -3.782231e-001 -2.585155e-001 -3.040722e-001 -3.913544e-001 -2.324770e-001 1.862760e-001 9.714819e-003
<VARIANCE> 39
 9.497848e+000 1.714712e+001 2.489403e+001 1.650345e+001 2.640585e+001 2.851863e+001 2.700189e+001 2.368240e+001 2.987748e+001 2.203949e+001 2.037425e+001 1.577840e+001 5.720082e+000 6.044556e+000 1.910301e+000 1.416236e+000 1.225290e+000 2.118321e+000 2.794141e+000 2.318752e+000 2.397444e+000 2.429585e+000 3.082494e+000 2.035015e+000 1.830826e+000 3.168669e-001 4.634766e-001 3.455027e-001 4.248333e-001 3.283117e-001 5.408701e-001 4.928232e-001 4.494821e-001 4.370940e-001 3.801241e-001 4.715272e-001 5.347695e-001 3.945235e-001 6.919383e-002
<GCONST> 1.058536e+002
<STATE> 4
<MEAN> 39
 -1.165004e+001 -6.636315e+000 8.474725e-001 -1.562026e+001 -1.882567e+000 -8.591101e+000 -6.655885e+000 5.970396e-001 -1.559414e+000 -1.011992e+001 -1.713385e+000 3.143317e+000 7.032233e+001 5.781558e+000 -5.039483e+000 -3.158776e+000 -3.070496e+000 -1.764658e+000 -2.153045e+000 -2.215788e+000 -8.656603e-001 -2.251172e+000 -1.085867e+000 -2.963864e+000 7.880864e-001 1.394633e+000 -9.630233e-001 -1.978244e-001 -4.671738e-002 -6.721412e-002 9.390205e-001 4.409776e-001 1.807716e-001 -1.495384e-001 -4.437536e-001 7.961463e-001 -3.826918e-001 -4.231343e-001 3.366416e-001
<VARIANCE> 39
 1.052258e+002 6.340453e+001 5.209267e+001 5.891004e+001 6.176248e+001 5.250723e+001 6.979856e+001 3.230373e+001 4.333523e+001 3.643368e+001 5.483558e+001 2.992437e+001 1.206038e+001 6.550293e+000 3.666634e+000 2.110255e+000 2.983615e+000 7.908423e+000 4.308865e+000 4.591156e+000 3.414749e+000 3.712598e+000 5.690982e+000 5.102652e+000 4.789001e+000 9.669175e-001 2.159230e+000 1.174635e+000 8.971385e-001 1.224647e+000 1.475288e+000 1.035114e+000 1.050926e+000 6.294135e-001 6.608172e-001 8.105347e-001 1.134238e+000 6.038812e-001 1.810219e-001
<GCONST> 1.374099e+002
<TRANSP> 5
 0.000000e+000 1.000000e+000 0.000000e+000 0.000000e+000 0.000000e+000
 0.000000e+000 7.872332e-001 2.127667e-001 0.000000e+000 0.000000e+000
 0.000000e+000 0.000000e+000 8.785985e-001 1.214015e-001 0.000000e+000
 0.000000e+000 0.000000e+000 0.000000e+000 7.342368e-001 2.657632e-001
 0.000000e+000 0.000000e+000 0.000000e+000 0.000000e+000 0.000000e+000
<ENDHMM>
~h "t"
<BEGINHMM>
<NUMSTATES> 5
<STATE> 2
<MEAN> 39
 -6.458511e+000 -7.888150e+000 -4.333223e+000 -1.002771e+001 7.657418e-002 -5.059861e+000 -4.319241e+000 -3.297406e+000 -3.019233e+000 -4.131330e+000 -3.772602e+000 -2.371323e+000 5.178433e+001 -7.508129e-001 -9.010773e-002 -4.636808e-001 5.476325e-001 7.163910e-002 5.399249e-001 6.161267e-001 1.242175e-001 6.230764e-001 2.579835e-001 3.813170e-001 -3.066915e-001 -1.259894e+000 8.334604e-003 3.049229e-002 8.751602e-002 -1.591093e-001 -1.509673e-001 -2.754001e-001 -1.765963e-001 -1.214908e-002 -6.130522e-002 5.285841e-002 1.939177e-002 2.402629e-001 7.012056e-001
<VARIANCE> 39
 1.331873e+001 3.222181e+001 3.488615e+001 3.615106e+001 4.250252e+001 3.902089e+001 3.798408e+001 3.502205e+001 3.678666e+001 3.504385e+001 4.003765e+001 4.351051e+001 2.442808e+001 1.122556e+000 1.617458e+000 1.608881e+000 2.351950e+000 2.243362e+000 2.644484e+000 2.542979e+000 2.186898e+000 2.594572e+000 2.515217e+000 2.747062e+000 2.660586e+000 2.563048e+000 2.645665e-001 4.068150e-001 3.756657e-001 5.635297e-001 4.967237e-001 5.435460e-001 5.748353e-001 5.083205e-001 5.502660e-001 5.522375e-001 5.959978e-001 5.160027e-001 5.141405e-001
<GCONST> 1.181786e+002
<STATE> 3
<MEAN> 39
 -9.450959e+000 -6.227715e+000 -3.673805e+000 -6.657581e+000 4.162081e-002 -4.976662e+000 -2.552211e+000 -3.376992e+000 -7.234632e-001 -3.713962e+000 -2.009239e+000 -2.525660e+000 5.102212e+001 -1.788542e-001 4.750889e-001 3.573610e-001 -4.338585e-001 -4.984438e-001 -1.234363e+000 -1.000979e-001 2.031554e-001 1.354319e-001 3.192730e-001 6.562576e-001 9.620507e-001 3.311358e+000 4.109577e-001 -3.087352e-001 5.793250e-002 -1.016722e+000 -1.590615e-001 -5.494407e-001 -7.039201e-001 1.575056e-001 -6.174664e-001 -8.108477e-002 -6.063904e-001 3.423947e-001 1.392894e+000
<VARIANCE> 39
 1.759651e+001 3.189744e+001 2.904089e+001 3.336929e+001 3.448431e+001 2.752922e+001 3.027552e+001 3.060552e+001 2.653694e+001 2.983484e+001 2.716268e+001 2.518384e+001 3.279544e+001 2.443767e+000 3.436961e+000 3.893286e+000 5.994699e+000 5.193170e+000 4.233329e+000 5.142210e+000 5.288291e+000 4.450474e+000 4.191107e+000 4.046858e+000 4.069519e+000 1.023203e+001 3.779324e-001 7.249995e-001 6.415179e-001 1.025575e+000 1.148898e+000 7.682738e-001 9.128078e-001 8.186122e-001 7.292498e-001 7.733403e-001 7.513752e-001 6.706417e-001 1.391121e+000
<GCONST> 1.319306e+002
<STATE> 4
<MEAN> 39
 -7.347145e+000 -7.538712e+000 -3.177513e+000 -1.343895e+001 -2.635302e+000 -1.121789e+001 -5.841969e+000 -1.210792e+000 -2.945374e+000 -2.852178e+000 -2.435292e+000 2.294859e+000 6.660559e+001 4.280049e-001 -1.421764e+000 3.472018e-002 -3.099097e+000 -1.653488e-002 -1.063421e+000 -1.934439e+000 5.605540e-001 -1.870622e+000 1.025951e-001 -2.079219e+000 7.613789e-001 4.275441e+000 -7.943084e-002 -3.369688e-001 -6.756434e-002 -4.828851e-002 4.438170e-001 6.127326e-001 -2.204253e-001 -3.629017e-001 -4.458908e-001 -1.104761e-001 -6.000740e-001 -5.945367e-001 -8.605496e-001
<VARIANCE> 39
 1.913980e+001 4.739801e+001 5.496965e+001 8.344588e+001 7.564974e+001 5.748992e+001 6.343553e+001 5.209404e+001 4.733362e+001 4.595368e+001 6.123019e+001 3.909164e+001 9.603388e+001 2.513854e+000 7.443169e+000 5.237415e+000 9.994107e+000 1.045934e+001 6.748002e+000 7.849784e+000 6.754698e+000 6.639336e+000 6.213093e+000 6.063137e+000 5.910325e+000 1.330526e+001 3.029307e-001 7.965373e-001 6.746029e-001 1.396266e+000 1.051278e+000 1.088901e+000 1.155611e+000 1.123751e+000 1.033850e+000 8.874083e-001 1.318359e+000 8.593589e-001 1.398184e+000
<GCONST> 1.477193e+002
<TRANSP> 5
 0.000000e+000 1.000000e+000 0.000000e+000 0.000000e+000 0.000000e+000
 0.000000e+000 7.789727e-001 2.210272e-001 0.000000e+000 0.000000e+000
 0.000000e+000 0.000000e+000 4.986095e-001 5.013906e-001 0.000000e+000
 0.000000e+000 0.000000e+000 0.000000e+000 4.772002e-001 5.227998e-001
 0.000000e+000 0.000000e+000 0.000000e+000 0.000000e+000 0.000000e+000
<ENDHMM>
~h "u"
<BEGINHMM>
<NUMSTATES> 5
<STATE> 2
<MEAN> 39
 -2.513262e+000 -9.783601e+000 -8.921011e+000 -2.720504e+001 -6.066064e-001 -5.827862e+000 -1.630598e+001 -5.500638e+000 -6.282998e+000 3.325791e+000 -1.097377e+001 -3.048020e+000 7.468124e+001 3.853800e-001 9.339530e-001 -5.557695e-001 -1.710825e+000 -1.696014e-001 9.238672e-001 -1.074482e+000 -5.117726e-001 -7.616592e-001 -2.765819e-001 7.974348e-001 7.621242e-001 -4.381517e-001 -1.767535e-001 2.552949e-001 3.449811e-001 4.216271e-001 -2.325714e-001 -9.113939e-002 4.940821e-001 2.811814e-001 -4.155615e-001 -5.604613e-001 2.224802e-001 1.898862e-001 -2.782356e-001
<VARIANCE> 39
 1.578805e+001 3.864831e+001 4.263886e+001 5.182019e+001 6.971133e+001 6.992991e+001 8.596579e+001 4.455210e+001 5.028827e+001 6.090977e+001 5.926903e+001 6.060788e+001 1.606310e+001 1.531407e+000 6.140440e+000 1.835371e+000 4.783790e+000 5.074515e+000 5.439150e+000 4.732629e+000 4.924873e+000 4.708635e+000 5.576119e+000 6.868524e+000 5.377383e+000 1.461969e+000 2.809656e-001 4.068607e-001 2.503764e-001 7.300274e-001 7.948732e-001 7.056226e-001 1.046099e+000 8.468090e-001 1.111986e+000 1.002334e+000 1.136824e+000 7.834487e-001 1.182691e-001
<GCONST> 1.329514e+002
<STATE> 3
<MEAN> 39
 1.056044e-001 -2.010328e+000 -1.039586e+001 -3.420449e+001 -2.379095e+000 -2.236042e+000 -1.717117e+001 -3.560376e+000 -1.266040e+001 -4.589194e+000 -6.775458e+000 -3.159307e-001 7.021989e+001 2.145686e-001 5.363761e-001 3.215178e-001 4.431122e-001 -4.202732e-001 -4.107639e-001 -2.395576e-001 3.131474e-001 -4.116749e-001 -8.148432e-001 -2.636461e-001 -3.056152e-001 -7.603047e-001 -5.033531e-002 -1.865837e-001 1.952336e-001 6.939112e-001 8.914695e-002 -2.090046e-001 2.007793e-001 -7.589251e-002 3.602539e-001 1.587269e-001 -1.223467e-001 -2.989280e-001 -1.080432e-001
<VARIANCE> 39
 1.203442e+001 3.521327e+001 2.410149e+001 4.903832e+001 5.437569e+001 5.273896e+001 4.838075e+001 4.664874e+001 4.221956e+001 6.547270e+001 4.778368e+001 4.728196e+001 1.370127e+001 6.583822e-001 2.629169e+000 1.163394e+000 3.779175e+000 2.957993e+000 2.885895e+000 3.317055e+000 3.474602e+000 3.816466e+000 4.253441e+000 3.238586e+000 3.156064e+000 9.740622e-001 9.690973e-002 2.741571e-001 2.096419e-001 5.551742e-001 5.877165e-001 7.185438e-001 6.709861e-001 5.629669e-001 7.539368e-001 6.840566e-001 8.022879e-001 6.430247e-001 9.642208e-002
<GCONST> 1.191753e+002
<STATE> 4
<MEAN> 39
 1.328167e+000 -9.198684e-001 -4.364723e+000 -1.938084e+001 -3.962856e+000 -5.538874e+000 -1.339477e+001 -5.085202e+000 -7.444661e+000 -3.989679e+000 -7.249396e+000 -4.598737e+000 6.240705e+001 -4.079090e-001 -2.850588e-001 1.043986e+000 2.947842e+000 4.966035e-001 -4.328205e-001 1.329869e+000 -2.867674e-001 9.494056e-001 -1.794960e-001 7.167754e-002 -2.520964e-001 -1.479867e+000 -2.322103e-001 -9.224632e-003 -4.634487e-002 -7.638068e-002 9.242129e-002 1.406640e-001 1.803242e-001 -2.169760e-004 1.527175e-002 -3.760648e-002 2.107650e-001 1.936659e-001 -4.092655e-002
<VARIANCE> 39
 2.667060e+001 6.036156e+001 3.842051e+001 1.083222e+002 7.485139e+001 5.933621e+001 9.394859e+001 6.241751e+001 6.186856e+001 5.340073e+001 6.712573e+001 5.103560e+001 6.438831e+001 1.358611e+000 2.140085e+000 2.359761e+000 6.037662e+000 5.849383e+000 5.954805e+000 4.809412e+000 4.719028e+000 4.544999e+000 4.638430e+000 4.381193e+000 3.557022e+000 2.881321e+000 2.269363e-001 4.944356e-001 4.164770e-001 9.336637e-001 9.744927e-001 9.135751e-001 1.015184e+000 9.149173e-001 7.924132e-001 7.856148e-001 8.808709e-001 6.140032e-001 3.372326e-001
<GCONST> 1.366289e+002
<TRANSP> 5
 0.000000e+000 1.000000e+000 0.000000e+000 0.000000e+000 0.000000e+000
 0.000000e+000 5.190716e-001 4.809283e-001 0.000000e+000 0.000000e+000
 0.000000e+000 0.000000e+000 7.797147e-001 2.202852e-001 0.000000e+000
 0.000000e+000 0.000000e+000 0.000000e+000 6.772599e-001 3.227402e-001
 0.000000e+000 0.000000e+000 0.000000e+000 0.000000e+000 0.000000e+000
<ENDHMM>
~h "v"
<BEGINHMM>
<NUMSTATES> 5
<STATE> 2
<MEAN> 39
 -5.402571e+000 7.947317e-001 -1.243893e+000 -3.387218e+000 -1.537954e+000 -6.610549e+000 -8.292172e+000 -1.118904e+001 -8.512011e+000 -9.167480e+000 -7.938623e+000 -6.852862e+000 5.595384e+001 -9.228360e-001 7.774494e-001 1.065428e-001 1.081563e+000 -2.724606e-001 -4.275773e-001 -3.793938e-001 -8.495016e-001 -3.617607e-001 -5.163430e-001 -1.026681e-002 -4.685920e-001 6.356058e-001 1.184625e-001 -3.759777e-001 -6.054837e-002 -7.594557e-001 -1.680575e-001 -1.719612e-001 -2.137930e-001 1.733520e-001 1.392678e-002 3.119977e-001 1.132596e-002 2.483928e-001 5.328866e-001
<VARIANCE> 39
 3.266432e+001 2.417387e+001 3.860264e+001 4.254428e+001 2.396254e+001 3.844243e+001 2.824154e+001 2.930788e+001 2.775400e+001 3.323533e+001 3.585190e+001 4.136148e+001 2.181161e+001 2.994659e+000 1.561981e+000 1.963429e+000 3.751331e+000 2.250878e+000 2.682723e+000 3.846334e+000 2.993830e+000 3.921567e+000 3.445598e+000 3.465684e+000 2.952262e+000 2.637465e+000 5.680605e-001 2.663485e-001 3.891913e-001 7.592145e-001 4.890551e-001 4.337673e-001 6.101033e-001 5.006269e-001 6.352838e-001 6.741462e-001 6.334872e-001 5.202167e-001 2.734839e-001
<GCONST> 1.210897e+002
<STATE> 3
<MEAN> 39
 -8.882196e+000 1.173268e+000 -2.221207e+000 -3.908895e+000 -4.486731e+000 -1.052266e+001 -1.160865e+001 -1.419631e+001 -1.000348e+001 -9.479523e+000 -6.507858e+000 -6.332809e+000 6.073236e+001 1.376743e+000 -1.793905e+000 -8.673173e-001 -3.570960e+000 -3.831939e-001 -2.921263e-001 -9.412127e-001 2.926997e-001 -1.012990e-001 1.534538e+000 -3.693495e-001 2.063544e-001 2.700527e+000 6.240858e-001 -1.203050e+000 -2.362005e-001 -1.681515e+000 3.217697e-001 3.693450e-001 1.654037e-001 1.008884e+000 2.075134e-001 7.956709e-001 -6.854385e-001 7.762080e-002 5.517803e-001
<VARIANCE> 39
 2.098022e+001 1.649068e+001 2.622334e+001 3.147953e+001 2.333599e+001 2.548058e+001 2.147115e+001 1.792625e+001 2.435719e+001 2.640409e+001 2.448016e+001 4.071653e+001 1.476182e+001 3.400388e+000 3.220130e+000 3.095841e+000 7.592317e+000 4.679333e+000 4.209502e+000 3.478692e+000 4.323298e+000 4.800889e+000 4.258575e+000 4.339816e+000 2.709729e+000 1.750569e+000 5.634853e-001 4.039231e-001 4.491648e-001 5.873870e-001 7.981532e-001 6.208143e-001 1.129288e+000 6.273128e-001 8.273014e-001 7.822406e-001 7.865270e-001 5.862903e-001 2.115802e-001
<GCONST> 1.233055e+002
<STATE> 4
<MEAN> 39
 -1.808164e+000 -9.500861e+000 -6.942501e+000 -2.074170e+001 -1.923799e+000 -8.684073e+000 -1.269444e+001 -8.780451e+000 -7.097869e+000 -1.565097e+000 -1.045194e+001 -5.738278e+000 6.931579e+001 1.133700e+000 -4.372180e+000 -6.348044e-001 -5.461748e+000 1.389657e+000 2.886440e-001 3.220071e-001 2.721741e+000 -1.737353e-001 1.857304e+000 -2.846485e+000 4.351611e-001 3.736980e+000 -7.644616e-001 1.566663e-001 4.843131e-001 1.009587e+000 2.161545e-001 1.156962e-001 4.785125e-001 8.942439e-002 -3.617588e-001 -5.726547e-001 -5.571515e-002 2.344520e-001 -2.920699e-001
<VARIANCE> 39
 1.087946e+001 5.007133e+001 3.827473e+001 7.784433e+001 5.105410e+001 5.456576e+001 3.854266e+001 3.870497e+001 4.841464e+001 3.251974e+001 5.204495e+001 5.425676e+001 1.937301e+001 2.428942e+000 3.405932e+000 3.736841e+000 6.289403e+000 9.218186e+000 3.773377e+000 9.184116e+000 4.387163e+000 5.237967e+000 6.893091e+000 5.815776e+000 4.268982e+000 1.162166e+000 2.915223e-001 6.878422e-001 3.052403e-001 1.510664e+000 7.421976e-001 7.389661e-001 9.161831e-001 1.118090e+000 1.213733e+000 8.151381e-001 1.304210e+000 8.940284e-001 3.077515e-001
<GCONST> 1.349594e+002
<TRANSP> 5
 0.000000e+000 1.000000e+000 0.000000e+000 0.000000e+000 0.000000e+000
 0.000000e+000 7.441437e-001 2.558563e-001 0.000000e+000 0.000000e+000
 0.000000e+000 0.000000e+000 5.846166e-001 4.153834e-001 0.000000e+000
 0.000000e+000 0.000000e+000 0.000000e+000 4.879698e-001 5.120302e-001
 0.000000e+000 0.000000e+000 0.000000e+000 0.000000e+000 0.000000e+000
<ENDHMM>
~h "x"
<BEGINHMM>
<NUMSTATES> 5
<STATE> 2
<MEAN> 39
 -1.118564e+001 2.682954e+000 -3.527477e+000 -5.084589e+000 -4.529792e+000 -1.517824e+001 -7.916638e+000 -9.111368e+000 -7.763845e+000 -9.983906e+000 -7.361920e+000 -3.295394e-001 6.582296e+001 -3.395375e+000 1.690339e+000 -1.544449e+000 3.547381e+000 9.566517e-001 2.297046e+000 2.506888e+000 -3.659919e-001 1.168340e+000 1.924279e-001 1.747810e+000 -8.829071e-001 -3.380174e-001 -3.263749e-001 -5.865896e-001 -2.053628e-001 -1.978485e-001 2.004185e-001 7.485248e-001 3.973558e-001 4.847275e-001 1.192962e-001 7.561201e-001 9.924667e-002 9.008909e-002 7.631876e-002
<VARIANCE> 39
 3.957025e+001 4.262915e+001 3.126664e+001 7.628947e+001 6.242565e+001 6.108569e+001 6.015007e+001 4.782202e+001 5.231311e+001 3.530355e+001 5.133364e+001 4.622874e+001 2.851392e+001 2.341310e+000 4.576589e+000 2.854390e+000 5.734491e+000 4.971575e+000 6.277843e+000 6.345342e+000 4.462886e+000 5.551285e+000 5.453837e+000 2.949278e+000 4.694646e+000 1.882180e+000 5.673059e-001 5.036457e-001 5.025864e-001 1.187193e+000 8.332248e-001 1.209585e+000 9.300510e-001 9.884188e-001 7.294905e-001 8.924254e-001 6.576762e-001 8.658473e-001 1.515086e-001
<GCONST> 1.356362e+002
<STATE> 3
<MEAN> 39
 -2.477971e+001 2.630744e+000 -1.026673e+001 3.443340e+000 -1.264947e+000 -4.202518e+000 2.944207e+000 -3.698839e+000 -7.903841e-001 -2.085376e+000 2.292111e-001 -4.625857e-001 6.419132e+001 -8.975777e-001 -3.262448e-001 -4.613064e-001 2.046974e-001 3.393610e-001 5.842914e-001 6.450744e-001 9.045317e-001 5.974981e-001 9.415736e-001 6.119570e-001 3.770527e-001 1.420228e-001 6.541755e-001 -7.308643e-002 3.772402e-001 -4.668835e-001 -1.148162e-001 -4.059292e-001 -4.073356e-001 -1.057718e-001 -1.713082e-001 -2.269866e-001 -1.631886e-001 1.013264e-001 8.721653e-002
<VARIANCE> 39
 8.151796e+000 1.222537e+001 1.231779e+001 1.484666e+001 1.832319e+001 1.790007e+001 2.663473e+001 2.182544e+001 2.483057e+001 2.220733e+001 2.074859e+001 1.505923e+001 1.048367e+001 1.621982e+000 8.647082e-001 1.475449e+000 1.384696e+000 1.839827e+000 2.451545e+000 2.427173e+000 2.399054e+000 2.318459e+000 2.082639e+000 1.936588e+000 1.622997e+000 5.055218e-001 2.440082e-001 2.142725e-001 2.364977e-001 3.743104e-001 4.449806e-001 5.011871e-001 4.670655e-001 4.217333e-001 4.499515e-001 3.506778e-001 3.675932e-001 3.822715e-001 6.235968e-002
<GCONST> 9.932687e+001
<STATE> 4
<MEAN> 39
 -1.833139e+001 6.637911e-001 -6.526589e+000 -3.021370e+000 -1.049940e+000 -7.077771e+000 -1.845777e-001 -1.879337e+000 -7.349873e-001 -2.055985e+000 5.241842e-001 2.520601e+000 6.693695e+001 4.128153e+000 -1.546842e+000 1.188858e+000 -4.487867e+000 -1.130852e+000 -2.235354e+000 -2.464597e+000 -3.643519e-001 -1.196596e+000 -1.346768e+000 -1.501371e+000 1.047823e+000 1.257221e+000 4.076992e-001 -6.795129e-001 -2.918093e-001 -9.736954e-001 -6.531963e-002 -2.721149e-001 -4.039425e-001 -1.170499e-001 -4.701904e-001 -3.088081e-001 -6.938660e-001 3.412107e-002 3.564972e-001
<VARIANCE> 39
 7.075021e+001 1.934870e+001 2.672048e+001 6.907397e+001 4.358532e+001 5.868816e+001 5.470640e+001 2.768918e+001 2.459906e+001 2.804991e+001 2.982677e+001 2.640141e+001 7.639281e+000 4.292552e+000 2.993015e+000 2.806079e+000 7.253846e+000 4.658519e+000 5.806389e+000 6.292708e+000 4.115921e+000 3.605056e+000 3.518040e+000 5.004960e+000 3.875759e+000 1.032851e+000 1.683555e+000 4.086471e-001 5.808958e-001 1.348766e+000 1.252514e+000 1.513411e+000 1.248554e+000 7.135832e-001 5.623563e-001 6.809429e-001 7.533038e-001 6.480464e-001 1.445165e-001
<GCONST> 1.307792e+002
<TRANSP> 5
 0.000000e+000 1.000000e+000 0.000000e+000 0.000000e+000 0.000000e+000
 0.000000e+000 7.045751e-001 2.954249e-001 0.000000e+000 0.000000e+000
 0.000000e+000 0.000000e+000 8.593785e-001 1.406215e-001 0.000000e+000
 0.000000e+000 0.000000e+000 0.000000e+000 7.541050e-001 2.458951e-001
 0.000000e+000 0.000000e+000 0.000000e+000 0.000000e+000 0.000000e+000
<ENDHMM>
~h "y"
<BEGINHMM>
<NUMSTATES> 5
<STATE> 2
<MEAN> 39
 -9.170302e+000 -1.646334e+001 5.224277e-001 -2.580823e+001 -8.693239e+000 -1.129589e+001 5.303045e+000 -2.606807e+000 -1.390011e+001 -1.574917e+000 -1.497844e+001 -2.443353e+000 7.889690e+001 -3.074539e-001 2.348180e+000 1.609181e+000 -1.479767e+000 -2.451227e+000 -6.911785e-001 -9.391361e-001 -6.866240e-002 1.103203e+000 2.298642e+000 -6.962910e-002 -1.039608e+000 -4.617410e-001 1.024029e-001 1.559584e-002 1.649889e-001 3.094773e-001 3.499850e-001 -1.125520e-001 -1.025877e+000 -4.196776e-001 -4.739562e-002 8.125350e-002 2.947131e-001 4.579112e-001 -2.053826e-001
<VARIANCE> 39
 3.885664e+000 1.732936e+001 1.977661e+001 1.746677e+001 2.891550e+001 2.339941e+001 5.559637e+001 4.774920e+001 3.636364e+001 3.275677e+001 2.728427e+001 2.213606e+001 4.406593e+000 2.531172e-001 7.250878e-001 7.532030e-001 1.355580e+000 1.501060e+000 1.607395e+000 4.363667e+000 2.088393e+000 2.258427e+000 2.344861e+000 3.006127e+000 2.219157e+000 1.871526e-001 3.848125e-002 1.457116e-001 1.003395e-001 2.527211e-001 2.881422e-001 2.725044e-001 4.598687e-001 3.172970e-001 4.699498e-001 5.409086e-001 4.045331e-001 4.420854e-001 2.427825e-002
<GCONST> 9.427036e+001
<STATE> 3
<MEAN> 39
 -1.018217e+001 -7.067202e+000 8.548906e+000 -2.770850e+001 -1.353859e+001 -1.314900e+001 -1.000388e+001 -7.805246e+000 -1.434069e+001 5.460865e+000 -1.321039e+001 -1.593558e+000 7.471923e+001 -2.890703e-002 9.758531e-001 9.850017e-001 2.836795e-001 1.023333e-001 -5.580624e-002 -1.845846e+000 -9.025334e-001 -4.876046e-001 3.000992e-002 1.183594e-001 4.521323e-001 -7.172152e-001 9.684666e-002 -1.909933e-001 -2.114213e-001 3.302048e-001 2.464878e-001 6.818765e-002 2.728819e-001 5.321000e-002 -1.430971e-001 -4.238588e-001 -5.765979e-002 -1.291756e-002 -5.901246e-002
<VARIANCE> 39
 6.787077e+000 1.476262e+001 2.399715e+001 2.062033e+001 2.977196e+001 2.322998e+001 5.953211e+001 2.981542e+001 4.097840e+001 3.606833e+001 3.287186e+001 3.677995e+001 4.929741e+000 3.475348e-001 1.002169e+000 8.929984e-001 1.280148e+000 1.887115e+000 2.053038e+000 2.791310e+000 2.039918e+000 1.767137e+000 2.886157e+000 2.486788e+000 1.892203e+000 2.015209e-001 7.264316e-002 1.170805e-001 1.140137e-001 2.058493e-001 4.100953e-001 3.720738e-001 3.420987e-001 3.608249e-001 3.862168e-001 5.588759e-001 4.261411e-001 3.739173e-001 3.667111e-002
<GCONST> 9.708263e+001
<STATE> 4
<MEAN> 39
 -7.536310e+000 -1.741283e+000 1.090143e+001 -1.841374e+001 -1.084534e+001 -1.020479e+001 -1.347841e+001 -1.020720e+001 -1.420028e+001 1.213155e+000 -1.005097e+001 -1.314699e+000 6.574969e+001 5.480984e-001 1.768703e-001 -4.823940e-001 1.714940e+000 8.355679e-001 1.287172e-001 6.661290e-001 -4.199577e-002 4.644314e-001 -1.192941e+000 5.115742e-001 -2.991634e-001 -1.686422e+000 -5.744451e-003 -5.090779e-002 -2.514344e-001 6.411633e-002 1.982381e-001 6.499021e-002 2.709809e-001 1.925584e-001 2.443618e-001 -1.726738e-001 1.081441e-001 -1.747053e-001 -1.549378e-001
<VARIANCE> 39
 1.155139e+001 3.749326e+001 2.738542e+001 6.272564e+001 4.373586e+001 4.600349e+001 4.738770e+001 2.575760e+001 4.938122e+001 4.079257e+001 7.010217e+001 4.855706e+001 5.030441e+001 1.040406e+000 1.859805e+000 1.867423e+000 3.023242e+000 2.508978e+000 2.149444e+000 4.476412e+000 2.373289e+000 3.018711e+000 3.383097e+000 2.566585e+000 2.575727e+000 1.449519e+000 1.752659e-001 3.268510e-001 2.395722e-001 4.610997e-001 5.616702e-001 4.328462e-001 6.744080e-001 4.087043e-001 4.741925e-001 5.691217e-001 4.864861e-001 4.454626e-001 1.939844e-001
<GCONST> 1.183479e+002
<TRANSP> 5
 0.000000e+000 1.000000e+000 0.000000e+000 0.000000e+000 0.000000e+000
 0.000000e+000 7.329249e-001 2.670752e-001 0.000000e+000 0.000000e+000
 0.000000e+000 0.000000e+000 8.407089e-001 1.592910e-001 0.000000e+000
 0.000000e+000 0.000000e+000 0.000000e+000 8.247736e-001 1.752264e-001
 0.000000e+000 0.000000e+000 0.000000e+000 0.000000e+000 0.000000e+000
<ENDHMM>
~h "aa"
<BEGINHMM>
<NUMSTATES> 5
<STATE> 2
<MEAN> 39
 -6.352024e+000 -1.615028e+001 -8.454149e+000 -2.499951e+001 -9.782422e-002 -1.495872e+001 -7.741977e+000 2.898028e+000 -8.637004e+000 -6.643207e+000 -1.638927e+001 5.077905e+000 7.582397e+001 8.154492e-002 -2.795604e+000 -8.076384e-001 -1.437823e+000 1.740295e+000 4.049725e-001 1.019878e+000 1.072060e+000 -1.923990e+000 -1.433260e-001 -1.681379e+000 4.654498e-001 1.838231e+000 -3.452280e-001 8.214082e-001 3.560509e-001 1.334484e+000 1.406227e-001 5.260848e-001 4.883651e-002 -7.842293e-001 2.498746e-001 6.409675e-002 1.118015e+000 -4.896133e-001 -9.149381e-001
<VARIANCE> 39
 6.852573e+000 2.234681e+001 2.944529e+001 3.326428e+001 5.703999e+001 5.307837e+001 4.224697e+001 3.885423e+001 3.186764e+001 5.688116e+001 3.457254e+001 4.625206e+001 9.078380e+000 1.462210e+000 3.129416e+000 1.462409e+000 5.550969e+000 5.887424e+000 4.853944e+000 6.434046e+000 6.161078e+000 2.636430e+000 4.926448e+000 4.923254e+000 3.806453e+000 2.262286e+000 6.307278e-001 5.566046e-001 5.369916e-001 8.594697e-001 6.821939e-001 1.035324e+000 1.123359e+000 1.014240e+000 4.945256e-001 8.457517e-001 7.676540e-001 6.666966e-001 4.254577e-001
<GCONST> 1.286250e+002
<STATE> 3
<MEAN> 39
 -5.984681e+000 -2.057133e+001 -8.608123e+000 -2.454015e+001 5.233038e+000 -1.492620e+001 -7.802769e+000 3.470115e+000 -1.072491e+001 -5.471123e+000 -1.369526e+001 5.901901e+000 7.758308e+001 5.620617e-001 2.157711e-001 3.475130e-001 2.724521e-001 -2.606969e-001 -2.222382e-001 -5.767451e-001 -3.057128e-001 2.161507e-001 1.696870e-001 7.142267e-001 -2.449167e-002 -5.088990e-001 1.616655e-001 9.050488e-001 3.440998e-001 3.111968e-001 -6.558548e-001 -2.500056e-001 -4.043766e-001 -4.293529e-001 2.097122e-001 -1.669859e-001 2.582774e-001 -3.939709e-002 -6.867917e-001
<VARIANCE> 39
 4.114129e+000 1.214195e+001 1.794398e+001 1.499658e+001 5.196007e+001 3.409726e+001 5.657978e+001 3.778091e+001 2.312219e+001 2.145841e+001 2.276718e+001 2.797709e+001 2.291739e+000 7.713723e-001 2.646072e+000 1.526450e+000 2.315190e+000 4.304449e+000 2.601452e+000 3.801474e+000 3.691170e+000 2.372674e+000 2.652603e+000 2.041875e+000 2.286375e+000 1.630777e+000 8.610759e-002 2.258068e-001 1.904588e-001 7.551491e-001 5.460076e-001 3.912773e-001 7.400482e-001 1.048615e+000 5.891050e-001 5.681173e-001 4.466026e-001 4.095137e-001 1.634628e-001
<GCONST> 1.084448e+002
<STATE> 4
<MEAN> 39
 -3.142220e+000 -1.541488e+001 -8.861176e+000 -2.538410e+001 1.669116e+000 -1.474406e+001 -1.182966e+001 2.537377e-002 -7.908779e+000 -4.552533e+000 -1.146424e+001 4.148775e+000 7.372986e+001 6.570147e-001 2.550791e+000 1.060224e+000 1.366698e+000 -1.493382e+000 -7.903458e-001 -1.127582e+000 -1.824738e+000 -7.617065e-001 -5.156780e-001 9.228286e-001 1.268589e-001 -2.275754e+000 -1.962059e-001 2.145491e-001 6.959310e-002 2.663228e-001 3.281125e-002 -1.554216e-001 6.572580e-002 -3.585666e-001 -3.544280e-001 -1.232659e-001 -2.196422e-001 1.850777e-001 -1.911589e-001
<VARIANCE> 39
 9.941383e+000 1.719877e+001 4.709941e+001 3.264394e+001 8.039054e+001 4.001833e+001 5.502050e+001 7.011131e+001 2.627324e+001 5.031667e+001 2.122432e+001 3.416537e+001 1.742199e+001 5.716830e-001 2.679391e+000 1.861559e+000 5.666472e+000 1.601315e+000 2.067004e+000 4.066741e+000 5.224608e+000 2.555369e+000 3.892068e+000 2.048637e+000 2.205815e+000 3.747725e+000 1.012855e-001 2.693289e-001 2.252083e-001 4.949222e-001 7.490478e-001 2.744610e-001 5.100963e-001 1.011084e+000 8.029207e-001 6.379071e-001 3.930221e-001 4.570291e-001 1.441023e-001
<GCONST> 1.169208e+002
<TRANSP> 5
 0.000000e+000 1.000000e+000 0.000000e+000 0.000000e+000 0.000000e+000
 0.000000e+000 5.004882e-001 4.995118e-001 0.000000e+000 0.000000e+000
 0.000000e+000 0.000000e+000 7.575679e-001 2.424321e-001 0.000000e+000
 0.000000e+000 0.000000e+000 0.000000e+000 3.362960e-001 6.637040e-001
 0.000000e+000 0.000000e+000 0.000000e+000 0.000000e+000 0.000000e+000
<ENDHMM>
~h "af"
<BEGINHMM>
<NUMSTATES> 5
<STATE> 2
<MEAN> 39
 -4.968094e+000 -2.352758e+001 -5.149158e+000 -2.074022e+001 4.608758e+000 -9.326021e+000 -3.423683e+000 -6.307428e+000 -1.431887e+001 -8.047615e+000 -1.502463e+001 1.628390e+000 7.773297e+001 -8.160250e-001 -2.578231e+000 -3.011488e-002 9.663388e-001 2.171508e+000 1.158317e+000 1.119702e+000 -1.250961e+000 -1.188570e+000 5.078471e-001 6.825699e-001 9.395700e-001 1.543265e+000 1.192128e-001 1.004215e+000 4.468197e-001 6.438472e-001 -4.995579e-001 -4.352335e-001 -5.815387e-001 -2.247879e-001 4.332270e-001 8.508265e-002 3.299130e-001 -3.738050e-001 -7.616085e-001
<VARIANCE> 39
 1.052748e+001 1.816794e+001 1.755597e+001 2.334993e+001 5.578071e+001 2.846201e+001 3.365242e+001 4.275481e+001 4.995185e+001 2.768133e+001 4.022343e+001 3.018459e+001 4.807528e+000 7.374482e-001 2.702982e+000 1.521950e+000 3.054101e+000 3.074327e+000 2.661692e+000 3.625948e+000 4.059079e+000 3.485150e+000 3.890629e+000 2.932497e+000 3.850141e+000 1.481622e+000 1.782837e-001 2.580942e-001 2.312556e-001 8.043400e-001 6.639957e-001 6.254451e-001 6.090605e-001 9.517797e-001 7.298142e-001 7.109074e-001 7.701235e-001 5.083293e-001 1.834902e-001
<GCONST> 1.164594e+002
<STATE> 3
<MEAN> 39
 -5.360777e+000 -2.768839e+001 -4.170387e+000 -1.580591e+001 8.294111e+000 -7.965789e+000 -3.291063e+000 -8.473511e+000 -1.284171e+001 -5.507233e+000 -1.309069e+001 2.189152e+000 7.954884e+001 5.036050e-002 1.568343e-003 1.772479e-001 -7.351937e-002 -2.381079e-001 2.893513e-003 3.573228e-001 3.515033e-002 1.228989e-001 1.626059e-002 -1.764567e-001 -1.840493e-001 3.009288e-002 5.880443e-002 2.969989e-001 -9.297078e-003 -3.110123e-001 -2.962188e-001 -1.128656e-001 2.603177e-002 2.056586e-001 1.016444e-001 -9.919403e-002 -2.055127e-001 -9.170974e-002 -1.173714e-001
<VARIANCE> 39
 6.659772e+000 7.632581e+000 1.330570e+001 1.246285e+001 2.516523e+001 2.173927e+001 2.864325e+001 2.416825e+001 2.414181e+001 1.745859e+001 2.147056e+001 2.303782e+001 2.652073e+000 2.336748e-001 7.646147e-001 4.773338e-001 1.367164e+000 1.434594e+000 1.016816e+000 1.608554e+000 1.550903e+000 1.514833e+000 1.340134e+000 1.400186e+000 1.440257e+000 1.034802e-001 3.922826e-002 1.065576e-001 8.490950e-002 1.430308e-001 2.152686e-001 2.008950e-001 2.661567e-001 2.635207e-001 2.603914e-001 2.225210e-001 2.127434e-001 2.420595e-001 2.359634e-002
<GCONST> 7.982036e+001
<STATE> 4
<MEAN> 39
 -3.889641e+000 -2.188305e+001 -2.753031e+000 -1.996958e+001 2.225694e+000 -1.052327e+001 -1.504458e+000 -5.531666e+000 -1.099944e+001 -7.722049e+000 -1.680617e+001 -3.728561e-002 7.627915e+001 5.503557e-001 2.513046e+000 7.490901e-001 -4.480266e-001 -1.562413e+000 -9.988937e-001 -9.749902e-001 3.268727e-001 6.078446e-001 6.862788e-002 -4.606684e-001 -9.919722e-001 -1.591124e+000 3.315832e-002 4.432878e-001 2.060238e-001 6.236916e-001 2.015681e-001 -2.148425e-003 -5.962734e-001 -3.729010e-001 -9.964751e-002 -2.092511e-002 4.624919e-001 -5.548755e-002 -4.680209e-001
<VARIANCE> 39
 1.200140e+001 3.262180e+001 1.832925e+001 5.153479e+001 4.626780e+001 4.113707e+001 6.317440e+001 4.622059e+001 4.091814e+001 3.605402e+001 3.581355e+001 3.647809e+001 2.018743e+001 7.992998e-001 1.679051e+000 1.465393e+000 4.961030e+000 2.919777e+000 3.705495e+000 4.356825e+000 3.649596e+000 2.860314e+000 3.733097e+000 3.535115e+000 2.785649e+000 1.559014e+000 1.542910e-001 3.918592e-001 2.424750e-001 7.132936e-001 5.766481e-001 8.126829e-001 7.045490e-001 7.578649e-001 6.832241e-001 8.018712e-001 4.930013e-001 4.327484e-001 1.484577e-001
<GCONST> 1.200305e+002
<TRANSP> 5
 0.000000e+000 1.000000e+000 0.000000e+000 0.000000e+000 0.000000e+000
 0.000000e+000 6.155595e-001 3.844405e-001 0.000000e+000 0.000000e+000
 0.000000e+000 0.000000e+000 8.834413e-001 1.165586e-001 0.000000e+000
 0.000000e+000 0.000000e+000 0.000000e+000 6.830989e-001 3.169011e-001
 0.000000e+000 0.000000e+000 0.000000e+000 0.000000e+000 0.000000e+000
<ENDHMM>
~h "aj"
<BEGINHMM>
<NUMSTATES> 5
<STATE> 2
<MEAN> 39
