~o
<STREAMINFO> 1 39
<VECSIZE> 39<NULLD><MFCC_D_A_0><DIAGC>
~h "proto"
<BEGINHMM>
<NUMSTATES> 5
<STATE> 2
<MEAN> 39
 -6.151181e+000 -7.650210e+000 -2.176539e+000 -1.458432e+001 -2.075203e+000 -7.919393e+000 -7.823057e+000 -4.673219e+000 -6.142118e+000 -4.860655e+000 -7.765187e+000 -1.880045e+000 6.220622e+001 1.014480e-003 3.867634e-003 -3.707502e-003 1.574908e-004 -1.748588e-003 -4.055263e-003 -5.141732e-004 1.465986e-003 1.039049e-003 -4.669966e-004 -3.715390e-003 -2.168984e-003 -4.125637e-003 -1.144807e-004 -3.917642e-004 2.740766e-004 -5.726836e-004 -2.571864e-004 3.195793e-004 3.356208e-004 7.708315e-005 -1.662573e-004 -1.674168e-004 2.361419e-004 2.184251e-004 2.375872e-004
<VARIANCE> 39
 3.893783e+001 8.828188e+001 5.245020e+001 1.143450e+002 7.548306e+001 6.829437e+001 9.601788e+001 4.985405e+001 7.622070e+001 5.960876e+001 6.250519e+001 5.099556e+001 1.670515e+002 1.963166e+000 3.256835e+000 2.111814e+000 4.906667e+000 3.744724e+000 3.429291e+000 4.156681e+000 3.734441e+000 3.675429e+000 3.920407e+000 3.623307e+000 3.038048e+000 3.398505e+000 3.106789e-001 4.415196e-001 3.350546e-001 7.307291e-001 6.470518e-001 5.990143e-001 7.066857e-001 6.887660e-001 6.551870e-001 6.901551e-001 6.528105e-001 5.514887e-001 3.909037e-001
<GCONST> 1.351091e+002
<STATE> 3
<MEAN> 39
 -6.151181e+000 -7.650210e+000 -2.176539e+000 -1.458432e+001 -2.075203e+000 -7.919393e+000 -7.823057e+000 -4.673219e+000 -6.142118e+000 -4.860655e+000 -7.765187e+000 -1.880045e+000 6.220622e+001 1.014480e-003 3.867634e-003 -3.707502e-003 1.574908e-004 -1.748588e-003 -4.055263e-003 -5.141732e-004 1.465986e-003 1.039049e-003 -4.669966e-004 -3.715390e-003 -2.168984e-003 -4.125637e-003 -1.144807e-004 -3.917642e-004 2.740766e-004 -5.726836e-004 -2.571864e-004 3.195793e-004 3.356208e-004 7.708315e-005 -1.662573e-004 -1.674168e-004 2.361419e-004 2.184251e-004 2.375872e-004
<VARIANCE> 39
 3.893783e+001 8.828188e+001 5.245020e+001 1.143450e+002 7.548306e+001 6.829437e+001 9.601788e+001 4.985405e+001 7.622070e+001 5.960876e+001 6.250519e+001 5.099556e+001 1.670515e+002 1.963166e+000 3.256835e+000 2.111814e+000 4.906667e+000 3.744724e+000 3.429291e+000 4.156681e+000 3.734441e+000 3.675429e+000 3.920407e+000 3.623307e+000 3.038048e+000 3.398505e+000 3.106789e-001 4.415196e-001 3.350546e-001 7.307291e-001 6.470518e-001 5.990143e-001 7.066857e-001 6.887660e-001 6.551870e-001 6.901551e-001 6.528105e-001 5.514887e-001 3.909037e-001
<GCONST> 1.351091e+002
<STATE> 4
<MEAN> 39
 -6.151181e+000 -7.650210e+000 -2.176539e+000 -1.458432e+001 -2.075203e+000 -7.919393e+000 -7.823057e+000 -4.673219e+000 -6.142118e+000 -4.860655e+000 -7.765187e+000 -1.880045e+000 6.220622e+001 1.014480e-003 3.867634e-003 -3.707502e-003 1.574908e-004 -1.748588e-003 -4.055263e-003 -5.141732e-004 1.465986e-003 1.039049e-003 -4.669966e-004 -3.715390e-003 -2.168984e-003 -4.125637e-003 -1.144807e-004 -3.917642e-004 2.740766e-004 -5.726836e-004 -2.571864e-004 3.195793e-004 3.356208e-004 7.708315e-005 -1.662573e-004 -1.674168e-004 2.361419e-004 2.184251e-004 2.375872e-004
<VARIANCE> 39
 3.893783e+001 8.828188e+001 5.245020e+001 1.143450e+002 7.548306e+001 6.829437e+001 9.601788e+001 4.985405e+001 7.622070e+001 5.960876e+001 6.250519e+001 5.099556e+001 1.670515e+002 1.963166e+000 3.256835e+000 2.111814e+000 4.906667e+000 3.744724e+000 3.429291e+000 4.156681e+000 3.734441e+000 3.675429e+000 3.920407e+000 3.623307e+000 3.038048e+000 3.398505e+000 3.106789e-001 4.415196e-001 3.350546e-001 7.307291e-001 6.470518e-001 5.990143e-001 7.066857e-001 6.887660e-001 6.551870e-001 6.901551e-001 6.528105e-001 5.514887e-001 3.909037e-001
<GCONST> 1.351091e+002
<TRANSP> 5
 0.000000e+000 1.000000e+000 0.000000e+000 0.000000e+000 0.000000e+000
 0.000000e+000 6.000000e-001 4.000000e-001 0.000000e+000 0.000000e+000
 0.000000e+000 0.000000e+000 6.000000e-001 4.000000e-001 0.000000e+000
 0.000000e+000 0.000000e+000 0.000000e+000 7.000000e-001 3.000000e-001
 0.000000e+000 0.000000e+000 0.000000e+000 0.000000e+000 0.000000e+000
<ENDHMM>
